<?xml version="1.0"?>
<PMML version="4.3" xmlns="http://www.dmg.org/PMML-4_3" xmlns:xsi="http://www.w3.org/2001/XMLSchema-instance" xsi:schemaLocation="http://www.dmg.org/PMML-4_3 http://www.dmg.org/pmml/v4-3/pmml-4-3.xsd">
 <Header copyright="Copyright (c) 2017 Syncfusion" description="Support Vector Machine PMML Model">
  <Extension name="user" value="Syncfusion" extender="Rattle/PMML"/>
  <Application name="Rattle/PMML" version="1.4"/>
  <Timestamp>2017-11-07 14:08:05</Timestamp>
 </Header>
 <DataDictionary numberOfFields="6">
  <DataField name="Survived" optype="categorical" dataType="string">
   <Value value="died"/>
   <Value value="survived"/>
  </DataField>
  <DataField name="Class" optype="categorical" dataType="string">
   <Value value="3rd"/>
   <Value value="1st"/>
   <Value value="2nd"/>
  </DataField>
  <DataField name="Sex" optype="categorical" dataType="string">
   <Value value="female"/>
   <Value value="male"/>
  </DataField>
  <DataField name="Age" optype="continuous" dataType="double"/>
  <DataField name="Siblings" optype="continuous" dataType="double"/>
  <DataField name="Children" optype="continuous" dataType="double"/>
 </DataDictionary>
 <SupportVectorMachineModel modelName="SVM_model" functionName="classification" algorithmName="supportVectorMachine" svmRepresentation="SupportVectors">
  <MiningSchema>
   <MiningField name="Survived" usageType="predicted"/>
   <MiningField name="Class" usageType="active"/>
   <MiningField name="Sex" usageType="active"/>
   <MiningField name="Age" usageType="active"/>
   <MiningField name="Siblings" usageType="active"/>
   <MiningField name="Children" usageType="active"/>
  </MiningSchema>
  <Output>
   <OutputField name="Predicted_Survived" feature="predictedValue"/>
   <OutputField name="Probability_died" optype="continuous" dataType="double" feature="probability" value="died"/>
   <OutputField name="Probability_survived" optype="continuous" dataType="double" feature="probability" value="survived"/>
  </Output>
  <LocalTransformations>
   <DerivedField name="derived_Class1st" optype="continuous" dataType="double">
    <NormDiscrete field="Class" value="1st"/>
   </DerivedField>
   <DerivedField name="derived_Class2nd" optype="continuous" dataType="double">
    <NormDiscrete field="Class" value="2nd"/>
   </DerivedField>
   <DerivedField name="derived_Class3rd" optype="continuous" dataType="double">
    <NormDiscrete field="Class" value="3rd"/>
   </DerivedField>
   <DerivedField name="derived_Sexfemale" optype="continuous" dataType="double">
    <NormDiscrete field="Sex" value="female"/>
   </DerivedField>
   <DerivedField name="derived_Sexmale" optype="continuous" dataType="double">
    <NormDiscrete field="Sex" value="male"/>
   </DerivedField>
   <DerivedField name="derived_Age" optype="continuous" dataType="double">
    <NormContinuous field="Age">
     <LinearNorm orig="0" norm="-2.11525007973181"/>
     <LinearNorm orig="29.6098485646077" norm="0"/>
    </NormContinuous>
   </DerivedField>
   <DerivedField name="derived_Siblings" optype="continuous" dataType="double">
    <NormContinuous field="Siblings">
     <LinearNorm orig="0" norm="-0.572423240484073"/>
     <LinearNorm orig="0.497607655502392" norm="0"/>
    </NormContinuous>
   </DerivedField>
   <DerivedField name="derived_Children" optype="continuous" dataType="double">
    <NormContinuous field="Children">
     <LinearNorm orig="0" norm="-0.502007575940174"/>
     <LinearNorm orig="0.423444976076555" norm="0"/>
    </NormContinuous>
   </DerivedField>
  </LocalTransformations>
  <RadialBasisKernelType gamma="0.374345526101558" description="Radial basis kernel type"/>
  <VectorDictionary numberOfVectors="430">
   <VectorFields numberOfFields="7">
    <FieldRef field="derived_Class1st"/>
    <FieldRef field="derived_Class2nd"/>
    <FieldRef field="derived_Class3rd"/>
    <FieldRef field="derived_Sexmale"/>
    <FieldRef field="derived_Age"/>
    <FieldRef field="derived_Siblings"/>
    <FieldRef field="derived_Children"/>
   </VectorFields>
   <VectorInstance id="1">
    <REAL-SparseArray n="7">
     <Indices>1 2 3 4 5 6 7 </Indices>
     <REAL-Entries>0 0 1 0 0.527933075335907 -0.572423240484073 -0.502007575940174 </REAL-Entries>
    </REAL-SparseArray>
   </VectorInstance>
   <VectorInstance id="2">
    <REAL-SparseArray n="7">
     <Indices>1 2 3 4 5 6 7 </Indices>
     <REAL-Entries>1 0 0 1 0.170746162488918 -0.572423240484073 -0.502007575940174 </REAL-Entries>
    </REAL-SparseArray>
   </VectorInstance>
   <VectorInstance id="3">
    <REAL-SparseArray n="7">
     <Indices>1 2 3 4 5 6 7 </Indices>
     <REAL-Entries>0 0 1 1 2.92108539141073 -0.572423240484073 -0.502007575940174 </REAL-Entries>
    </REAL-SparseArray>
   </VectorInstance>
   <VectorInstance id="4">
    <REAL-SparseArray n="7">
     <Indices>1 2 3 4 5 6 7 </Indices>
     <REAL-Entries>0 0 1 1 -0.900814576052049 -0.572423240484073 -0.502007575940174 </REAL-Entries>
    </REAL-SparseArray>
   </VectorInstance>
   <VectorInstance id="5">
    <REAL-SparseArray n="7">
     <Indices>1 2 3 4 5 6 7 </Indices>
     <REAL-Entries>0 0 1 1 0.0278713973501226 -0.572423240484073 -0.502007575940174 </REAL-Entries>
    </REAL-SparseArray>
   </VectorInstance>
   <VectorInstance id="6">
    <REAL-SparseArray n="7">
     <Indices>1 2 3 4 5 6 7 </Indices>
     <REAL-Entries>0 1 0 0 2.17099287443206 0.577927310104112 -0.502007575940174 </REAL-Entries>
    </REAL-SparseArray>
   </VectorInstance>
   <VectorInstance id="7">
    <REAL-SparseArray n="7">
     <Indices>1 2 3 4 5 6 7 </Indices>
     <REAL-Entries>1 0 0 0 0.385058310197112 -0.572423240484073 -0.502007575940174 </REAL-Entries>
    </REAL-SparseArray>
   </VectorInstance>
   <VectorInstance id="8">
    <REAL-SparseArray n="7">
     <Indices>1 2 3 4 5 6 7 </Indices>
     <REAL-Entries>0 0 1 1 0.170746162488918 -0.572423240484073 -0.502007575940174 </REAL-Entries>
    </REAL-SparseArray>
   </VectorInstance>
   <VectorInstance id="9">
    <REAL-SparseArray n="7">
     <Indices>1 2 3 4 5 6 7 </Indices>
     <REAL-Entries>0 0 1 1 0.813682605613498 1.7282778606923 -0.502007575940174 </REAL-Entries>
    </REAL-SparseArray>
   </VectorInstance>
   <VectorInstance id="10">
    <REAL-SparseArray n="7">
     <Indices>1 2 3 4 5 6 7 </Indices>
     <REAL-Entries>0 1 0 0 1.74236857901567 0.577927310104112 3.05458847055123 </REAL-Entries>
    </REAL-SparseArray>
   </VectorInstance>
   <VectorInstance id="11">
    <REAL-SparseArray n="7">
     <Indices>1 2 3 4 5 6 7 </Indices>
     <REAL-Entries>0 0 1 0 -0.400752898066264 -0.572423240484073 -0.502007575940174 </REAL-Entries>
    </REAL-SparseArray>
   </VectorInstance>
   <VectorInstance id="12">
    <REAL-SparseArray n="7">
     <Indices>1 2 3 4 5 6 7 </Indices>
     <REAL-Entries>0 1 0 1 0.456495692766509 0.577927310104112 1.8690564550541 </REAL-Entries>
    </REAL-SparseArray>
   </VectorInstance>
   <VectorInstance id="13">
    <REAL-SparseArray n="7">
     <Indices>1 2 3 4 5 6 7 </Indices>
     <REAL-Entries>0 0 1 1 -2.08548212198652 -0.572423240484073 0.68352443955696 </REAL-Entries>
    </REAL-SparseArray>
   </VectorInstance>
   <VectorInstance id="14">
    <REAL-SparseArray n="7">
     <Indices>1 2 3 4 5 6 7 </Indices>
     <REAL-Entries>0 0 1 0 0.0278713973501226 -0.572423240484073 -0.502007575940174 </REAL-Entries>
    </REAL-SparseArray>
   </VectorInstance>
   <VectorInstance id="15">
    <REAL-SparseArray n="7">
     <Indices>1 2 3 4 5 6 7 </Indices>
     <REAL-Entries>0 1 0 1 0.492214384051208 -0.572423240484073 1.8690564550541 </REAL-Entries>
    </REAL-SparseArray>
   </VectorInstance>
   <VectorInstance id="16">
    <REAL-SparseArray n="7">
     <Indices>1 2 3 4 5 6 7 </Indices>
     <REAL-Entries>0 0 1 0 -1.47231363660723 0.577927310104112 0.68352443955696 </REAL-Entries>
    </REAL-SparseArray>
   </VectorInstance>
   <VectorInstance id="17">
    <REAL-SparseArray n="7">
     <Indices>1 2 3 4 5 6 7 </Indices>
     <REAL-Entries>0 1 0 1 -0.757939810913253 -0.572423240484073 -0.502007575940174 </REAL-Entries>
    </REAL-SparseArray>
   </VectorInstance>
   <VectorInstance id="18">
    <REAL-SparseArray n="7">
     <Indices>1 2 3 4 5 6 7 </Indices>
     <REAL-Entries>0 0 1 1 -0.400752898066264 -0.572423240484073 -0.502007575940174 </REAL-Entries>
    </REAL-SparseArray>
   </VectorInstance>
   <VectorInstance id="19">
    <REAL-SparseArray n="7">
     <Indices>1 2 3 4 5 6 7 </Indices>
     <REAL-Entries>0 1 0 1 -0.900814576052049 -0.572423240484073 -0.502007575940174 </REAL-Entries>
    </REAL-SparseArray>
   </VectorInstance>
   <VectorInstance id="20">
    <REAL-SparseArray n="7">
     <Indices>1 2 3 4 5 6 7 </Indices>
     <REAL-Entries>1 0 0 1 1.38518166616868 -0.572423240484073 -0.502007575940174 </REAL-Entries>
    </REAL-SparseArray>
   </VectorInstance>
   <VectorInstance id="21">
    <REAL-SparseArray n="7">
     <Indices>1 2 3 4 5 6 7 </Indices>
     <REAL-Entries>0 1 0 0 0.885119988182896 0.577927310104112 -0.502007575940174 </REAL-Entries>
    </REAL-SparseArray>
   </VectorInstance>
   <VectorInstance id="22">
    <REAL-SparseArray n="7">
     <Indices>1 2 3 4 5 6 7 </Indices>
     <REAL-Entries>0 0 1 1 -0.0435659852192752 -0.572423240484073 -0.502007575940174 </REAL-Entries>
    </REAL-SparseArray>
   </VectorInstance>
   <VectorInstance id="23">
    <REAL-SparseArray n="7">
     <Indices>1 2 3 4 5 6 7 </Indices>
     <REAL-Entries>1 0 0 1 0.0278713973501226 -0.572423240484073 -0.502007575940174 </REAL-Entries>
    </REAL-SparseArray>
   </VectorInstance>
   <VectorInstance id="24">
    <REAL-SparseArray n="7">
     <Indices>1 2 3 4 5 6 7 </Indices>
     <REAL-Entries>0 1 0 0 1.95668072672386 -0.572423240484073 -0.502007575940174 </REAL-Entries>
    </REAL-SparseArray>
   </VectorInstance>
   <VectorInstance id="25">
    <REAL-SparseArray n="7">
     <Indices>1 2 3 4 5 6 7 </Indices>
     <REAL-Entries>0 0 1 1 -0.257878132927469 -0.572423240484073 -0.502007575940174 </REAL-Entries>
    </REAL-SparseArray>
   </VectorInstance>
   <VectorInstance id="26">
    <REAL-SparseArray n="7">
     <Indices>1 2 3 4 5 6 7 </Indices>
     <REAL-Entries>0 0 1 0 -0.972251958621447 -0.572423240484073 -0.502007575940174 </REAL-Entries>
    </REAL-SparseArray>
   </VectorInstance>
   <VectorInstance id="27">
    <REAL-SparseArray n="7">
     <Indices>1 2 3 4 5 6 7 </Indices>
     <REAL-Entries>0 1 0 1 -1.54375101917663 0.577927310104112 0.68352443955696 </REAL-Entries>
    </REAL-SparseArray>
   </VectorInstance>
   <VectorInstance id="28">
    <REAL-SparseArray n="7">
     <Indices>1 2 3 4 5 6 7 </Indices>
     <REAL-Entries>0 1 0 0 -0.257878132927469 0.577927310104112 0.68352443955696 </REAL-Entries>
    </REAL-SparseArray>
   </VectorInstance>
   <VectorInstance id="29">
    <REAL-SparseArray n="7">
     <Indices>1 2 3 4 5 6 7 </Indices>
     <REAL-Entries>0 0 1 1 -1.82950054945422 4.02897896186867 1.8690564550541 </REAL-Entries>
    </REAL-SparseArray>
   </VectorInstance>
   <VectorInstance id="30">
    <REAL-SparseArray n="7">
     <Indices>1 2 3 4 5 6 7 </Indices>
     <REAL-Entries>1 0 0 1 0.885119988182896 0.577927310104112 -0.502007575940174 </REAL-Entries>
    </REAL-SparseArray>
   </VectorInstance>
   <VectorInstance id="31">
    <REAL-SparseArray n="7">
     <Indices>1 2 3 4 5 6 7 </Indices>
     <REAL-Entries>0 0 1 0 -0.54362766320506 0.577927310104112 0.68352443955696 </REAL-Entries>
    </REAL-SparseArray>
   </VectorInstance>
   <VectorInstance id="32">
    <REAL-SparseArray n="7">
     <Indices>1 2 3 4 5 6 7 </Indices>
     <REAL-Entries>0 0 1 0 -0.900814576052049 -0.572423240484073 -0.502007575940174 </REAL-Entries>
    </REAL-SparseArray>
   </VectorInstance>
   <VectorInstance id="33">
    <REAL-SparseArray n="7">
     <Indices>1 2 3 4 5 6 7 </Indices>
     <REAL-Entries>0 0 1 1 -0.329315515496866 -0.572423240484073 -0.502007575940174 </REAL-Entries>
    </REAL-SparseArray>
   </VectorInstance>
   <VectorInstance id="34">
    <REAL-SparseArray n="7">
     <Indices>1 2 3 4 5 6 7 </Indices>
     <REAL-Entries>1 0 0 1 1.09943213589109 -0.572423240484073 -0.502007575940174 </REAL-Entries>
    </REAL-SparseArray>
   </VectorInstance>
   <VectorInstance id="35">
    <REAL-SparseArray n="7">
     <Indices>1 2 3 4 5 6 7 </Indices>
     <REAL-Entries>0 1 0 1 1.17086951846049 -0.572423240484073 -0.502007575940174 </REAL-Entries>
    </REAL-SparseArray>
   </VectorInstance>
   <VectorInstance id="36">
    <REAL-SparseArray n="7">
     <Indices>1 2 3 4 5 6 7 </Indices>
     <REAL-Entries>0 0 1 0 -0.829377193482651 -0.572423240484073 0.68352443955696 </REAL-Entries>
    </REAL-SparseArray>
   </VectorInstance>
   <VectorInstance id="37">
    <REAL-SparseArray n="7">
     <Indices>1 2 3 4 5 6 7 </Indices>
     <REAL-Entries>1 0 0 1 2.02811810929326 -0.572423240484073 1.8690564550541 </REAL-Entries>
    </REAL-SparseArray>
   </VectorInstance>
   <VectorInstance id="38">
    <REAL-SparseArray n="7">
     <Indices>1 2 3 4 5 6 7 </Indices>
     <REAL-Entries>0 0 1 0 -0.757939810913253 0.577927310104112 -0.502007575940174 </REAL-Entries>
    </REAL-SparseArray>
   </VectorInstance>
   <VectorInstance id="39">
    <REAL-SparseArray n="7">
     <Indices>1 2 3 4 5 6 7 </Indices>
     <REAL-Entries>1 0 0 1 0.242183545058316 -0.572423240484073 -0.502007575940174 </REAL-Entries>
    </REAL-SparseArray>
   </VectorInstance>
   <VectorInstance id="40">
    <REAL-SparseArray n="7">
     <Indices>1 2 3 4 5 6 7 </Indices>
     <REAL-Entries>0 1 0 1 2.88536670012603 -0.572423240484073 -0.502007575940174 </REAL-Entries>
    </REAL-SparseArray>
   </VectorInstance>
   <VectorInstance id="41">
    <REAL-SparseArray n="7">
     <Indices>1 2 3 4 5 6 7 </Indices>
     <REAL-Entries>0 0 1 1 -0.54362766320506 -0.572423240484073 -0.502007575940174 </REAL-Entries>
    </REAL-SparseArray>
   </VectorInstance>
   <VectorInstance id="42">
    <REAL-SparseArray n="7">
     <Indices>1 2 3 4 5 6 7 </Indices>
     <REAL-Entries>0 0 1 1 -0.54362766320506 -0.572423240484073 -0.502007575940174 </REAL-Entries>
    </REAL-SparseArray>
   </VectorInstance>
   <VectorInstance id="43">
    <REAL-SparseArray n="7">
     <Indices>1 2 3 4 5 6 7 </Indices>
     <REAL-Entries>0 1 0 0 -0.400752898066264 1.7282778606923 3.05458847055123 </REAL-Entries>
    </REAL-SparseArray>
   </VectorInstance>
   <VectorInstance id="44">
    <REAL-SparseArray n="7">
     <Indices>1 2 3 4 5 6 7 </Indices>
     <REAL-Entries>0 0 1 0 0.599370457905305 0.577927310104112 5.4256525015455 </REAL-Entries>
    </REAL-SparseArray>
   </VectorInstance>
   <VectorInstance id="45">
    <REAL-SparseArray n="7">
     <Indices>1 2 3 4 5 6 7 </Indices>
     <REAL-Entries>1 0 0 1 0.385058310197112 -0.572423240484073 -0.502007575940174 </REAL-Entries>
    </REAL-SparseArray>
   </VectorInstance>
   <VectorInstance id="46">
    <REAL-SparseArray n="7">
     <Indices>1 2 3 4 5 6 7 </Indices>
     <REAL-Entries>0 0 1 1 -0.686502428343855 0.577927310104112 0.68352443955696 </REAL-Entries>
    </REAL-SparseArray>
   </VectorInstance>
   <VectorInstance id="47">
    <REAL-SparseArray n="7">
     <Indices>1 2 3 4 5 6 7 </Indices>
     <REAL-Entries>1 0 0 1 0.456495692766509 -0.572423240484073 0.68352443955696 </REAL-Entries>
    </REAL-SparseArray>
   </VectorInstance>
   <VectorInstance id="48">
    <REAL-SparseArray n="7">
     <Indices>1 2 3 4 5 6 7 </Indices>
     <REAL-Entries>1 0 0 1 -0.115003367788673 -0.572423240484073 -0.502007575940174 </REAL-Entries>
    </REAL-SparseArray>
   </VectorInstance>
   <VectorInstance id="49">
    <REAL-SparseArray n="7">
     <Indices>1 2 3 4 5 6 7 </Indices>
     <REAL-Entries>0 0 1 0 -1.40087625403783 -0.572423240484073 1.8690564550541 </REAL-Entries>
    </REAL-SparseArray>
   </VectorInstance>
   <VectorInstance id="50">
    <REAL-SparseArray n="7">
     <Indices>1 2 3 4 5 6 7 </Indices>
     <REAL-Entries>0 0 1 1 -1.68662578431542 0.577927310104112 0.68352443955696 </REAL-Entries>
    </REAL-SparseArray>
   </VectorInstance>
   <VectorInstance id="51">
    <REAL-SparseArray n="7">
     <Indices>1 2 3 4 5 6 7 </Indices>
     <REAL-Entries>0 0 1 0 -0.186440750358071 -0.572423240484073 -0.502007575940174 </REAL-Entries>
    </REAL-SparseArray>
   </VectorInstance>
   <VectorInstance id="52">
    <REAL-SparseArray n="7">
     <Indices>1 2 3 4 5 6 7 </Indices>
     <REAL-Entries>1 0 0 1 0.670807840474703 -0.572423240484073 -0.502007575940174 </REAL-Entries>
    </REAL-SparseArray>
   </VectorInstance>
   <VectorInstance id="53">
    <REAL-SparseArray n="7">
     <Indices>1 2 3 4 5 6 7 </Indices>
     <REAL-Entries>0 0 1 0 0.456495692766509 -0.572423240484073 1.8690564550541 </REAL-Entries>
    </REAL-SparseArray>
   </VectorInstance>
   <VectorInstance id="54">
    <REAL-SparseArray n="7">
     <Indices>1 2 3 4 5 6 7 </Indices>
     <REAL-Entries>1 0 0 1 1.09943213589109 -0.572423240484073 -0.502007575940174 </REAL-Entries>
    </REAL-SparseArray>
   </VectorInstance>
   <VectorInstance id="55">
    <REAL-SparseArray n="7">
     <Indices>1 2 3 4 5 6 7 </Indices>
     <REAL-Entries>1 0 0 1 -1.32943887146844 0.577927310104112 1.8690564550541 </REAL-Entries>
    </REAL-SparseArray>
   </VectorInstance>
   <VectorInstance id="56">
    <REAL-SparseArray n="7">
     <Indices>1 2 3 4 5 6 7 </Indices>
     <REAL-Entries>0 0 1 1 1.09943213589109 -0.572423240484073 -0.502007575940174 </REAL-Entries>
    </REAL-SparseArray>
   </VectorInstance>
   <VectorInstance id="57">
    <REAL-SparseArray n="7">
     <Indices>1 2 3 4 5 6 7 </Indices>
     <REAL-Entries>0 0 1 1 -0.900814576052049 -0.572423240484073 -0.502007575940174 </REAL-Entries>
    </REAL-SparseArray>
   </VectorInstance>
   <VectorInstance id="58">
    <REAL-SparseArray n="7">
     <Indices>1 2 3 4 5 6 7 </Indices>
     <REAL-Entries>0 0 1 1 -1.68662578431542 -0.572423240484073 0.68352443955696 </REAL-Entries>
    </REAL-SparseArray>
   </VectorInstance>
   <VectorInstance id="59">
    <REAL-SparseArray n="7">
     <Indices>1 2 3 4 5 6 7 </Indices>
     <REAL-Entries>0 1 0 0 -0.900814576052049 -0.572423240484073 -0.502007575940174 </REAL-Entries>
    </REAL-SparseArray>
   </VectorInstance>
   <VectorInstance id="60">
    <REAL-SparseArray n="7">
     <Indices>1 2 3 4 5 6 7 </Indices>
     <REAL-Entries>0 0 1 0 -1.97237531459302 -0.572423240484073 0.68352443955696 </REAL-Entries>
    </REAL-SparseArray>
   </VectorInstance>
   <VectorInstance id="61">
    <REAL-SparseArray n="7">
     <Indices>1 2 3 4 5 6 7 </Indices>
     <REAL-Entries>1 0 0 1 0.7422452230441 -0.572423240484073 -0.502007575940174 </REAL-Entries>
    </REAL-SparseArray>
   </VectorInstance>
   <VectorInstance id="62">
    <REAL-SparseArray n="7">
     <Indices>1 2 3 4 5 6 7 </Indices>
     <REAL-Entries>1 0 0 0 3.31399099554242 0.577927310104112 -0.502007575940174 </REAL-Entries>
    </REAL-SparseArray>
   </VectorInstance>
   <VectorInstance id="63">
    <REAL-SparseArray n="7">
     <Indices>1 2 3 4 5 6 7 </Indices>
     <REAL-Entries>0 0 1 1 0.0993087799195203 2.87862841128048 -0.502007575940174 </REAL-Entries>
    </REAL-SparseArray>
   </VectorInstance>
   <VectorInstance id="64">
    <REAL-SparseArray n="7">
     <Indices>1 2 3 4 5 6 7 </Indices>
     <REAL-Entries>1 0 0 1 0.456495692766509 -0.572423240484073 -0.502007575940174 </REAL-Entries>
    </REAL-SparseArray>
   </VectorInstance>
   <VectorInstance id="65">
    <REAL-SparseArray n="7">
     <Indices>1 2 3 4 5 6 7 </Indices>
     <REAL-Entries>1 0 0 0 2.02811810929326 -0.572423240484073 -0.502007575940174 </REAL-Entries>
    </REAL-SparseArray>
   </VectorInstance>
   <VectorInstance id="66">
    <REAL-SparseArray n="7">
     <Indices>1 2 3 4 5 6 7 </Indices>
     <REAL-Entries>0 0 1 0 -0.54362766320506 -0.572423240484073 -0.502007575940174 </REAL-Entries>
    </REAL-SparseArray>
   </VectorInstance>
   <VectorInstance id="67">
    <REAL-SparseArray n="7">
     <Indices>1 2 3 4 5 6 7 </Indices>
     <REAL-Entries>0 1 0 1 0.313620927627714 -0.572423240484073 -0.502007575940174 </REAL-Entries>
    </REAL-SparseArray>
   </VectorInstance>
   <VectorInstance id="68">
    <REAL-SparseArray n="7">
     <Indices>1 2 3 4 5 6 7 </Indices>
     <REAL-Entries>0 1 0 1 -0.54362766320506 -0.572423240484073 -0.502007575940174 </REAL-Entries>
    </REAL-SparseArray>
   </VectorInstance>
   <VectorInstance id="69">
    <REAL-SparseArray n="7">
     <Indices>1 2 3 4 5 6 7 </Indices>
     <REAL-Entries>0 1 0 0 1.09943213589109 -0.572423240484073 -0.502007575940174 </REAL-Entries>
    </REAL-SparseArray>
   </VectorInstance>
   <VectorInstance id="70">
    <REAL-SparseArray n="7">
     <Indices>1 2 3 4 5 6 7 </Indices>
     <REAL-Entries>0 0 1 1 -1.04368934119084 0.577927310104112 0.68352443955696 </REAL-Entries>
    </REAL-SparseArray>
   </VectorInstance>
   <VectorInstance id="71">
    <REAL-SparseArray n="7">
     <Indices>1 2 3 4 5 6 7 </Indices>
     <REAL-Entries>0 0 1 1 0.170746162488918 -0.572423240484073 -0.502007575940174 </REAL-Entries>
    </REAL-SparseArray>
   </VectorInstance>
   <VectorInstance id="72">
    <REAL-SparseArray n="7">
     <Indices>1 2 3 4 5 6 7 </Indices>
     <REAL-Entries>1 0 0 1 -0.0435659852192752 -0.572423240484073 -0.502007575940174 </REAL-Entries>
    </REAL-SparseArray>
   </VectorInstance>
   <VectorInstance id="73">
    <REAL-SparseArray n="7">
     <Indices>1 2 3 4 5 6 7 </Indices>
     <REAL-Entries>0 0 1 1 -0.186440750358071 -0.572423240484073 -0.502007575940174 </REAL-Entries>
    </REAL-SparseArray>
   </VectorInstance>
   <VectorInstance id="74">
    <REAL-SparseArray n="7">
     <Indices>1 2 3 4 5 6 7 </Indices>
     <REAL-Entries>0 0 1 0 -0.615065045774458 1.7282778606923 1.8690564550541 </REAL-Entries>
    </REAL-SparseArray>
   </VectorInstance>
   <VectorInstance id="75">
    <REAL-SparseArray n="7">
     <Indices>1 2 3 4 5 6 7 </Indices>
     <REAL-Entries>0 0 1 1 -1.18656410632964 -0.572423240484073 1.8690564550541 </REAL-Entries>
    </REAL-SparseArray>
   </VectorInstance>
   <VectorInstance id="76">
    <REAL-SparseArray n="7">
     <Indices>1 2 3 4 5 6 7 </Indices>
     <REAL-Entries>0 0 1 1 -0.686502428343855 -0.572423240484073 -0.502007575940174 </REAL-Entries>
    </REAL-SparseArray>
   </VectorInstance>
   <VectorInstance id="77">
    <REAL-SparseArray n="7">
     <Indices>1 2 3 4 5 6 7 </Indices>
     <REAL-Entries>1 0 0 1 1.45661904873808 0.577927310104112 -0.502007575940174 </REAL-Entries>
    </REAL-SparseArray>
   </VectorInstance>
   <VectorInstance id="78">
    <REAL-SparseArray n="7">
     <Indices>1 2 3 4 5 6 7 </Indices>
     <REAL-Entries>0 1 0 0 -0.115003367788673 -0.572423240484073 -0.502007575940174 </REAL-Entries>
    </REAL-SparseArray>
   </VectorInstance>
   <VectorInstance id="79">
    <REAL-SparseArray n="7">
     <Indices>1 2 3 4 5 6 7 </Indices>
     <REAL-Entries>0 0 1 0 1.09943213589109 -0.572423240484073 -0.502007575940174 </REAL-Entries>
    </REAL-SparseArray>
   </VectorInstance>
   <VectorInstance id="80">
    <REAL-SparseArray n="7">
     <Indices>1 2 3 4 5 6 7 </Indices>
     <REAL-Entries>0 0 1 0 -0.472190280635662 -0.572423240484073 -0.502007575940174 </REAL-Entries>
    </REAL-SparseArray>
   </VectorInstance>
   <VectorInstance id="81">
    <REAL-SparseArray n="7">
     <Indices>1 2 3 4 5 6 7 </Indices>
     <REAL-Entries>0 1 0 1 0.313620927627714 -0.572423240484073 -0.502007575940174 </REAL-Entries>
    </REAL-SparseArray>
   </VectorInstance>
   <VectorInstance id="82">
    <REAL-SparseArray n="7">
     <Indices>1 2 3 4 5 6 7 </Indices>
     <REAL-Entries>0 0 1 0 -0.186440750358071 0.577927310104112 -0.502007575940174 </REAL-Entries>
    </REAL-SparseArray>
   </VectorInstance>
   <VectorInstance id="83">
    <REAL-SparseArray n="7">
     <Indices>1 2 3 4 5 6 7 </Indices>
     <REAL-Entries>0 0 1 0 0.385058310197112 -0.572423240484073 -0.502007575940174 </REAL-Entries>
    </REAL-SparseArray>
   </VectorInstance>
   <VectorInstance id="84">
    <REAL-SparseArray n="7">
     <Indices>1 2 3 4 5 6 7 </Indices>
     <REAL-Entries>0 0 1 0 0.0278713973501226 0.577927310104112 -0.502007575940174 </REAL-Entries>
    </REAL-SparseArray>
   </VectorInstance>
   <VectorInstance id="85">
    <REAL-SparseArray n="7">
     <Indices>1 2 3 4 5 6 7 </Indices>
     <REAL-Entries>0 0 1 0 1.09943213589109 -0.572423240484073 -0.502007575940174 </REAL-Entries>
    </REAL-SparseArray>
   </VectorInstance>
   <VectorInstance id="86">
    <REAL-SparseArray n="7">
     <Indices>1 2 3 4 5 6 7 </Indices>
     <REAL-Entries>0 0 1 1 -0.900814576052049 -0.572423240484073 -0.502007575940174 </REAL-Entries>
    </REAL-SparseArray>
   </VectorInstance>
   <VectorInstance id="87">
    <REAL-SparseArray n="7">
     <Indices>1 2 3 4 5 6 7 </Indices>
     <REAL-Entries>1 0 0 0 -0.186440750358071 0.577927310104112 0.68352443955696 </REAL-Entries>
    </REAL-SparseArray>
   </VectorInstance>
   <VectorInstance id="88">
    <REAL-SparseArray n="7">
     <Indices>1 2 3 4 5 6 7 </Indices>
     <REAL-Entries>0 0 1 0 -0.0435659852192752 -0.572423240484073 4.24012048604837 </REAL-Entries>
    </REAL-SparseArray>
   </VectorInstance>
   <VectorInstance id="89">
    <REAL-SparseArray n="7">
     <Indices>1 2 3 4 5 6 7 </Indices>
     <REAL-Entries>0 0 1 1 -2.09144000055006 -0.572423240484073 1.8690564550541 </REAL-Entries>
    </REAL-SparseArray>
   </VectorInstance>
   <VectorInstance id="90">
    <REAL-SparseArray n="7">
     <Indices>1 2 3 4 5 6 7 </Indices>
     <REAL-Entries>0 0 1 1 -0.972251958621447 0.577927310104112 3.05458847055123 </REAL-Entries>
    </REAL-SparseArray>
   </VectorInstance>
   <VectorInstance id="91">
    <REAL-SparseArray n="7">
     <Indices>1 2 3 4 5 6 7 </Indices>
     <REAL-Entries>1 0 0 1 0.527933075335907 -0.572423240484073 0.68352443955696 </REAL-Entries>
    </REAL-SparseArray>
   </VectorInstance>
   <VectorInstance id="92">
    <REAL-SparseArray n="7">
     <Indices>1 2 3 4 5 6 7 </Indices>
     <REAL-Entries>0 0 1 0 -1.97237531459302 0.577927310104112 0.68352443955696 </REAL-Entries>
    </REAL-SparseArray>
   </VectorInstance>
   <VectorInstance id="93">
    <REAL-SparseArray n="7">
     <Indices>1 2 3 4 5 6 7 </Indices>
     <REAL-Entries>0 0 1 0 -0.329315515496866 0.577927310104112 -0.502007575940174 </REAL-Entries>
    </REAL-SparseArray>
   </VectorInstance>
   <VectorInstance id="94">
    <REAL-SparseArray n="7">
     <Indices>1 2 3 4 5 6 7 </Indices>
     <REAL-Entries>1 0 0 1 0.956557370752294 0.577927310104112 -0.502007575940174 </REAL-Entries>
    </REAL-SparseArray>
   </VectorInstance>
   <VectorInstance id="95">
    <REAL-SparseArray n="7">
     <Indices>1 2 3 4 5 6 7 </Indices>
     <REAL-Entries>0 0 1 1 -0.257878132927469 -0.572423240484073 -0.502007575940174 </REAL-Entries>
    </REAL-SparseArray>
   </VectorInstance>
   <VectorInstance id="96">
    <REAL-SparseArray n="7">
     <Indices>1 2 3 4 5 6 7 </Indices>
     <REAL-Entries>0 1 0 1 -0.757939810913253 0.577927310104112 0.68352443955696 </REAL-Entries>
    </REAL-SparseArray>
   </VectorInstance>
   <VectorInstance id="97">
    <REAL-SparseArray n="7">
     <Indices>1 2 3 4 5 6 7 </Indices>
     <REAL-Entries>0 1 0 1 -0.329315515496866 0.577927310104112 1.8690564550541 </REAL-Entries>
    </REAL-SparseArray>
   </VectorInstance>
   <VectorInstance id="98">
    <REAL-SparseArray n="7">
     <Indices>1 2 3 4 5 6 7 </Indices>
     <REAL-Entries>0 0 1 0 -0.257878132927469 -0.572423240484073 1.8690564550541 </REAL-Entries>
    </REAL-SparseArray>
   </VectorInstance>
   <VectorInstance id="99">
    <REAL-SparseArray n="7">
     <Indices>1 2 3 4 5 6 7 </Indices>
     <REAL-Entries>0 0 1 1 -0.0435659852192752 -0.572423240484073 -0.502007575940174 </REAL-Entries>
    </REAL-SparseArray>
   </VectorInstance>
   <VectorInstance id="100">
    <REAL-SparseArray n="7">
     <Indices>1 2 3 4 5 6 7 </Indices>
     <REAL-Entries>1 0 0 0 2.02811810929326 -0.572423240484073 0.68352443955696 </REAL-Entries>
    </REAL-SparseArray>
   </VectorInstance>
   <VectorInstance id="101">
    <REAL-SparseArray n="7">
     <Indices>1 2 3 4 5 6 7 </Indices>
     <REAL-Entries>1 0 0 1 1.38518166616868 0.577927310104112 -0.502007575940174 </REAL-Entries>
    </REAL-SparseArray>
   </VectorInstance>
   <VectorInstance id="102">
    <REAL-SparseArray n="7">
     <Indices>1 2 3 4 5 6 7 </Indices>
     <REAL-Entries>0 0 1 1 1.45661904873808 0.577927310104112 -0.502007575940174 </REAL-Entries>
    </REAL-SparseArray>
   </VectorInstance>
   <VectorInstance id="103">
    <REAL-SparseArray n="7">
     <Indices>1 2 3 4 5 6 7 </Indices>
     <REAL-Entries>0 0 1 1 -0.829377193482651 1.7282778606923 1.8690564550541 </REAL-Entries>
    </REAL-SparseArray>
   </VectorInstance>
   <VectorInstance id="104">
    <REAL-SparseArray n="7">
     <Indices>1 2 3 4 5 6 7 </Indices>
     <REAL-Entries>0 0 1 0 -1.18656410632964 -0.572423240484073 -0.502007575940174 </REAL-Entries>
    </REAL-SparseArray>
   </VectorInstance>
   <VectorInstance id="105">
    <REAL-SparseArray n="7">
     <Indices>1 2 3 4 5 6 7 </Indices>
     <REAL-Entries>0 0 1 0 0.0278713973501226 -0.572423240484073 -0.502007575940174 </REAL-Entries>
    </REAL-SparseArray>
   </VectorInstance>
   <VectorInstance id="106">
    <REAL-SparseArray n="7">
     <Indices>1 2 3 4 5 6 7 </Indices>
     <REAL-Entries>1 0 0 1 0.456495692766509 0.577927310104112 1.8690564550541 </REAL-Entries>
    </REAL-SparseArray>
   </VectorInstance>
   <VectorInstance id="107">
    <REAL-SparseArray n="7">
     <Indices>1 2 3 4 5 6 7 </Indices>
     <REAL-Entries>0 0 1 0 -0.0435659852192752 -0.572423240484073 -0.502007575940174 </REAL-Entries>
    </REAL-SparseArray>
   </VectorInstance>
   <VectorInstance id="108">
    <REAL-SparseArray n="7">
     <Indices>1 2 3 4 5 6 7 </Indices>
     <REAL-Entries>0 0 1 1 -0.0435659852192752 -0.572423240484073 -0.502007575940174 </REAL-Entries>
    </REAL-SparseArray>
   </VectorInstance>
   <VectorInstance id="109">
    <REAL-SparseArray n="7">
     <Indices>1 2 3 4 5 6 7 </Indices>
     <REAL-Entries>0 0 1 0 -0.829377193482651 1.7282778606923 -0.502007575940174 </REAL-Entries>
    </REAL-SparseArray>
   </VectorInstance>
   <VectorInstance id="110">
    <REAL-SparseArray n="7">
     <Indices>1 2 3 4 5 6 7 </Indices>
     <REAL-Entries>0 0 1 1 0.170746162488918 -0.572423240484073 -0.502007575940174 </REAL-Entries>
    </REAL-SparseArray>
   </VectorInstance>
   <VectorInstance id="111">
    <REAL-SparseArray n="7">
     <Indices>1 2 3 4 5 6 7 </Indices>
     <REAL-Entries>0 0 1 1 -0.0435659852192752 -0.572423240484073 -0.502007575940174 </REAL-Entries>
    </REAL-SparseArray>
   </VectorInstance>
   <VectorInstance id="112">
    <REAL-SparseArray n="7">
     <Indices>1 2 3 4 5 6 7 </Indices>
     <REAL-Entries>0 1 0 1 0.527933075335907 0.577927310104112 -0.502007575940174 </REAL-Entries>
    </REAL-SparseArray>
   </VectorInstance>
   <VectorInstance id="113">
    <REAL-SparseArray n="7">
     <Indices>1 2 3 4 5 6 7 </Indices>
     <REAL-Entries>0 0 1 1 -1.90093793202362 4.02897896186867 1.8690564550541 </REAL-Entries>
    </REAL-SparseArray>
   </VectorInstance>
   <VectorInstance id="114">
    <REAL-SparseArray n="7">
     <Indices>1 2 3 4 5 6 7 </Indices>
     <REAL-Entries>0 0 1 1 -0.829377193482651 -0.572423240484073 -0.502007575940174 </REAL-Entries>
    </REAL-SparseArray>
   </VectorInstance>
   <VectorInstance id="115">
    <REAL-SparseArray n="7">
     <Indices>1 2 3 4 5 6 7 </Indices>
     <REAL-Entries>0 1 0 0 -0.900814576052049 -0.572423240484073 -0.502007575940174 </REAL-Entries>
    </REAL-SparseArray>
   </VectorInstance>
   <VectorInstance id="116">
    <REAL-SparseArray n="7">
     <Indices>1 2 3 4 5 6 7 </Indices>
     <REAL-Entries>1 0 0 1 0.7422452230441 -0.572423240484073 -0.502007575940174 </REAL-Entries>
    </REAL-SparseArray>
   </VectorInstance>
   <VectorInstance id="117">
    <REAL-SparseArray n="7">
     <Indices>1 2 3 4 5 6 7 </Indices>
     <REAL-Entries>0 0 1 1 -0.972251958621447 -0.572423240484073 -0.502007575940174 </REAL-Entries>
    </REAL-SparseArray>
   </VectorInstance>
   <VectorInstance id="118">
    <REAL-SparseArray n="7">
     <Indices>1 2 3 4 5 6 7 </Indices>
     <REAL-Entries>0 0 1 0 -0.829377193482651 -0.572423240484073 -0.502007575940174 </REAL-Entries>
    </REAL-SparseArray>
   </VectorInstance>
   <VectorInstance id="119">
    <REAL-SparseArray n="7">
     <Indices>1 2 3 4 5 6 7 </Indices>
     <REAL-Entries>1 0 0 1 1.17086951846049 -0.572423240484073 -0.502007575940174 </REAL-Entries>
    </REAL-SparseArray>
   </VectorInstance>
   <VectorInstance id="120">
    <REAL-SparseArray n="7">
     <Indices>1 2 3 4 5 6 7 </Indices>
     <REAL-Entries>0 0 1 0 -0.115003367788673 -0.572423240484073 -0.502007575940174 </REAL-Entries>
    </REAL-SparseArray>
   </VectorInstance>
   <VectorInstance id="121">
    <REAL-SparseArray n="7">
     <Indices>1 2 3 4 5 6 7 </Indices>
     <REAL-Entries>1 0 0 1 0.0993087799195203 0.577927310104112 -0.502007575940174 </REAL-Entries>
    </REAL-SparseArray>
   </VectorInstance>
   <VectorInstance id="122">
    <REAL-SparseArray n="7">
     <Indices>1 2 3 4 5 6 7 </Indices>
     <REAL-Entries>0 0 1 1 0.670807840474703 -0.572423240484073 0.68352443955696 </REAL-Entries>
    </REAL-SparseArray>
   </VectorInstance>
   <VectorInstance id="123">
    <REAL-SparseArray n="7">
     <Indices>1 2 3 4 5 6 7 </Indices>
     <REAL-Entries>0 0 1 0 0.0278713973501226 -0.572423240484073 -0.502007575940174 </REAL-Entries>
    </REAL-SparseArray>
   </VectorInstance>
   <VectorInstance id="124">
    <REAL-SparseArray n="7">
     <Indices>1 2 3 4 5 6 7 </Indices>
     <REAL-Entries>0 0 1 0 -0.54362766320506 -0.572423240484073 -0.502007575940174 </REAL-Entries>
    </REAL-SparseArray>
   </VectorInstance>
   <VectorInstance id="125">
    <REAL-SparseArray n="7">
     <Indices>1 2 3 4 5 6 7 </Indices>
     <REAL-Entries>0 0 1 0 1.24230690102989 0.577927310104112 -0.502007575940174 </REAL-Entries>
    </REAL-SparseArray>
   </VectorInstance>
   <VectorInstance id="126">
    <REAL-SparseArray n="7">
     <Indices>1 2 3 4 5 6 7 </Indices>
     <REAL-Entries>0 0 1 1 -0.972251958621447 4.02897896186867 0.68352443955696 </REAL-Entries>
    </REAL-SparseArray>
   </VectorInstance>
   <VectorInstance id="127">
    <REAL-SparseArray n="7">
     <Indices>1 2 3 4 5 6 7 </Indices>
     <REAL-Entries>1 0 0 0 -0.400752898066264 2.87862841128048 1.8690564550541 </REAL-Entries>
    </REAL-SparseArray>
   </VectorInstance>
   <VectorInstance id="128">
    <REAL-SparseArray n="7">
     <Indices>1 2 3 4 5 6 7 </Indices>
     <REAL-Entries>1 0 0 1 0.456495692766509 -0.572423240484073 -0.502007575940174 </REAL-Entries>
    </REAL-SparseArray>
   </VectorInstance>
   <VectorInstance id="129">
    <REAL-SparseArray n="7">
     <Indices>1 2 3 4 5 6 7 </Indices>
     <REAL-Entries>0 1 0 0 -1.25800148889904 -0.572423240484073 -0.502007575940174 </REAL-Entries>
    </REAL-SparseArray>
   </VectorInstance>
   <VectorInstance id="130">
    <REAL-SparseArray n="7">
     <Indices>1 2 3 4 5 6 7 </Indices>
     <REAL-Entries>1 0 0 1 0.456495692766509 0.577927310104112 -0.502007575940174 </REAL-Entries>
    </REAL-SparseArray>
   </VectorInstance>
   <VectorInstance id="131">
    <REAL-SparseArray n="7">
     <Indices>1 2 3 4 5 6 7 </Indices>
     <REAL-Entries>0 1 0 1 2.17099287443206 0.577927310104112 0.68352443955696 </REAL-Entries>
    </REAL-SparseArray>
   </VectorInstance>
   <VectorInstance id="132">
    <REAL-SparseArray n="7">
     <Indices>1 2 3 4 5 6 7 </Indices>
     <REAL-Entries>0 0 1 1 -0.972251958621447 -0.572423240484073 -0.502007575940174 </REAL-Entries>
    </REAL-SparseArray>
   </VectorInstance>
   <VectorInstance id="133">
    <REAL-SparseArray n="7">
     <Indices>1 2 3 4 5 6 7 </Indices>
     <REAL-Entries>0 1 0 1 -2.04381269716241 1.7282778606923 0.68352443955696 </REAL-Entries>
    </REAL-SparseArray>
   </VectorInstance>
   <VectorInstance id="134">
    <REAL-SparseArray n="7">
     <Indices>1 2 3 4 5 6 7 </Indices>
     <REAL-Entries>1 0 0 1 0.813682605613498 -0.572423240484073 -0.502007575940174 </REAL-Entries>
    </REAL-SparseArray>
   </VectorInstance>
   <VectorInstance id="135">
    <REAL-SparseArray n="7">
     <Indices>1 2 3 4 5 6 7 </Indices>
     <REAL-Entries>1 0 0 0 2.09955549186266 1.7282778606923 -0.502007575940174 </REAL-Entries>
    </REAL-SparseArray>
   </VectorInstance>
   <VectorInstance id="136">
    <REAL-SparseArray n="7">
     <Indices>1 2 3 4 5 6 7 </Indices>
     <REAL-Entries>0 1 0 1 -1.54375101917663 -0.572423240484073 1.8690564550541 </REAL-Entries>
    </REAL-SparseArray>
   </VectorInstance>
   <VectorInstance id="137">
    <REAL-SparseArray n="7">
     <Indices>1 2 3 4 5 6 7 </Indices>
     <REAL-Entries>0 0 1 0 -1.40087625403783 5.17932951245685 1.8690564550541 </REAL-Entries>
    </REAL-SparseArray>
   </VectorInstance>
   <VectorInstance id="138">
    <REAL-SparseArray n="7">
     <Indices>1 2 3 4 5 6 7 </Indices>
     <REAL-Entries>0 0 1 1 -0.615065045774458 -0.572423240484073 -0.502007575940174 </REAL-Entries>
    </REAL-SparseArray>
   </VectorInstance>
   <VectorInstance id="139">
    <REAL-SparseArray n="7">
     <Indices>1 2 3 4 5 6 7 </Indices>
     <REAL-Entries>0 0 1 0 -0.186440750358071 -0.572423240484073 1.8690564550541 </REAL-Entries>
    </REAL-SparseArray>
   </VectorInstance>
   <VectorInstance id="140">
    <REAL-SparseArray n="7">
     <Indices>1 2 3 4 5 6 7 </Indices>
     <REAL-Entries>0 0 1 1 -0.0435659852192752 -0.572423240484073 -0.502007575940174 </REAL-Entries>
    </REAL-SparseArray>
   </VectorInstance>
   <VectorInstance id="141">
    <REAL-SparseArray n="7">
     <Indices>1 2 3 4 5 6 7 </Indices>
     <REAL-Entries>0 0 1 0 -0.54362766320506 -0.572423240484073 -0.502007575940174 </REAL-Entries>
    </REAL-SparseArray>
   </VectorInstance>
   <VectorInstance id="142">
    <REAL-SparseArray n="7">
     <Indices>1 2 3 4 5 6 7 </Indices>
     <REAL-Entries>0 0 1 1 0.0278713973501226 -0.572423240484073 -0.502007575940174 </REAL-Entries>
    </REAL-SparseArray>
   </VectorInstance>
   <VectorInstance id="143">
    <REAL-SparseArray n="7">
     <Indices>1 2 3 4 5 6 7 </Indices>
     <REAL-Entries>0 1 0 1 0.170746162488918 0.577927310104112 -0.502007575940174 </REAL-Entries>
    </REAL-SparseArray>
   </VectorInstance>
   <VectorInstance id="144">
    <REAL-SparseArray n="7">
     <Indices>1 2 3 4 5 6 7 </Indices>
     <REAL-Entries>0 0 1 0 -0.0435659852192752 0.577927310104112 0.68352443955696 </REAL-Entries>
    </REAL-SparseArray>
   </VectorInstance>
   <VectorInstance id="145">
    <REAL-SparseArray n="7">
     <Indices>1 2 3 4 5 6 7 </Indices>
     <REAL-Entries>0 1 0 0 -0.400752898066264 -0.572423240484073 -0.502007575940174 </REAL-Entries>
    </REAL-SparseArray>
   </VectorInstance>
   <VectorInstance id="146">
    <REAL-SparseArray n="7">
     <Indices>1 2 3 4 5 6 7 </Indices>
     <REAL-Entries>0 0 1 0 -1.90093793202362 0.577927310104112 0.68352443955696 </REAL-Entries>
    </REAL-SparseArray>
   </VectorInstance>
   <VectorInstance id="147">
    <REAL-SparseArray n="7">
     <Indices>1 2 3 4 5 6 7 </Indices>
     <REAL-Entries>0 0 1 0 0.599370457905305 4.02897896186867 1.8690564550541 </REAL-Entries>
    </REAL-SparseArray>
   </VectorInstance>
   <VectorInstance id="148">
    <REAL-SparseArray n="7">
     <Indices>1 2 3 4 5 6 7 </Indices>
     <REAL-Entries>0 1 0 0 -0.400752898066264 1.7282778606923 0.68352443955696 </REAL-Entries>
    </REAL-SparseArray>
   </VectorInstance>
   <VectorInstance id="149">
    <REAL-SparseArray n="7">
     <Indices>1 2 3 4 5 6 7 </Indices>
     <REAL-Entries>0 0 1 0 -0.54362766320506 -0.572423240484073 -0.502007575940174 </REAL-Entries>
    </REAL-SparseArray>
   </VectorInstance>
   <VectorInstance id="150">
    <REAL-SparseArray n="7">
     <Indices>1 2 3 4 5 6 7 </Indices>
     <REAL-Entries>0 0 1 1 1.09943213589109 -0.572423240484073 -0.502007575940174 </REAL-Entries>
    </REAL-SparseArray>
   </VectorInstance>
   <VectorInstance id="151">
    <REAL-SparseArray n="7">
     <Indices>1 2 3 4 5 6 7 </Indices>
     <REAL-Entries>1 0 0 1 1.24230690102989 -0.572423240484073 -0.502007575940174 </REAL-Entries>
    </REAL-SparseArray>
   </VectorInstance>
   <VectorInstance id="152">
    <REAL-SparseArray n="7">
     <Indices>1 2 3 4 5 6 7 </Indices>
     <REAL-Entries>0 1 0 1 0.170746162488918 1.7282778606923 -0.502007575940174 </REAL-Entries>
    </REAL-SparseArray>
   </VectorInstance>
   <VectorInstance id="153">
    <REAL-SparseArray n="7">
     <Indices>1 2 3 4 5 6 7 </Indices>
     <REAL-Entries>0 0 1 1 0.170746162488918 -0.572423240484073 -0.502007575940174 </REAL-Entries>
    </REAL-SparseArray>
   </VectorInstance>
   <VectorInstance id="154">
    <REAL-SparseArray n="7">
     <Indices>1 2 3 4 5 6 7 </Indices>
     <REAL-Entries>0 0 1 0 -0.54362766320506 -0.572423240484073 -0.502007575940174 </REAL-Entries>
    </REAL-SparseArray>
   </VectorInstance>
   <VectorInstance id="155">
    <REAL-SparseArray n="7">
     <Indices>1 2 3 4 5 6 7 </Indices>
     <REAL-Entries>0 1 0 1 -1.11512672376024 -0.572423240484073 -0.502007575940174 </REAL-Entries>
    </REAL-SparseArray>
   </VectorInstance>
   <VectorInstance id="156">
    <REAL-SparseArray n="7">
     <Indices>1 2 3 4 5 6 7 </Indices>
     <REAL-Entries>0 1 0 0 -0.329315515496866 0.577927310104112 0.68352443955696 </REAL-Entries>
    </REAL-SparseArray>
   </VectorInstance>
   <VectorInstance id="157">
    <REAL-SparseArray n="7">
     <Indices>1 2 3 4 5 6 7 </Indices>
     <REAL-Entries>1 0 0 1 0.0278713973501226 -0.572423240484073 -0.502007575940174 </REAL-Entries>
    </REAL-SparseArray>
   </VectorInstance>
   <VectorInstance id="158">
    <REAL-SparseArray n="7">
     <Indices>1 2 3 4 5 6 7 </Indices>
     <REAL-Entries>0 0 1 0 -0.900814576052049 -0.572423240484073 0.68352443955696 </REAL-Entries>
    </REAL-SparseArray>
   </VectorInstance>
   <VectorInstance id="159">
    <REAL-SparseArray n="7">
     <Indices>1 2 3 4 5 6 7 </Indices>
     <REAL-Entries>1 0 0 1 0.670807840474703 0.577927310104112 -0.502007575940174 </REAL-Entries>
    </REAL-SparseArray>
   </VectorInstance>
   <VectorInstance id="160">
    <REAL-SparseArray n="7">
     <Indices>1 2 3 4 5 6 7 </Indices>
     <REAL-Entries>0 1 0 0 1.31374428359928 -0.572423240484073 1.8690564550541 </REAL-Entries>
    </REAL-SparseArray>
   </VectorInstance>
   <VectorInstance id="161">
    <REAL-SparseArray n="7">
     <Indices>1 2 3 4 5 6 7 </Indices>
     <REAL-Entries>0 0 1 1 -0.115003367788673 -0.572423240484073 -0.502007575940174 </REAL-Entries>
    </REAL-SparseArray>
   </VectorInstance>
   <VectorInstance id="162">
    <REAL-SparseArray n="7">
     <Indices>1 2 3 4 5 6 7 </Indices>
     <REAL-Entries>0 0 1 1 -1.82950054945422 0.577927310104112 0.68352443955696 </REAL-Entries>
    </REAL-SparseArray>
   </VectorInstance>
   <VectorInstance id="163">
    <REAL-SparseArray n="7">
     <Indices>1 2 3 4 5 6 7 </Indices>
     <REAL-Entries>1 0 0 1 1.09943213589109 0.577927310104112 0.68352443955696 </REAL-Entries>
    </REAL-SparseArray>
   </VectorInstance>
   <VectorInstance id="164">
    <REAL-SparseArray n="7">
     <Indices>1 2 3 4 5 6 7 </Indices>
     <REAL-Entries>0 1 0 0 -0.686502428343855 0.577927310104112 -0.502007575940174 </REAL-Entries>
    </REAL-SparseArray>
   </VectorInstance>
   <VectorInstance id="165">
    <REAL-SparseArray n="7">
     <Indices>1 2 3 4 5 6 7 </Indices>
     <REAL-Entries>0 0 1 0 -1.07940803247554 0.577927310104112 -0.502007575940174 </REAL-Entries>
    </REAL-SparseArray>
   </VectorInstance>
   <VectorInstance id="166">
    <REAL-SparseArray n="7">
     <Indices>1 2 3 4 5 6 7 </Indices>
     <REAL-Entries>0 0 1 1 -0.757939810913253 -0.572423240484073 -0.502007575940174 </REAL-Entries>
    </REAL-SparseArray>
   </VectorInstance>
   <VectorInstance id="167">
    <REAL-SparseArray n="7">
     <Indices>1 2 3 4 5 6 7 </Indices>
     <REAL-Entries>1 0 0 1 0.599370457905305 -0.572423240484073 0.68352443955696 </REAL-Entries>
    </REAL-SparseArray>
   </VectorInstance>
   <VectorInstance id="168">
    <REAL-SparseArray n="7">
     <Indices>1 2 3 4 5 6 7 </Indices>
     <REAL-Entries>1 0 0 1 1.59949381387687 0.577927310104112 0.68352443955696 </REAL-Entries>
    </REAL-SparseArray>
   </VectorInstance>
   <VectorInstance id="169">
    <REAL-SparseArray n="7">
     <Indices>1 2 3 4 5 6 7 </Indices>
     <REAL-Entries>0 0 1 1 -0.0435659852192752 -0.572423240484073 -0.502007575940174 </REAL-Entries>
    </REAL-SparseArray>
   </VectorInstance>
   <VectorInstance id="170">
    <REAL-SparseArray n="7">
     <Indices>1 2 3 4 5 6 7 </Indices>
     <REAL-Entries>0 1 0 1 0.170746162488918 -0.572423240484073 -0.502007575940174 </REAL-Entries>
    </REAL-SparseArray>
   </VectorInstance>
   <VectorInstance id="171">
    <REAL-SparseArray n="7">
     <Indices>1 2 3 4 5 6 7 </Indices>
     <REAL-Entries>1 0 0 1 0.885119988182896 -0.572423240484073 -0.502007575940174 </REAL-Entries>
    </REAL-SparseArray>
   </VectorInstance>
   <VectorInstance id="172">
    <REAL-SparseArray n="7">
     <Indices>1 2 3 4 5 6 7 </Indices>
     <REAL-Entries>0 0 1 0 -0.829377193482651 -0.572423240484073 -0.502007575940174 </REAL-Entries>
    </REAL-SparseArray>
   </VectorInstance>
   <VectorInstance id="173">
    <REAL-SparseArray n="7">
     <Indices>1 2 3 4 5 6 7 </Indices>
     <REAL-Entries>0 0 1 0 -0.472190280635662 -0.572423240484073 -0.502007575940174 </REAL-Entries>
    </REAL-SparseArray>
   </VectorInstance>
   <VectorInstance id="174">
    <REAL-SparseArray n="7">
     <Indices>1 2 3 4 5 6 7 </Indices>
     <REAL-Entries>0 0 1 0 -0.257878132927469 0.577927310104112 -0.502007575940174 </REAL-Entries>
    </REAL-SparseArray>
   </VectorInstance>
   <VectorInstance id="175">
    <REAL-SparseArray n="7">
     <Indices>1 2 3 4 5 6 7 </Indices>
     <REAL-Entries>1 0 0 1 0.242183545058316 -0.572423240484073 -0.502007575940174 </REAL-Entries>
    </REAL-SparseArray>
   </VectorInstance>
   <VectorInstance id="176">
    <REAL-SparseArray n="7">
     <Indices>1 2 3 4 5 6 7 </Indices>
     <REAL-Entries>1 0 0 1 2.45674240470965 -0.572423240484073 -0.502007575940174 </REAL-Entries>
    </REAL-SparseArray>
   </VectorInstance>
   <VectorInstance id="177">
    <REAL-SparseArray n="7">
     <Indices>1 2 3 4 5 6 7 </Indices>
     <REAL-Entries>0 0 1 1 0.0993087799195203 -0.572423240484073 -0.502007575940174 </REAL-Entries>
    </REAL-SparseArray>
   </VectorInstance>
   <VectorInstance id="178">
    <REAL-SparseArray n="7">
     <Indices>1 2 3 4 5 6 7 </Indices>
     <REAL-Entries>1 0 0 1 -0.757939810913253 2.87862841128048 1.8690564550541 </REAL-Entries>
    </REAL-SparseArray>
   </VectorInstance>
   <VectorInstance id="179">
    <REAL-SparseArray n="7">
     <Indices>1 2 3 4 5 6 7 </Indices>
     <REAL-Entries>0 0 1 0 -1.47231363660723 0.577927310104112 0.68352443955696 </REAL-Entries>
    </REAL-SparseArray>
   </VectorInstance>
   <VectorInstance id="180">
    <REAL-SparseArray n="7">
     <Indices>1 2 3 4 5 6 7 </Indices>
     <REAL-Entries>1 0 0 1 0.385058310197112 -0.572423240484073 -0.502007575940174 </REAL-Entries>
    </REAL-SparseArray>
   </VectorInstance>
   <VectorInstance id="181">
    <REAL-SparseArray n="7">
     <Indices>1 2 3 4 5 6 7 </Indices>
     <REAL-Entries>0 0 1 1 -0.0792846765039741 -0.572423240484073 -0.502007575940174 </REAL-Entries>
    </REAL-SparseArray>
   </VectorInstance>
   <VectorInstance id="182">
    <REAL-SparseArray n="7">
     <Indices>1 2 3 4 5 6 7 </Indices>
     <REAL-Entries>0 0 1 0 -0.615065045774458 -0.572423240484073 -0.502007575940174 </REAL-Entries>
    </REAL-SparseArray>
   </VectorInstance>
   <VectorInstance id="183">
    <REAL-SparseArray n="7">
     <Indices>1 2 3 4 5 6 7 </Indices>
     <REAL-Entries>0 0 1 1 -0.900814576052049 -0.572423240484073 -0.502007575940174 </REAL-Entries>
    </REAL-SparseArray>
   </VectorInstance>
   <VectorInstance id="184">
    <REAL-SparseArray n="7">
     <Indices>1 2 3 4 5 6 7 </Indices>
     <REAL-Entries>0 0 1 0 0.813682605613498 -0.572423240484073 1.8690564550541 </REAL-Entries>
    </REAL-SparseArray>
   </VectorInstance>
   <VectorInstance id="185">
    <REAL-SparseArray n="7">
     <Indices>1 2 3 4 5 6 7 </Indices>
     <REAL-Entries>1 0 0 0 1.31374428359928 0.577927310104112 3.05458847055123 </REAL-Entries>
    </REAL-SparseArray>
   </VectorInstance>
   <VectorInstance id="186">
    <REAL-SparseArray n="7">
     <Indices>1 2 3 4 5 6 7 </Indices>
     <REAL-Entries>0 1 0 1 0.956557370752294 -0.572423240484073 0.68352443955696 </REAL-Entries>
    </REAL-SparseArray>
   </VectorInstance>
   <VectorInstance id="187">
    <REAL-SparseArray n="7">
     <Indices>1 2 3 4 5 6 7 </Indices>
     <REAL-Entries>0 0 1 1 0.0993087799195203 -0.572423240484073 -0.502007575940174 </REAL-Entries>
    </REAL-SparseArray>
   </VectorInstance>
   <VectorInstance id="188">
    <REAL-SparseArray n="7">
     <Indices>1 2 3 4 5 6 7 </Indices>
     <REAL-Entries>0 0 1 1 -0.972251958621447 -0.572423240484073 -0.502007575940174 </REAL-Entries>
    </REAL-SparseArray>
   </VectorInstance>
   <VectorInstance id="189">
    <REAL-SparseArray n="7">
     <Indices>1 2 3 4 5 6 7 </Indices>
     <REAL-Entries>0 0 1 0 -0.829377193482651 0.577927310104112 -0.502007575940174 </REAL-Entries>
    </REAL-SparseArray>
   </VectorInstance>
   <VectorInstance id="190">
    <REAL-SparseArray n="7">
     <Indices>1 2 3 4 5 6 7 </Indices>
     <REAL-Entries>1 0 0 1 0.527933075335907 0.577927310104112 -0.502007575940174 </REAL-Entries>
    </REAL-SparseArray>
   </VectorInstance>
   <VectorInstance id="191">
    <REAL-SparseArray n="7">
     <Indices>1 2 3 4 5 6 7 </Indices>
     <REAL-Entries>1 0 0 1 -0.615065045774458 -0.572423240484073 0.68352443955696 </REAL-Entries>
    </REAL-SparseArray>
   </VectorInstance>
   <VectorInstance id="192">
    <REAL-SparseArray n="7">
     <Indices>1 2 3 4 5 6 7 </Indices>
     <REAL-Entries>1 0 0 1 1.45661904873808 0.577927310104112 -0.502007575940174 </REAL-Entries>
    </REAL-SparseArray>
   </VectorInstance>
   <VectorInstance id="193">
    <REAL-SparseArray n="7">
     <Indices>1 2 3 4 5 6 7 </Indices>
     <REAL-Entries>1 0 0 1 1.09943213589109 -0.572423240484073 -0.502007575940174 </REAL-Entries>
    </REAL-SparseArray>
   </VectorInstance>
   <VectorInstance id="194">
    <REAL-SparseArray n="7">
     <Indices>1 2 3 4 5 6 7 </Indices>
     <REAL-Entries>0 0 1 0 -0.400752898066264 -0.572423240484073 3.05458847055123 </REAL-Entries>
    </REAL-SparseArray>
   </VectorInstance>
   <VectorInstance id="195">
    <REAL-SparseArray n="7">
     <Indices>1 2 3 4 5 6 7 </Indices>
     <REAL-Entries>0 0 1 0 -1.47231363660723 1.7282778606923 1.8690564550541 </REAL-Entries>
    </REAL-SparseArray>
   </VectorInstance>
   <VectorInstance id="196">
    <REAL-SparseArray n="7">
     <Indices>1 2 3 4 5 6 7 </Indices>
     <REAL-Entries>0 1 0 0 -0.115003367788673 -0.572423240484073 -0.502007575940174 </REAL-Entries>
    </REAL-SparseArray>
   </VectorInstance>
   <VectorInstance id="197">
    <REAL-SparseArray n="7">
     <Indices>1 2 3 4 5 6 7 </Indices>
     <REAL-Entries>1 0 0 1 0.0278713973501226 0.577927310104112 -0.502007575940174 </REAL-Entries>
    </REAL-SparseArray>
   </VectorInstance>
   <VectorInstance id="198">
    <REAL-SparseArray n="7">
     <Indices>1 2 3 4 5 6 7 </Indices>
     <REAL-Entries>0 1 0 1 0.242183545058316 -0.572423240484073 -0.502007575940174 </REAL-Entries>
    </REAL-SparseArray>
   </VectorInstance>
   <VectorInstance id="199">
    <REAL-SparseArray n="7">
     <Indices>1 2 3 4 5 6 7 </Indices>
     <REAL-Entries>0 1 0 0 1.09943213589109 0.577927310104112 0.68352443955696 </REAL-Entries>
    </REAL-SparseArray>
   </VectorInstance>
   <VectorInstance id="200">
    <REAL-SparseArray n="7">
     <Indices>1 2 3 4 5 6 7 </Indices>
     <REAL-Entries>0 0 1 1 0.492214384051208 0.577927310104112 -0.502007575940174 </REAL-Entries>
    </REAL-SparseArray>
   </VectorInstance>
   <VectorInstance id="201">
    <REAL-SparseArray n="7">
     <Indices>1 2 3 4 5 6 7 </Indices>
     <REAL-Entries>0 0 1 1 1.13515082717579 -0.572423240484073 -0.502007575940174 </REAL-Entries>
    </REAL-SparseArray>
   </VectorInstance>
   <VectorInstance id="202">
    <REAL-SparseArray n="7">
     <Indices>1 2 3 4 5 6 7 </Indices>
     <REAL-Entries>1 0 0 1 0.0993087799195203 -0.572423240484073 -0.502007575940174 </REAL-Entries>
    </REAL-SparseArray>
   </VectorInstance>
   <VectorInstance id="203">
    <REAL-SparseArray n="7">
     <Indices>1 2 3 4 5 6 7 </Indices>
     <REAL-Entries>1 0 0 1 1.67093119644627 0.577927310104112 0.68352443955696 </REAL-Entries>
    </REAL-SparseArray>
   </VectorInstance>
   <VectorInstance id="204">
    <REAL-SparseArray n="7">
     <Indices>1 2 3 4 5 6 7 </Indices>
     <REAL-Entries>1 0 0 0 0.456495692766509 -0.572423240484073 1.8690564550541 </REAL-Entries>
    </REAL-SparseArray>
   </VectorInstance>
   <VectorInstance id="205">
    <REAL-SparseArray n="7">
     <Indices>1 2 3 4 5 6 7 </Indices>
     <REAL-Entries>0 1 0 1 -0.615065045774458 1.7282778606923 -0.502007575940174 </REAL-Entries>
    </REAL-SparseArray>
   </VectorInstance>
   <VectorInstance id="206">
    <REAL-SparseArray n="7">
     <Indices>1 2 3 4 5 6 7 </Indices>
     <REAL-Entries>0 0 1 0 -0.972251958621447 0.577927310104112 0.68352443955696 </REAL-Entries>
    </REAL-SparseArray>
   </VectorInstance>
   <VectorInstance id="207">
    <REAL-SparseArray n="7">
     <Indices>1 2 3 4 5 6 7 </Indices>
     <REAL-Entries>0 0 1 0 -0.472190280635662 -0.572423240484073 -0.502007575940174 </REAL-Entries>
    </REAL-SparseArray>
   </VectorInstance>
   <VectorInstance id="208">
    <REAL-SparseArray n="7">
     <Indices>1 2 3 4 5 6 7 </Indices>
     <REAL-Entries>0 1 0 1 -0.686502428343855 -0.572423240484073 -0.502007575940174 </REAL-Entries>
    </REAL-SparseArray>
   </VectorInstance>
   <VectorInstance id="209">
    <REAL-SparseArray n="7">
     <Indices>1 2 3 4 5 6 7 </Indices>
     <REAL-Entries>0 0 1 1 -0.115003367788673 -0.572423240484073 -0.502007575940174 </REAL-Entries>
    </REAL-SparseArray>
   </VectorInstance>
   <VectorInstance id="210">
    <REAL-SparseArray n="7">
     <Indices>1 2 3 4 5 6 7 </Indices>
     <REAL-Entries>0 0 1 0 -1.47231363660723 2.87862841128048 1.8690564550541 </REAL-Entries>
    </REAL-SparseArray>
   </VectorInstance>
   <VectorInstance id="211">
    <REAL-SparseArray n="7">
     <Indices>1 2 3 4 5 6 7 </Indices>
     <REAL-Entries>0 0 1 1 -1.90093793202362 0.577927310104112 0.68352443955696 </REAL-Entries>
    </REAL-SparseArray>
   </VectorInstance>
   <VectorInstance id="212">
    <REAL-SparseArray n="7">
     <Indices>1 2 3 4 5 6 7 </Indices>
     <REAL-Entries>0 1 0 1 -0.972251958621447 -0.572423240484073 -0.502007575940174 </REAL-Entries>
    </REAL-SparseArray>
   </VectorInstance>
   <VectorInstance id="213">
    <REAL-SparseArray n="7">
     <Indices>1 2 3 4 5 6 7 </Indices>
     <REAL-Entries>0 0 1 0 -0.54362766320506 -0.572423240484073 -0.502007575940174 </REAL-Entries>
    </REAL-SparseArray>
   </VectorInstance>
   <VectorInstance id="214">
    <REAL-SparseArray n="7">
     <Indices>1 2 3 4 5 6 7 </Indices>
     <REAL-Entries>0 1 0 1 -0.829377193482651 -0.572423240484073 -0.502007575940174 </REAL-Entries>
    </REAL-SparseArray>
   </VectorInstance>
   <VectorInstance id="215">
    <REAL-SparseArray n="7">
     <Indices>1 2 3 4 5 6 7 </Indices>
     <REAL-Entries>1 0 0 0 -0.900814576052049 0.577927310104112 -0.502007575940174 </REAL-Entries>
    </REAL-SparseArray>
   </VectorInstance>
   <VectorInstance id="216">
    <REAL-SparseArray n="7">
     <Indices>1 2 3 4 5 6 7 </Indices>
     <REAL-Entries>0 0 1 1 -0.329315515496866 0.577927310104112 -0.502007575940174 </REAL-Entries>
    </REAL-SparseArray>
   </VectorInstance>
   <VectorInstance id="217">
    <REAL-SparseArray n="7">
     <Indices>1 2 3 4 5 6 7 </Indices>
     <REAL-Entries>1 0 0 1 1.81380596158507 0.577927310104112 0.68352443955696 </REAL-Entries>
    </REAL-SparseArray>
   </VectorInstance>
   <VectorInstance id="218">
    <REAL-SparseArray n="7">
     <Indices>1 2 3 4 5 6 7 </Indices>
     <REAL-Entries>0 0 1 0 1.31374428359928 0.577927310104112 3.05458847055123 </REAL-Entries>
    </REAL-SparseArray>
   </VectorInstance>
   <VectorInstance id="219">
    <REAL-SparseArray n="7">
     <Indices>1 2 3 4 5 6 7 </Indices>
     <REAL-Entries>1 0 0 0 2.17099287443206 -0.572423240484073 -0.502007575940174 </REAL-Entries>
    </REAL-SparseArray>
   </VectorInstance>
   <VectorInstance id="220">
    <REAL-SparseArray n="7">
     <Indices>1 2 3 4 5 6 7 </Indices>
     <REAL-Entries>0 0 1 0 -0.54362766320506 -0.572423240484073 -0.502007575940174 </REAL-Entries>
    </REAL-SparseArray>
   </VectorInstance>
   <VectorInstance id="221">
    <REAL-SparseArray n="7">
     <Indices>1 2 3 4 5 6 7 </Indices>
     <REAL-Entries>0 0 1 1 -0.115003367788673 -0.572423240484073 -0.502007575940174 </REAL-Entries>
    </REAL-SparseArray>
   </VectorInstance>
   <VectorInstance id="222">
    <REAL-SparseArray n="7">
     <Indices>1 2 3 4 5 6 7 </Indices>
     <REAL-Entries>0 0 1 0 -1.04368934119084 -0.572423240484073 -0.502007575940174 </REAL-Entries>
    </REAL-SparseArray>
   </VectorInstance>
   <VectorInstance id="223">
    <REAL-SparseArray n="7">
     <Indices>1 2 3 4 5 6 7 </Indices>
     <REAL-Entries>1 0 0 1 1.24230690102989 0.577927310104112 -0.502007575940174 </REAL-Entries>
    </REAL-SparseArray>
   </VectorInstance>
   <VectorInstance id="224">
    <REAL-SparseArray n="7">
     <Indices>1 2 3 4 5 6 7 </Indices>
     <REAL-Entries>0 0 1 1 0.0635900886348214 -0.572423240484073 -0.502007575940174 </REAL-Entries>
    </REAL-SparseArray>
   </VectorInstance>
   <VectorInstance id="225">
    <REAL-SparseArray n="7">
     <Indices>1 2 3 4 5 6 7 </Indices>
     <REAL-Entries>0 1 0 1 0.0993087799195203 -0.572423240484073 -0.502007575940174 </REAL-Entries>
    </REAL-SparseArray>
   </VectorInstance>
   <VectorInstance id="226">
    <REAL-SparseArray n="7">
     <Indices>1 2 3 4 5 6 7 </Indices>
     <REAL-Entries>0 0 1 1 -0.900814576052049 0.577927310104112 0.68352443955696 </REAL-Entries>
    </REAL-SparseArray>
   </VectorInstance>
   <VectorInstance id="227">
    <REAL-SparseArray n="7">
     <Indices>1 2 3 4 5 6 7 </Indices>
     <REAL-Entries>1 0 0 1 0.599370457905305 -0.572423240484073 -0.502007575940174 </REAL-Entries>
    </REAL-SparseArray>
   </VectorInstance>
   <VectorInstance id="228">
    <REAL-SparseArray n="7">
     <Indices>1 2 3 4 5 6 7 </Indices>
     <REAL-Entries>0 0 1 0 -0.829377193482651 -0.572423240484073 -0.502007575940174 </REAL-Entries>
    </REAL-SparseArray>
   </VectorInstance>
   <VectorInstance id="229">
    <REAL-SparseArray n="7">
     <Indices>1 2 3 4 5 6 7 </Indices>
     <REAL-Entries>0 0 1 0 1.09943213589109 0.577927310104112 4.24012048604837 </REAL-Entries>
    </REAL-SparseArray>
   </VectorInstance>
   <VectorInstance id="230">
    <REAL-SparseArray n="7">
     <Indices>1 2 3 4 5 6 7 </Indices>
     <REAL-Entries>0 0 1 0 -0.686502428343855 -0.572423240484073 -0.502007575940174 </REAL-Entries>
    </REAL-SparseArray>
   </VectorInstance>
   <VectorInstance id="231">
    <REAL-SparseArray n="7">
     <Indices>1 2 3 4 5 6 7 </Indices>
     <REAL-Entries>1 0 0 0 -0.472190280635662 2.87862841128048 1.8690564550541 </REAL-Entries>
    </REAL-SparseArray>
   </VectorInstance>
   <VectorInstance id="232">
    <REAL-SparseArray n="7">
     <Indices>1 2 3 4 5 6 7 </Indices>
     <REAL-Entries>0 0 1 0 0.0278713973501226 0.577927310104112 0.68352443955696 </REAL-Entries>
    </REAL-SparseArray>
   </VectorInstance>
   <VectorInstance id="233">
    <REAL-SparseArray n="7">
     <Indices>1 2 3 4 5 6 7 </Indices>
     <REAL-Entries>1 0 0 1 1.95668072672386 0.577927310104112 0.68352443955696 </REAL-Entries>
    </REAL-SparseArray>
   </VectorInstance>
   <VectorInstance id="234">
    <REAL-SparseArray n="7">
     <Indices>1 2 3 4 5 6 7 </Indices>
     <REAL-Entries>1 0 0 1 -0.829377193482651 0.577927310104112 -0.502007575940174 </REAL-Entries>
    </REAL-SparseArray>
   </VectorInstance>
   <VectorInstance id="235">
    <REAL-SparseArray n="7">
     <Indices>1 2 3 4 5 6 7 </Indices>
     <REAL-Entries>0 1 0 0 -0.54362766320506 -0.572423240484073 -0.502007575940174 </REAL-Entries>
    </REAL-SparseArray>
   </VectorInstance>
   <VectorInstance id="236">
    <REAL-SparseArray n="7">
     <Indices>1 2 3 4 5 6 7 </Indices>
     <REAL-Entries>0 0 1 1 0.0278713973501226 -0.572423240484073 -0.502007575940174 </REAL-Entries>
    </REAL-SparseArray>
   </VectorInstance>
   <VectorInstance id="237">
    <REAL-SparseArray n="7">
     <Indices>1 2 3 4 5 6 7 </Indices>
     <REAL-Entries>0 0 1 1 -0.329315515496866 -0.572423240484073 -0.502007575940174 </REAL-Entries>
    </REAL-SparseArray>
   </VectorInstance>
   <VectorInstance id="238">
    <REAL-SparseArray n="7">
     <Indices>1 2 3 4 5 6 7 </Indices>
     <REAL-Entries>0 0 1 1 -0.472190280635662 -0.572423240484073 -0.502007575940174 </REAL-Entries>
    </REAL-SparseArray>
   </VectorInstance>
   <VectorInstance id="239">
    <REAL-SparseArray n="7">
     <Indices>1 2 3 4 5 6 7 </Indices>
     <REAL-Entries>0 0 1 0 -0.186440750358071 -0.572423240484073 -0.502007575940174 </REAL-Entries>
    </REAL-SparseArray>
   </VectorInstance>
   <VectorInstance id="240">
    <REAL-SparseArray n="7">
     <Indices>1 2 3 4 5 6 7 </Indices>
     <REAL-Entries>1 0 0 0 1.45661904873808 0.577927310104112 0.68352443955696 </REAL-Entries>
    </REAL-SparseArray>
   </VectorInstance>
   <VectorInstance id="241">
    <REAL-SparseArray n="7">
     <Indices>1 2 3 4 5 6 7 </Indices>
     <REAL-Entries>0 0 1 0 0.670807840474703 0.577927310104112 5.4256525015455 </REAL-Entries>
    </REAL-SparseArray>
   </VectorInstance>
   <VectorInstance id="242">
    <REAL-SparseArray n="7">
     <Indices>1 2 3 4 5 6 7 </Indices>
     <REAL-Entries>0 0 1 1 -0.900814576052049 -0.572423240484073 -0.502007575940174 </REAL-Entries>
    </REAL-SparseArray>
   </VectorInstance>
   <VectorInstance id="243">
    <REAL-SparseArray n="7">
     <Indices>1 2 3 4 5 6 7 </Indices>
     <REAL-Entries>1 0 0 1 0.0278713973501226 0.577927310104112 1.8690564550541 </REAL-Entries>
    </REAL-SparseArray>
   </VectorInstance>
   <VectorInstance id="244">
    <REAL-SparseArray n="7">
     <Indices>1 2 3 4 5 6 7 </Indices>
     <REAL-Entries>0 0 1 1 0.0993087799195203 -0.572423240484073 -0.502007575940174 </REAL-Entries>
    </REAL-SparseArray>
   </VectorInstance>
   <VectorInstance id="245">
    <REAL-SparseArray n="7">
     <Indices>1 2 3 4 5 6 7 </Indices>
     <REAL-Entries>0 0 1 0 -0.400752898066264 0.577927310104112 -0.502007575940174 </REAL-Entries>
    </REAL-SparseArray>
   </VectorInstance>
   <VectorInstance id="246">
    <REAL-SparseArray n="7">
     <Indices>1 2 3 4 5 6 7 </Indices>
     <REAL-Entries>0 1 0 0 1.31374428359928 0.577927310104112 1.8690564550541 </REAL-Entries>
    </REAL-SparseArray>
   </VectorInstance>
   <VectorInstance id="247">
    <REAL-SparseArray n="7">
     <Indices>1 2 3 4 5 6 7 </Indices>
     <REAL-Entries>0 0 1 0 -1.97237531459302 4.02897896186867 1.8690564550541 </REAL-Entries>
    </REAL-SparseArray>
   </VectorInstance>
   <VectorInstance id="248">
    <REAL-SparseArray n="7">
     <Indices>1 2 3 4 5 6 7 </Indices>
     <REAL-Entries>0 0 1 0 -1.82950054945422 0.577927310104112 0.68352443955696 </REAL-Entries>
    </REAL-SparseArray>
   </VectorInstance>
   <VectorInstance id="249">
    <REAL-SparseArray n="7">
     <Indices>1 2 3 4 5 6 7 </Indices>
     <REAL-Entries>1 0 0 1 0.456495692766509 -0.572423240484073 -0.502007575940174 </REAL-Entries>
    </REAL-SparseArray>
   </VectorInstance>
   <VectorInstance id="250">
    <REAL-SparseArray n="7">
     <Indices>1 2 3 4 5 6 7 </Indices>
     <REAL-Entries>0 0 1 0 -0.54362766320506 -0.572423240484073 -0.502007575940174 </REAL-Entries>
    </REAL-SparseArray>
   </VectorInstance>
   <VectorInstance id="251">
    <REAL-SparseArray n="7">
     <Indices>1 2 3 4 5 6 7 </Indices>
     <REAL-Entries>0 0 1 1 0.670807840474703 -0.572423240484073 -0.502007575940174 </REAL-Entries>
    </REAL-SparseArray>
   </VectorInstance>
   <VectorInstance id="252">
    <REAL-SparseArray n="7">
     <Indices>1 2 3 4 5 6 7 </Indices>
     <REAL-Entries>0 0 1 1 -0.972251958621447 0.577927310104112 0.68352443955696 </REAL-Entries>
    </REAL-SparseArray>
   </VectorInstance>
   <VectorInstance id="253">
    <REAL-SparseArray n="7">
     <Indices>1 2 3 4 5 6 7 </Indices>
     <REAL-Entries>0 0 1 0 -0.972251958621447 -0.572423240484073 -0.502007575940174 </REAL-Entries>
    </REAL-SparseArray>
   </VectorInstance>
   <VectorInstance id="254">
    <REAL-SparseArray n="7">
     <Indices>1 2 3 4 5 6 7 </Indices>
     <REAL-Entries>0 0 1 1 -0.329315515496866 -0.572423240484073 -0.502007575940174 </REAL-Entries>
    </REAL-SparseArray>
   </VectorInstance>
   <VectorInstance id="255">
    <REAL-SparseArray n="7">
     <Indices>1 2 3 4 5 6 7 </Indices>
     <REAL-Entries>1 0 0 0 0.456495692766509 -0.572423240484073 -0.502007575940174 </REAL-Entries>
    </REAL-SparseArray>
   </VectorInstance>
   <VectorInstance id="256">
    <REAL-SparseArray n="7">
     <Indices>1 2 3 4 5 6 7 </Indices>
     <REAL-Entries>0 0 1 0 -2.04381269716241 0.577927310104112 0.68352443955696 </REAL-Entries>
    </REAL-SparseArray>
   </VectorInstance>
   <VectorInstance id="257">
    <REAL-SparseArray n="7">
     <Indices>1 2 3 4 5 6 7 </Indices>
     <REAL-Entries>0 0 1 1 0.7422452230441 0.577927310104112 6.61118451704264 </REAL-Entries>
    </REAL-SparseArray>
   </VectorInstance>
   <VectorInstance id="258">
    <REAL-SparseArray n="7">
     <Indices>1 2 3 4 5 6 7 </Indices>
     <REAL-Entries>1 0 0 0 2.38530502214025 0.577927310104112 -0.502007575940174 </REAL-Entries>
    </REAL-SparseArray>
   </VectorInstance>
   <VectorInstance id="259">
    <REAL-SparseArray n="7">
     <Indices>1 2 3 4 5 6 7 </Indices>
     <REAL-Entries>1 0 0 1 1.59949381387687 -0.572423240484073 -0.502007575940174 </REAL-Entries>
    </REAL-SparseArray>
   </VectorInstance>
   <VectorInstance id="260">
    <REAL-SparseArray n="7">
     <Indices>1 2 3 4 5 6 7 </Indices>
     <REAL-Entries>0 0 1 0 -0.829377193482651 -0.572423240484073 -0.502007575940174 </REAL-Entries>
    </REAL-SparseArray>
   </VectorInstance>
   <VectorInstance id="261">
    <REAL-SparseArray n="7">
     <Indices>1 2 3 4 5 6 7 </Indices>
     <REAL-Entries>1 0 0 0 -0.186440750358071 0.577927310104112 1.8690564550541 </REAL-Entries>
    </REAL-SparseArray>
   </VectorInstance>
   <VectorInstance id="262">
    <REAL-SparseArray n="7">
     <Indices>1 2 3 4 5 6 7 </Indices>
     <REAL-Entries>0 0 1 1 -0.829377193482651 -0.572423240484073 -0.502007575940174 </REAL-Entries>
    </REAL-SparseArray>
   </VectorInstance>
   <VectorInstance id="263">
    <REAL-SparseArray n="7">
     <Indices>1 2 3 4 5 6 7 </Indices>
     <REAL-Entries>0 0 1 0 -0.829377193482651 -0.572423240484073 -0.502007575940174 </REAL-Entries>
    </REAL-SparseArray>
   </VectorInstance>
   <VectorInstance id="264">
    <REAL-SparseArray n="7">
     <Indices>1 2 3 4 5 6 7 </Indices>
     <REAL-Entries>0 0 1 0 -2.04381269716241 0.577927310104112 0.68352443955696 </REAL-Entries>
    </REAL-SparseArray>
   </VectorInstance>
   <VectorInstance id="265">
    <REAL-SparseArray n="7">
     <Indices>1 2 3 4 5 6 7 </Indices>
     <REAL-Entries>0 0 1 0 1.09943213589109 -0.572423240484073 0.68352443955696 </REAL-Entries>
    </REAL-SparseArray>
   </VectorInstance>
   <VectorInstance id="266">
    <REAL-SparseArray n="7">
     <Indices>1 2 3 4 5 6 7 </Indices>
     <REAL-Entries>0 0 1 0 0.813682605613498 -0.572423240484073 5.4256525015455 </REAL-Entries>
    </REAL-SparseArray>
   </VectorInstance>
   <VectorInstance id="267">
    <REAL-SparseArray n="7">
     <Indices>1 2 3 4 5 6 7 </Indices>
     <REAL-Entries>1 0 0 1 2.24243025700145 -0.572423240484073 -0.502007575940174 </REAL-Entries>
    </REAL-SparseArray>
   </VectorInstance>
   <VectorInstance id="268">
    <REAL-SparseArray n="7">
     <Indices>1 2 3 4 5 6 7 </Indices>
     <REAL-Entries>1 0 0 1 1.67093119644627 -0.572423240484073 -0.502007575940174 </REAL-Entries>
    </REAL-SparseArray>
   </VectorInstance>
   <VectorInstance id="269">
    <REAL-SparseArray n="7">
     <Indices>1 2 3 4 5 6 7 </Indices>
     <REAL-Entries>0 0 1 1 0.170746162488918 -0.572423240484073 -0.502007575940174 </REAL-Entries>
    </REAL-SparseArray>
   </VectorInstance>
   <VectorInstance id="270">
    <REAL-SparseArray n="7">
     <Indices>1 2 3 4 5 6 7 </Indices>
     <REAL-Entries>0 0 1 1 1.02799475332169 -0.572423240484073 0.68352443955696 </REAL-Entries>
    </REAL-SparseArray>
   </VectorInstance>
   <VectorInstance id="271">
    <REAL-SparseArray n="7">
     <Indices>1 2 3 4 5 6 7 </Indices>
     <REAL-Entries>1 0 0 1 1.31374428359928 0.577927310104112 -0.502007575940174 </REAL-Entries>
    </REAL-SparseArray>
   </VectorInstance>
   <VectorInstance id="272">
    <REAL-SparseArray n="7">
     <Indices>1 2 3 4 5 6 7 </Indices>
     <REAL-Entries>0 0 1 0 -0.900814576052049 -0.572423240484073 -0.502007575940174 </REAL-Entries>
    </REAL-SparseArray>
   </VectorInstance>
   <VectorInstance id="273">
    <REAL-SparseArray n="7">
     <Indices>1 2 3 4 5 6 7 </Indices>
     <REAL-Entries>0 0 1 0 0.170746162488918 0.577927310104112 0.68352443955696 </REAL-Entries>
    </REAL-SparseArray>
   </VectorInstance>
   <VectorInstance id="274">
    <REAL-SparseArray n="7">
     <Indices>1 2 3 4 5 6 7 </Indices>
     <REAL-Entries>0 1 0 0 -0.400752898066264 0.577927310104112 -0.502007575940174 </REAL-Entries>
    </REAL-SparseArray>
   </VectorInstance>
   <VectorInstance id="275">
    <REAL-SparseArray n="7">
     <Indices>1 2 3 4 5 6 7 </Indices>
     <REAL-Entries>0 1 0 1 0.0278713973501226 -0.572423240484073 -0.502007575940174 </REAL-Entries>
    </REAL-SparseArray>
   </VectorInstance>
   <VectorInstance id="276">
    <REAL-SparseArray n="7">
     <Indices>1 2 3 4 5 6 7 </Indices>
     <REAL-Entries>0 0 1 0 -2.04381269716241 0.577927310104112 0.68352443955696 </REAL-Entries>
    </REAL-SparseArray>
   </VectorInstance>
   <VectorInstance id="277">
    <REAL-SparseArray n="7">
     <Indices>1 2 3 4 5 6 7 </Indices>
     <REAL-Entries>0 0 1 0 -2.10334146762887 0.577927310104112 1.8690564550541 </REAL-Entries>
    </REAL-SparseArray>
   </VectorInstance>
   <VectorInstance id="278">
    <REAL-SparseArray n="7">
     <Indices>1 2 3 4 5 6 7 </Indices>
     <REAL-Entries>0 0 1 1 -0.0435659852192752 2.87862841128048 0.68352443955696 </REAL-Entries>
    </REAL-SparseArray>
   </VectorInstance>
   <VectorInstance id="279">
    <REAL-SparseArray n="7">
     <Indices>1 2 3 4 5 6 7 </Indices>
     <REAL-Entries>0 0 1 0 -1.75806316688482 1.7282778606923 0.68352443955696 </REAL-Entries>
    </REAL-SparseArray>
   </VectorInstance>
   <VectorInstance id="280">
    <REAL-SparseArray n="7">
     <Indices>1 2 3 4 5 6 7 </Indices>
     <REAL-Entries>0 0 1 0 -0.115003367788673 -0.572423240484073 -0.502007575940174 </REAL-Entries>
    </REAL-SparseArray>
   </VectorInstance>
   <VectorInstance id="281">
    <REAL-SparseArray n="7">
     <Indices>1 2 3 4 5 6 7 </Indices>
     <REAL-Entries>1 0 0 1 3.59974052582001 -0.572423240484073 -0.502007575940174 </REAL-Entries>
    </REAL-SparseArray>
   </VectorInstance>
   <VectorInstance id="282">
    <REAL-SparseArray n="7">
     <Indices>1 2 3 4 5 6 7 </Indices>
     <REAL-Entries>0 0 1 1 -0.615065045774458 -0.572423240484073 -0.502007575940174 </REAL-Entries>
    </REAL-SparseArray>
   </VectorInstance>
   <VectorInstance id="283">
    <REAL-SparseArray n="7">
     <Indices>1 2 3 4 5 6 7 </Indices>
     <REAL-Entries>0 1 0 0 -0.400752898066264 0.577927310104112 1.8690564550541 </REAL-Entries>
    </REAL-SparseArray>
   </VectorInstance>
   <VectorInstance id="284">
    <REAL-SparseArray n="7">
     <Indices>1 2 3 4 5 6 7 </Indices>
     <REAL-Entries>0 1 0 1 -0.400752898066264 -0.572423240484073 -0.502007575940174 </REAL-Entries>
    </REAL-SparseArray>
   </VectorInstance>
   <VectorInstance id="285">
    <REAL-SparseArray n="7">
     <Indices>1 2 3 4 5 6 7 </Indices>
     <REAL-Entries>0 1 0 1 0.385058310197112 -0.572423240484073 -0.502007575940174 </REAL-Entries>
    </REAL-SparseArray>
   </VectorInstance>
   <VectorInstance id="286">
    <REAL-SparseArray n="7">
     <Indices>1 2 3 4 5 6 7 </Indices>
     <REAL-Entries>0 0 1 1 0.170746162488918 -0.572423240484073 -0.502007575940174 </REAL-Entries>
    </REAL-SparseArray>
   </VectorInstance>
   <VectorInstance id="287">
    <REAL-SparseArray n="7">
     <Indices>1 2 3 4 5 6 7 </Indices>
     <REAL-Entries>1 0 0 1 0.7422452230441 -0.572423240484073 -0.502007575940174 </REAL-Entries>
    </REAL-SparseArray>
   </VectorInstance>
   <VectorInstance id="288">
    <REAL-SparseArray n="7">
     <Indices>1 2 3 4 5 6 7 </Indices>
     <REAL-Entries>0 1 0 0 1.02799475332169 0.577927310104112 -0.502007575940174 </REAL-Entries>
    </REAL-SparseArray>
   </VectorInstance>
   <VectorInstance id="289">
    <REAL-SparseArray n="7">
     <Indices>1 2 3 4 5 6 7 </Indices>
     <REAL-Entries>1 0 0 1 0.599370457905305 0.577927310104112 -0.502007575940174 </REAL-Entries>
    </REAL-SparseArray>
   </VectorInstance>
   <VectorInstance id="290">
    <REAL-SparseArray n="7">
     <Indices>1 2 3 4 5 6 7 </Indices>
     <REAL-Entries>1 0 0 1 1.09943213589109 -0.572423240484073 -0.502007575940174 </REAL-Entries>
    </REAL-SparseArray>
   </VectorInstance>
   <VectorInstance id="291">
    <REAL-SparseArray n="7">
     <Indices>1 2 3 4 5 6 7 </Indices>
     <REAL-Entries>0 0 1 1 -0.0435659852192752 -0.572423240484073 -0.502007575940174 </REAL-Entries>
    </REAL-SparseArray>
   </VectorInstance>
   <VectorInstance id="292">
    <REAL-SparseArray n="7">
     <Indices>1 2 3 4 5 6 7 </Indices>
     <REAL-Entries>1 0 0 1 1.45661904873808 1.7282778606923 -0.502007575940174 </REAL-Entries>
    </REAL-SparseArray>
   </VectorInstance>
   <VectorInstance id="293">
    <REAL-SparseArray n="7">
     <Indices>1 2 3 4 5 6 7 </Indices>
     <REAL-Entries>0 1 0 0 -0.757939810913253 0.577927310104112 -0.502007575940174 </REAL-Entries>
    </REAL-SparseArray>
   </VectorInstance>
   <VectorInstance id="294">
    <REAL-SparseArray n="7">
     <Indices>1 2 3 4 5 6 7 </Indices>
     <REAL-Entries>0 0 1 1 0.0278713973501226 -0.572423240484073 -0.502007575940174 </REAL-Entries>
    </REAL-SparseArray>
   </VectorInstance>
   <VectorInstance id="295">
    <REAL-SparseArray n="7">
     <Indices>1 2 3 4 5 6 7 </Indices>
     <REAL-Entries>0 1 0 1 0.0993087799195203 -0.572423240484073 -0.502007575940174 </REAL-Entries>
    </REAL-SparseArray>
   </VectorInstance>
   <VectorInstance id="296">
    <REAL-SparseArray n="7">
     <Indices>1 2 3 4 5 6 7 </Indices>
     <REAL-Entries>0 0 1 0 -0.793658502197952 -0.572423240484073 -0.502007575940174 </REAL-Entries>
    </REAL-SparseArray>
   </VectorInstance>
   <VectorInstance id="297">
    <REAL-SparseArray n="7">
     <Indices>1 2 3 4 5 6 7 </Indices>
     <REAL-Entries>1 0 0 0 -0.900814576052049 0.577927310104112 -0.502007575940174 </REAL-Entries>
    </REAL-SparseArray>
   </VectorInstance>
   <VectorInstance id="298">
    <REAL-SparseArray n="7">
     <Indices>1 2 3 4 5 6 7 </Indices>
     <REAL-Entries>0 0 1 0 -0.54362766320506 0.577927310104112 -0.502007575940174 </REAL-Entries>
    </REAL-SparseArray>
   </VectorInstance>
   <VectorInstance id="299">
    <REAL-SparseArray n="7">
     <Indices>1 2 3 4 5 6 7 </Indices>
     <REAL-Entries>1 0 0 0 0.385058310197112 -0.572423240484073 -0.502007575940174 </REAL-Entries>
    </REAL-SparseArray>
   </VectorInstance>
   <VectorInstance id="300">
    <REAL-SparseArray n="7">
     <Indices>1 2 3 4 5 6 7 </Indices>
     <REAL-Entries>1 0 0 1 1.17086951846049 0.577927310104112 -0.502007575940174 </REAL-Entries>
    </REAL-SparseArray>
   </VectorInstance>
   <VectorInstance id="301">
    <REAL-SparseArray n="7">
     <Indices>1 2 3 4 5 6 7 </Indices>
     <REAL-Entries>0 1 0 0 -0.829377193482651 0.577927310104112 0.68352443955696 </REAL-Entries>
    </REAL-SparseArray>
   </VectorInstance>
   <VectorInstance id="302">
    <REAL-SparseArray n="7">
     <Indices>1 2 3 4 5 6 7 </Indices>
     <REAL-Entries>0 0 1 0 -1.97237531459302 2.87862841128048 1.8690564550541 </REAL-Entries>
    </REAL-SparseArray>
   </VectorInstance>
   <VectorInstance id="303">
    <REAL-SparseArray n="7">
     <Indices>1 2 3 4 5 6 7 </Indices>
     <REAL-Entries>0 0 1 1 -1.47231363660723 5.17932951245685 1.8690564550541 </REAL-Entries>
    </REAL-SparseArray>
   </VectorInstance>
   <VectorInstance id="304">
    <REAL-SparseArray n="7">
     <Indices>1 2 3 4 5 6 7 </Indices>
     <REAL-Entries>1 0 0 0 0.242183545058316 0.577927310104112 -0.502007575940174 </REAL-Entries>
    </REAL-SparseArray>
   </VectorInstance>
   <VectorInstance id="305">
    <REAL-SparseArray n="7">
     <Indices>1 2 3 4 5 6 7 </Indices>
     <REAL-Entries>0 1 0 0 0.456495692766509 0.577927310104112 -0.502007575940174 </REAL-Entries>
    </REAL-SparseArray>
   </VectorInstance>
   <VectorInstance id="306">
    <REAL-SparseArray n="7">
     <Indices>1 2 3 4 5 6 7 </Indices>
     <REAL-Entries>0 0 1 1 -0.829377193482651 0.577927310104112 0.68352443955696 </REAL-Entries>
    </REAL-SparseArray>
   </VectorInstance>
   <VectorInstance id="307">
    <REAL-SparseArray n="7">
     <Indices>1 2 3 4 5 6 7 </Indices>
     <REAL-Entries>1 0 0 0 2.31386763957085 -0.572423240484073 -0.502007575940174 </REAL-Entries>
    </REAL-SparseArray>
   </VectorInstance>
   <VectorInstance id="308">
    <REAL-SparseArray n="7">
     <Indices>1 2 3 4 5 6 7 </Indices>
     <REAL-Entries>0 0 1 1 -0.757939810913253 -0.572423240484073 -0.502007575940174 </REAL-Entries>
    </REAL-SparseArray>
   </VectorInstance>
   <VectorInstance id="309">
    <REAL-SparseArray n="7">
     <Indices>1 2 3 4 5 6 7 </Indices>
     <REAL-Entries>0 0 1 1 -0.900814576052049 -0.572423240484073 -0.502007575940174 </REAL-Entries>
    </REAL-SparseArray>
   </VectorInstance>
   <VectorInstance id="310">
    <REAL-SparseArray n="7">
     <Indices>1 2 3 4 5 6 7 </Indices>
     <REAL-Entries>0 0 1 0 -0.400752898066264 -0.572423240484073 -0.502007575940174 </REAL-Entries>
    </REAL-SparseArray>
   </VectorInstance>
   <VectorInstance id="311">
    <REAL-SparseArray n="7">
     <Indices>1 2 3 4 5 6 7 </Indices>
     <REAL-Entries>1 0 0 1 -1.18656410632964 1.7282778606923 1.8690564550541 </REAL-Entries>
    </REAL-SparseArray>
   </VectorInstance>
   <VectorInstance id="312">
    <REAL-SparseArray n="7">
     <Indices>1 2 3 4 5 6 7 </Indices>
     <REAL-Entries>0 0 1 0 -0.472190280635662 -0.572423240484073 -0.502007575940174 </REAL-Entries>
    </REAL-SparseArray>
   </VectorInstance>
   <VectorInstance id="313">
    <REAL-SparseArray n="7">
     <Indices>1 2 3 4 5 6 7 </Indices>
     <REAL-Entries>0 0 1 1 -2.04381269716241 0.577927310104112 1.8690564550541 </REAL-Entries>
    </REAL-SparseArray>
   </VectorInstance>
   <VectorInstance id="314">
    <REAL-SparseArray n="7">
     <Indices>1 2 3 4 5 6 7 </Indices>
     <REAL-Entries>0 1 0 1 0.885119988182896 0.577927310104112 -0.502007575940174 </REAL-Entries>
    </REAL-SparseArray>
   </VectorInstance>
   <VectorInstance id="315">
    <REAL-SparseArray n="7">
     <Indices>1 2 3 4 5 6 7 </Indices>
     <REAL-Entries>1 0 0 0 2.02811810929326 -0.572423240484073 0.68352443955696 </REAL-Entries>
    </REAL-SparseArray>
   </VectorInstance>
   <VectorInstance id="316">
    <REAL-SparseArray n="7">
     <Indices>1 2 3 4 5 6 7 </Indices>
     <REAL-Entries>0 1 0 1 -0.829377193482651 -0.572423240484073 -0.502007575940174 </REAL-Entries>
    </REAL-SparseArray>
   </VectorInstance>
   <VectorInstance id="317">
    <REAL-SparseArray n="7">
     <Indices>1 2 3 4 5 6 7 </Indices>
     <REAL-Entries>0 0 1 0 -1.04368934119084 -0.572423240484073 -0.502007575940174 </REAL-Entries>
    </REAL-SparseArray>
   </VectorInstance>
   <VectorInstance id="318">
    <REAL-SparseArray n="7">
     <Indices>1 2 3 4 5 6 7 </Indices>
     <REAL-Entries>0 0 1 1 -0.757939810913253 -0.572423240484073 -0.502007575940174 </REAL-Entries>
    </REAL-SparseArray>
   </VectorInstance>
   <VectorInstance id="319">
    <REAL-SparseArray n="7">
     <Indices>1 2 3 4 5 6 7 </Indices>
     <REAL-Entries>0 0 1 0 -0.757939810913253 -0.572423240484073 -0.502007575940174 </REAL-Entries>
    </REAL-SparseArray>
   </VectorInstance>
   <VectorInstance id="320">
    <REAL-SparseArray n="7">
     <Indices>1 2 3 4 5 6 7 </Indices>
     <REAL-Entries>0 0 1 0 0.599370457905305 -0.572423240484073 -0.502007575940174 </REAL-Entries>
    </REAL-SparseArray>
   </VectorInstance>
   <VectorInstance id="321">
    <REAL-SparseArray n="7">
     <Indices>1 2 3 4 5 6 7 </Indices>
     <REAL-Entries>0 0 1 1 0.170746162488918 -0.572423240484073 -0.502007575940174 </REAL-Entries>
    </REAL-SparseArray>
   </VectorInstance>
   <VectorInstance id="322">
    <REAL-SparseArray n="7">
     <Indices>1 2 3 4 5 6 7 </Indices>
     <REAL-Entries>0 1 0 0 0.0278713973501226 2.87862841128048 -0.502007575940174 </REAL-Entries>
    </REAL-SparseArray>
   </VectorInstance>
   <VectorInstance id="323">
    <REAL-SparseArray n="7">
     <Indices>1 2 3 4 5 6 7 </Indices>
     <REAL-Entries>0 0 1 1 -1.47231363660723 -0.572423240484073 1.8690564550541 </REAL-Entries>
    </REAL-SparseArray>
   </VectorInstance>
   <VectorInstance id="324">
    <REAL-SparseArray n="7">
     <Indices>1 2 3 4 5 6 7 </Indices>
     <REAL-Entries>0 0 1 0 -0.615065045774458 -0.572423240484073 -0.502007575940174 </REAL-Entries>
    </REAL-SparseArray>
   </VectorInstance>
   <VectorInstance id="325">
    <REAL-SparseArray n="7">
     <Indices>1 2 3 4 5 6 7 </Indices>
     <REAL-Entries>1 0 0 1 2.88536670012603 0.577927310104112 0.68352443955696 </REAL-Entries>
    </REAL-SparseArray>
   </VectorInstance>
   <VectorInstance id="326">
    <REAL-SparseArray n="7">
     <Indices>1 2 3 4 5 6 7 </Indices>
     <REAL-Entries>0 0 1 1 0.170746162488918 -0.572423240484073 -0.502007575940174 </REAL-Entries>
    </REAL-SparseArray>
   </VectorInstance>
   <VectorInstance id="327">
    <REAL-SparseArray n="7">
     <Indices>1 2 3 4 5 6 7 </Indices>
     <REAL-Entries>0 0 1 1 0.0278713973501226 -0.572423240484073 -0.502007575940174 </REAL-Entries>
    </REAL-SparseArray>
   </VectorInstance>
   <VectorInstance id="328">
    <REAL-SparseArray n="7">
     <Indices>1 2 3 4 5 6 7 </Indices>
     <REAL-Entries>0 1 0 1 0.313620927627714 -0.572423240484073 -0.502007575940174 </REAL-Entries>
    </REAL-SparseArray>
   </VectorInstance>
   <VectorInstance id="329">
    <REAL-SparseArray n="7">
     <Indices>1 2 3 4 5 6 7 </Indices>
     <REAL-Entries>1 0 0 0 1.45661904873808 -0.572423240484073 -0.502007575940174 </REAL-Entries>
    </REAL-SparseArray>
   </VectorInstance>
   <VectorInstance id="330">
    <REAL-SparseArray n="7">
     <Indices>1 2 3 4 5 6 7 </Indices>
     <REAL-Entries>0 0 1 0 0.242183545058316 0.577927310104112 1.8690564550541 </REAL-Entries>
    </REAL-SparseArray>
   </VectorInstance>
   <VectorInstance id="331">
    <REAL-SparseArray n="7">
     <Indices>1 2 3 4 5 6 7 </Indices>
     <REAL-Entries>1 0 0 1 1.09943213589109 0.577927310104112 -0.502007575940174 </REAL-Entries>
    </REAL-SparseArray>
   </VectorInstance>
   <VectorInstance id="332">
    <REAL-SparseArray n="7">
     <Indices>1 2 3 4 5 6 7 </Indices>
     <REAL-Entries>1 0 0 1 0.0278713973501226 -0.572423240484073 -0.502007575940174 </REAL-Entries>
    </REAL-SparseArray>
   </VectorInstance>
   <VectorInstance id="333">
    <REAL-SparseArray n="7">
     <Indices>1 2 3 4 5 6 7 </Indices>
     <REAL-Entries>0 1 0 1 -0.0435659852192752 -0.572423240484073 -0.502007575940174 </REAL-Entries>
    </REAL-SparseArray>
   </VectorInstance>
   <VectorInstance id="334">
    <REAL-SparseArray n="7">
     <Indices>1 2 3 4 5 6 7 </Indices>
     <REAL-Entries>0 0 1 1 1.02799475332169 -0.572423240484073 -0.502007575940174 </REAL-Entries>
    </REAL-SparseArray>
   </VectorInstance>
   <VectorInstance id="335">
    <REAL-SparseArray n="7">
     <Indices>1 2 3 4 5 6 7 </Indices>
     <REAL-Entries>1 0 0 1 -0.186440750358071 -0.572423240484073 -0.502007575940174 </REAL-Entries>
    </REAL-SparseArray>
   </VectorInstance>
   <VectorInstance id="336">
    <REAL-SparseArray n="7">
     <Indices>1 2 3 4 5 6 7 </Indices>
     <REAL-Entries>0 1 0 1 0.813682605613498 -0.572423240484073 -0.502007575940174 </REAL-Entries>
    </REAL-SparseArray>
   </VectorInstance>
   <VectorInstance id="337">
    <REAL-SparseArray n="7">
     <Indices>1 2 3 4 5 6 7 </Indices>
     <REAL-Entries>1 0 0 1 -0.400752898066264 -0.572423240484073 0.68352443955696 </REAL-Entries>
    </REAL-SparseArray>
   </VectorInstance>
   <VectorInstance id="338">
    <REAL-SparseArray n="7">
     <Indices>1 2 3 4 5 6 7 </Indices>
     <REAL-Entries>1 0 0 0 -0.329315515496866 0.577927310104112 1.8690564550541 </REAL-Entries>
    </REAL-SparseArray>
   </VectorInstance>
   <VectorInstance id="339">
    <REAL-SparseArray n="7">
     <Indices>1 2 3 4 5 6 7 </Indices>
     <REAL-Entries>0 0 1 1 -0.0435659852192752 -0.572423240484073 -0.502007575940174 </REAL-Entries>
    </REAL-SparseArray>
   </VectorInstance>
   <VectorInstance id="340">
    <REAL-SparseArray n="7">
     <Indices>1 2 3 4 5 6 7 </Indices>
     <REAL-Entries>0 0 1 0 -1.11512672376024 0.577927310104112 -0.502007575940174 </REAL-Entries>
    </REAL-SparseArray>
   </VectorInstance>
   <VectorInstance id="341">
    <REAL-SparseArray n="7">
     <Indices>1 2 3 4 5 6 7 </Indices>
     <REAL-Entries>0 0 1 1 -0.329315515496866 -0.572423240484073 -0.502007575940174 </REAL-Entries>
    </REAL-SparseArray>
   </VectorInstance>
   <VectorInstance id="342">
    <REAL-SparseArray n="7">
     <Indices>1 2 3 4 5 6 7 </Indices>
     <REAL-Entries>1 0 0 1 1.02799475332169 1.7282778606923 -0.502007575940174 </REAL-Entries>
    </REAL-SparseArray>
   </VectorInstance>
   <VectorInstance id="343">
    <REAL-SparseArray n="7">
     <Indices>1 2 3 4 5 6 7 </Indices>
     <REAL-Entries>0 0 1 1 -0.615065045774458 -0.572423240484073 -0.502007575940174 </REAL-Entries>
    </REAL-SparseArray>
   </VectorInstance>
   <VectorInstance id="344">
    <REAL-SparseArray n="7">
     <Indices>1 2 3 4 5 6 7 </Indices>
     <REAL-Entries>1 0 0 1 -0.400752898066264 0.577927310104112 -0.502007575940174 </REAL-Entries>
    </REAL-SparseArray>
   </VectorInstance>
   <VectorInstance id="345">
    <REAL-SparseArray n="7">
     <Indices>1 2 3 4 5 6 7 </Indices>
     <REAL-Entries>1 0 0 1 -0.615065045774458 -0.572423240484073 0.68352443955696 </REAL-Entries>
    </REAL-SparseArray>
   </VectorInstance>
   <VectorInstance id="346">
    <REAL-SparseArray n="7">
     <Indices>1 2 3 4 5 6 7 </Indices>
     <REAL-Entries>1 0 0 1 1.17086951846049 -0.572423240484073 -0.502007575940174 </REAL-Entries>
    </REAL-SparseArray>
   </VectorInstance>
   <VectorInstance id="347">
    <REAL-SparseArray n="7">
     <Indices>1 2 3 4 5 6 7 </Indices>
     <REAL-Entries>0 0 1 0 -0.829377193482651 -0.572423240484073 0.68352443955696 </REAL-Entries>
    </REAL-SparseArray>
   </VectorInstance>
   <VectorInstance id="348">
    <REAL-SparseArray n="7">
     <Indices>1 2 3 4 5 6 7 </Indices>
     <REAL-Entries>1 0 0 1 1.24230690102989 -0.572423240484073 -0.502007575940174 </REAL-Entries>
    </REAL-SparseArray>
   </VectorInstance>
   <VectorInstance id="349">
    <REAL-SparseArray n="7">
     <Indices>1 2 3 4 5 6 7 </Indices>
     <REAL-Entries>1 0 0 1 1.38518166616868 0.577927310104112 0.68352443955696 </REAL-Entries>
    </REAL-SparseArray>
   </VectorInstance>
   <VectorInstance id="350">
    <REAL-SparseArray n="7">
     <Indices>1 2 3 4 5 6 7 </Indices>
     <REAL-Entries>0 0 1 1 -0.686502428343855 -0.572423240484073 -0.502007575940174 </REAL-Entries>
    </REAL-SparseArray>
   </VectorInstance>
   <VectorInstance id="351">
    <REAL-SparseArray n="7">
     <Indices>1 2 3 4 5 6 7 </Indices>
     <REAL-Entries>0 0 1 0 -1.90093793202362 2.87862841128048 0.68352443955696 </REAL-Entries>
    </REAL-SparseArray>
   </VectorInstance>
   <VectorInstance id="352">
    <REAL-SparseArray n="7">
     <Indices>1 2 3 4 5 6 7 </Indices>
     <REAL-Entries>0 0 1 0 -0.186440750358071 -0.572423240484073 0.68352443955696 </REAL-Entries>
    </REAL-SparseArray>
   </VectorInstance>
   <VectorInstance id="353">
    <REAL-SparseArray n="7">
     <Indices>1 2 3 4 5 6 7 </Indices>
     <REAL-Entries>0 0 1 0 -2.06167204280476 1.7282778606923 0.68352443955696 </REAL-Entries>
    </REAL-SparseArray>
   </VectorInstance>
   <VectorInstance id="354">
    <REAL-SparseArray n="7">
     <Indices>1 2 3 4 5 6 7 </Indices>
     <REAL-Entries>1 0 0 1 2.52817978727905 -0.572423240484073 -0.502007575940174 </REAL-Entries>
    </REAL-SparseArray>
   </VectorInstance>
   <VectorInstance id="355">
    <REAL-SparseArray n="7">
     <Indices>1 2 3 4 5 6 7 </Indices>
     <REAL-Entries>0 0 1 0 1.24230690102989 0.577927310104112 -0.502007575940174 </REAL-Entries>
    </REAL-SparseArray>
   </VectorInstance>
   <VectorInstance id="356">
    <REAL-SparseArray n="7">
     <Indices>1 2 3 4 5 6 7 </Indices>
     <REAL-Entries>0 0 1 0 -1.97237531459302 -0.572423240484073 0.68352443955696 </REAL-Entries>
    </REAL-SparseArray>
   </VectorInstance>
   <VectorInstance id="357">
    <REAL-SparseArray n="7">
     <Indices>1 2 3 4 5 6 7 </Indices>
     <REAL-Entries>0 1 0 0 0.456495692766509 -0.572423240484073 3.05458847055123 </REAL-Entries>
    </REAL-SparseArray>
   </VectorInstance>
   <VectorInstance id="358">
    <REAL-SparseArray n="7">
     <Indices>1 2 3 4 5 6 7 </Indices>
     <REAL-Entries>0 0 1 0 -0.615065045774458 -0.572423240484073 -0.502007575940174 </REAL-Entries>
    </REAL-SparseArray>
   </VectorInstance>
   <VectorInstance id="359">
    <REAL-SparseArray n="7">
     <Indices>1 2 3 4 5 6 7 </Indices>
     <REAL-Entries>0 0 1 1 0.170746162488918 -0.572423240484073 -0.502007575940174 </REAL-Entries>
    </REAL-SparseArray>
   </VectorInstance>
   <VectorInstance id="360">
    <REAL-SparseArray n="7">
     <Indices>1 2 3 4 5 6 7 </Indices>
     <REAL-Entries>0 1 0 0 -1.11512672376024 0.577927310104112 -0.502007575940174 </REAL-Entries>
    </REAL-SparseArray>
   </VectorInstance>
   <VectorInstance id="361">
    <REAL-SparseArray n="7">
     <Indices>1 2 3 4 5 6 7 </Indices>
     <REAL-Entries>0 0 1 1 0.170746162488918 -0.572423240484073 -0.502007575940174 </REAL-Entries>
    </REAL-SparseArray>
   </VectorInstance>
   <VectorInstance id="362">
    <REAL-SparseArray n="7">
     <Indices>1 2 3 4 5 6 7 </Indices>
     <REAL-Entries>0 0 1 1 0.170746162488918 -0.572423240484073 -0.502007575940174 </REAL-Entries>
    </REAL-SparseArray>
   </VectorInstance>
   <VectorInstance id="363">
    <REAL-SparseArray n="7">
     <Indices>1 2 3 4 5 6 7 </Indices>
     <REAL-Entries>0 1 0 0 -0.686502428343855 1.7282778606923 0.68352443955696 </REAL-Entries>
    </REAL-SparseArray>
   </VectorInstance>
   <VectorInstance id="364">
    <REAL-SparseArray n="7">
     <Indices>1 2 3 4 5 6 7 </Indices>
     <REAL-Entries>0 1 0 0 0.885119988182896 -0.572423240484073 -0.502007575940174 </REAL-Entries>
    </REAL-SparseArray>
   </VectorInstance>
   <VectorInstance id="365">
    <REAL-SparseArray n="7">
     <Indices>1 2 3 4 5 6 7 </Indices>
     <REAL-Entries>0 1 0 1 -0.615065045774458 0.577927310104112 -0.502007575940174 </REAL-Entries>
    </REAL-SparseArray>
   </VectorInstance>
   <VectorInstance id="366">
    <REAL-SparseArray n="7">
     <Indices>1 2 3 4 5 6 7 </Indices>
     <REAL-Entries>0 0 1 0 -1.11512672376024 -0.572423240484073 -0.502007575940174 </REAL-Entries>
    </REAL-SparseArray>
   </VectorInstance>
   <VectorInstance id="367">
    <REAL-SparseArray n="7">
     <Indices>1 2 3 4 5 6 7 </Indices>
     <REAL-Entries>0 1 0 1 0.170746162488918 -0.572423240484073 -0.502007575940174 </REAL-Entries>
    </REAL-SparseArray>
   </VectorInstance>
   <VectorInstance id="368">
    <REAL-SparseArray n="7">
     <Indices>1 2 3 4 5 6 7 </Indices>
     <REAL-Entries>1 0 0 1 -0.400752898066264 0.577927310104112 -0.502007575940174 </REAL-Entries>
    </REAL-SparseArray>
   </VectorInstance>
   <VectorInstance id="369">
    <REAL-SparseArray n="7">
     <Indices>1 2 3 4 5 6 7 </Indices>
     <REAL-Entries>0 1 0 1 -0.257878132927469 0.577927310104112 0.68352443955696 </REAL-Entries>
    </REAL-SparseArray>
   </VectorInstance>
   <VectorInstance id="370">
    <REAL-SparseArray n="7">
     <Indices>1 2 3 4 5 6 7 </Indices>
     <REAL-Entries>0 1 0 1 -0.615065045774458 0.577927310104112 -0.502007575940174 </REAL-Entries>
    </REAL-SparseArray>
   </VectorInstance>
   <VectorInstance id="371">
    <REAL-SparseArray n="7">
     <Indices>1 2 3 4 5 6 7 </Indices>
     <REAL-Entries>1 0 0 1 1.52805643130748 -0.572423240484073 0.68352443955696 </REAL-Entries>
    </REAL-SparseArray>
   </VectorInstance>
   <VectorInstance id="372">
    <REAL-SparseArray n="7">
     <Indices>1 2 3 4 5 6 7 </Indices>
     <REAL-Entries>0 0 1 1 -0.972251958621447 -0.572423240484073 -0.502007575940174 </REAL-Entries>
    </REAL-SparseArray>
   </VectorInstance>
   <VectorInstance id="373">
    <REAL-SparseArray n="7">
     <Indices>1 2 3 4 5 6 7 </Indices>
     <REAL-Entries>0 0 1 1 -0.186440750358071 -0.572423240484073 -0.502007575940174 </REAL-Entries>
    </REAL-SparseArray>
   </VectorInstance>
   <VectorInstance id="374">
    <REAL-SparseArray n="7">
     <Indices>1 2 3 4 5 6 7 </Indices>
     <REAL-Entries>0 0 1 1 0.777963914328799 -0.572423240484073 1.8690564550541 </REAL-Entries>
    </REAL-SparseArray>
   </VectorInstance>
   <VectorInstance id="375">
    <REAL-SparseArray n="7">
     <Indices>1 2 3 4 5 6 7 </Indices>
     <REAL-Entries>1 0 0 1 -0.900814576052049 -0.572423240484073 -0.502007575940174 </REAL-Entries>
    </REAL-SparseArray>
   </VectorInstance>
   <VectorInstance id="376">
    <REAL-SparseArray n="7">
     <Indices>1 2 3 4 5 6 7 </Indices>
     <REAL-Entries>0 0 1 1 -0.829377193482651 -0.572423240484073 -0.502007575940174 </REAL-Entries>
    </REAL-SparseArray>
   </VectorInstance>
   <VectorInstance id="377">
    <REAL-SparseArray n="7">
     <Indices>1 2 3 4 5 6 7 </Indices>
     <REAL-Entries>1 0 0 1 2.31386763957085 -0.572423240484073 -0.502007575940174 </REAL-Entries>
    </REAL-SparseArray>
   </VectorInstance>
   <VectorInstance id="378">
    <REAL-SparseArray n="7">
     <Indices>1 2 3 4 5 6 7 </Indices>
     <REAL-Entries>1 0 0 1 1.24230690102989 -0.572423240484073 -0.502007575940174 </REAL-Entries>
    </REAL-SparseArray>
   </VectorInstance>
   <VectorInstance id="379">
    <REAL-SparseArray n="7">
     <Indices>1 2 3 4 5 6 7 </Indices>
     <REAL-Entries>0 0 1 0 -0.757939810913253 0.577927310104112 -0.502007575940174 </REAL-Entries>
    </REAL-SparseArray>
   </VectorInstance>
   <VectorInstance id="380">
    <REAL-SparseArray n="7">
     <Indices>1 2 3 4 5 6 7 </Indices>
     <REAL-Entries>1 0 0 0 0.456495692766509 0.577927310104112 1.8690564550541 </REAL-Entries>
    </REAL-SparseArray>
   </VectorInstance>
   <VectorInstance id="381">
    <REAL-SparseArray n="7">
     <Indices>1 2 3 4 5 6 7 </Indices>
     <REAL-Entries>1 0 0 1 0.670807840474703 -0.572423240484073 -0.502007575940174 </REAL-Entries>
    </REAL-SparseArray>
   </VectorInstance>
   <VectorInstance id="382">
    <REAL-SparseArray n="7">
     <Indices>1 2 3 4 5 6 7 </Indices>
     <REAL-Entries>0 1 0 1 0.170746162488918 -0.572423240484073 -0.502007575940174 </REAL-Entries>
    </REAL-SparseArray>
   </VectorInstance>
   <VectorInstance id="383">
    <REAL-SparseArray n="7">
     <Indices>1 2 3 4 5 6 7 </Indices>
     <REAL-Entries>0 0 1 0 -1.75806316688482 -0.572423240484073 -0.502007575940174 </REAL-Entries>
    </REAL-SparseArray>
   </VectorInstance>
   <VectorInstance id="384">
    <REAL-SparseArray n="7">
     <Indices>1 2 3 4 5 6 7 </Indices>
     <REAL-Entries>0 1 0 0 1.45661904873808 -0.572423240484073 0.68352443955696 </REAL-Entries>
    </REAL-SparseArray>
   </VectorInstance>
   <VectorInstance id="385">
    <REAL-SparseArray n="7">
     <Indices>1 2 3 4 5 6 7 </Indices>
     <REAL-Entries>0 0 1 1 -1.47231363660723 0.577927310104112 0.68352443955696 </REAL-Entries>
    </REAL-SparseArray>
   </VectorInstance>
   <VectorInstance id="386">
    <REAL-SparseArray n="7">
     <Indices>1 2 3 4 5 6 7 </Indices>
     <REAL-Entries>0 0 1 0 -0.329315515496866 -0.572423240484073 -0.502007575940174 </REAL-Entries>
    </REAL-SparseArray>
   </VectorInstance>
   <VectorInstance id="387">
    <REAL-SparseArray n="7">
     <Indices>1 2 3 4 5 6 7 </Indices>
     <REAL-Entries>1 0 0 0 1.67093119644627 1.7282778606923 -0.502007575940174 </REAL-Entries>
    </REAL-SparseArray>
   </VectorInstance>
   <VectorInstance id="388">
    <REAL-SparseArray n="7">
     <Indices>1 2 3 4 5 6 7 </Indices>
     <REAL-Entries>0 0 1 0 -0.257878132927469 0.577927310104112 0.68352443955696 </REAL-Entries>
    </REAL-SparseArray>
   </VectorInstance>
   <VectorInstance id="389">
    <REAL-SparseArray n="7">
     <Indices>1 2 3 4 5 6 7 </Indices>
     <REAL-Entries>1 0 0 1 0.206464853773617 -0.572423240484073 -0.502007575940174 </REAL-Entries>
    </REAL-SparseArray>
   </VectorInstance>
   <VectorInstance id="390">
    <REAL-SparseArray n="7">
     <Indices>1 2 3 4 5 6 7 </Indices>
     <REAL-Entries>1 0 0 1 2.24243025700145 0.577927310104112 3.05458847055123 </REAL-Entries>
    </REAL-SparseArray>
   </VectorInstance>
   <VectorInstance id="391">
    <REAL-SparseArray n="7">
     <Indices>1 2 3 4 5 6 7 </Indices>
     <REAL-Entries>1 0 0 1 0.385058310197112 -0.572423240484073 -0.502007575940174 </REAL-Entries>
    </REAL-SparseArray>
   </VectorInstance>
   <VectorInstance id="392">
    <REAL-SparseArray n="7">
     <Indices>1 2 3 4 5 6 7 </Indices>
     <REAL-Entries>0 0 1 0 -1.75806316688482 4.02897896186867 1.8690564550541 </REAL-Entries>
    </REAL-SparseArray>
   </VectorInstance>
   <VectorInstance id="393">
    <REAL-SparseArray n="7">
     <Indices>1 2 3 4 5 6 7 </Indices>
     <REAL-Entries>0 0 1 0 -0.972251958621447 -0.572423240484073 -0.502007575940174 </REAL-Entries>
    </REAL-SparseArray>
   </VectorInstance>
   <VectorInstance id="394">
    <REAL-SparseArray n="7">
     <Indices>1 2 3 4 5 6 7 </Indices>
     <REAL-Entries>0 0 1 1 0.0993087799195203 -0.572423240484073 -0.502007575940174 </REAL-Entries>
    </REAL-SparseArray>
   </VectorInstance>
   <VectorInstance id="395">
    <REAL-SparseArray n="7">
     <Indices>1 2 3 4 5 6 7 </Indices>
     <REAL-Entries>1 0 0 1 0.813682605613498 0.577927310104112 -0.502007575940174 </REAL-Entries>
    </REAL-SparseArray>
   </VectorInstance>
   <VectorInstance id="396">
    <REAL-SparseArray n="7">
     <Indices>1 2 3 4 5 6 7 </Indices>
     <REAL-Entries>1 0 0 1 1.31374428359928 0.577927310104112 -0.502007575940174 </REAL-Entries>
    </REAL-SparseArray>
   </VectorInstance>
   <VectorInstance id="397">
    <REAL-SparseArray n="7">
     <Indices>1 2 3 4 5 6 7 </Indices>
     <REAL-Entries>0 0 1 1 -0.829377193482651 0.577927310104112 0.68352443955696 </REAL-Entries>
    </REAL-SparseArray>
   </VectorInstance>
   <VectorInstance id="398">
    <REAL-SparseArray n="7">
     <Indices>1 2 3 4 5 6 7 </Indices>
     <REAL-Entries>0 0 1 1 -0.329315515496866 -0.572423240484073 -0.502007575940174 </REAL-Entries>
    </REAL-SparseArray>
   </VectorInstance>
   <VectorInstance id="399">
    <REAL-SparseArray n="7">
     <Indices>1 2 3 4 5 6 7 </Indices>
     <REAL-Entries>0 0 1 1 -0.686502428343855 0.577927310104112 -0.502007575940174 </REAL-Entries>
    </REAL-SparseArray>
   </VectorInstance>
   <VectorInstance id="400">
    <REAL-SparseArray n="7">
     <Indices>1 2 3 4 5 6 7 </Indices>
     <REAL-Entries>0 0 1 1 0.170746162488918 -0.572423240484073 -0.502007575940174 </REAL-Entries>
    </REAL-SparseArray>
   </VectorInstance>
   <VectorInstance id="401">
    <REAL-SparseArray n="7">
