<?xml version="1.0" encoding="UTF-8" standalone="yes"?>
<PMML xmlns="http://www.dmg.org/PMML-4_2" version="4.2">
    <Header>
        <Application name="JPMML-Converter" version="1.0-SNAPSHOT"/>
        <Timestamp>2017-11-07T09:45:55Z</Timestamp>
    </Header>
    <DataDictionary>
        <DataField name="Tip_Amount" optype="continuous" dataType="double"/>
        <DataField name="Total_Bill" optype="continuous" dataType="double"/>
        <DataField name="Sex" optype="categorical" dataType="string">
            <Value value="Female"/>
            <Value value="Male"/>
        </DataField>
        <DataField name="Smoker" optype="categorical" dataType="string">
            <Value value="No"/>
            <Value value="Yes"/>
        </DataField>
        <DataField name="Day" optype="categorical" dataType="string">
            <Value value="Fri"/>
            <Value value="Sat"/>
            <Value value="Sun"/>
            <Value value="Thur"/>
        </DataField>
        <DataField name="Time" optype="categorical" dataType="string">
            <Value value="Dinner"/>
            <Value value="Lunch"/>
        </DataField>
        <DataField name="Size" optype="continuous" dataType="double"/>
    </DataDictionary>
    <MiningModel functionName="regression">
        <MiningSchema>
            <MiningField name="Tip_Amount" usageType="target"/>
            <MiningField name="Total_Bill" usageType="active"/>
            <MiningField name="Sex" usageType="active"/>
            <MiningField name="Smoker" usageType="active"/>
            <MiningField name="Day" usageType="active"/>
            <MiningField name="Time" usageType="active"/>
            <MiningField name="Size" usageType="active"/>
        </MiningSchema>
        <Targets>
            <Target field="Tip_Amount" rescaleConstant="3.0489230769230766"/>
        </Targets>
        <Segmentation multipleModelMethod="sum">
            <Segment id="1">
                <True/>
                <TreeModel functionName="regression" splitCharacteristic="multiSplit">
                    <MiningSchema>
                        <MiningField name="Total_Bill" usageType="active"/>
                    </MiningSchema>
                    <Node id="1">
                        <True/>
                        <Node id="4" score="-1.8923076923076492E-5">
                            <SimplePredicate field="Total_Bill" operator="isMissing"/>
                        </Node>
                        <Node id="2" score="-5.981655011655007E-4">
                            <SimplePredicate field="Total_Bill" operator="lessThan" value="22.96"/>
                        </Node>
                        <Node id="3" score="0.0012143027295285363">
                            <SimplePredicate field="Total_Bill" operator="greaterOrEqual" value="22.96"/>
                        </Node>
                    </Node>
                </TreeModel>
            </Segment>
            <Segment id="2">
                <True/>
                <TreeModel functionName="regression" splitCharacteristic="multiSplit">
                    <MiningSchema>
                        <MiningField name="Total_Bill" usageType="active"/>
                    </MiningSchema>
                    <Node id="1">
                        <True/>
                        <Node id="4" score="2.9043009137188107E-5">
                            <SimplePredicate field="Total_Bill" operator="isMissing"/>
                        </Node>
                        <Node id="2" score="-3.040600259310584E-4">
                            <SimplePredicate field="Total_Bill" operator="lessThan" value="29.384999999999998"/>
                        </Node>
                        <Node id="3" score="0.002181401081885858">
                            <SimplePredicate field="Total_Bill" operator="greaterOrEqual" value="29.384999999999998"/>
                        </Node>
                    </Node>
                </TreeModel>
            </Segment>
            <Segment id="3">
                <True/>
                <TreeModel functionName="regression" splitCharacteristic="multiSplit">
                    <MiningSchema>
                        <MiningField name="Total_Bill" usageType="active"/>
                    </MiningSchema>
                    <Node id="1">
                        <True/>
                        <Node id="4" score="3.611562102131342E-5">
                            <SimplePredicate field="Total_Bill" operator="isMissing"/>
                        </Node>
                        <Node id="2" score="-5.060805528885176E-4">
                            <SimplePredicate field="Total_Bill" operator="lessThan" value="21.43"/>
                        </Node>
                        <Node id="3" score="0.001247020409419936">
                            <SimplePredicate field="Total_Bill" operator="greaterOrEqual" value="21.43"/>
                        </Node>
                    </Node>
                </TreeModel>
            </Segment>
            <Segment id="4">
                <True/>
                <TreeModel functionName="regression" splitCharacteristic="multiSplit">
                    <MiningSchema>
                        <MiningField name="Total_Bill" usageType="active"/>
                    </MiningSchema>
                    <Node id="1">
                        <True/>
                        <Node id="4" score="1.1790333673481206E-4">
                            <SimplePredicate field="Total_Bill" operator="isMissing"/>
                        </Node>
                        <Node id="2" score="-5.182493396532355E-4">
                            <SimplePredicate field="Total_Bill" operator="lessThan" value="22.96"/>
                        </Node>
                        <Node id="3" score="0.0013516539818510256">
                            <SimplePredicate field="Total_Bill" operator="greaterOrEqual" value="22.96"/>
                        </Node>
                    </Node>
                </TreeModel>
            </Segment>
            <Segment id="5">
                <True/>
                <TreeModel functionName="regression" splitCharacteristic="multiSplit">
                    <MiningSchema>
                        <MiningField name="Total_Bill" usageType="active"/>
                    </MiningSchema>
                    <Node id="1">
                        <True/>
                        <Node id="4" score="-4.44086144104536E-5">
                            <SimplePredicate field="Total_Bill" operator="isMissing"/>
                        </Node>
                        <Node id="2" score="-6.464702057139644E-4">
                            <SimplePredicate field="Total_Bill" operator="lessThan" value="19.79"/>
                        </Node>
                        <Node id="3" score="8.135291531970493E-4">
                            <SimplePredicate field="Total_Bill" operator="greaterOrEqual" value="19.79"/>
                        </Node>
                    </Node>
                </TreeModel>
            </Segment>
            <Segment id="6">
                <True/>
                <TreeModel functionName="regression" splitCharacteristic="multiSplit">
                    <MiningSchema>
                        <MiningField name="Total_Bill" usageType="active"/>
                    </MiningSchema>
                    <Node id="1">
                        <True/>
                        <Node id="4" score="-4.3079631226897634E-5">
                            <SimplePredicate field="Total_Bill" operator="isMissing"/>
                        </Node>
                        <Node id="2" score="-9.55068000015673E-4">
                            <SimplePredicate field="Total_Bill" operator="lessThan" value="16.555"/>
                        </Node>
                        <Node id="3" score="5.701539270965893E-4">
                            <SimplePredicate field="Total_Bill" operator="greaterOrEqual" value="16.555"/>
                        </Node>
                    </Node>
                </TreeModel>
            </Segment>
            <Segment id="7">
                <True/>
                <TreeModel functionName="regression" splitCharacteristic="multiSplit">
                    <MiningSchema>
                        <MiningField name="Total_Bill" usageType="active"/>
                    </MiningSchema>
                    <Node id="1">
                        <True/>
                        <Node id="4" score="-9.53777990359647E-5">
                            <SimplePredicate field="Total_Bill" operator="isMissing"/>
                        </Node>
                        <Node id="2" score="-9.274396830361865E-4">
                            <SimplePredicate field="Total_Bill" operator="lessThan" value="17.299999999999997"/>
                        </Node>
                        <Node id="3" score="6.867603719242438E-4">
                            <SimplePredicate field="Total_Bill" operator="greaterOrEqual" value="17.299999999999997"/>
                        </Node>
                    </Node>
                </TreeModel>
            </Segment>
            <Segment id="8">
                <True/>
                <TreeModel functionName="regression" splitCharacteristic="multiSplit">
                    <MiningSchema>
                        <MiningField name="Total_Bill" usageType="active"/>
                    </MiningSchema>
                    <Node id="1">
                        <True/>
                        <Node id="4" score="-3.1229142160093866E-8">
                            <SimplePredicate field="Total_Bill" operator="isMissing"/>
                        </Node>
                        <Node id="2" score="-9.859309582488187E-4">
                            <SimplePredicate field="Total_Bill" operator="lessThan" value="16.314999999999998"/>
                        </Node>
                        <Node id="3" score="7.217882153823577E-4">
                            <SimplePredicate field="Total_Bill" operator="greaterOrEqual" value="16.314999999999998"/>
                        </Node>
                    </Node>
                </TreeModel>
            </Segment>
            <Segment id="9">
                <True/>
                <TreeModel functionName="regression" splitCharacteristic="multiSplit">
                    <MiningSchema>
                        <MiningField name="Total_Bill" usageType="active"/>
                    </MiningSchema>
                    <Node id="1">
                        <True/>
                        <Node id="4" score="1.8768868227205873E-6">
                            <SimplePredicate field="Total_Bill" operator="isMissing"/>
                        </Node>
                        <Node id="2" score="-6.223624850400542E-4">
                            <SimplePredicate field="Total_Bill" operator="lessThan" value="21.33"/>
                        </Node>
                        <Node id="3" score="0.0013309026462724992">
                            <SimplePredicate field="Total_Bill" operator="greaterOrEqual" value="21.33"/>
                        </Node>
                    </Node>
                </TreeModel>
            </Segment>
            <Segment id="10">
                <True/>
                <TreeModel functionName="regression" splitCharacteristic="multiSplit">
                    <MiningSchema>
                        <MiningField name="Total_Bill" usageType="active"/>
                    </MiningSchema>
                    <Node id="1">
                        <True/>
                        <Node id="4" score="-8.505669565404229E-5">
                            <SimplePredicate field="Total_Bill" operator="isMissing"/>
                        </Node>
                        <Node id="2" score="-9.098289471410802E-4">
                            <SimplePredicate field="Total_Bill" operator="lessThan" value="16.25"/>
                        </Node>
                        <Node id="3" score="3.4021649651896164E-4">
                            <SimplePredicate field="Total_Bill" operator="greaterOrEqual" value="16.25"/>
                        </Node>
                    </Node>
                </TreeModel>
            </Segment>
            <Segment id="11">
                <True/>
                <TreeModel functionName="regression" splitCharacteristic="multiSplit">
                    <MiningSchema>
                        <MiningField name="Total_Bill" usageType="active"/>
                    </MiningSchema>
                    <Node id="1">
                        <True/>
                        <Node id="4" score="1.0402275981280416E-4">
                            <SimplePredicate field="Total_Bill" operator="isMissing"/>
                        </Node>
                        <Node id="2" score="-5.639142655487459E-4">
                            <SimplePredicate field="Total_Bill" operator="lessThan" value="20.490000000000002"/>
                        </Node>
                        <Node id="3" score="0.00139941577869581">
                            <SimplePredicate field="Total_Bill" operator="greaterOrEqual" value="20.490000000000002"/>
                        </Node>
                    </Node>
                </TreeModel>
            </Segment>
            <Segment id="12">
                <True/>
                <TreeModel functionName="regression" splitCharacteristic="multiSplit">
                    <MiningSchema>
                        <MiningField name="Total_Bill" usageType="active"/>
                    </MiningSchema>
                    <Node id="1">
                        <True/>
                        <Node id="4" score="7.632989281724105E-7">
                            <SimplePredicate field="Total_Bill" operator="isMissing"/>
                        </Node>
                        <Node id="2" score="-6.165316836540707E-4">
                            <SimplePredicate field="Total_Bill" operator="lessThan" value="21.33"/>
                        </Node>
                        <Node id="3" score="0.0013150042295871414">
                            <SimplePredicate field="Total_Bill" operator="greaterOrEqual" value="21.33"/>
                        </Node>
                    </Node>
                </TreeModel>
            </Segment>
            <Segment id="13">
                <True/>
                <TreeModel functionName="regression" splitCharacteristic="multiSplit">
                    <MiningSchema>
                        <MiningField name="Total_Bill" usageType="active"/>
                    </MiningSchema>
                    <Node id="1">
                        <True/>
                        <Node id="4" score="1.1649567713024216E-5">
                            <SimplePredicate field="Total_Bill" operator="isMissing"/>
                        </Node>
                        <Node id="2" score="-6.095468909590991E-4">
                            <SimplePredicate field="Total_Bill" operator="lessThan" value="19.79"/>
                        </Node>
                        <Node id="3" score="9.35480198558746E-4">
                            <SimplePredicate field="Total_Bill" operator="greaterOrEqual" value="19.79"/>
                        </Node>
                    </Node>
                </TreeModel>
            </Segment>
            <Segment id="14">
                <True/>
                <TreeModel functionName="regression" splitCharacteristic="multiSplit">
                    <MiningSchema>
                        <MiningField name="Total_Bill" usageType="active"/>
                    </MiningSchema>
                    <Node id="1">
                        <True/>
                        <Node id="4" score="-5.3847542269318304E-5">
                            <SimplePredicate field="Total_Bill" operator="isMissing"/>
                        </Node>
                        <Node id="2" score="-6.543431830127828E-4">
                            <SimplePredicate field="Total_Bill" operator="lessThan" value="19.79"/>
                        </Node>
                        <Node id="3" score="8.391972567850648E-4">
                            <SimplePredicate field="Total_Bill" operator="greaterOrEqual" value="19.79"/>
                        </Node>
                    </Node>
                </TreeModel>
            </Segment>
            <Segment id="15">
                <True/>
                <TreeModel functionName="regression" splitCharacteristic="multiSplit">
                    <MiningSchema>
                        <MiningField name="Total_Bill" usageType="active"/>
                    </MiningSchema>
                    <Node id="1">
                        <True/>
                        <Node id="4" score="-4.7215196688960164E-5">
                            <SimplePredicate field="Total_Bill" operator="isMissing"/>
                        </Node>
                        <Node id="2" score="-6.295353719155579E-4">
                            <SimplePredicate field="Total_Bill" operator="lessThan" value="20.785"/>
                        </Node>
                        <Node id="3" score="0.001253299861317108">
                            <SimplePredicate field="Total_Bill" operator="greaterOrEqual" value="20.785"/>
                        </Node>
                    </Node>
                </TreeModel>
            </Segment>
            <Segment id="16">
                <True/>
                <TreeModel functionName="regression" splitCharacteristic="multiSplit">
                    <MiningSchema>
                        <MiningField name="Total_Bill" usageType="active"/>
                    </MiningSchema>
                    <Node id="1">
                        <True/>
                        <Node id="4" score="-4.241695268318174E-5">
                            <SimplePredicate field="Total_Bill" operator="isMissing"/>
                        </Node>
                        <Node id="2" score="-4.509551509751606E-4">
                            <SimplePredicate field="Total_Bill" operator="lessThan" value="24.795"/>
                        </Node>
                        <Node id="3" score="0.0016347398613575737">
                            <SimplePredicate field="Total_Bill" operator="greaterOrEqual" value="24.795"/>
                        </Node>
                    </Node>
                </TreeModel>
            </Segment>
            <Segment id="17">
                <True/>
                <TreeModel functionName="regression" splitCharacteristic="multiSplit">
                    <MiningSchema>
                        <MiningField name="Total_Bill" usageType="active"/>
                    </MiningSchema>
                    <Node id="1">
                        <True/>
                        <Node id="4" score="-6.28379432904918E-6">
                            <SimplePredicate field="Total_Bill" operator="isMissing"/>
                        </Node>
                        <Node id="2" score="-5.197495153953164E-4">
                            <SimplePredicate field="Total_Bill" operator="lessThan" value="22.93"/>
                        </Node>
                        <Node id="3" score="0.001645736351710245">
                            <SimplePredicate field="Total_Bill" operator="greaterOrEqual" value="22.93"/>
                        </Node>
                    </Node>
                </TreeModel>
            </Segment>
            <Segment id="18">
                <True/>
                <TreeModel functionName="regression" splitCharacteristic="multiSplit">
                    <MiningSchema>
                        <MiningField name="Total_Bill" usageType="active"/>
                    </MiningSchema>
                    <Node id="1">
                        <True/>
                        <Node id="4" score="-8.174966254460325E-6">
                            <SimplePredicate field="Total_Bill" operator="isMissing"/>
                        </Node>
                        <Node id="2" score="-7.06797994467317E-4">
                            <SimplePredicate field="Total_Bill" operator="lessThan" value="20.47"/>
                        </Node>
                        <Node id="3" score="0.00112472724165828">
                            <SimplePredicate field="Total_Bill" operator="greaterOrEqual" value="20.47"/>
                        </Node>
                    </Node>
                </TreeModel>
            </Segment>
            <Segment id="19">
                <True/>
                <TreeModel functionName="regression" splitCharacteristic="multiSplit">
                    <MiningSchema>
                        <MiningField name="Total_Bill" usageType="active"/>
                    </MiningSchema>
                    <Node id="1">
                        <True/>
                        <Node id="4" score="-3.529516102473188E-5">
                            <SimplePredicate field="Total_Bill" operator="isMissing"/>
                        </Node>
                        <Node id="2" score="-6.747523833988136E-4">
                            <SimplePredicate field="Total_Bill" operator="lessThan" value="19.465"/>
                        </Node>
                        <Node id="3" score="8.020892968460895E-4">
                            <SimplePredicate field="Total_Bill" operator="greaterOrEqual" value="19.465"/>
                        </Node>
                    </Node>
                </TreeModel>
            </Segment>
            <Segment id="20">
                <True/>
                <TreeModel functionName="regression" splitCharacteristic="multiSplit">
                    <MiningSchema>
                        <MiningField name="Total_Bill" usageType="active"/>
                    </MiningSchema>
                    <Node id="1">
                        <True/>
                        <Node id="4" score="-5.1312556795642666E-5">
                            <SimplePredicate field="Total_Bill" operator="isMissing"/>
                        </Node>
                        <Node id="2" score="-6.29623085958005E-4">
                            <SimplePredicate field="Total_Bill" operator="lessThan" value="20.840000000000003"/>
                        </Node>
                        <Node id="3" score="9.73123237720542E-4">
                            <SimplePredicate field="Total_Bill" operator="greaterOrEqual" value="20.840000000000003"/>
                        </Node>
                    </Node>
                </TreeModel>
            </Segment>
            <Segment id="21">
                <True/>
                <TreeModel functionName="regression" splitCharacteristic="multiSplit">
                    <MiningSchema>
                        <MiningField name="Total_Bill" usageType="active"/>
                    </MiningSchema>
                    <Node id="1">
                        <True/>
                        <Node id="4" score="-7.504591628129878E-5">
                            <SimplePredicate field="Total_Bill" operator="isMissing"/>
                        </Node>
                        <Node id="2" score="-0.0010225603383656246">
                            <SimplePredicate field="Total_Bill" operator="lessThan" value="16.25"/>
                        </Node>
                        <Node id="3" score="5.620758502926444E-4">
                            <SimplePredicate field="Total_Bill" operator="greaterOrEqual" value="16.25"/>
                        </Node>
                    </Node>
                </TreeModel>
            </Segment>
            <Segment id="22">
                <True/>
                <TreeModel functionName="regression" splitCharacteristic="multiSplit">
                    <MiningSchema>
                        <MiningField name="Total_Bill" usageType="active"/>
                    </MiningSchema>
                    <Node id="1">
                        <True/>
                        <Node id="4" score="-2.380798448025642E-6">
                            <SimplePredicate field="Total_Bill" operator="isMissing"/>
                        </Node>
                        <Node id="2" score="-9.083667608772318E-4">
                            <SimplePredicate field="Total_Bill" operator="lessThan" value="16.314999999999998"/>
                        </Node>
                        <Node id="3" score="5.81135584133497E-4">
                            <SimplePredicate field="Total_Bill" operator="greaterOrEqual" value="16.314999999999998"/>
                        </Node>
                    </Node>
                </TreeModel>
            </Segment>
            <Segment id="23">
                <True/>
                <TreeModel functionName="regression" splitCharacteristic="multiSplit">
                    <MiningSchema>
                        <MiningField name="Total_Bill" usageType="active"/>
                    </MiningSchema>
                    <Node id="1">
                        <True/>
                        <Node id="4" score="3.9653142017736446E-5">
                            <SimplePredicate field="Total_Bill" operator="isMissing"/>
                        </Node>
                        <Node id="2" score="-9.82422397453611E-4">
                            <SimplePredicate field="Total_Bill" operator="lessThan" value="16.534999999999997"/>
                        </Node>
                        <Node id="3" score="8.535281086338094E-4">
                            <SimplePredicate field="Total_Bill" operator="greaterOrEqual" value="16.534999999999997"/>
                        </Node>
                    </Node>
                </TreeModel>
            </Segment>
            <Segment id="24">
                <True/>
                <TreeModel functionName="regression" splitCharacteristic="multiSplit">
                    <MiningSchema>
                        <MiningField name="Total_Bill" usageType="active"/>
                    </MiningSchema>
                    <Node id="1">
                        <True/>
                        <Node id="4" score="-9.288623415953008E-5">
                            <SimplePredicate field="Total_Bill" operator="isMissing"/>
                        </Node>
                        <Node id="2" score="-5.971305726411664E-4">
                            <SimplePredicate field="Total_Bill" operator="lessThan" value="24.335"/>
                        </Node>
                        <Node id="3" score="0.0011497158856702166">
                            <SimplePredicate field="Total_Bill" operator="greaterOrEqual" value="24.335"/>
                        </Node>
                    </Node>
                </TreeModel>
            </Segment>
            <Segment id="25">
                <True/>
                <TreeModel functionName="regression" splitCharacteristic="multiSplit">
                    <MiningSchema>
                        <MiningField name="Total_Bill" usageType="active"/>
                    </MiningSchema>
                    <Node id="1">
                        <True/>
                        <Node id="4" score="1.9232881968832808E-4">
                            <SimplePredicate field="Total_Bill" operator="isMissing"/>
                        </Node>
                        <Node id="2" score="-6.506642948450723E-4">
                            <SimplePredicate field="Total_Bill" operator="lessThan" value="19.284999999999997"/>
                        </Node>
                        <Node id="3" score="0.0012509713356139937">
                            <SimplePredicate field="Total_Bill" operator="greaterOrEqual" value="19.284999999999997"/>
                        </Node>
                    </Node>
                </TreeModel>
            </Segment>
            <Segment id="26">
                <True/>
                <TreeModel functionName="regression" splitCharacteristic="multiSplit">
                    <MiningSchema>
                        <MiningField name="Total_Bill" usageType="active"/>
                    </MiningSchema>
                    <Node id="1">
                        <True/>
                        <Node id="4" score="-1.1438105205224458E-4">
                            <SimplePredicate field="Total_Bill" operator="isMissing"/>
                        </Node>
                        <Node id="2" score="-9.716239845248654E-4">
                            <SimplePredicate field="Total_Bill" operator="lessThan" value="16.575"/>
                        </Node>
                        <Node id="3" score="6.91427304472019E-4">
                            <SimplePredicate field="Total_Bill" operator="greaterOrEqual" value="16.575"/>
                        </Node>
                    </Node>
                </TreeModel>
            </Segment>
            <Segment id="27">
                <True/>
                <TreeModel functionName="regression" splitCharacteristic="multiSplit">
                    <MiningSchema>
                        <MiningField name="Total_Bill" usageType="active"/>
                    </MiningSchema>
                    <Node id="1">
                        <True/>
                        <Node id="4" score="-8.568413837746281E-5">
                            <SimplePredicate field="Total_Bill" operator="isMissing"/>
                        </Node>
                        <Node id="2" score="-8.089813866778774E-4">
                            <SimplePredicate field="Total_Bill" operator="lessThan" value="16.534999999999997"/>
                        </Node>
                        <Node id="3" score="5.147890488908059E-4">
                            <SimplePredicate field="Total_Bill" operator="greaterOrEqual" value="16.534999999999997"/>
                        </Node>
                    </Node>
                </TreeModel>
            </Segment>
            <Segment id="28">
                <True/>
                <TreeModel functionName="regression" splitCharacteristic="multiSplit">
                    <MiningSchema>
                        <MiningField name="Total_Bill" usageType="active"/>
                    </MiningSchema>
                    <Node id="1">
                        <True/>
                        <Node id="4" score="7.652807367394747E-5">
                            <SimplePredicate field="Total_Bill" operator="isMissing"/>
                        </Node>
                        <Node id="2" score="-5.322012818095861E-4">
                            <SimplePredicate field="Total_Bill" operator="lessThan" value="20.795"/>
                        </Node>
                        <Node id="3" score="0.0011079861482432682">
                            <SimplePredicate field="Total_Bill" operator="greaterOrEqual" value="20.795"/>
                        </Node>
                    </Node>
                </TreeModel>
            </Segment>
            <Segment id="29">
                <True/>
                <TreeModel functionName="regression" splitCharacteristic="multiSplit">
                    <MiningSchema>
                        <MiningField name="Total_Bill" usageType="active"/>
                    </MiningSchema>
                    <Node id="1">
                        <True/>
                        <Node id="4" score="2.3058705090777694E-6">
                            <SimplePredicate field="Total_Bill" operator="isMissing"/>
                        </Node>
                        <Node id="2" score="-7.173946997038093E-4">
                            <SimplePredicate field="Total_Bill" operator="lessThan" value="19.79"/>
                        </Node>
                        <Node id="3" score="0.001027879183062442">
                            <SimplePredicate field="Total_Bill" operator="greaterOrEqual" value="19.79"/>
                        </Node>
                    </Node>
                </TreeModel>
            </Segment>
            <Segment id="30">
                <True/>
                <TreeModel functionName="regression" splitCharacteristic="multiSplit">
                    <MiningSchema>
                        <MiningField name="Total_Bill" usageType="active"/>
                    </MiningSchema>
                    <Node id="1">
                        <True/>
                        <Node id="4" score="-3.492091287789635E-5">
                            <SimplePredicate field="Total_Bill" operator="isMissing"/>
                        </Node>
                        <Node id="2" score="-3.2321152248885357E-4">
                            <SimplePredicate field="Total_Bill" operator="lessThan" value="30.865000000000002"/>
                        </Node>
                        <Node id="3" score="0.001827879949223673">
                            <SimplePredicate field="Total_Bill" operator="greaterOrEqual" value="30.865000000000002"/>
                        </Node>
                    </Node>
                </TreeModel>
            </Segment>
            <Segment id="31">
                <True/>
                <TreeModel functionName="regression" splitCharacteristic="multiSplit">
                    <MiningSchema>
                        <MiningField name="Total_Bill" usageType="active"/>
                    </MiningSchema>
                    <Node id="1">
                        <True/>
                        <Node id="4" score="1.233163289354428E-4">
                            <SimplePredicate field="Total_Bill" operator="isMissing"/>
                        </Node>
                        <Node id="2" score="-3.6784588826813873E-4">
                            <SimplePredicate field="Total_Bill" operator="lessThan" value="22.965000000000003"/>
                        </Node>
                        <Node id="3" score="0.0013966998550188024">
                            <SimplePredicate field="Total_Bill" operator="greaterOrEqual" value="22.965000000000003"/>
                        </Node>
                    </Node>
                </TreeModel>
            </Segment>
            <Segment id="32">
                <True/>
                <TreeModel functionName="regression" splitCharacteristic="multiSplit">
                    <MiningSchema>
                        <MiningField name="Total_Bill" usageType="active"/>
                    </MiningSchema>
                    <Node id="1">
                        <True/>
                        <Node id="4" score="-1.1899493682414797E-4">
                            <SimplePredicate field="Total_Bill" operator="isMissing"/>
                        </Node>
                        <Node id="2" score="-6.743811906484117E-4">
                            <SimplePredicate field="Total_Bill" operator="lessThan" value="19.79"/>
                        </Node>
                        <Node id="3" score="8.220762154891878E-4">
                            <SimplePredicate field="Total_Bill" operator="greaterOrEqual" value="19.79"/>
                        </Node>
                    </Node>
                </TreeModel>
            </Segment>
            <Segment id="33">
                <True/>
                <TreeModel functionName="regression" splitCharacteristic="multiSplit">
                    <MiningSchema>
                        <MiningField name="Total_Bill" usageType="active"/>
                    </MiningSchema>
                    <Node id="1">
                        <True/>
                        <Node id="4" score="3.158782194965381E-5">
                            <SimplePredicate field="Total_Bill" operator="isMissing"/>
                        </Node>
                        <Node id="2" score="-9.770666171103836E-4">
                            <SimplePredicate field="Total_Bill" operator="lessThan" value="16.25"/>
                        </Node>
                        <Node id="3" score="6.535913927033436E-4">
                            <SimplePredicate field="Total_Bill" operator="greaterOrEqual" value="16.25"/>
                        </Node>
                    </Node>
                </TreeModel>
            </Segment>
            <Segment id="34">
                <True/>
                <TreeModel functionName="regression" splitCharacteristic="multiSplit">
                    <MiningSchema>
                        <MiningField name="Total_Bill" usageType="active"/>
                    </MiningSchema>
                    <Node id="1">
                        <True/>
                        <Node id="4" score="5.832536429798955E-5">
                            <SimplePredicate field="Total_Bill" operator="isMissing"/>
                        </Node>
                        <Node id="2" score="-9.307187951225183E-4">
                            <SimplePredicate field="Total_Bill" operator="lessThan" value="16.25"/>
                        </Node>
                        <Node id="3" score="7.233722990807448E-4">
                            <SimplePredicate field="Total_Bill" operator="greaterOrEqual" value="16.25"/>
                        </Node>
                    </Node>
                </TreeModel>
            </Segment>
            <Segment id="35">
                <True/>
                <TreeModel functionName="regression" splitCharacteristic="multiSplit">
                    <MiningSchema>
                        <MiningField name="Total_Bill" usageType="active"/>
                    </MiningSchema>
                    <Node id="1">
                        <True/>
                        <Node id="4" score="8.40958285322213E-6">
                            <SimplePredicate field="Total_Bill" operator="isMissing"/>
                        </Node>
                        <Node id="2" score="-6.034130102954761E-4">
                            <SimplePredicate field="Total_Bill" operator="lessThan" value="20.840000000000003"/>
                        </Node>
                        <Node id="3" score="0.0010922096050023447">
                            <SimplePredicate field="Total_Bill" operator="greaterOrEqual" value="20.840000000000003"/>
                        </Node>
                    </Node>
                </TreeModel>
            </Segment>
            <Segment id="36">
                <True/>
                <TreeModel functionName="regression" splitCharacteristic="multiSplit">
                    <MiningSchema>
                        <MiningField name="Total_Bill" usageType="active"/>
                    </MiningSchema>
                    <Node id="1">
                        <True/>
                        <Node id="4" score="3.9670308533187705E-5">
                            <SimplePredicate field="Total_Bill" operator="isMissing"/>
                        </Node>
                        <Node id="2" score="-5.350580938634558E-4">
                            <SimplePredicate field="Total_Bill" operator="lessThan" value="20.83"/>
                        </Node>
                        <Node id="3" score="0.0010577606213500992">
                            <SimplePredicate field="Total_Bill" operator="greaterOrEqual" value="20.83"/>
                        </Node>
                    </Node>
                </TreeModel>
            </Segment>
            <Segment id="37">
                <True/>
                <TreeModel functionName="regression" splitCharacteristic="multiSplit">
                    <MiningSchema>
                        <MiningField name="Total_Bill" usageType="active"/>
                    </MiningSchema>
                    <Node id="1">
                        <True/>
                        <Node id="4" score="3.184174063880868E-5">
                            <SimplePredicate field="Total_Bill" operator="isMissing"/>
                        </Node>
                        <Node id="2" score="-6.192007102740045E-4">
                            <SimplePredicate field="Total_Bill" operator="lessThan" value="20.39"/>
                        </Node>
                        <Node id="3" score="8.49429934808388E-4">
                            <SimplePredicate field="Total_Bill" operator="greaterOrEqual" value="20.39"/>
                        </Node>
                    </Node>
                </TreeModel>
            </Segment>
            <Segment id="38">
                <True/>
                <TreeModel functionName="regression" splitCharacteristic="multiSplit">
                    <MiningSchema>
                        <MiningField name="Total_Bill" usageType="active"/>
                    </MiningSchema>
                    <Node id="1">
                        <True/>
                        <Node id="4" score="-5.6191272603491075E-5">
                            <SimplePredicate field="Total_Bill" operator="isMissing"/>
                        </Node>
                        <Node id="2" score="-5.945802631096976E-4">
                            <SimplePredicate field="Total_Bill" operator="lessThan" value="22.995"/>
                        </Node>
                        <Node id="3" score="0.001270553025429661">
                            <SimplePredicate field="Total_Bill" operator="greaterOrEqual" value="22.995"/>
                        </Node>
                    </Node>
                </TreeModel>
            </Segment>
            <Segment id="39">
                <True/>
                <TreeModel functionName="regression" splitCharacteristic="multiSplit">
                    <MiningSchema>
                        <MiningField name="Total_Bill" usageType="active"/>
                    </MiningSchema>
                    <Node id="1">
                        <True/>
                        <Node id="4" score="1.2442137028155064E-4">
                            <SimplePredicate field="Total_Bill" operator="isMissing"/>
                        </Node>
                        <Node id="2" score="-4.311619211789958E-4">
                            <SimplePredicate field="Total_Bill" operator="lessThan" value="22.96"/>
                        </Node>
                        <Node id="3" score="0.0012529499310607857">
                            <SimplePredicate field="Total_Bill" operator="greaterOrEqual" value="22.96"/>
                        </Node>
                    </Node>
                </TreeModel>
            </Segment>
            <Segment id="40">
                <True/>
                <TreeModel functionName="regression" splitCharacteristic="multiSplit">
                    <MiningSchema>
                        <MiningField name="Total_Bill" usageType="active"/>
                    </MiningSchema>
                    <Node id="1">
                        <True/>
                        <Node id="4" score="1.1346899530602776E-4">
                            <SimplePredicate field="Total_Bill" operator="isMissing"/>
                        </Node>
                        <Node id="2" score="-4.5300501504598174E-4">
                            <SimplePredicate field="Total_Bill" operator="lessThan" value="21.33"/>
                        </Node>
                        <Node id="3" score="0.0011631120144876925">
                            <SimplePredicate field="Total_Bill" operator="greaterOrEqual" value="21.33"/>
                        </Node>
                    </Node>
                </TreeModel>
            </Segment>
            <Segment id="41">
                <True/>
                <TreeModel functionName="regression" splitCharacteristic="multiSplit">
                    <MiningSchema>
                        <MiningField name="Total_Bill" usageType="active"/>
                    </MiningSchema>
                    <Node id="1">
                        <True/>
                        <Node id="4" score="3.096758376659285E-5">
                            <SimplePredicate field="Total_Bill" operator="isMissing"/>
                        </Node>
                        <Node id="2" score="-6.565739087044015E-4">
                            <SimplePredicate field="Total_Bill" operator="lessThan" value="17.979999999999997"/>
                        </Node>
                        <Node id="3" score="7.328328573307329E-4">
                            <SimplePredicate field="Total_Bill" operator="greaterOrEqual" value="17.979999999999997"/>
                        </Node>
                    </Node>
                </TreeModel>
            </Segment>
            <Segment id="42">
                <True/>
                <TreeModel functionName="regression" splitCharacteristic="multiSplit">
                    <MiningSchema>
                        <MiningField name="Total_Bill" usageType="active"/>
                    </MiningSchema>
                    <Node id="1">
                        <True/>
                        <Node id="4" score="-4.679000233657981E-5">
                            <SimplePredicate field="Total_Bill" operator="isMissing"/>
                        </Node>
                        <Node id="2" score="-3.8023302056646135E-4">
                            <SimplePredicate field="Total_Bill" operator="lessThan" value="29.41"/>
                        </Node>
                        <Node id="3" score="0.0025601281401879485">
                            <SimplePredicate field="Total_Bill" operator="greaterOrEqual" value="29.41"/>
                        </Node>
                    </Node>
                </TreeModel>
            </Segment>
            <Segment id="43">
                <True/>
                <TreeModel functionName="regression" splitCharacteristic="multiSplit">
                    <MiningSchema>
                        <MiningField name="Total_Bill" usageType="active"/>
                    </MiningSchema>
                    <Node id="1">
                        <True/>
                        <Node id="4" score="1.3667678659988341E-5">
                            <SimplePredicate field="Total_Bill" operator="isMissing"/>
                        </Node>
                        <Node id="2" score="-8.668730467919197E-4">
                            <SimplePredicate field="Total_Bill" operator="lessThan" value="16.575"/>
                        </Node>
                        <Node id="3" score="7.446826205445913E-4">
                            <SimplePredicate field="Total_Bill" operator="greaterOrEqual" value="16.575"/>
                        </Node>
                    </Node>
                </TreeModel>
            </Segment>
            <Segment id="44">
                <True/>
                <TreeModel functionName="regression" splitCharacteristic="multiSplit">
                    <MiningSchema>
                        <MiningField name="Total_Bill" usageType="active"/>
                    </MiningSchema>
                    <Node id="1">
                        <True/>
                        <Node id="4" score="-7.032399990499052E-5">
                            <SimplePredicate field="Total_Bill" operator="isMissing"/>
                        </Node>
                        <Node id="2" score="-6.002194119898081E-4">
                            <SimplePredicate field="Total_Bill" operator="lessThan" value="20.38"/>
                        </Node>
                        <Node id="3" score="7.177255872980715E-4">
                            <SimplePredicate field="Total_Bill" operator="greaterOrEqual" value="20.38"/>
                        </Node>
                    </Node>
                </TreeModel>
            </Segment>
            <Segment id="45">
                <True/>
                <TreeModel functionName="regression" splitCharacteristic="multiSplit">
                    <MiningSchema>
                        <MiningField name="Total_Bill" usageType="active"/>
                    </MiningSchema>
                    <Node id="1">
                        <True/>
                        <Node id="4" score="4.73338786376702E-5">
                            <SimplePredicate field="Total_Bill" operator="isMissing"/>
                        </Node>
                        <Node id="2" score="-9.943440531493604E-4">
                            <SimplePredicate field="Total_Bill" operator="lessThan" value="16.505"/>
                        </Node>
                        <Node id="3" score="7.477724879427425E-4">
                            <SimplePredicate field="Total_Bill" operator="greaterOrEqual" value="16.505"/>
                        </Node>
                    </Node>
                </TreeModel>
            </Segment>
            <Segment id="46">
                <True/>
                <TreeModel functionName="regression" splitCharacteristic="multiSplit">
                    <MiningSchema>
                        <MiningField name="Total_Bill" usageType="active"/>
                    </MiningSchema>
                    <Node id="1">
                        <True/>
                        <Node id="4" score="-2.5201792286684977E-5">
                            <SimplePredicate field="Total_Bill" operator="isMissing"/>
                        </Node>
                        <Node id="2" score="-5.786450678707923E-4">
                            <SimplePredicate field="Total_Bill" operator="lessThan" value="20.83"/>
                        </Node>
                        <Node id="3" score="9.551834387480195E-4">
                            <SimplePredicate field="Total_Bill" operator="greaterOrEqual" value="20.83"/>
                        </Node>
                    </Node>
                </TreeModel>
            </Segment>
            <Segment id="47">
                <True/>
                <TreeModel functionName="regression" splitCharacteristic="multiSplit">
                    <MiningSchema>
                        <MiningField name="Total_Bill" usageType="active"/>
                    </MiningSchema>
                    <Node id="1">
                        <True/>
                        <Node id="4" score="-2.288991182961891E-4">
                            <SimplePredicate field="Total_Bill" operator="isMissing"/>
                        </Node>
                        <Node id="2" score="-6.339376086585304E-4">
                            <SimplePredicate field="Total_Bill" operator="lessThan" value="22.995"/>
                        </Node>
                        <Node id="3" score="0.001151913917029974">
                            <SimplePredicate field="Total_Bill" operator="greaterOrEqual" value="22.995"/>
                        </Node>
                    </Node>
                </TreeModel>
            </Segment>
            <Segment id="48">
                <True/>
                <TreeModel functionName="regression" splitCharacteristic="multiSplit">
                    <MiningSchema>
                        <MiningField name="Total_Bill" usageType="active"/>
                    </MiningSchema>
                    <Node id="1">
                        <True/>
                        <Node id="4" score="2.3108160123888597E-4">
                            <SimplePredicate field="Total_Bill" operator="isMissing"/>
                        </Node>
                        <Node id="2" score="-4.014990184558027E-4">
                            <SimplePredicate field="Total_Bill" operator="lessThan" value="21.295"/>
                        </Node>
                        <Node id="3" score="0.0015160109849937221">
                            <SimplePredicate field="Total_Bill" operator="greaterOrEqual" value="21.295"/>
                        </Node>
                    </Node>
                </TreeModel>
            </Segment>
            <Segment id="49">
                <True/>
                <TreeModel functionName="regression" splitCharacteristic="multiSplit">
                    <MiningSchema>
                        <MiningField name="Total_Bill" usageType="active"/>
                    </MiningSchema>
                    <Node id="1">
                        <True/>
                        <Node id="4" score="-9.659364894762445E-5">
                            <SimplePredicate field="Total_Bill" operator="isMissing"/>
                        </Node>
                        <Node id="2" score="-3.3641840142579224E-4">
                            <SimplePredicate field="Total_Bill" operator="lessThan" value="28.495"/>
                        </Node>
                        <Node id="3" score="0.001989881697612435">
                            <SimplePredicate field="Total_Bill" operator="greaterOrEqual" value="28.495"/>
                        </Node>
                    </Node>
                </TreeModel>
            </Segment>
            <Segment id="50">
                <True/>
                <TreeModel functionName="regression" splitCharacteristic="multiSplit">
                    <MiningSchema>
                        <MiningField name="Total_Bill" usageType="active"/>
                    </MiningSchema>
                    <Node id="1">
                        <True/>
                        <Node id="4" score="1.802746857507383E-5">
                            <SimplePredicate field="Total_Bill" operator="isMissing"/>
                        </Node>
                        <Node id="2" score="-5.509863629545649E-4">
                            <SimplePredicate field="Total_Bill" operator="lessThan" value="21.355"/>
                        </Node>
                        <Node id="3" score="9.821897942225172E-4">
                            <SimplePredicate field="Total_Bill" operator="greaterOrEqual" value="21.355"/>
                        </Node>
                    </Node>
                </TreeModel>
            </Segment>
            <Segment id="51">
                <True/>
                <TreeModel functionName="regression" splitCharacteristic="multiSplit">
                    <MiningSchema>
                        <MiningField name="Total_Bill" usageType="active"/>
                    </MiningSchema>
                    <Node id="1">
                        <True/>
                        <Node id="4" score="-4.668994359184961E-5">
                            <SimplePredicate field="Total_Bill" operator="isMissing"/>
                        </Node>
                        <Node id="2" score="-3.299587780197671E-4">
                            <SimplePredicate field="Total_Bill" operator="lessThan" value="34.739999999999995"/>
                        </Node>
                        <Node id="3" score="0.0024177489159310324">
                            <SimplePredicate field="Total_Bill" operator="greaterOrEqual" value="34.739999999999995"/>
                        </Node>
                    </Node>
                </TreeModel>
            </Segment>
            <Segment id="52">
                <True/>
                <TreeModel functionName="regression" splitCharacteristic="multiSplit">
                    <MiningSchema>
                        <MiningField name="Total_Bill" usageType="active"/>
                    </MiningSchema>
                    <Node id="1">
                        <True/>
                        <Node id="4" score="5.583264298977064E-5">
                            <SimplePredicate field="Total_Bill" operator="isMissing"/>
                        </Node>
                        <Node id="2" score="-5.314315747749071E-4">
                            <SimplePredicate field="Total_Bill" operator="lessThan" value="20.39"/>
                        </Node>
                        <Node id="3" score="0.0010961292573157713">
                            <SimplePredicate field="Total_Bill" operator="greaterOrEqual" value="20.39"/>
                        </Node>
                    </Node>
                </TreeModel>
            </Segment>
            <Segment id="53">
                <True/>
                <TreeModel functionName="regression" splitCharacteristic="multiSplit">
                    <MiningSchema>
                        <MiningField name="Total_Bill" usageType="active"/>
                    </MiningSchema>
                    <Node id="1">
                        <True/>
                        <Node id="4" score="3.842562517978589E-5">
                            <SimplePredicate field="Total_Bill" operator="isMissing"/>
                        </Node>
                        <Node id="2" score="-4.1931679106633514E-4">
                            <SimplePredicate field="Total_Bill" operator="lessThan" value="23.735"/>
                        </Node>
                        <Node id="3" score="0.0014307254745950706">
                            <SimplePredicate field="Total_Bill" operator="greaterOrEqual" value="23.735"/>
                        </Node>
                    </Node>
                </TreeModel>
            </Segment>
            <Segment id="54">
                <True/>
                <TreeModel functionName="regression" splitCharacteristic="multiSplit">
                    <MiningSchema>
                        <MiningField name="Total_Bill" usageType="active"/>
                    </MiningSchema>
                    <Node id="1">
                        <True/>
                        <Node id="4" score="4.295469290328493E-5">
                            <SimplePredicate field="Total_Bill" operator="isMissing"/>
                        </Node>
                        <Node id="2" score="-4.462875543212299E-4">
                            <SimplePredicate field="Total_Bill" operator="lessThan" value="21.295"/>
                        </Node>
                        <Node id="3" score="0.001378962368016383">
                            <SimplePredicate field="Total_Bill" operator="greaterOrEqual" value="21.295"/>
                        </Node>
                    </Node>
                </TreeModel>
            </Segment>
            <Segment id="55">
                <True/>
                <TreeModel functionName="regression" splitCharacteristic="multiSplit">
                    <MiningSchema>
                        <MiningField name="Total_Bill" usageType="active"/>
                    </MiningSchema>
                    <Node id="1">
                        <True/>
                        <Node id="4" score="1.1059663095866328E-4">
                            <SimplePredicate field="Total_Bill" operator="isMissing"/>
                        </Node>
                        <Node id="2" score="-5.5171094783766E-4">
                            <SimplePredicate field="Total_Bill" operator="lessThan" value="21.295"/>
                        </Node>
                        <Node id="3" score="0.0011846089208986468">
                            <SimplePredicate field="Total_Bill" operator="greaterOrEqual" value="21.295"/>
                        </Node>
                    </Node>
                </TreeModel>
            </Segment>
            <Segment id="56">
                <True/>
                <TreeModel functionName="regression" splitCharacteristic="multiSplit">
                    <MiningSchema>
                        <MiningField name="Total_Bill" usageType="active"/>
                    </MiningSchema>
                    <Node id="1">
                        <True/>
                        <Node id="4" score="-9.473607864079315E-5">
                            <SimplePredicate field="Total_Bill" operator="isMissing"/>
                        </Node>
                        <Node id="2" score="-9.65057104550923E-4">
                            <SimplePredicate field="Total_Bill" operator="lessThan" value="16.18"/>
                        </Node>
                        <Node id="3" score="3.96574177921377E-4">
                            <SimplePredicate field="Total_Bill" operator="greaterOrEqual" value="16.18"/>
                        </Node>
                    </Node>
                </TreeModel>
            </Segment>
            <Segment id="57">
                <True/>
                <TreeModel functionName="regression" splitCharacteristic="multiSplit">
                    <MiningSchema>
                        <MiningField name="Total_Bill" usageType="active"/>
                    </MiningSchema>
                    <Node id="1">
                        <True/>
                        <Node id="4" score="-7.558099976120315E-5">
                            <SimplePredicate field="Total_Bill" operator="isMissing"/>
                        </Node>
                        <Node id="2" score="-9.326672699596162E-4">
                            <SimplePredicate field="Total_Bill" operator="lessThan" value="16.515"/>
                        </Node>
                        <Node id="3" score="5.789212429357668E-4">
                            <SimplePredicate field="Total_Bill" operator="greaterOrEqual" value="16.515"/>
                        </Node>
                    </Node>
                </TreeModel>
            </Segment>
            <Segment id="58">
                <True/>
                <TreeModel functionName="regression" splitCharacteristic="multiSplit">
                    <MiningSchema>
                        <MiningField name="Total_Bill" usageType="active"/>
                    </MiningSchema>
                    <Node id="1">
                        <True/>
                        <Node id="4" score="-9.865898245521098E-5">
                            <SimplePredicate field="Total_Bill" operator="isMissing"/>
                        </Node>
                        <Node id="2" score="-9.627733413061491E-4">
                            <SimplePredicate field="Total_Bill" operator="lessThan" value="16.534999999999997"/>
                        </Node>
                        <Node id="3" score="4.823834312549026E-4">
                            <SimplePredicate field="Total_Bill" operator="greaterOrEqual" value="16.534999999999997"/>
                        </Node>
                    </Node>
                </TreeModel>
            </Segment>
            <Segment id="59">
                <True/>
                <TreeModel functionName="regression" splitCharacteristic="multiSplit">
                    <MiningSchema>
                        <MiningField name="Total_Bill" usageType="active"/>
                    </MiningSchema>
                    <Node id="1">
                        <True/>
                        <Node id="4" score="3.190402065729637E-5">
                            <SimplePredicate field="Total_Bill" operator="isMissing"/>
                        </Node>
                        <Node id="2" score="-8.055118047232428E-4">
                            <SimplePredicate field="Total_Bill" operator="lessThan" value="17.685000000000002"/>
                        </Node>
                        <Node id="3" score="8.522297271525185E-4">
                            <SimplePredicate field="Total_Bill" operator="greaterOrEqual" value="17.685000000000002"/>
                        </Node>
                    </Node>
                </TreeModel>
            </Segment>
            <Segment id="60">
                <True/>
                <TreeModel functionName="regression" splitCharacteristic="multiSplit">
                    <MiningSchema>
                        <MiningField name="Total_Bill" usageType="active"/>
                    </MiningSchema>
                    <Node id="1">
                        <True/>
                        <Node id="4" score="-2.3486367167286546E-5">
                            <SimplePredicate field="Total_Bill" operator="isMissing"/>
                        </Node>
                        <Node id="2" score="-4.866217887146803E-4">
                            <SimplePredicate field="Total_Bill" operator="lessThan" value="21.255000000000003"/>
                        </Node>
                        <Node id="3" score="9.625438851594227E-4">
                            <SimplePredicate field="Total_Bill" operator="greaterOrEqual" value="21.255000000000003"/>
                        </Node>
                    </Node>
                </TreeModel>
            </Segment>
            <Segment id="61">
                <True/>
                <TreeModel functionName="regression" splitCharacteristic="multiSplit">
                    <MiningSchema>
                        <MiningField name="Total_Bill" usageType="active"/>
                    </MiningSchema>
                    <Node id="1">
                        <True/>
                        <Node id="4" score="2.66508885319028E-5">
                            <SimplePredicate field="Total_Bill" operator="isMissing"/>
                        </Node>
                        <Node id="2" score="-5.271780448737181E-4">
                            <SimplePredicate field="Total_Bill" operator="lessThan" value="21.295"/>
                        </Node>
                        <Node id="3" score="0.0011007433654397737">
                            <SimplePredicate field="Total_Bill" operator="greaterOrEqual" value="21.295"/>
                        </Node>
                    </Node>
                </TreeModel>
            </Segment>
            <Segment id="62">
                <True/>
                <TreeModel functionName="regression" splitCharacteristic="multiSplit">
                    <MiningSchema>
                        <MiningField name="Total_Bill" usageType="active"/>
                    </MiningSchema>
                    <Node id="1">
                        <True/>
                        <Node id="4" score="2.2036879951698347E-5">
                            <SimplePredicate field="Total_Bill" operator="isMissing"/>
                        </Node>
                        <Node id="2" score="-6.153383184436271E-4">
                            <SimplePredicate field="Total_Bill" operator="lessThan" value="18.095"/>
                        </Node>
                        <Node id="3" score="7.286919912160811E-4">
                            <SimplePredicate field="Total_Bill" operator="greaterOrEqual" value="18.095"/>
                        </Node>
                    </Node>
                </TreeModel>
            </Segment>
            <Segment id="63">
                <True/>
                <TreeModel functionName="regression" splitCharacteristic="multiSplit">
                    <MiningSchema>
                        <MiningField name="Total_Bill" usageType="active"/>
                    </MiningSchema>
                    <Node id="1">
                        <True/>
                        <Node id="4" score="9.674900796337724E-5">
                            <SimplePredicate field="Total_Bill" operator="isMissing"/>
                        </Node>
                        <Node id="2" score="-3.7647205447940377E-4">
                            <SimplePredicate field="Total_Bill" operator="lessThan" value="24.65"/>
                        </Node>
                        <Node id="3" score="0.0017100026299274034">
                            <SimplePredicate field="Total_Bill" operator="greaterOrEqual" value="24.65"/>
                        </Node>
                    </Node>
                </TreeModel>
            </Segment>
            <Segment id="64">
                <True/>
                <TreeModel functionName="regression" splitCharacteristic="multiSplit">
                    <MiningSchema>
                        <MiningField name="Total_Bill" usageType="active"/>
                    </MiningSchema>
                    <Node id="1">
                        <True/>
                        <Node id="4" score="5.6218669991831054E-5">
                            <SimplePredicate field="Total_Bill" operator="isMissing"/>
                        </Node>
                        <Node id="2" score="-8.556575127335492E-4">
                            <SimplePredicate field="Total_Bill" operator="lessThan" value="16.575"/>
                        </Node>
                        <Node id="3" score="5.709874828206748E-4">
                            <SimplePredicate field="Total_Bill" operator="greaterOrEqual" value="16.575"/>
                        </Node>
                    </Node>
                </TreeModel>
            </Segment>
            <Segment id="65">
                <True/>
                <TreeModel functionName="regression" splitCharacteristic="multiSplit">
                    <MiningSchema>
                        <MiningField name="Total_Bill" usageType="active"/>
                    </MiningSchema>
                    <Node id="1">
                        <True/>
                        <Node id="4" score="4.5069379666021934E-5">
                            <SimplePredicate field="Total_Bill" operator="isMissing"/>
                        </Node>
                        <Node id="2" score="-4.5044231875786603E-4">
                            <SimplePredicate field="Total_Bill" operator="lessThan" value="22.96"/>
                        </Node>
                        <Node id="3" score="0.0015522507957053478">
                            <SimplePredicate field="Total_Bill" operator="greaterOrEqual" value="22.96"/>
                        </Node>
                    </Node>
                </TreeModel>
            </Segment>
            <Segment id="66">
                <True/>
                <TreeModel functionName="regression" splitCharacteristic="multiSplit">
                    <MiningSchema>
                        <MiningField name="Total_Bill" usageType="active"/>
                    </MiningSchema>
                    <Node id="1">
                        <True/>
                        <Node id="4" score="-1.0261142043016045E-4">
                            <SimplePredicate field="Total_Bill" operator="isMissing"/>
                        </Node>
                        <Node id="2" score="-8.976847671829436E-4">
                            <SimplePredicate field="Total_Bill" operator="lessThan" value="17.25"/>
                        </Node>
                        <Node id="3" score="7.43211288881311E-4">
                            <SimplePredicate field="Total_Bill" operator="greaterOrEqual" value="17.25"/>
                        </Node>
                    </Node>
                </TreeModel>
            </Segment>
            <Segment id="67">
                <True/>
                <TreeModel functionName="regression" splitCharacteristic="multiSplit">
                    <MiningSchema>
                        <MiningField name="Total_Bill" usageType="active"/>
                    </MiningSchema>
                    <Node id="1">
                        <True/>
                        <Node id="4" score="-1.245164882004051E-4">
                            <SimplePredicate field="Total_Bill" operator="isMissing"/>
                        </Node>
                        <Node id="2" score="-9.94513990936457E-4">
                            <SimplePredicate field="Total_Bill" operator="lessThan" value="16.314999999999998"/>
                        </Node>
                        <Node id="3" score="5.124459691599186E-4">
                            <SimplePredicate field="Total_Bill" operator="greaterOrEqual" value="16.314999999999998"/>
                        </Node>
                    </Node>
                </TreeModel>
            </Segment>
            <Segment id="68">
                <True/>
                <TreeModel functionName="regression" splitCharacteristic="multiSplit">
                    <MiningSchema>
                        <MiningField name="Total_Bill" usageType="active"/>
                    </MiningSchema>
                    <Node id="1">
                        <True/>
                        <Node id="4" score="-1.4236384138585832E-4">
                            <SimplePredicate field="Total_Bill" operator="isMissing"/>
                        </Node>
                        <Node id="2" score="-9.111981752452498E-4">
                            <SimplePredicate field="Total_Bill" operator="lessThan" value="16.134999999999998"/>
                        </Node>
                        <Node id="3" score="3.746109693126981E-4">
                            <SimplePredicate field="Total_Bill" operator="greaterOrEqual" value="16.134999999999998"/>
                        </Node>
                    </Node>
                </TreeModel>
            </Segment>
            <Segment id="69">
                <True/>
                <TreeModel functionName="regression" splitCharacteristic="multiSplit">
                    <MiningSchema>
                        <MiningField name="Total_Bill" usageType="active"/>
                    </MiningSchema>
                    <Node id="1">
                        <True/>
                        <Node id="4" score="-1.785586449473116E-5">
                            <SimplePredicate field="Total_Bill" operator="isMissing"/>
                        </Node>
                        <Node id="2" score="-8.792833671384631E-4">
                            <SimplePredicate field="Total_Bill" operator="lessThan" value="16.515"/>
                        </Node>
                        <Node id="3" score="5.369618490724182E-4">
                            <SimplePredicate field="Total_Bill" operator="greaterOrEqual" value="16.515"/>
                        </Node>
                    </Node>
                </TreeModel>
            </Segment>
            <Segment id="70">
                <True/>
                <TreeModel functionName="regression" splitCharacteristic="multiSplit">
                    <MiningSchema>
                        <MiningField name="Total_Bill" usageType="active"/>
                    </MiningSchema>
                    <Node id="1">
                        <True/>
                        <Node id="4" score="5.225293464478867E-5">
                            <SimplePredicate field="Total_Bill" operator="isMissing"/>
                        </Node>
                        <Node id="2" score="-4.327227518657497E-4">
                            <SimplePredicate field="Total_Bill" operator="lessThan" value="29.384999999999998"/>
                        </Node>
                        <Node id="3" score="0.0020432057529512094">
                            <SimplePredicate field="Total_Bill" operator="greaterOrEqual" value="29.384999999999998"/>
                        </Node>
                    </Node>
                </TreeModel>
            </Segment>
            <Segment id="71">
                <True/>
                <TreeModel functionName="regression" splitCharacteristic="multiSplit">
                    <MiningSchema>
                        <MiningField name="Total_Bill" usageType="active"/>
                    </MiningSchema>
                    <Node id="1">
                        <True/>
                        <Node id="4" score="3.557948747310409E-5">
                            <SimplePredicate field="Total_Bill" operator="isMissing"/>
                        </Node>
                        <Node id="2" score="-2.974708455382098E-4">
                            <SimplePredicate field="Total_Bill" operator="lessThan" value="29.175"/>
                        </Node>
                        <Node id="3" score="0.0017216467983428808">
                            <SimplePredicate field="Total_Bill" operator="greaterOrEqual" value="29.175"/>
                        </Node>
                    </Node>
                </TreeModel>
            </Segment>
            <Segment id="72">
                <True/>
                <TreeModel functionName="regression" splitCharacteristic="multiSplit">
                    <MiningSchema>
                        <MiningField name="Total_Bill" usageType="active"/>
                    </MiningSchema>
                    <Node id="1">
                        <True/>
                        <Node id="4" score="8.6893201675788E-5">
                            <SimplePredicate field="Total_Bill" operator="isMissing"/>
                        </Node>
                        <Node id="2" score="-8.943657592147732E-4">
                            <SimplePredicate field="Total_Bill" operator="lessThan" value="16.16"/>
                        </Node>
                        <Node id="3" score="7.188904985205563E-4">
                            <SimplePredicate field="Total_Bill" operator="greaterOrEqual" value="16.16"/>
                        </Node>
                    </Node>
                </TreeModel>
            </Segment>
            <Segment id="73">
                <True/>
                <TreeModel functionName="regression" splitCharacteristic="multiSplit">
                    <MiningSchema>
                        <MiningField name="Total_Bill" usageType="active"/>
                    </MiningSchema>
                    <Node id="1">
                        <True/>
                        <Node id="4" score="-1.4996564956005804E-4">
                            <SimplePredicate field="Total_Bill" operator="isMissing"/>
                        </Node>
                        <Node id="2" score="-4.368960277163889E-4">
                            <SimplePredicate field="Total_Bill" operator="lessThan" value="29.384999999999998"/>
                        </Node>
                        <Node id="3" score="0.0017040460246808495">
                            <SimplePredicate field="Total_Bill" operator="greaterOrEqual" value="29.384999999999998"/>
                        </Node>
                    </Node>
                </TreeModel>
            </Segment>
            <Segment id="74">
                <True/>
                <TreeModel functionName="regression" splitCharacteristic="multiSplit">
                    <MiningSchema>
                        <MiningField name="Total_Bill" usageType="active"/>
                    </MiningSchema>
                    <Node id="1">
                        <True/>
                        <Node id="4" score="-7.251442056284191E-5">
                            <SimplePredicate field="Total_Bill" operator="isMissing"/>
                        </Node>
                        <Node id="2" score="-0.0010421039927990487">
                            <SimplePredicate field="Total_Bill" operator="lessThan" value="16.314999999999998"/>
                        </Node>
                        <Node id="3" score="5.519669988435284E-4">
                            <SimplePredicate field="Total_Bill" operator="greaterOrEqual" value="16.314999999999998"/>
                        </Node>
                    </Node>
                </TreeModel>
            </Segment>
            <Segment id="75">
                <True/>
                <TreeModel functionName="regression" splitCharacteristic="multiSplit">
                    <MiningSchema>
                        <MiningField name="Total_Bill" usageType="active"/>
                    </MiningSchema>
                    <Node id="1">
                        <True/>
                        <Node id="4" score="7.18062422621916E-5">
                            <SimplePredicate field="Total_Bill" operator="isMissing"/>
                        </Node>
                        <Node id="2" score="-5.555938790100282E-4">
                            <SimplePredicate field="Total_Bill" operator="lessThan" value="24.630000000000003"/>
                        </Node>
                        <Node id="3" score="0.0015429513542108448">
                            <SimplePredicate field="Total_Bill" operator="greaterOrEqual" value="24.630000000000003"/>
                        </Node>
                    </Node>
                </TreeModel>
            </Segment>
            <Segment id="76">
                <True/>
                <TreeModel functionName="regression" splitCharacteristic="multiSplit">
                    <MiningSchema>
                        <MiningField name="Total_Bill" usageType="active"/>
                    </MiningSchema>
                    <Node id="1">
                        <True/>
                        <Node id="4" score="-3.592436357136614E-5">
                            <SimplePredicate field="Total_Bill" operator="isMissing"/>
                        </Node>
                        <Node id="2" score="-5.424385841127783E-4">
                            <SimplePredicate field="Total_Bill" operator="lessThan" value="22.995"/>
                        </Node>
                        <Node id="3" score="0.0013472490848301826">
                            <SimplePredicate field="Total_Bill" operator="greaterOrEqual" value="22.995"/>
                        </Node>
                    </Node>
                </TreeModel>
            </Segment>
            <Segment id="77">
                <True/>
                <TreeModel functionName="regression" splitCharacteristic="multiSplit">
                    <MiningSchema>
                        <MiningField name="Total_Bill" usageType="active"/>
                    </MiningSchema>
                    <Node id="1">
                        <True/>
                        <Node id="4" score="5.324658320008359E-5">
                            <SimplePredicate field="Total_Bill" operator="isMissing"/>
                        </Node>
                        <Node id="2" score="-4.1051763235156033E-4">
                            <SimplePredicate field="Total_Bill" operator="lessThan" value="22.96"/>
                        </Node>
                        <Node id="3" score="0.001319679633360342">
                            <SimplePredicate field="Total_Bill" operator="greaterOrEqual" value="22.96"/>
                        </Node>
                    </Node>
                </TreeModel>
            </Segment>
            <Segment id="78">
                <True/>
                <TreeModel functionName="regression" splitCharacteristic="multiSplit">
                    <MiningSchema>
                        <MiningField name="Total_Bill" usageType="active"/>
                    </MiningSchema>
                    <Node id="1">
                        <True/>
                        <Node id="4" score="8.168723750924038E-5">
                            <SimplePredicate field="Total_Bill" operator="isMissing"/>
                        </Node>
                        <Node id="2" score="-9.150703095049822E-4">
                            <SimplePredicate field="Total_Bill" operator="lessThan" value="16.16"/>
                        </Node>
                        <Node id="3" score="8.428475461382832E-4">
                            <SimplePredicate field="Total_Bill" operator="greaterOrEqual" value="16.16"/>
                        </Node>
                    </Node>
                </TreeModel>
            </Segment>
            <Segment id="79">
                <True/>
                <TreeModel functionName="regression" splitCharacteristic="multiSplit">
                    <MiningSchema>
                        <MiningField name="Total_Bill" usageType="active"/>
                    </MiningSchema>
                    <Node id="1">
                        <True/>
                        <Node id="4" score="-1.936295385280473E-4">
                            <SimplePredicate field="Total_Bill" operator="isMissing"/>
                        </Node>
                        <Node id="2" score="-9.969766677669053E-4">
                            <SimplePredicate field="Total_Bill" operator="lessThan" value="16.145"/>
                        </Node>
                        <Node id="3" score="3.7012283286764244E-4">
                            <SimplePredicate field="Total_Bill" operator="greaterOrEqual" value="16.145"/>
                        </Node>
                    </Node>
                </TreeModel>
            </Segment>
            <Segment id="80">
                <True/>
                <TreeModel functionName="regression" splitCharacteristic="multiSplit">
                    <MiningSchema>
                        <MiningField name="Total_Bill" usageType="active"/>
                    </MiningSchema>
                    <Node id="1">
                        <True/>
                        <Node id="4" score="9.51008514323894E-6">
                            <SimplePredicate field="Total_Bill" operator="isMissing"/>
                        </Node>
                        <Node id="2" score="-8.9878851462855E-4">
                            <SimplePredicate field="Total_Bill" operator="lessThan" value="16.134999999999998"/>
                        </Node>
                        <Node id="3" score="4.997029802581727E-4">
                            <SimplePredicate field="Total_Bill" operator="greaterOrEqual" value="16.134999999999998"/>
                        </Node>
                    </Node>
                </TreeModel>
            </Segment>
            <Segment id="81">
                <True/>
                <TreeModel functionName="regression" splitCharacteristic="multiSplit">
                    <MiningSchema>
                        <MiningField name="Total_Bill" usageType="active"/>
                    </MiningSchema>
                    <Node id="1">
                        <True/>
                        <Node id="4" score="1.4887713887291236E-4">
                            <SimplePredicate field="Total_Bill" operator="isMissing"/>
                        </Node>
                        <Node id="2" score="-5.677447956263667E-4">
                            <SimplePredicate field="Total_Bill" operator="lessThan" value="17.685000000000002"/>
                        </Node>
                        <Node id="3" score="8.804286970075931E-4">
                            <SimplePredicate field="Total_Bill" operator="greaterOrEqual" value="17.685000000000002"/>
                        </Node>
                    </Node>
                </TreeModel>
            </Segment>
            <Segment id="82">
                <True/>
                <TreeModel functionName="regression" splitCharacteristic="multiSplit">
                    <MiningSchema>
                        <MiningField name="Total_Bill" usageType="active"/>
                    </MiningSchema>
                    <Node id="1">
                        <True/>
                        <Node id="4" score="-1.3408650865528884E-4">
                            <SimplePredicate field="Total_Bill" operator="isMissing"/>
                        </Node>
                        <Node id="2" score="-9.92409518440887E-4">
                            <SimplePredicate field="Total_Bill" operator="lessThan" value="16.534999999999997"/>
                        </Node>
                        <Node id="3" score="5.493929250628727E-4">
                            <SimplePredicate field="Total_Bill" operator="greaterOrEqual" value="16.534999999999997"/>
                        </Node>
                    </Node>
                </TreeModel>
            </Segment>
            <Segment id="83">
                <True/>
                <TreeModel functionName="regression" splitCharacteristic="multiSplit">
                    <MiningSchema>
                        <MiningField name="Total_Bill" usageType="active"/>
                    </MiningSchema>
                    <Node id="1">
                        <True/>
                        <Node id="4" score="-7.395123585522531E-5">
                            <SimplePredicate field="Total_Bill" operator="isMissing"/>
                        </Node>
                        <Node id="2" score="-6.809967080403403E-4">
                            <SimplePredicate field="Total_Bill" operator="lessThan" value="20.83"/>
                        </Node>
                        <Node id="3" score="0.001103349073837119">
                            <SimplePredicate field="Total_Bill" operator="greaterOrEqual" value="20.83"/>
                        </Node>
                    </Node>
                </TreeModel>
            </Segment>
            <Segment id="84">
                <True/>
                <TreeModel functionName="regression" splitCharacteristic="multiSplit">
                    <MiningSchema>
                        <MiningField name="Total_Bill" usageType="active"/>
                    </MiningSchema>
                    <Node id="1">
                        <True/>
                        <Node id="4" score="2.279135287453896E-5">
                            <SimplePredicate field="Total_Bill" operator="isMissing"/>
                        </Node>
                        <Node id="2" score="-6.859453742436526E-4">
                            <SimplePredicate field="Total_Bill" operator="lessThan" value="19.79"/>
                        </Node>
                        <Node id="3" score="9.128328241392446E-4">
                            <SimplePredicate field="Total_Bill" operator="greaterOrEqual" value="19.79"/>
                        </Node>
                    </Node>
                </TreeModel>
            </Segment>
            <Segment id="85">
                <True/>
                <TreeModel functionName="regression" splitCharacteristic="multiSplit">
                    <MiningSchema>
                        <MiningField name="Total_Bill" usageType="active"/>
                    </MiningSchema>
                    <Node id="1">
                        <True/>
                        <Node id="4" score="-7.084090138344014E-5">
                            <SimplePredicate field="Total_Bill" operator="isMissing"/>
                        </Node>
                        <Node id="2" score="-7.098870235363961E-4">
                            <SimplePredicate field="Total_Bill" operator="lessThan" value="19.445"/>
                        </Node>
                        <Node id="3" score="6.989192003008022E-4">
                            <SimplePredicate field="Total_Bill" operator="greaterOrEqual" value="19.445"/>
                        </Node>
                    </Node>
                </TreeModel>
            </Segment>
            <Segment id="86">
                <True/>
                <TreeModel functionName="regression" splitCharacteristic="multiSplit">
                    <MiningSchema>
                        <MiningField name="Total_Bill" usageType="active"/>
                    </MiningSchema>
                    <Node id="1">
                        <True/>
                        <Node id="4" score="1.6752595768299272E-5">
                            <SimplePredicate field="Total_Bill" operator="isMissing"/>
                        </Node>
                        <Node id="2" score="-3.0413629679812464E-4">
                            <SimplePredicate field="Total_Bill" operator="lessThan" value="27.04"/>
                        </Node>
                        <Node id="3" score="0.001919165315983527">
                            <SimplePredicate field="Total_Bill" operator="greaterOrEqual" value="27.04"/>
                        </Node>
                    </Node>
                </TreeModel>
            </Segment>
            <Segment id="87">
                <True/>
                <TreeModel functionName="regression" splitCharacteristic="multiSplit">
                    <MiningSchema>
                        <MiningField name="Total_Bill" usageType="active"/>
                    </MiningSchema>
                    <Node id="1">
                        <True/>
                        <Node id="4" score="-5.2792657336760516E-5">
                            <SimplePredicate field="Total_Bill" operator="isMissing"/>
                        </Node>
                        <Node id="2" score="-5.263049334750427E-4">
                            <SimplePredicate field="Total_Bill" operator="lessThan" value="21.695"/>
                        </Node>
                        <Node id="3" score="0.0011140768802897208">
                            <SimplePredicate field="Total_Bill" operator="greaterOrEqual" value="21.695"/>
                        </Node>
                    </Node>
                </TreeModel>
            </Segment>
            <Segment id="88">
                <True/>
                <TreeModel functionName="regression" splitCharacteristic="multiSplit">
                    <MiningSchema>
                        <MiningField name="Total_Bill" usageType="active"/>
                    </MiningSchema>
                    <Node id="1">
                        <True/>
                        <Node id="4" score="1.001966907256345E-4">
                            <SimplePredicate field="Total_Bill" operator="isMissing"/>
                        </Node>
                        <Node id="2" score="-4.466388989407081E-4">
                            <SimplePredicate field="Total_Bill" operator="lessThan" value="22.995"/>
                        </Node>
                        <Node id="3" score="0.001210956482235393">
                            <SimplePredicate field="Total_Bill" operator="greaterOrEqual" value="22.995"/>
                        </Node>
                    </Node>
                </TreeModel>
            </Segment>
            <Segment id="89">
                <True/>
                <TreeModel functionName="regression" splitCharacteristic="multiSplit">
                    <MiningSchema>
                        <MiningField name="Total_Bill" usageType="active"/>
                    </MiningSchema>
                    <Node id="1">
                        <True/>
                        <Node id="4" score="2.9963142177529774E-5">
                            <SimplePredicate field="Total_Bill" operator="isMissing"/>
                        </Node>
                        <Node id="2" score="-8.071668390354077E-4">
                            <SimplePredicate field="Total_Bill" operator="lessThan" value="16.145"/>
                        </Node>
                        <Node id="3" score="6.174227781164333E-4">
                            <SimplePredicate field="Total_Bill" operator="greaterOrEqual" value="16.145"/>
                        </Node>
                    </Node>
                </TreeModel>
            </Segment>
            <Segment id="90">
                <True/>
                <TreeModel functionName="regression" splitCharacteristic="multiSplit">
                    <MiningSchema>
                        <MiningField name="Total_Bill" usageType="active"/>
                    </MiningSchema>
                    <Node id="1">
                        <True/>
                        <Node id="4" score="5.578132247831021E-6">
                            <SimplePredicate field="Total_Bill" operator="isMissing"/>
                        </Node>
                        <Node id="2" score="-6.768565578095911E-4">
                            <SimplePredicate field="Total_Bill" operator="lessThan" value="18.095"/>
                        </Node>
                        <Node id="3" score="7.022302116814494E-4">
                            <SimplePredicate field="Total_Bill" operator="greaterOrEqual" value="18.095"/>
                        </Node>
                    </Node>
                </TreeModel>
            </Segment>
            <Segment id="91">
                <True/>
                <TreeModel functionName="regression" splitCharacteristic="multiSplit">
                    <MiningSchema>
                        <MiningField name="Total_Bill" usageType="active"/>
                    </MiningSchema>
                    <Node id="1">
                        <True/>
                        <Node id="4" score="2.7206922217389906E-6">
                            <SimplePredicate field="Total_Bill" operator="isMissing"/>
                        </Node>
                        <Node id="2" score="-9.554632014087807E-4">
                            <SimplePredicate field="Total_Bill" operator="lessThan" value="17.03"/>
                        </Node>
                        <Node id="3" score="7.981941133489628E-4">
                            <SimplePredicate field="Total_Bill" operator="greaterOrEqual" value="17.03"/>
                        </Node>
                    </Node>
                </TreeModel>
            </Segment>
            <Segment id="92">
                <True/>
                <TreeModel functionName="regression" splitCharacteristic="multiSplit">
                    <MiningSchema>
                        <MiningField name="Total_Bill" usageType="active"/>
                    </MiningSchema>
                    <Node id="1">
                        <True/>
                        <Node id="4" score="7.185523150700215E-5">
                            <SimplePredicate field="Total_Bill" operator="isMissing"/>
                        </Node>
                        <Node id="2" score="-4.072350012685835E-4">
                            <SimplePredicate field="Total_Bill" operator="lessThan" value="21.54"/>
                        </Node>
                        <Node id="3" score="0.0012524704479896954">
                            <SimplePredicate field="Total_Bill" operator="greaterOrEqual" value="21.54"/>
                        </Node>
                    </Node>
                </TreeModel>
            </Segment>
            <Segment id="93">
                <True/>
                <TreeModel functionName="regression" splitCharacteristic="multiSplit">
                    <MiningSchema>
                        <MiningField name="Total_Bill" usageType="active"/>
                    </MiningSchema>
                    <Node id="1">
                        <True/>
                        <Node id="4" score="2.494072159211278E-4">
                            <SimplePredicate field="Total_Bill" operator="isMissing"/>
                        </Node>
                        <Node id="2" score="-2.87904950278539E-4">
                            <SimplePredicate field="Total_Bill" operator="lessThan" value="25.105"/>
                        </Node>
                        <Node id="3" score="0.0017968662545761684">
                            <SimplePredicate field="Total_Bill" operator="greaterOrEqual" value="25.105"/>
                        </Node>
                    </Node>
                </TreeModel>
            </Segment>
            <Segment id="94">
                <True/>
                <TreeModel functionName="regression" splitCharacteristic="multiSplit">
                    <MiningSchema>
                        <MiningField name="Total_Bill" usageType="active"/>
                    </MiningSchema>
                    <Node id="1">
                        <True/>
                        <Node id="4" score="-1.7194074731295095E-4">
                            <SimplePredicate field="Total_Bill" operator="isMissing"/>
                        </Node>
                        <Node id="2" score="-0.0010332822124856076">
                            <SimplePredicate field="Total_Bill" operator="lessThan" value="16.165"/>
                        </Node>
                        <Node id="3" score="4.325094036854046E-4">
                            <SimplePredicate field="Total_Bill" operator="greaterOrEqual" value="16.165"/>
                        </Node>
                    </Node>
                </TreeModel>
            </Segment>
            <Segment id="95">
                <True/>
                <TreeModel functionName="regression" splitCharacteristic="multiSplit">
                    <MiningSchema>
                        <MiningField name="Total_Bill" usageType="active"/>
                    </MiningSchema>
                    <Node id="1">
                        <True/>
                        <Node id="4" score="-1.1033852287720989E-4">
                            <SimplePredicate field="Total_Bill" operator="isMissing"/>
                        </Node>
                        <Node id="2" score="-3.7369255320247565E-4">
                            <SimplePredicate field="Total_Bill" operator="lessThan" value="26.869999999999997"/>
                        </Node>
                        <Node id="3" score="0.0021808415409526024">
