<?xml version="1.0" encoding="UTF-8" standalone="yes"?>
<PMML xmlns="http://www.dmg.org/PMML-4_2" version="4.2">
    <Header>
        <Application name="JPMML-Converter" version="1.0-SNAPSHOT"/>
        <Timestamp>2017-11-07T09:26:48Z</Timestamp>
    </Header>
    <DataDictionary>
        <DataField name="Price" optype="continuous" dataType="double"/>
        <DataField name="Mileage" optype="continuous" dataType="double"/>
        <DataField name="Cylinder" optype="continuous" dataType="double"/>
        <DataField name="Doors" optype="continuous" dataType="double"/>
        <DataField name="Cruise" optype="continuous" dataType="double"/>
        <DataField name="Sound" optype="continuous" dataType="double"/>
        <DataField name="Leather" optype="continuous" dataType="double"/>
        <DataField name="Buick" optype="continuous" dataType="double"/>
        <DataField name="Cadillac" optype="continuous" dataType="double"/>
        <DataField name="Chevy" optype="continuous" dataType="double"/>
        <DataField name="Pontiac" optype="continuous" dataType="double"/>
        <DataField name="Saab" optype="continuous" dataType="double"/>
        <DataField name="Saturn" optype="continuous" dataType="double"/>
        <DataField name="Convertible" optype="continuous" dataType="double"/>
        <DataField name="Coupe" optype="continuous" dataType="double"/>
        <DataField name="Hatchback" optype="continuous" dataType="double"/>
        <DataField name="Sedan" optype="continuous" dataType="double"/>
        <DataField name="Wagon" optype="continuous" dataType="double"/>
    </DataDictionary>
    <MiningModel functionName="regression">
        <MiningSchema>
            <MiningField name="Price" usageType="target"/>
            <MiningField name="Mileage" usageType="active"/>
            <MiningField name="Cylinder" usageType="active"/>
            <MiningField name="Doors" usageType="active"/>
            <MiningField name="Cruise" usageType="active"/>
            <MiningField name="Sound" usageType="active"/>
            <MiningField name="Leather" usageType="active"/>
            <MiningField name="Buick" usageType="active"/>
            <MiningField name="Cadillac" usageType="active"/>
            <MiningField name="Chevy" usageType="active"/>
            <MiningField name="Pontiac" usageType="active"/>
            <MiningField name="Saab" usageType="active"/>
            <MiningField name="Saturn" usageType="active"/>
            <MiningField name="Convertible" usageType="active"/>
            <MiningField name="Coupe" usageType="active"/>
            <MiningField name="Hatchback" usageType="active"/>
            <MiningField name="Sedan" usageType="active"/>
            <MiningField name="Wagon" usageType="active"/>
        </MiningSchema>
        <Targets>
            <Target field="Price" rescaleConstant="18678.41"/>
        </Targets>
        <Segmentation multipleModelMethod="sum">
            <Segment id="1">
                <True/>
                <TreeModel functionName="regression" splitCharacteristic="multiSplit">
                    <MiningSchema>
                        <MiningField name="Cruise" usageType="active"/>
                    </MiningSchema>
                    <Node id="1">
                        <True/>
                        <Node id="4" score="1.689509501557633">
                            <SimplePredicate field="Cruise" operator="isMissing"/>
                        </Node>
                        <Node id="2" score="-4.97475">
                            <SimplePredicate field="Cruise" operator="lessThan" value="0.5"/>
                        </Node>
                        <Node id="3" score="3.756790000000001">
                            <SimplePredicate field="Cruise" operator="greaterOrEqual" value="0.5"/>
                        </Node>
                    </Node>
                </TreeModel>
            </Segment>
            <Segment id="2">
                <True/>
                <TreeModel functionName="regression" splitCharacteristic="multiSplit">
                    <MiningSchema>
                        <MiningField name="Cruise" usageType="active"/>
                    </MiningSchema>
                    <Node id="1">
                        <True/>
                        <Node id="4" score="1.2704991197819322">
                            <SimplePredicate field="Cruise" operator="isMissing"/>
                        </Node>
                        <Node id="2" score="-4.787300249999999">
                            <SimplePredicate field="Cruise" operator="lessThan" value="0.5"/>
                        </Node>
                        <Node id="3" score="3.1496532100000003">
                            <SimplePredicate field="Cruise" operator="greaterOrEqual" value="0.5"/>
                        </Node>
                    </Node>
                </TreeModel>
            </Segment>
            <Segment id="3">
                <True/>
                <TreeModel functionName="regression" splitCharacteristic="multiSplit">
                    <MiningSchema>
                        <MiningField name="Cruise" usageType="active"/>
                    </MiningSchema>
                    <Node id="1">
                        <True/>
                        <Node id="4" score="1.232952679892929">
                            <SimplePredicate field="Cruise" operator="isMissing"/>
                        </Node>
                        <Node id="2" score="-4.65753294975">
                            <SimplePredicate field="Cruise" operator="lessThan" value="0.5"/>
                        </Node>
                        <Node id="3" score="2.9977135567900004">
                            <SimplePredicate field="Cruise" operator="greaterOrEqual" value="0.5"/>
                        </Node>
                    </Node>
                </TreeModel>
            </Segment>
            <Segment id="4">
                <True/>
                <TreeModel functionName="regression" splitCharacteristic="multiSplit">
                    <MiningSchema>
                        <MiningField name="Cruise" usageType="active"/>
                    </MiningSchema>
                    <Node id="1">
                        <True/>
                        <Node id="4" score="1.3020621961229026">
                            <SimplePredicate field="Cruise" operator="isMissing"/>
                        </Node>
                        <Node id="2" score="-5.496895416800251">
                            <SimplePredicate field="Cruise" operator="lessThan" value="0.5"/>
                        </Node>
                        <Node id="3" score="3.2680258432332123">
                            <SimplePredicate field="Cruise" operator="greaterOrEqual" value="0.5"/>
                        </Node>
                    </Node>
                </TreeModel>
            </Segment>
            <Segment id="5">
                <True/>
                <TreeModel functionName="regression" splitCharacteristic="multiSplit">
                    <MiningSchema>
                        <MiningField name="Cruise" usageType="active"/>
                    </MiningSchema>
                    <Node id="1">
                        <True/>
                        <Node id="4" score="0.9655753425478356">
                            <SimplePredicate field="Cruise" operator="isMissing"/>
                        </Node>
                        <Node id="2" score="-4.65100352138345">
                            <SimplePredicate field="Cruise" operator="lessThan" value="0.5"/>
                        </Node>
                        <Node id="3" score="2.7684278173899766">
                            <SimplePredicate field="Cruise" operator="greaterOrEqual" value="0.5"/>
                        </Node>
                    </Node>
                </TreeModel>
            </Segment>
            <Segment id="6">
                <True/>
                <TreeModel functionName="regression" splitCharacteristic="multiSplit">
                    <MiningSchema>
                        <MiningField name="Cruise" usageType="active"/>
                    </MiningSchema>
                    <Node id="1">
                        <True/>
                        <Node id="4" score="0.9601604228527222">
                            <SimplePredicate field="Cruise" operator="isMissing"/>
                        </Node>
                        <Node id="2" score="-5.4369325178620675">
                            <SimplePredicate field="Cruise" operator="lessThan" value="0.5"/>
                        </Node>
                        <Node id="3" score="3.1910793895725855">
                            <SimplePredicate field="Cruise" operator="greaterOrEqual" value="0.5"/>
                        </Node>
                    </Node>
                </TreeModel>
            </Segment>
            <Segment id="7">
                <True/>
                <TreeModel functionName="regression" splitCharacteristic="multiSplit">
                    <MiningSchema>
                        <MiningField name="Cruise" usageType="active"/>
                    </MiningSchema>
                    <Node id="1">
                        <True/>
                        <Node id="4" score="0.7230200148359874">
                            <SimplePredicate field="Cruise" operator="isMissing"/>
                        </Node>
                        <Node id="2" score="-5.378530585344205">
                            <SimplePredicate field="Cruise" operator="lessThan" value="0.5"/>
                        </Node>
                        <Node id="3" score="3.0274683101830124">
                            <SimplePredicate field="Cruise" operator="greaterOrEqual" value="0.5"/>
                        </Node>
                    </Node>
                </TreeModel>
            </Segment>
            <Segment id="8">
                <True/>
                <TreeModel functionName="regression" splitCharacteristic="multiSplit">
                    <MiningSchema>
                        <MiningField name="Cruise" usageType="active"/>
                    </MiningSchema>
                    <Node id="1">
                        <True/>
                        <Node id="4" score="1.676769988807713">
                            <SimplePredicate field="Cruise" operator="isMissing"/>
                        </Node>
                        <Node id="2" score="-4.648117054758859">
                            <SimplePredicate field="Cruise" operator="lessThan" value="0.5"/>
                        </Node>
                        <Node id="3" score="3.7415058418728333">
                            <SimplePredicate field="Cruise" operator="greaterOrEqual" value="0.5"/>
                        </Node>
                    </Node>
                </TreeModel>
            </Segment>
            <Segment id="9">
                <True/>
                <TreeModel functionName="regression" splitCharacteristic="multiSplit">
                    <MiningSchema>
                        <MiningField name="Cruise" usageType="active"/>
                    </MiningSchema>
                    <Node id="1">
                        <True/>
                        <Node id="4" score="1.0328120188849625">
                            <SimplePredicate field="Cruise" operator="isMissing"/>
                        </Node>
                        <Node id="2" score="-5.375508937704099">
                            <SimplePredicate field="Cruise" operator="lessThan" value="0.5"/>
                        </Node>
                        <Node id="3" score="3.0206993360309573">
                            <SimplePredicate field="Cruise" operator="greaterOrEqual" value="0.5"/>
                        </Node>
                    </Node>
                </TreeModel>
            </Segment>
            <Segment id="10">
                <True/>
                <TreeModel functionName="regression" splitCharacteristic="multiSplit">
                    <MiningSchema>
                        <MiningField name="Cruise" usageType="active"/>
                    </MiningSchema>
                    <Node id="1">
                        <True/>
                        <Node id="4" score="0.8074207956511271">
                            <SimplePredicate field="Cruise" operator="isMissing"/>
                        </Node>
                        <Node id="2" score="-4.860808428766395">
                            <SimplePredicate field="Cruise" operator="lessThan" value="0.5"/>
                        </Node>
                        <Node id="3" score="2.56572863669493">
                            <SimplePredicate field="Cruise" operator="greaterOrEqual" value="0.5"/>
                        </Node>
                    </Node>
                </TreeModel>
            </Segment>
            <Segment id="11">
                <True/>
                <TreeModel functionName="regression" splitCharacteristic="multiSplit">
                    <MiningSchema>
                        <MiningField name="Cruise" usageType="active"/>
                    </MiningSchema>
                    <Node id="1">
                        <True/>
                        <Node id="4" score="0.9773826444143394">
                            <SimplePredicate field="Cruise" operator="isMissing"/>
                        </Node>
                        <Node id="2" score="-4.550172620337629">
                            <SimplePredicate field="Cruise" operator="lessThan" value="0.5"/>
                        </Node>
                        <Node id="3" score="2.6626129080582324">
                            <SimplePredicate field="Cruise" operator="greaterOrEqual" value="0.5"/>
                        </Node>
                    </Node>
                </TreeModel>
            </Segment>
            <Segment id="12">
                <True/>
                <TreeModel functionName="regression" splitCharacteristic="multiSplit">
                    <MiningSchema>
                        <MiningField name="Cruise" usageType="active"/>
                    </MiningSchema>
                    <Node id="1">
                        <True/>
                        <Node id="4" score="1.4560558903412577">
                            <SimplePredicate field="Cruise" operator="isMissing"/>
                        </Node>
                        <Node id="2" score="-4.838592447717292">
                            <SimplePredicate field="Cruise" operator="lessThan" value="0.5"/>
                        </Node>
                        <Node id="3" score="3.476560295150175">
                            <SimplePredicate field="Cruise" operator="greaterOrEqual" value="0.5"/>
                        </Node>
                    </Node>
                </TreeModel>
            </Segment>
            <Segment id="13">
                <True/>
                <TreeModel functionName="regression" splitCharacteristic="multiSplit">
                    <MiningSchema>
                        <MiningField name="Cruise" usageType="active"/>
                    </MiningSchema>
                    <Node id="1">
                        <True/>
                        <Node id="4" score="1.1716232826413482">
                            <SimplePredicate field="Cruise" operator="isMissing"/>
                        </Node>
                        <Node id="2" score="-5.172543855269574">
                            <SimplePredicate field="Cruise" operator="lessThan" value="0.5"/>
                        </Node>
                        <Node id="3" score="3.456598734855028">
                            <SimplePredicate field="Cruise" operator="greaterOrEqual" value="0.5"/>
                        </Node>
                    </Node>
                </TreeModel>
            </Segment>
            <Segment id="14">
                <True/>
                <TreeModel functionName="regression" splitCharacteristic="multiSplit">
                    <MiningSchema>
                        <MiningField name="Cruise" usageType="active"/>
                    </MiningSchema>
                    <Node id="1">
                        <True/>
                        <Node id="4" score="1.536626576073607">
                            <SimplePredicate field="Cruise" operator="isMissing"/>
                        </Node>
                        <Node id="2" score="-4.535611311414303">
                            <SimplePredicate field="Cruise" operator="lessThan" value="0.5"/>
                        </Node>
                        <Node id="3" score="3.261142136120174">
                            <SimplePredicate field="Cruise" operator="greaterOrEqual" value="0.5"/>
                        </Node>
                    </Node>
                </TreeModel>
            </Segment>
            <Segment id="15">
                <True/>
                <TreeModel functionName="regression" splitCharacteristic="multiSplit">
                    <MiningSchema>
                        <MiningField name="Cruise" usageType="active"/>
                    </MiningSchema>
                    <Node id="1">
                        <True/>
                        <Node id="4" score="1.3756244925066061">
                            <SimplePredicate field="Cruise" operator="isMissing"/>
                        </Node>
                        <Node id="2" score="-4.768870700102888">
                            <SimplePredicate field="Cruise" operator="lessThan" value="0.5"/>
                        </Node>
                        <Node id="3" score="3.1523459939840506">
                            <SimplePredicate field="Cruise" operator="greaterOrEqual" value="0.5"/>
                        </Node>
                    </Node>
                </TreeModel>
            </Segment>
            <Segment id="16">
                <True/>
                <TreeModel functionName="regression" splitCharacteristic="multiSplit">
                    <MiningSchema>
                        <MiningField name="Cruise" usageType="active"/>
                    </MiningSchema>
                    <Node id="1">
                        <True/>
                        <Node id="4" score="1.0607227472230452">
                            <SimplePredicate field="Cruise" operator="isMissing"/>
                        </Node>
                        <Node id="2" score="-5.1086568294027845">
                            <SimplePredicate field="Cruise" operator="lessThan" value="0.5"/>
                        </Node>
                        <Node id="3" score="3.177413647990066">
                            <SimplePredicate field="Cruise" operator="greaterOrEqual" value="0.5"/>
                        </Node>
                    </Node>
                </TreeModel>
            </Segment>
            <Segment id="17">
                <True/>
                <TreeModel functionName="regression" splitCharacteristic="multiSplit">
                    <MiningSchema>
                        <MiningField name="Cruise" usageType="active"/>
                    </MiningSchema>
                    <Node id="1">
                        <True/>
                        <Node id="4" score="0.3546918064072854">
                            <SimplePredicate field="Cruise" operator="isMissing"/>
                        </Node>
                        <Node id="2" score="-5.399858172573383">
                            <SimplePredicate field="Cruise" operator="lessThan" value="0.5"/>
                        </Node>
                        <Node id="3" score="2.329056234342075">
                            <SimplePredicate field="Cruise" operator="greaterOrEqual" value="0.5"/>
                        </Node>
                    </Node>
                </TreeModel>
            </Segment>
            <Segment id="18">
                <True/>
                <TreeModel functionName="regression" splitCharacteristic="multiSplit">
                    <MiningSchema>
                        <MiningField name="Cruise" usageType="active"/>
                    </MiningSchema>
                    <Node id="1">
                        <True/>
                        <Node id="4" score="1.41166186077681">
                            <SimplePredicate field="Cruise" operator="isMissing"/>
                        </Node>
                        <Node id="2" score="-4.515798314400812">
                            <SimplePredicate field="Cruise" operator="lessThan" value="0.5"/>
                        </Node>
                        <Node id="3" score="3.546552178107733">
                            <SimplePredicate field="Cruise" operator="greaterOrEqual" value="0.5"/>
                        </Node>
                    </Node>
                </TreeModel>
            </Segment>
            <Segment id="19">
                <True/>
                <TreeModel functionName="regression" splitCharacteristic="multiSplit">
                    <MiningSchema>
                        <MiningField name="Cruise" usageType="active"/>
                    </MiningSchema>
                    <Node id="1">
                        <True/>
                        <Node id="4" score="0.8737607676638967">
                            <SimplePredicate field="Cruise" operator="isMissing"/>
                        </Node>
                        <Node id="2" score="-4.59434251608641">
                            <SimplePredicate field="Cruise" operator="lessThan" value="0.5"/>
                        </Node>
                        <Node id="3" score="2.719245625929625">
                            <SimplePredicate field="Cruise" operator="greaterOrEqual" value="0.5"/>
                        </Node>
                    </Node>
                </TreeModel>
            </Segment>
            <Segment id="20">
                <True/>
                <TreeModel functionName="regression" splitCharacteristic="multiSplit">
                    <MiningSchema>
                        <MiningField name="Cruise" usageType="active"/>
                    </MiningSchema>
                    <Node id="1">
                        <True/>
                        <Node id="4" score="0.7590088518514663">
                            <SimplePredicate field="Cruise" operator="isMissing"/>
                        </Node>
                        <Node id="2" score="-5.417563173570322">
                            <SimplePredicate field="Cruise" operator="lessThan" value="0.5"/>
                        </Node>
                        <Node id="3" score="3.0193713803036952">
                            <SimplePredicate field="Cruise" operator="greaterOrEqual" value="0.5"/>
                        </Node>
                    </Node>
                </TreeModel>
            </Segment>
            <Segment id="21">
                <True/>
                <TreeModel functionName="regression" splitCharacteristic="multiSplit">
                    <MiningSchema>
                        <MiningField name="Cruise" usageType="active"/>
                    </MiningSchema>
                    <Node id="1">
                        <True/>
                        <Node id="4" score="1.3342217855973786">
                            <SimplePredicate field="Cruise" operator="isMissing"/>
                        </Node>
                        <Node id="2" score="-5.034210610396751">
                            <SimplePredicate field="Cruise" operator="lessThan" value="0.5"/>
                        </Node>
                        <Node id="3" score="3.343932008923395">
                            <SimplePredicate field="Cruise" operator="greaterOrEqual" value="0.5"/>
                        </Node>
                    </Node>
                </TreeModel>
            </Segment>
            <Segment id="22">
                <True/>
                <TreeModel functionName="regression" splitCharacteristic="multiSplit">
                    <MiningSchema>
                        <MiningField name="Cruise" usageType="active"/>
                    </MiningSchema>
                    <Node id="1">
                        <True/>
                        <Node id="4" score="0.9513033958778132">
                            <SimplePredicate field="Cruise" operator="isMissing"/>
                        </Node>
                        <Node id="2" score="-4.496236399786356">
                            <SimplePredicate field="Cruise" operator="lessThan" value="0.5"/>
                        </Node>
                        <Node id="3" score="2.78984807691447">
                            <SimplePredicate field="Cruise" operator="greaterOrEqual" value="0.5"/>
                        </Node>
                    </Node>
                </TreeModel>
            </Segment>
            <Segment id="23">
                <True/>
                <TreeModel functionName="regression" splitCharacteristic="multiSplit">
                    <MiningSchema>
                        <MiningField name="Cruise" usageType="active"/>
                    </MiningSchema>
                    <Node id="1">
                        <True/>
                        <Node id="4" score="1.4555518404536303">
                            <SimplePredicate field="Cruise" operator="isMissing"/>
                        </Node>
                        <Node id="2" score="-5.471835163386568">
                            <SimplePredicate field="Cruise" operator="lessThan" value="0.5"/>
                        </Node>
                        <Node id="3" score="3.3174582288375567">
                            <SimplePredicate field="Cruise" operator="greaterOrEqual" value="0.5"/>
                        </Node>
                    </Node>
                </TreeModel>
            </Segment>
            <Segment id="24">
                <True/>
                <TreeModel functionName="regression" splitCharacteristic="multiSplit">
                    <MiningSchema>
                        <MiningField name="Cruise" usageType="active"/>
                    </MiningSchema>
                    <Node id="1">
                        <True/>
                        <Node id="4" score="0.8899543568775027">
                            <SimplePredicate field="Cruise" operator="isMissing"/>
                        </Node>
                        <Node id="2" score="-4.603128328223182">
                            <SimplePredicate field="Cruise" operator="lessThan" value="0.5"/>
                        </Node>
                        <Node id="3" score="2.6831507706087177">
                            <SimplePredicate field="Cruise" operator="greaterOrEqual" value="0.5"/>
                        </Node>
                    </Node>
                </TreeModel>
            </Segment>
            <Segment id="25">
                <True/>
                <TreeModel functionName="regression" splitCharacteristic="multiSplit">
                    <MiningSchema>
                        <MiningField name="Cruise" usageType="active"/>
                    </MiningSchema>
                    <Node id="1">
                        <True/>
                        <Node id="4" score="1.4157479219540574">
                            <SimplePredicate field="Cruise" operator="isMissing"/>
                        </Node>
                        <Node id="2" score="-4.583560199894957">
                            <SimplePredicate field="Cruise" operator="lessThan" value="0.5"/>
                        </Node>
                        <Node id="3" score="3.1504876198381098">
                            <SimplePredicate field="Cruise" operator="greaterOrEqual" value="0.5"/>
                        </Node>
                    </Node>
                </TreeModel>
            </Segment>
            <Segment id="26">
                <True/>
                <TreeModel functionName="regression" splitCharacteristic="multiSplit">
                    <MiningSchema>
                        <MiningField name="Cruise" usageType="active"/>
                    </MiningSchema>
                    <Node id="1">
                        <True/>
                        <Node id="4" score="1.0823782482523323">
                            <SimplePredicate field="Cruise" operator="isMissing"/>
                        </Node>
                        <Node id="2" score="-4.922916639695062">
                            <SimplePredicate field="Cruise" operator="lessThan" value="0.5"/>
                        </Node>
                        <Node id="3" score="3.0758371322182723">
                            <SimplePredicate field="Cruise" operator="greaterOrEqual" value="0.5"/>
                        </Node>
                    </Node>
                </TreeModel>
            </Segment>
            <Segment id="27">
                <True/>
                <TreeModel functionName="regression" splitCharacteristic="multiSplit">
                    <MiningSchema>
                        <MiningField name="Cruise" usageType="active"/>
                    </MiningSchema>
                    <Node id="1">
                        <True/>
                        <Node id="4" score="1.1569228792933577">
                            <SimplePredicate field="Cruise" operator="isMissing"/>
                        </Node>
                        <Node id="2" score="-4.738968723055368">
                            <SimplePredicate field="Cruise" operator="lessThan" value="0.5"/>
                        </Node>
                        <Node id="3" score="3.1467862950860526">
                            <SimplePredicate field="Cruise" operator="greaterOrEqual" value="0.5"/>
                        </Node>
                    </Node>
                </TreeModel>
            </Segment>
            <Segment id="28">
                <True/>
                <TreeModel functionName="regression" splitCharacteristic="multiSplit">
                    <MiningSchema>
                        <MiningField name="Cruise" usageType="active"/>
                    </MiningSchema>
                    <Node id="1">
                        <True/>
                        <Node id="4" score="0.8634433258182403">
                            <SimplePredicate field="Cruise" operator="isMissing"/>
                        </Node>
                        <Node id="2" score="-4.584279754332311">
                            <SimplePredicate field="Cruise" operator="lessThan" value="0.5"/>
                        </Node>
                        <Node id="3" score="2.5243345087909694">
                            <SimplePredicate field="Cruise" operator="greaterOrEqual" value="0.5"/>
                        </Node>
                    </Node>
                </TreeModel>
            </Segment>
            <Segment id="29">
                <True/>
                <TreeModel functionName="regression" splitCharacteristic="multiSplit">
                    <MiningSchema>
                        <MiningField name="Cruise" usageType="active"/>
                    </MiningSchema>
                    <Node id="1">
                        <True/>
                        <Node id="4" score="1.0415718707924253">
                            <SimplePredicate field="Cruise" operator="isMissing"/>
                        </Node>
                        <Node id="2" score="-5.163285474577978">
                            <SimplePredicate field="Cruise" operator="lessThan" value="0.5"/>
                        </Node>
                        <Node id="3" score="2.7720101742821788">
                            <SimplePredicate field="Cruise" operator="greaterOrEqual" value="0.5"/>
                        </Node>
                    </Node>
                </TreeModel>
            </Segment>
            <Segment id="30">
                <True/>
                <TreeModel functionName="regression" splitCharacteristic="multiSplit">
                    <MiningSchema>
                        <MiningField name="Cruise" usageType="active"/>
                    </MiningSchema>
                    <Node id="1">
                        <True/>
                        <Node id="4" score="0.6763294500977086">
                            <SimplePredicate field="Cruise" operator="isMissing"/>
                        </Node>
                        <Node id="2" score="-5.501572189103401">
                            <SimplePredicate field="Cruise" operator="lessThan" value="0.5"/>
                        </Node>
                        <Node id="3" score="2.625913164107895">
                            <SimplePredicate field="Cruise" operator="greaterOrEqual" value="0.5"/>
                        </Node>
                    </Node>
                </TreeModel>
            </Segment>
            <Segment id="31">
                <True/>
                <TreeModel functionName="regression" splitCharacteristic="multiSplit">
                    <MiningSchema>
                        <MiningField name="Cruise" usageType="active"/>
                    </MiningSchema>
                    <Node id="1">
                        <True/>
                        <Node id="4" score="1.0624412070517102">
                            <SimplePredicate field="Cruise" operator="isMissing"/>
                        </Node>
                        <Node id="2" score="-5.2992206169142975">
                            <SimplePredicate field="Cruise" operator="lessThan" value="0.5"/>
                        </Node>
                        <Node id="3" score="3.001972250943785">
                            <SimplePredicate field="Cruise" operator="greaterOrEqual" value="0.5"/>
                        </Node>
                    </Node>
                </TreeModel>
            </Segment>
            <Segment id="32">
                <True/>
                <TreeModel functionName="regression" splitCharacteristic="multiSplit">
                    <MiningSchema>
                        <MiningField name="Cruise" usageType="active"/>
                    </MiningSchema>
                    <Node id="1">
                        <True/>
                        <Node id="4" score="1.2794569069662773">
                            <SimplePredicate field="Cruise" operator="isMissing"/>
                        </Node>
                        <Node id="2" score="-5.350771396297383">
                            <SimplePredicate field="Cruise" operator="lessThan" value="0.5"/>
                        </Node>
                        <Node id="3" score="3.4438702786928443">
                            <SimplePredicate field="Cruise" operator="greaterOrEqual" value="0.5"/>
                        </Node>
                    </Node>
                </TreeModel>
            </Segment>
            <Segment id="33">
                <True/>
                <TreeModel functionName="regression" splitCharacteristic="multiSplit">
                    <MiningSchema>
                        <MiningField name="Cruise" usageType="active"/>
                    </MiningSchema>
                    <Node id="1">
                        <True/>
                        <Node id="4" score="1.1174845552518138">
                            <SimplePredicate field="Cruise" operator="isMissing"/>
                        </Node>
                        <Node id="2" score="-4.923960624901086">
                            <SimplePredicate field="Cruise" operator="lessThan" value="0.5"/>
                        </Node>
                        <Node id="3" score="3.3283964084141515">
                            <SimplePredicate field="Cruise" operator="greaterOrEqual" value="0.5"/>
                        </Node>
                    </Node>
                </TreeModel>
            </Segment>
            <Segment id="34">
                <True/>
                <TreeModel functionName="regression" splitCharacteristic="multiSplit">
                    <MiningSchema>
                        <MiningField name="Chevy" usageType="active"/>
                    </MiningSchema>
                    <Node id="1">
                        <True/>
                        <Node id="4" score="0.6095490344316965">
                            <SimplePredicate field="Chevy" operator="isMissing"/>
                        </Node>
                        <Node id="2" score="3.6552980120057366">
                            <SimplePredicate field="Chevy" operator="lessThan" value="0.5"/>
                        </Node>
                        <Node id="3" score="-4.630171664276186">
                            <SimplePredicate field="Chevy" operator="greaterOrEqual" value="0.5"/>
                        </Node>
                    </Node>
                </TreeModel>
            </Segment>
            <Segment id="35">
                <True/>
                <TreeModel functionName="regression" splitCharacteristic="multiSplit">
                    <MiningSchema>
                        <MiningField name="Cruise" usageType="active"/>
                    </MiningSchema>
                    <Node id="1">
                        <True/>
                        <Node id="4" score="1.632032475587339">
                            <SimplePredicate field="Cruise" operator="isMissing"/>
                        </Node>
                        <Node id="2" score="-5.13241649261191">
                            <SimplePredicate field="Cruise" operator="lessThan" value="0.5"/>
                        </Node>
                        <Node id="3" score="3.8774927139937283">
                            <SimplePredicate field="Cruise" operator="greaterOrEqual" value="0.5"/>
                        </Node>
                    </Node>
                </TreeModel>
            </Segment>
            <Segment id="36">
                <True/>
                <TreeModel functionName="regression" splitCharacteristic="multiSplit">
                    <MiningSchema>
                        <MiningField name="Cruise" usageType="active"/>
                    </MiningSchema>
                    <Node id="1">
                        <True/>
                        <Node id="4" score="1.355838536233862">
                            <SimplePredicate field="Cruise" operator="isMissing"/>
                        </Node>
                        <Node id="2" score="-5.058594076119298">
                            <SimplePredicate field="Cruise" operator="lessThan" value="0.5"/>
                        </Node>
                        <Node id="3" score="3.380065221279736">
                            <SimplePredicate field="Cruise" operator="greaterOrEqual" value="0.5"/>
                        </Node>
                    </Node>
                </TreeModel>
            </Segment>
            <Segment id="37">
                <True/>
                <TreeModel functionName="regression" splitCharacteristic="multiSplit">
                    <MiningSchema>
                        <MiningField name="Cruise" usageType="active"/>
                    </MiningSchema>
                    <Node id="1">
                        <True/>
                        <Node id="4" score="1.108345274957772">
                            <SimplePredicate field="Cruise" operator="isMissing"/>
                        </Node>
                        <Node id="2" score="-4.504835482043178">
                            <SimplePredicate field="Cruise" operator="lessThan" value="0.5"/>
                        </Node>
                        <Node id="3" score="2.8797178908965964">
                            <SimplePredicate field="Cruise" operator="greaterOrEqual" value="0.5"/>
                        </Node>
                    </Node>
                </TreeModel>
            </Segment>
            <Segment id="38">
                <True/>
                <TreeModel functionName="regression" splitCharacteristic="multiSplit">
                    <MiningSchema>
                        <MiningField name="Cruise" usageType="active"/>
                    </MiningSchema>
                    <Node id="1">
                        <True/>
                        <Node id="4" score="1.5074811455625334">
                            <SimplePredicate field="Cruise" operator="isMissing"/>
                        </Node>
                        <Node id="2" score="-4.506408381399277">
                            <SimplePredicate field="Cruise" operator="lessThan" value="0.5"/>
                        </Node>
                        <Node id="3" score="3.4378654381675586">
                            <SimplePredicate field="Cruise" operator="greaterOrEqual" value="0.5"/>
                        </Node>
                    </Node>
                </TreeModel>
            </Segment>
            <Segment id="39">
                <True/>
                <TreeModel functionName="regression" splitCharacteristic="multiSplit">
                    <MiningSchema>
                        <MiningField name="Cruise" usageType="active"/>
                    </MiningSchema>
                    <Node id="1">
                        <True/>
                        <Node id="4" score="0.7691955155198613">
                            <SimplePredicate field="Cruise" operator="isMissing"/>
                        </Node>
                        <Node id="2" score="-5.152169238179736">
                            <SimplePredicate field="Cruise" operator="lessThan" value="0.5"/>
                        </Node>
                        <Node id="3" score="2.936163042405671">
                            <SimplePredicate field="Cruise" operator="greaterOrEqual" value="0.5"/>
                        </Node>
                    </Node>
                </TreeModel>
            </Segment>
            <Segment id="40">
                <True/>
                <TreeModel functionName="regression" splitCharacteristic="multiSplit">
                    <MiningSchema>
                        <MiningField name="Cruise" usageType="active"/>
                    </MiningSchema>
                    <Node id="1">
                        <True/>
                        <Node id="4" score="0.8897210390196693">
                            <SimplePredicate field="Cruise" operator="isMissing"/>
                        </Node>
                        <Node id="2" score="-5.621379803779698">
                            <SimplePredicate field="Cruise" operator="lessThan" value="0.5"/>
                        </Node>
                        <Node id="3" score="3.2725068793632675">
                            <SimplePredicate field="Cruise" operator="greaterOrEqual" value="0.5"/>
                        </Node>
                    </Node>
                </TreeModel>
            </Segment>
            <Segment id="41">
                <True/>
                <TreeModel functionName="regression" splitCharacteristic="multiSplit">
                    <MiningSchema>
                        <MiningField name="Cruise" usageType="active"/>
                    </MiningSchema>
                    <Node id="1">
                        <True/>
                        <Node id="4" score="1.3959308895606195">
                            <SimplePredicate field="Cruise" operator="isMissing"/>
                        </Node>
                        <Node id="2" score="-5.141395689137777">
                            <SimplePredicate field="Cruise" operator="lessThan" value="0.5"/>
                        </Node>
                        <Node id="3" score="3.15299890280762">
                            <SimplePredicate field="Cruise" operator="greaterOrEqual" value="0.5"/>
                        </Node>
                    </Node>
                </TreeModel>
            </Segment>
            <Segment id="42">
                <True/>
                <TreeModel functionName="regression" splitCharacteristic="multiSplit">
                    <MiningSchema>
                        <MiningField name="Cruise" usageType="active"/>
                    </MiningSchema>
                    <Node id="1">
                        <True/>
                        <Node id="4" score="1.0138653400866522">
                            <SimplePredicate field="Cruise" operator="isMissing"/>
                        </Node>
                        <Node id="2" score="-5.2438992934486395">
                            <SimplePredicate field="Cruise" operator="lessThan" value="0.5"/>
                        </Node>
                        <Node id="3" score="3.1258609039048135">
                            <SimplePredicate field="Cruise" operator="greaterOrEqual" value="0.5"/>
                        </Node>
                    </Node>
                </TreeModel>
            </Segment>
            <Segment id="43">
                <True/>
                <TreeModel functionName="regression" splitCharacteristic="multiSplit">
                    <MiningSchema>
                        <MiningField name="Cruise" usageType="active"/>
                    </MiningSchema>
                    <Node id="1">
                        <True/>
                        <Node id="4" score="1.7901621873479432">
                            <SimplePredicate field="Cruise" operator="isMissing"/>
                        </Node>
                        <Node id="2" score="-4.576760863831476">
                            <SimplePredicate field="Cruise" operator="lessThan" value="0.5"/>
                        </Node>
                        <Node id="3" score="3.50143004300091">
                            <SimplePredicate field="Cruise" operator="greaterOrEqual" value="0.5"/>
                        </Node>
                    </Node>
                </TreeModel>
            </Segment>
            <Segment id="44">
                <True/>
                <TreeModel functionName="regression" splitCharacteristic="multiSplit">
                    <MiningSchema>
                        <MiningField name="Cruise" usageType="active"/>
                    </MiningSchema>
                    <Node id="1">
                        <True/>
                        <Node id="4" score="1.249453606895009">
                            <SimplePredicate field="Cruise" operator="isMissing"/>
                        </Node>
                        <Node id="2" score="-4.919968633291361">
                            <SimplePredicate field="Cruise" operator="lessThan" value="0.5"/>
                        </Node>
                        <Node id="3" score="3.3316336129579085">
                            <SimplePredicate field="Cruise" operator="greaterOrEqual" value="0.5"/>
                        </Node>
                    </Node>
                </TreeModel>
            </Segment>
            <Segment id="45">
                <True/>
                <TreeModel functionName="regression" splitCharacteristic="multiSplit">
                    <MiningSchema>
                        <MiningField name="Cruise" usageType="active"/>
                    </MiningSchema>
                    <Node id="1">
                        <True/>
                        <Node id="4" score="1.0617641925258308">
                            <SimplePredicate field="Cruise" operator="isMissing"/>
                        </Node>
                        <Node id="2" score="-5.021709134334356">
                            <SimplePredicate field="Cruise" operator="lessThan" value="0.5"/>
                        </Node>
                        <Node id="3" score="2.9488824490212355">
                            <SimplePredicate field="Cruise" operator="greaterOrEqual" value="0.5"/>
                        </Node>
                    </Node>
                </TreeModel>
            </Segment>
            <Segment id="46">
                <True/>
                <TreeModel functionName="regression" splitCharacteristic="multiSplit">
                    <MiningSchema>
                        <MiningField name="Cruise" usageType="active"/>
                    </MiningSchema>
                    <Node id="1">
                        <True/>
                        <Node id="4" score="2.105838586052863">
                            <SimplePredicate field="Cruise" operator="isMissing"/>
                        </Node>
                        <Node id="2" score="-4.45170969036188">
                            <SimplePredicate field="Cruise" operator="lessThan" value="0.5"/>
                        </Node>
                        <Node id="3" score="4.282618096895931">
                            <SimplePredicate field="Cruise" operator="greaterOrEqual" value="0.5"/>
                        </Node>
                    </Node>
                </TreeModel>
            </Segment>
            <Segment id="47">
                <True/>
                <TreeModel functionName="regression" splitCharacteristic="multiSplit">
                    <MiningSchema>
                        <MiningField name="Cruise" usageType="active"/>
                    </MiningSchema>
                    <Node id="1">
                        <True/>
                        <Node id="4" score="0.8843217337297953">
                            <SimplePredicate field="Cruise" operator="isMissing"/>
                        </Node>
                        <Node id="2" score="-5.112040245833376">
                            <SimplePredicate field="Cruise" operator="lessThan" value="0.5"/>
                        </Node>
                        <Node id="3" score="2.941650948475319">
                            <SimplePredicate field="Cruise" operator="greaterOrEqual" value="0.5"/>
                        </Node>
                    </Node>
                </TreeModel>
            </Segment>
            <Segment id="48">
                <True/>
                <TreeModel functionName="regression" splitCharacteristic="multiSplit">
                    <MiningSchema>
                        <MiningField name="Cruise" usageType="active"/>
                    </MiningSchema>
                    <Node id="1">
                        <True/>
                        <Node id="4" score="0.7262914358186618">
                            <SimplePredicate field="Cruise" operator="isMissing"/>
                        </Node>
                        <Node id="2" score="-5.136663205587544">
                            <SimplePredicate field="Cruise" operator="lessThan" value="0.5"/>
                        </Node>
                        <Node id="3" score="2.837948827850558">
                            <SimplePredicate field="Cruise" operator="greaterOrEqual" value="0.5"/>
                        </Node>
                    </Node>
                </TreeModel>
            </Segment>
            <Segment id="49">
                <True/>
                <TreeModel functionName="regression" splitCharacteristic="multiSplit">
                    <MiningSchema>
                        <MiningField name="Cruise" usageType="active"/>
                    </MiningSchema>
                    <Node id="1">
                        <True/>
                        <Node id="4" score="0.7345417541995266">
                            <SimplePredicate field="Cruise" operator="isMissing"/>
                        </Node>
                        <Node id="2" score="-4.637482012058241">
                            <SimplePredicate field="Cruise" operator="lessThan" value="0.5"/>
                        </Node>
                        <Node id="3" score="2.607978613860849">
                            <SimplePredicate field="Cruise" operator="greaterOrEqual" value="0.5"/>
                        </Node>
                    </Node>
                </TreeModel>
            </Segment>
            <Segment id="50">
                <True/>
                <TreeModel functionName="regression" splitCharacteristic="multiSplit">
                    <MiningSchema>
                        <MiningField name="Cruise" usageType="active"/>
                    </MiningSchema>
                    <Node id="1">
                        <True/>
                        <Node id="4" score="0.7140532061622481">
                            <SimplePredicate field="Cruise" operator="isMissing"/>
                        </Node>
                        <Node id="2" score="-4.989509060369899">
                            <SimplePredicate field="Cruise" operator="lessThan" value="0.5"/>
                        </Node>
                        <Node id="3" score="2.703110635246989">
                            <SimplePredicate field="Cruise" operator="greaterOrEqual" value="0.5"/>
                        </Node>
                    </Node>
                </TreeModel>
            </Segment>
            <Segment id="51">
                <True/>
                <TreeModel functionName="regression" splitCharacteristic="multiSplit">
                    <MiningSchema>
                        <MiningField name="Cruise" usageType="active"/>
                    </MiningSchema>
                    <Node id="1">
                        <True/>
                        <Node id="4" score="1.0697345577415982">
                            <SimplePredicate field="Cruise" operator="isMissing"/>
                        </Node>
                        <Node id="2" score="-4.673815020985812">
                            <SimplePredicate field="Cruise" operator="lessThan" value="0.5"/>
                        </Node>
                        <Node id="3" score="3.0403247897735963">
                            <SimplePredicate field="Cruise" operator="greaterOrEqual" value="0.5"/>
                        </Node>
                    </Node>
                </TreeModel>
            </Segment>
            <Segment id="52">
                <True/>
                <TreeModel functionName="regression" splitCharacteristic="multiSplit">
                    <MiningSchema>
                        <MiningField name="Cruise" usageType="active"/>
                    </MiningSchema>
                    <Node id="1">
                        <True/>
                        <Node id="4" score="0.8156705824197689">
                            <SimplePredicate field="Cruise" operator="isMissing"/>
                        </Node>
                        <Node id="2" score="-5.25835573628854">
                            <SimplePredicate field="Cruise" operator="lessThan" value="0.5"/>
                        </Node>
                        <Node id="3" score="2.8656544649838236">
                            <SimplePredicate field="Cruise" operator="greaterOrEqual" value="0.5"/>
                        </Node>
                    </Node>
                </TreeModel>
            </Segment>
            <Segment id="53">
                <True/>
                <TreeModel functionName="regression" splitCharacteristic="multiSplit">
                    <MiningSchema>
                        <MiningField name="Cruise" usageType="active"/>
                    </MiningSchema>
                    <Node id="1">
                        <True/>
                        <Node id="4" score="1.0392197154807066">
                            <SimplePredicate field="Cruise" operator="isMissing"/>
                        </Node>
                        <Node id="2" score="-5.254055115390394">
                            <SimplePredicate field="Cruise" operator="lessThan" value="0.5"/>
                        </Node>
                        <Node id="3" score="2.9246542801951256">
                            <SimplePredicate field="Cruise" operator="greaterOrEqual" value="0.5"/>
                        </Node>
                    </Node>
                </TreeModel>
            </Segment>
            <Segment id="54">
                <True/>
                <TreeModel functionName="regression" splitCharacteristic="multiSplit">
                    <MiningSchema>
                        <MiningField name="Cruise" usageType="active"/>
                    </MiningSchema>
                    <Node id="1">
                        <True/>
                        <Node id="4" score="0.9134877212801988">
                            <SimplePredicate field="Cruise" operator="isMissing"/>
                        </Node>
                        <Node id="2" score="-4.522728795113146">
                            <SimplePredicate field="Cruise" operator="lessThan" value="0.5"/>
                        </Node>
                        <Node id="3" score="3.031494156238645">
                            <SimplePredicate field="Cruise" operator="greaterOrEqual" value="0.5"/>
                        </Node>
                    </Node>
                </TreeModel>
            </Segment>
            <Segment id="55">
                <True/>
                <TreeModel functionName="regression" splitCharacteristic="multiSplit">
                    <MiningSchema>
                        <MiningField name="Cruise" usageType="active"/>
                    </MiningSchema>
                    <Node id="1">
                        <True/>
                        <Node id="4" score="0.9273726382100216">
                            <SimplePredicate field="Cruise" operator="isMissing"/>
                        </Node>
                        <Node id="2" score="-4.984090596641749">
                            <SimplePredicate field="Cruise" operator="lessThan" value="0.5"/>
                        </Node>
                        <Node id="3" score="2.7611326620824075">
                            <SimplePredicate field="Cruise" operator="greaterOrEqual" value="0.5"/>
                        </Node>
                    </Node>
                </TreeModel>
            </Segment>
            <Segment id="56">
                <True/>
                <TreeModel functionName="regression" splitCharacteristic="multiSplit">
                    <MiningSchema>
                        <MiningField name="Cruise" usageType="active"/>
                    </MiningSchema>
                    <Node id="1">
                        <True/>
                        <Node id="4" score="0.9658550949597101">
                            <SimplePredicate field="Cruise" operator="isMissing"/>
                        </Node>
                        <Node id="2" score="-5.23326424088325">
                            <SimplePredicate field="Cruise" operator="lessThan" value="0.5"/>
                        </Node>
                        <Node id="3" score="2.758371529420325">
                            <SimplePredicate field="Cruise" operator="greaterOrEqual" value="0.5"/>
                        </Node>
                    </Node>
                </TreeModel>
            </Segment>
            <Segment id="57">
                <True/>
                <TreeModel functionName="regression" splitCharacteristic="multiSplit">
                    <MiningSchema>
                        <MiningField name="Cruise" usageType="active"/>
                    </MiningSchema>
                    <Node id="1">
                        <True/>
                        <Node id="4" score="1.0174842093127268">
                            <SimplePredicate field="Cruise" operator="isMissing"/>
                        </Node>
                        <Node id="2" score="-4.397455976642365">
                            <SimplePredicate field="Cruise" operator="lessThan" value="0.5"/>
                        </Node>
                        <Node id="3" score="2.7556131578909047">
                            <SimplePredicate field="Cruise" operator="greaterOrEqual" value="0.5"/>
                        </Node>
                    </Node>
                </TreeModel>
            </Segment>
            <Segment id="58">
                <True/>
                <TreeModel functionName="regression" splitCharacteristic="multiSplit">
                    <MiningSchema>
                        <MiningField name="Cruise" usageType="active"/>
                    </MiningSchema>
                    <Node id="1">
                        <True/>
                        <Node id="4" score="1.5435509253659787">
                            <SimplePredicate field="Cruise" operator="isMissing"/>
                        </Node>
                        <Node id="2" score="-4.685451255503866">
                            <SimplePredicate field="Cruise" operator="lessThan" value="0.5"/>
                        </Node>
                        <Node id="3" score="3.3125875447330144">
                            <SimplePredicate field="Cruise" operator="greaterOrEqual" value="0.5"/>
                        </Node>
                    </Node>
                </TreeModel>
            </Segment>
            <Segment id="59">
                <True/>
                <TreeModel functionName="regression" splitCharacteristic="multiSplit">
                    <MiningSchema>
                        <MiningField name="Cruise" usageType="active"/>
                    </MiningSchema>
                    <Node id="1">
                        <True/>
                        <Node id="4" score="1.6515778428508865">
                            <SimplePredicate field="Cruise" operator="isMissing"/>
                        </Node>
                        <Node id="2" score="-5.262353069410219">
                            <SimplePredicate field="Cruise" operator="lessThan" value="0.5"/>
                        </Node>
                        <Node id="3" score="3.3733349571882827">
                            <SimplePredicate field="Cruise" operator="greaterOrEqual" value="0.5"/>
                        </Node>
                    </Node>
                </TreeModel>
            </Segment>
            <Segment id="60">
                <True/>
                <TreeModel functionName="regression" splitCharacteristic="multiSplit">
                    <MiningSchema>
                        <MiningField name="Cruise" usageType="active"/>
                    </MiningSchema>
                    <Node id="1">
                        <True/>
                        <Node id="4" score="0.7781514735349429">
                            <SimplePredicate field="Cruise" operator="isMissing"/>
                        </Node>
                        <Node id="2" score="-5.3371457163408085">
                            <SimplePredicate field="Cruise" operator="lessThan" value="0.5"/>
                        </Node>
                        <Node id="3" score="2.6751416222310946">
                            <SimplePredicate field="Cruise" operator="greaterOrEqual" value="0.5"/>
                        </Node>
                    </Node>
                </TreeModel>
            </Segment>
            <Segment id="61">
                <True/>
                <TreeModel functionName="regression" splitCharacteristic="multiSplit">
                    <MiningSchema>
                        <MiningField name="Cruise" usageType="active"/>
                    </MiningSchema>
                    <Node id="1">
                        <True/>
                        <Node id="4" score="0.6484776455744866">
                            <SimplePredicate field="Cruise" operator="isMissing"/>
                        </Node>
                        <Node id="2" score="-4.100875835786326">
                            <SimplePredicate field="Cruise" operator="lessThan" value="0.5"/>
                        </Node>
                        <Node id="3" score="2.121746480608861">
                            <SimplePredicate field="Cruise" operator="greaterOrEqual" value="0.5"/>
                        </Node>
                    </Node>
                </TreeModel>
            </Segment>
            <Segment id="62">
                <True/>
                <TreeModel functionName="regression" splitCharacteristic="multiSplit">
                    <MiningSchema>
                        <MiningField name="Cruise" usageType="active"/>
                    </MiningSchema>
                    <Node id="1">
                        <True/>
                        <Node id="4" score="0.7679645776784608">
                            <SimplePredicate field="Cruise" operator="isMissing"/>
                        </Node>
                        <Node id="2" score="-4.382109959950539">
                            <SimplePredicate field="Cruise" operator="lessThan" value="0.5"/>
                        </Node>
                        <Node id="3" score="2.5061147341282486">
                            <SimplePredicate field="Cruise" operator="greaterOrEqual" value="0.5"/>
                        </Node>
                    </Node>
                </TreeModel>
            </Segment>
            <Segment id="63">
                <True/>
                <TreeModel functionName="regression" splitCharacteristic="multiSplit">
                    <MiningSchema>
                        <MiningField name="Cruise" usageType="active"/>
                    </MiningSchema>
                    <Node id="1">
                        <True/>
                        <Node id="4" score="1.3317103158751973">
                            <SimplePredicate field="Cruise" operator="isMissing"/>
                        </Node>
                        <Node id="2" score="-4.419813319666871">
                            <SimplePredicate field="Cruise" operator="lessThan" value="0.5"/>
                        </Node>
                        <Node id="3" score="3.085223619394121">
                            <SimplePredicate field="Cruise" operator="greaterOrEqual" value="0.5"/>
                        </Node>
                    </Node>
                </TreeModel>
            </Segment>
            <Segment id="64">
                <True/>
                <TreeModel functionName="regression" splitCharacteristic="multiSplit">
                    <MiningSchema>
                        <MiningField name="Cruise" usageType="active"/>
                    </MiningSchema>
                    <Node id="1">
                        <True/>
                        <Node id="4" score="1.0028015379879092">
                            <SimplePredicate field="Cruise" operator="isMissing"/>
                        </Node>
                        <Node id="2" score="-4.551353506347207">
                            <SimplePredicate field="Cruise" operator="lessThan" value="0.5"/>
                        </Node>
                        <Node id="3" score="2.8773288654510107">
                            <SimplePredicate field="Cruise" operator="greaterOrEqual" value="0.5"/>
                        </Node>
                    </Node>
                </TreeModel>
            </Segment>
            <Segment id="65">
                <True/>
                <TreeModel functionName="regression" splitCharacteristic="multiSplit">
                    <MiningSchema>
                        <MiningField name="Cruise" usageType="active"/>
                    </MiningSchema>
                    <Node id="1">
                        <True/>
                        <Node id="4" score="1.5330932685868157">
                            <SimplePredicate field="Cruise" operator="isMissing"/>
                        </Node>
                        <Node id="2" score="-4.553797152840859">
                            <SimplePredicate field="Cruise" operator="lessThan" value="0.5"/>
                        </Node>
                        <Node id="3" score="3.356696066909277">
                            <SimplePredicate field="Cruise" operator="greaterOrEqual" value="0.5"/>
                        </Node>
                    </Node>
                </TreeModel>
            </Segment>
            <Segment id="66">
                <True/>
                <TreeModel functionName="regression" splitCharacteristic="multiSplit">
                    <MiningSchema>
                        <MiningField name="Cruise" usageType="active"/>
                    </MiningSchema>
                    <Node id="1">
                        <True/>
                        <Node id="4" score="1.1290459258300258">
                            <SimplePredicate field="Cruise" operator="isMissing"/>
                        </Node>
                        <Node id="2" score="-4.55623835568802">
                            <SimplePredicate field="Cruise" operator="lessThan" value="0.5"/>
                        </Node>
                        <Node id="3" score="3.0478293708423663">
                            <SimplePredicate field="Cruise" operator="greaterOrEqual" value="0.5"/>
                        </Node>
                    </Node>
                </TreeModel>
            </Segment>
            <Segment id="67">
                <True/>
                <TreeModel functionName="regression" splitCharacteristic="multiSplit">
                    <MiningSchema>
                        <MiningField name="Cruise" usageType="active"/>
                    </MiningSchema>
                    <Node id="1">
                        <True/>
                        <Node id="4" score="1.5607778026842807">
                            <SimplePredicate field="Cruise" operator="isMissing"/>
                        </Node>
                        <Node id="2" score="-4.726564382494191">
                            <SimplePredicate field="Cruise" operator="lessThan" value="0.5"/>
                        </Node>
                        <Node id="3" score="3.5111370111478064">
                            <SimplePredicate field="Cruise" operator="greaterOrEqual" value="0.5"/>
                        </Node>
                    </Node>
                </TreeModel>
            </Segment>
            <Segment id="68">
                <True/>
                <TreeModel functionName="regression" splitCharacteristic="multiSplit">
                    <MiningSchema>
                        <MiningField name="Cruise" usageType="active"/>
                    </MiningSchema>
                    <Node id="1">
                        <True/>
                        <Node id="4" score="0.9871925082672378">
                            <SimplePredicate field="Cruise" operator="isMissing"/>
                        </Node>
                        <Node id="2" score="-4.5399605529498395">
                            <SimplePredicate field="Cruise" operator="lessThan" value="0.5"/>
                        </Node>
                        <Node id="3" score="2.761340404460374">
                            <SimplePredicate field="Cruise" operator="greaterOrEqual" value="0.5"/>
                        </Node>
                    </Node>
                </TreeModel>
            </Segment>
            <Segment id="69">
                <True/>
                <TreeModel functionName="regression" splitCharacteristic="multiSplit">
                    <MiningSchema>
                        <MiningField name="Cruise" usageType="active"/>
                    </MiningSchema>
                    <Node id="1">
                        <True/>
                        <Node id="4" score="0.8521878327198975">
                            <SimplePredicate field="Cruise" operator="isMissing"/>
                        </Node>
                        <Node id="2" score="-5.039292857558748">
                            <SimplePredicate field="Cruise" operator="lessThan" value="0.5"/>
                        </Node>
                        <Node id="3" score="3.008219064055913">
                            <SimplePredicate field="Cruise" operator="greaterOrEqual" value="0.5"/>
                        </Node>
                    </Node>
                </TreeModel>
            </Segment>
            <Segment id="70">
                <True/>
                <TreeModel functionName="regression" splitCharacteristic="multiSplit">
                    <MiningSchema>
                        <MiningField name="Cruise" usageType="active"/>
                    </MiningSchema>
                    <Node id="1">
                        <True/>
                        <Node id="4" score="1.1550607080570974">
                            <SimplePredicate field="Cruise" operator="isMissing"/>
                        </Node>
                        <Node id="2" score="-4.307953564701188">
                            <SimplePredicate field="Cruise" operator="lessThan" value="0.5"/>
                        </Node>
                        <Node id="3" score="2.908620844991856">
                            <SimplePredicate field="Cruise" operator="greaterOrEqual" value="0.5"/>
                        </Node>
                    </Node>
                </TreeModel>
            </Segment>
            <Segment id="71">
                <True/>
                <TreeModel functionName="regression" splitCharacteristic="multiSplit">
                    <MiningSchema>
                        <MiningField name="Cruise" usageType="active"/>
                    </MiningSchema>
                    <Node id="1">
                        <True/>
                        <Node id="4" score="0.9421615891488335">
                            <SimplePredicate field="Cruise" operator="isMissing"/>
                        </Node>
                        <Node id="2" score="-4.707950611136487">
                            <SimplePredicate field="Cruise" operator="lessThan" value="0.5"/>
                        </Node>
                        <Node id="3" score="3.0098622241468656">
                            <SimplePredicate field="Cruise" operator="greaterOrEqual" value="0.5"/>
                        </Node>
                    </Node>
                </TreeModel>
            </Segment>
            <Segment id="72">
                <True/>
                <TreeModel functionName="regression" splitCharacteristic="multiSplit">
                    <MiningSchema>
                        <MiningField name="Cruise" usageType="active"/>
                    </MiningSchema>
                    <Node id="1">
                        <True/>
                        <Node id="4" score="1.044093693325796">
                            <SimplePredicate field="Cruise" operator="isMissing"/>
                        </Node>
                        <Node id="2" score="-4.60333266052535">
                            <SimplePredicate field="Cruise" operator="lessThan" value="0.5"/>
                        </Node>
                        <Node id="3" score="2.856847831599003">
                            <SimplePredicate field="Cruise" operator="greaterOrEqual" value="0.5"/>
                        </Node>
                    </Node>
                </TreeModel>
            </Segment>
            <Segment id="73">
                <True/>
                <TreeModel functionName="regression" splitCharacteristic="multiSplit">
                    <MiningSchema>
                        <MiningField name="Cruise" usageType="active"/>
                    </MiningSchema>
                    <Node id="1">
                        <True/>
                        <Node id="4" score="0.7290410793037909">
                            <SimplePredicate field="Cruise" operator="isMissing"/>
                        </Node>
                        <Node id="2" score="-4.509767062702967">
                            <SimplePredicate field="Cruise" operator="lessThan" value="0.5"/>
                        </Node>
                        <Node id="3" score="2.4392305140911215">
                            <SimplePredicate field="Cruise" operator="greaterOrEqual" value="0.5"/>
                        </Node>
                    </Node>
                </TreeModel>
            </Segment>
            <Segment id="74">
                <True/>
                <TreeModel functionName="regression" splitCharacteristic="multiSplit">
                    <MiningSchema>
                        <MiningField name="Cruise" usageType="active"/>
                    </MiningSchema>
                    <Node id="1">
                        <True/>
                        <Node id="4" score="0.9991394467715193">
                            <SimplePredicate field="Cruise" operator="isMissing"/>
                        </Node>
                        <Node id="2" score="-4.227309560802121">
                            <SimplePredicate field="Cruise" operator="lessThan" value="0.5"/>
                        </Node>
                        <Node id="3" score="2.851551753253316">
                            <SimplePredicate field="Cruise" operator="greaterOrEqual" value="0.5"/>
                        </Node>
                    </Node>
                </TreeModel>
            </Segment>
            <Segment id="75">
                <True/>
                <TreeModel functionName="regression" splitCharacteristic="multiSplit">
                    <MiningSchema>
                        <MiningField name="Cruise" usageType="active"/>
                    </MiningSchema>
                    <Node id="1">
                        <True/>
                        <Node id="4" score="1.6894737789504426">
                            <SimplePredicate field="Cruise" operator="isMissing"/>
                        </Node>
                        <Node id="2" score="-4.2483495164031755">
                            <SimplePredicate field="Cruise" operator="lessThan" value="0.5"/>
                        </Node>
                        <Node id="3" score="3.406434731823778">
                            <SimplePredicate field="Cruise" operator="greaterOrEqual" value="0.5"/>
                        </Node>
                    </Node>
                </TreeModel>
            </Segment>
            <Segment id="76">
                <True/>
                <TreeModel functionName="regression" splitCharacteristic="multiSplit">
                    <MiningSchema>
                        <MiningField name="Cruise" usageType="active"/>
                    </MiningSchema>
                    <Node id="1">
                        <True/>
                        <Node id="4" score="0.8121239825817325">
                            <SimplePredicate field="Cruise" operator="isMissing"/>
                        </Node>
                        <Node id="2" score="-4.413836636563058">
                            <SimplePredicate field="Cruise" operator="lessThan" value="0.5"/>
                        </Node>
                        <Node id="3" score="2.4332382970919535">
                            <SimplePredicate field="Cruise" operator="greaterOrEqual" value="0.5"/>
                        </Node>
                    </Node>
                </TreeModel>
            </Segment>
            <Segment id="77">
                <True/>
                <TreeModel functionName="regression" splitCharacteristic="multiSplit">
                    <MiningSchema>
                        <MiningField name="Cruise" usageType="active"/>
                    </MiningSchema>
                    <Node id="1">
                        <True/>
                        <Node id="4" score="1.1382238538436606">
                            <SimplePredicate field="Cruise" operator="isMissing"/>
                        </Node>
                        <Node id="2" score="-4.813612330250212">
                            <SimplePredicate field="Cruise" operator="lessThan" value="0.5"/>
                        </Node>
                        <Node id="3" score="2.9213650587948616">
                            <SimplePredicate field="Cruise" operator="greaterOrEqual" value="0.5"/>
                        </Node>
                    </Node>
                </TreeModel>
            </Segment>
            <Segment id="78">
                <True/>
                <TreeModel functionName="regression" splitCharacteristic="multiSplit">
                    <MiningSchema>
                        <MiningField name="Cruise" usageType="active"/>
                    </MiningSchema>
                    <Node id="1">
                        <True/>
                        <Node id="4" score="0.9346685794268382">
                            <SimplePredicate field="Cruise" operator="isMissing"/>
                        </Node>
                        <Node id="2" score="-4.419574187596246">
                            <SimplePredicate field="Cruise" operator="lessThan" value="0.5"/>
                        </Node>
                        <Node id="3" score="2.4278836937360646">
                            <SimplePredicate field="Cruise" operator="greaterOrEqual" value="0.5"/>
                        </Node>
                    </Node>
                </TreeModel>
            </Segment>
            <Segment id="79">
                <True/>
                <TreeModel functionName="regression" splitCharacteristic="multiSplit">
                    <MiningSchema>
                        <MiningField name="Cruise" usageType="active"/>
                    </MiningSchema>
                    <Node id="1">
                        <True/>
                        <Node id="4" score="0.8050770258934141">
                            <SimplePredicate field="Cruise" operator="isMissing"/>
                        </Node>
                        <Node id="2" score="-4.226171878570509">
                            <SimplePredicate field="Cruise" operator="lessThan" value="0.5"/>
                        </Node>
                        <Node id="3" score="2.4200458100423274">
                            <SimplePredicate field="Cruise" operator="greaterOrEqual" value="0.5"/>
                        </Node>
                    </Node>
                </TreeModel>
            </Segment>
            <Segment id="80">
                <True/>
                <TreeModel functionName="regression" splitCharacteristic="multiSplit">
                    <MiningSchema>
                        <MiningField name="Cruise" usageType="active"/>
                    </MiningSchema>
                    <Node id="1">
                        <True/>
                        <Node id="4" score="0.6603682133173259">
                            <SimplePredicate field="Cruise" operator="isMissing"/>
                        </Node>
                        <Node id="2" score="-4.226088441530081">
                            <SimplePredicate field="Cruise" operator="lessThan" value="0.5"/>
                        </Node>
                        <Node id="3" score="2.202405764232286">
                            <SimplePredicate field="Cruise" operator="greaterOrEqual" value="0.5"/>
                        </Node>
                    </Node>
                </TreeModel>
            </Segment>
            <Segment id="81">
                <True/>
                <TreeModel functionName="regression" splitCharacteristic="multiSplit">
                    <MiningSchema>
                        <MiningField name="Cruise" usageType="active"/>
                    </MiningSchema>
                    <Node id="1">
                        <True/>
                        <Node id="4" score="1.6906908216340064">
                            <SimplePredicate field="Cruise" operator="isMissing"/>
                        </Node>
                        <Node id="2" score="-4.617594618250408">
                            <SimplePredicate field="Cruise" operator="lessThan" value="0.5"/>
                        </Node>
                        <Node id="3" score="3.514773358468054">
                            <SimplePredicate field="Cruise" operator="greaterOrEqual" value="0.5"/>
                        </Node>
                    </Node>
                </TreeModel>
            </Segment>
            <Segment id="82">
                <True/>
                <TreeModel functionName="regression" splitCharacteristic="multiSplit">
                    <MiningSchema>
                        <MiningField name="Cruise" usageType="active"/>
                    </MiningSchema>
                    <Node id="1">
                        <True/>
                        <Node id="4" score="1.328522915600901">
                            <SimplePredicate field="Cruise" operator="isMissing"/>
                        </Node>
                        <Node id="2" score="-5.0170542887940135">
                            <SimplePredicate field="Cruise" operator="lessThan" value="0.5"/>
                        </Node>
                        <Node id="3" score="3.434938585109587">
                            <SimplePredicate field="Cruise" operator="greaterOrEqual" value="0.5"/>
                        </Node>
                    </Node>
                </TreeModel>
            </Segment>
            <Segment id="83">
                <True/>
                <TreeModel functionName="regression" splitCharacteristic="multiSplit">
                    <MiningSchema>
                        <MiningField name="Cruise" usageType="active"/>
                    </MiningSchema>
                    <Node id="1">
                        <True/>
                        <Node id="4" score="0.8767011022757104">
                            <SimplePredicate field="Cruise" operator="isMissing"/>
                        </Node>
                        <Node id="2" score="-4.2991577041815034">
                            <SimplePredicate field="Cruise" operator="lessThan" value="0.5"/>
                        </Node>
                        <Node id="3" score="2.510066381362618">
                            <SimplePredicate field="Cruise" operator="greaterOrEqual" value="0.5"/>
                        </Node>
                    </Node>
                </TreeModel>
            </Segment>
            <Segment id="84">
                <True/>
                <TreeModel functionName="regression" splitCharacteristic="multiSplit">
                    <MiningSchema>
                        <MiningField name="Cruise" usageType="active"/>
                    </MiningSchema>
                    <Node id="1">
                        <True/>
                        <Node id="4" score="1.044031796299292">
                            <SimplePredicate field="Cruise" operator="isMissing"/>
                        </Node>
                        <Node id="2" score="-5.157343076801037">
                            <SimplePredicate field="Cruise" operator="lessThan" value="0.5"/>
                        </Node>
                        <Node id="3" score="2.9019335801431154">
                            <SimplePredicate field="Cruise" operator="greaterOrEqual" value="0.5"/>
                        </Node>
                    </Node>
                </TreeModel>
            </Segment>
            <Segment id="85">
                <True/>
                <TreeModel functionName="regression" splitCharacteristic="multiSplit">
                    <MiningSchema>
                        <MiningField name="Cruise" usageType="active"/>
                    </MiningSchema>
                    <Node id="1">
                        <True/>
                        <Node id="4" score="1.4808953864463243">
                            <SimplePredicate field="Cruise" operator="isMissing"/>
                        </Node>
                        <Node id="2" score="-5.085251203400522">
                            <SimplePredicate field="Cruise" operator="lessThan" value="0.5"/>
                        </Node>
                        <Node id="3" score="3.3120916465629744">
                            <SimplePredicate field="Cruise" operator="greaterOrEqual" value="0.5"/>
                        </Node>
                    </Node>
                </TreeModel>
            </Segment>
            <Segment id="86">
                <True/>
                <TreeModel functionName="regression" splitCharacteristic="multiSplit">
                    <MiningSchema>
                        <MiningField name="Cruise" usageType="active"/>
                    </MiningSchema>
                    <Node id="1">
                        <True/>
                        <Node id="4" score="1.3356505744400278">
                            <SimplePredicate field="Cruise" operator="isMissing"/>
                        </Node>
                        <Node id="2" score="-4.722340482520837">
                            <SimplePredicate field="Cruise" operator="lessThan" value="0.5"/>
                        </Node>
                        <Node id="3" score="3.118849554916411">
                            <SimplePredicate field="Cruise" operator="greaterOrEqual" value="0.5"/>
                        </Node>
                    </Node>
                </TreeModel>
            </Segment>
            <Segment id="87">
                <True/>
                <TreeModel functionName="regression" splitCharacteristic="multiSplit">
                    <MiningSchema>
                        <MiningField name="Cruise" usageType="active"/>
                    </MiningSchema>
                    <Node id="1">
                        <True/>
                        <Node id="4" score="1.580824814243077">
                            <SimplePredicate field="Cruise" operator="isMissing"/>
                        </Node>
                        <Node id="2" score="-4.459773611714602">
                            <SimplePredicate field="Cruise" operator="lessThan" value="0.5"/>
                        </Node>
                        <Node id="3" score="3.5527557053614927">
                            <SimplePredicate field="Cruise" operator="greaterOrEqual" value="0.5"/>
                        </Node>
                    </Node>
                </TreeModel>
            </Segment>
            <Segment id="88">
                <True/>
                <TreeModel functionName="regression" splitCharacteristic="multiSplit">
                    <MiningSchema>
                        <MiningField name="Cruise" usageType="active"/>
                    </MiningSchema>
                    <Node id="1">
                        <True/>
                        <Node id="4" score="1.2670011768152387">
                            <SimplePredicate field="Cruise" operator="isMissing"/>
                        </Node>
                        <Node id="2" score="-4.275433838102886">
                            <SimplePredicate field="Cruise" operator="lessThan" value="0.5"/>
                        </Node>
                        <Node id="3" score="2.9567679496561303">
                            <SimplePredicate field="Cruise" operator="greaterOrEqual" value="0.5"/>
                        </Node>
                    </Node>
                </TreeModel>
            </Segment>
            <Segment id="89">
                <True/>
                <TreeModel functionName="regression" splitCharacteristic="multiSplit">
                    <MiningSchema>
                        <MiningField name="Cruise" usageType="active"/>
                    </MiningSchema>
                    <Node id="1">
                        <True/>
                        <Node id="4" score="1.2923610356179265">
                            <SimplePredicate field="Cruise" operator="isMissing"/>
                        </Node>
                        <Node id="2" score="-5.470448404264785">
                            <SimplePredicate field="Cruise" operator="lessThan" value="0.5"/>
                        </Node>
                        <Node id="3" score="3.212998916544617">
                            <SimplePredicate field="Cruise" operator="greaterOrEqual" value="0.5"/>
                        </Node>
                    </Node>
                </TreeModel>
            </Segment>
            <Segment id="90">
                <True/>
                <TreeModel functionName="regression" splitCharacteristic="multiSplit">
                    <MiningSchema>
                        <MiningField name="Cruise" usageType="active"/>
                    </MiningSchema>
                    <Node id="1">
                        <True/>
                        <Node id="4" score="1.3164315509048377">
                            <SimplePredicate field="Cruise" operator="isMissing"/>
                        </Node>
                        <Node id="2" score="-4.187322486184238">
                            <SimplePredicate field="Cruise" operator="lessThan" value="0.5"/>
                        </Node>
                        <Node id="3" score="2.9364881827899283">
                            <SimplePredicate field="Cruise" operator="greaterOrEqual" value="0.5"/>
                        </Node>
                    </Node>
                </TreeModel>
            </Segment>
            <Segment id="91">
                <True/>
                <TreeModel functionName="regression" splitCharacteristic="multiSplit">
                    <MiningSchema>
                        <MiningField name="Cruise" usageType="active"/>
                    </MiningSchema>
                    <Node id="1">
                        <True/>
                        <Node id="4" score="1.0400092380136816">
                            <SimplePredicate field="Cruise" operator="isMissing"/>
                        </Node>
                        <Node id="2" score="-4.427390633374338">
                            <SimplePredicate field="Cruise" operator="lessThan" value="0.5"/>
                        </Node>
                        <Node id="3" score="2.8852566946071385">
                            <SimplePredicate field="Cruise" operator="greaterOrEqual" value="0.5"/>
                        </Node>
                    </Node>
                </TreeModel>
            </Segment>
            <Segment id="92">
                <True/>
                <TreeModel functionName="regression" splitCharacteristic="multiSplit">
                    <MiningSchema>
                        <MiningField name="Cruise" usageType="active"/>
                    </MiningSchema>
                    <Node id="1">
                        <True/>
                        <Node id="4" score="1.012216152013473">
                            <SimplePredicate field="Cruise" operator="isMissing"/>
                        </Node>
                        <Node id="2" score="-4.333940507902823">
                            <SimplePredicate field="Cruise" operator="lessThan" value="0.5"/>
                        </Node>
                        <Node id="3" score="2.7282664379125308">
                            <SimplePredicate field="Cruise" operator="greaterOrEqual" value="0.5"/>
                        </Node>
                    </Node>
                </TreeModel>
            </Segment>
            <Segment id="93">
                <True/>
                <TreeModel functionName="regression" splitCharacteristic="multiSplit">
                    <MiningSchema>
                        <MiningField name="Cruise" usageType="active"/>
                    </MiningSchema>
                    <Node id="1">
                        <True/>
                        <Node id="4" score="1.385526175598152">
                            <SimplePredicate field="Cruise" operator="isMissing"/>
                        </Node>
                        <Node id="2" score="-4.161666567394921">
                            <SimplePredicate field="Cruise" operator="lessThan" value="0.5"/>
                        </Node>
                        <Node id="3" score="3.0474381714746195">
                            <SimplePredicate field="Cruise" operator="greaterOrEqual" value="0.5"/>
                        </Node>
                    </Node>
                </TreeModel>
            </Segment>
            <Segment id="94">
                <True/>
                <TreeModel functionName="regression" splitCharacteristic="multiSplit">
                    <MiningSchema>
                        <MiningField name="Cruise" usageType="active"/>
                    </MiningSchema>
                    <Node id="1">
                        <True/>
                        <Node id="4" score="0.949518004516392">
                            <SimplePredicate field="Cruise" operator="isMissing"/>
                        </Node>
                        <Node id="2" score="-4.248577635665668">
                            <SimplePredicate field="Cruise" operator="lessThan" value="0.5"/>
                        </Node>
                        <Node id="3" score="2.8217134681412865">
                            <SimplePredicate field="Cruise" operator="greaterOrEqual" value="0.5"/>
                        </Node>
                    </Node>
                </TreeModel>
            </Segment>
            <Segment id="95">
                <True/>
                <TreeModel functionName="regression" splitCharacteristic="multiSplit">
                    <MiningSchema>
                        <MiningField name="Cruise" usageType="active"/>
                    </MiningSchema>
                    <Node id="1">
                        <True/>
                        <Node id="4" score="1.0091812665195647">
                            <SimplePredicate field="Cruise" operator="isMissing"/>
                        </Node>
                        <Node id="2" score="-5.0073113231918605">
                            <SimplePredicate field="Cruise" operator="lessThan" value="0.5"/>
                        </Node>
                        <Node id="3" score="3.141609019835007">
                            <SimplePredicate field="Cruise" operator="greaterOrEqual" value="0.5"/>
                        </Node>
                    </Node>
                </TreeModel>
            </Segment>
            <Segment id="96">
                <True/>
                <TreeModel functionName="regression" splitCharacteristic="multiSplit">
                    <MiningSchema>
                        <MiningField name="Cruise" usageType="active"/>
                    </MiningSchema>
                    <Node id="1">
                        <True/>
                        <Node id="4" score="0.5386873213587791">
                            <SimplePredicate field="Cruise" operator="isMissing"/>
                        </Node>
                        <Node id="2" score="-4.6770462770305254">
                            <SimplePredicate field="Cruise" operator="lessThan" value="0.5"/>
                        </Node>
                        <Node id="3" score="2.2989974108151694">
                            <SimplePredicate field="Cruise" operator="greaterOrEqual" value="0.5"/>
                        </Node>
                    </Node>
                </TreeModel>
            </Segment>
            <Segment id="97">
                <True/>
                <TreeModel functionName="regression" splitCharacteristic="multiSplit">
                    <MiningSchema>
                        <MiningField name="Cruise" usageType="active"/>
                    </MiningSchema>
                    <Node id="1">
                        <True/>
                        <Node id="4" score="1.6980055671707937">
                            <SimplePredicate field="Cruise" operator="isMissing"/>
                        </Node>
                        <Node id="2" score="-4.4894969655916395">
                            <SimplePredicate field="Cruise" operator="lessThan" value="0.5"/>
                        </Node>
                        <Node id="3" score="3.4236038830806357">
                            <SimplePredicate field="Cruise" operator="greaterOrEqual" value="0.5"/>
                        </Node>
                    </Node>
                </TreeModel>
            </Segment>
            <Segment id="98">
                <True/>
                <TreeModel functionName="regression" splitCharacteristic="multiSplit">
                    <MiningSchema>
                        <MiningField name="Saab" usageType="active"/>
                    </MiningSchema>
                    <Node id="1">
