<?xml version="1.0"?>
<PMML version="4.3" xmlns="http://www.dmg.org/PMML-4_3" xmlns:xsi="http://www.w3.org/2001/XMLSchema-instance" xsi:schemaLocation="http://www.dmg.org/PMML-4_3 http://www.dmg.org/pmml/v4-3/pmml-4-3.xsd">
 <Header copyright="Copyright (c) 2017 Syncfusion" description="Random Forest Tree Model">
  <Extension name="user" value="Syncfusion" extender="Rattle/PMML"/>
  <Application name="Rattle/PMML" version="1.4"/>
  <Timestamp>2017-11-06 18:00:17</Timestamp>
 </Header>
 <DataDictionary numberOfFields="7">
  <DataField name="Tip_Amount" optype="continuous" dataType="double"/>
  <DataField name="Total_Bill" optype="continuous" dataType="double"/>
  <DataField name="Sex" optype="categorical" dataType="string"/>
  <DataField name="Smoker" optype="categorical" dataType="string"/>
  <DataField name="Day" optype="categorical" dataType="string"/>
  <DataField name="Time" optype="categorical" dataType="string"/>
  <DataField name="Size" optype="continuous" dataType="double"/>
 </DataDictionary>
 <MiningModel modelName="randomForest_Model" algorithmName="randomForest" functionName="regression">
  <MiningSchema>
   <MiningField name="Tip_Amount" usageType="predicted"/>
   <MiningField name="Total_Bill" usageType="active"/>
   <MiningField name="Sex" usageType="active"/>
   <MiningField name="Smoker" usageType="active"/>
   <MiningField name="Day" usageType="active"/>
   <MiningField name="Time" usageType="active"/>
   <MiningField name="Size" usageType="active"/>
  </MiningSchema>
  <Output>
   <OutputField name="Predicted_Tip_Amount" feature="predictedValue"/>
  </Output>
  <Segmentation multipleModelMethod="average">
   <Segment id="1">
    <True/>
    <TreeModel modelName="randomForest_Model" functionName="regression" algorithmName="randomForest" splitCharacteristic="binarySplit">
     <MiningSchema>
      <MiningField name="Tip_Amount" usageType="predicted"/>
      <MiningField name="Total_Bill" usageType="active"/>
      <MiningField name="Sex" usageType="active"/>
      <MiningField name="Smoker" usageType="active"/>
      <MiningField name="Day" usageType="active"/>
      <MiningField name="Time" usageType="active"/>
      <MiningField name="Size" usageType="active"/>
     </MiningSchema>
     <Node id="1">
      <True/>
      <Node id="2">
       <SimplePredicate field="Total_Bill" operator="lessOrEqual" value="21.329999999999998"/>
       <Node id="4">
        <SimpleSetPredicate field="Day" booleanOperator="isIn">
         <Array n="2" type="string">&quot;Fri&quot;   &quot;Thur&quot;</Array>
        </SimpleSetPredicate>
        <Node id="8">
         <SimplePredicate field="Total_Bill" operator="lessOrEqual" value="16.449999999999999"/>
         <Node id="16">
          <SimplePredicate field="Total_Bill" operator="lessOrEqual" value="12.470000000000001"/>
          <Node id="28" score="1.24">
           <SimplePredicate field="Total_Bill" operator="lessOrEqual" value="9.1499999999999986"/>
          </Node>
          <Node id="29">
           <SimplePredicate field="Total_Bill" operator="greaterThan" value="9.1499999999999986"/>
           <Node id="44" score="1.75">
            <SimpleSetPredicate field="Time" booleanOperator="isIn">
             <Array n="1" type="string">&quot;Dinner&quot;</Array>
            </SimpleSetPredicate>
           </Node>
           <Node id="45">
            <SimpleSetPredicate field="Time" booleanOperator="isIn">
             <Array n="1" type="string">&quot;Lunch&quot;</Array>
            </SimpleSetPredicate>
            <Node id="54">
             <SimpleSetPredicate field="Day" booleanOperator="isIn">
              <Array n="1" type="string">&quot;Thur&quot;</Array>
             </SimpleSetPredicate>
             <Node id="60" score="1.83">
              <SimplePredicate field="Size" operator="lessOrEqual" value="1.5"/>
             </Node>
             <Node id="61">
              <SimplePredicate field="Size" operator="greaterThan" value="1.5"/>
              <Node id="66" score="1.81333333333333">
               <SimpleSetPredicate field="Sex" booleanOperator="isIn">
                <Array n="1" type="string">&quot;Female&quot;</Array>
               </SimpleSetPredicate>
              </Node>
              <Node id="67" score="1.9">
               <SimpleSetPredicate field="Sex" booleanOperator="isIn">
                <Array n="1" type="string">&quot;Male&quot;</Array>
               </SimpleSetPredicate>
              </Node>
             </Node>
            </Node>
            <Node id="55" score="2.13333333333333">
             <SimpleSetPredicate field="Day" booleanOperator="isIn">
              <Array n="3" type="string">&quot;Fri&quot;   &quot;Sat&quot;   &quot;Sun&quot;</Array>
             </SimpleSetPredicate>
            </Node>
           </Node>
          </Node>
         </Node>
         <Node id="17" score="2.19433333333333">
          <SimplePredicate field="Total_Bill" operator="greaterThan" value="12.470000000000001"/>
         </Node>
        </Node>
        <Node id="9">
         <SimplePredicate field="Total_Bill" operator="greaterThan" value="16.449999999999999"/>
         <Node id="18" score="2.6825">
          <SimpleSetPredicate field="Smoker" booleanOperator="isIn">
           <Array n="1" type="string">&quot;No&quot;</Array>
          </SimpleSetPredicate>
         </Node>
         <Node id="19" score="3.855">
          <SimpleSetPredicate field="Smoker" booleanOperator="isIn">
           <Array n="1" type="string">&quot;Yes&quot;</Array>
          </SimpleSetPredicate>
         </Node>
        </Node>
       </Node>
       <Node id="5">
        <SimpleSetPredicate field="Day" booleanOperator="isIn">
         <Array n="2" type="string">&quot;Sat&quot;   &quot;Sun&quot;</Array>
        </SimpleSetPredicate>
        <Node id="10" score="1">
         <SimplePredicate field="Size" operator="lessOrEqual" value="1.5"/>
        </Node>
        <Node id="11">
         <SimplePredicate field="Size" operator="greaterThan" value="1.5"/>
         <Node id="20">
          <SimpleSetPredicate field="Smoker" booleanOperator="isIn">
           <Array n="1" type="string">&quot;Yes&quot;</Array>
          </SimpleSetPredicate>
          <Node id="30" score="2.29388888888889">
           <SimpleSetPredicate field="Day" booleanOperator="isIn">
            <Array n="1" type="string">&quot;Sat&quot;</Array>
           </SimpleSetPredicate>
          </Node>
          <Node id="31" score="3.345">
           <SimpleSetPredicate field="Day" booleanOperator="isIn">
            <Array n="3" type="string">&quot;Fri&quot;   &quot;Sun&quot;   &quot;Thur&quot;</Array>
           </SimpleSetPredicate>
          </Node>
         </Node>
         <Node id="21">
          <SimpleSetPredicate field="Smoker" booleanOperator="isIn">
           <Array n="1" type="string">&quot;No&quot;</Array>
          </SimpleSetPredicate>
          <Node id="32">
           <SimpleSetPredicate field="Day" booleanOperator="isIn">
            <Array n="1" type="string">&quot;Sun&quot;</Array>
           </SimpleSetPredicate>
           <Node id="46">
            <SimpleSetPredicate field="Sex" booleanOperator="isIn">
             <Array n="1" type="string">&quot;Male&quot;</Array>
            </SimpleSetPredicate>
            <Node id="56" score="1.515">
             <SimplePredicate field="Total_Bill" operator="lessOrEqual" value="11.404999999999999"/>
            </Node>
            <Node id="57">
             <SimplePredicate field="Total_Bill" operator="greaterThan" value="11.404999999999999"/>
             <Node id="62" score="2.77416666666667">
              <SimplePredicate field="Size" operator="lessOrEqual" value="3.5"/>
             </Node>
             <Node id="63" score="2.2">
              <SimplePredicate field="Size" operator="greaterThan" value="3.5"/>
             </Node>
            </Node>
           </Node>
           <Node id="47" score="3.5">
            <SimpleSetPredicate field="Sex" booleanOperator="isIn">
             <Array n="1" type="string">&quot;Female&quot;</Array>
            </SimpleSetPredicate>
           </Node>
          </Node>
          <Node id="33">
           <SimpleSetPredicate field="Day" booleanOperator="isIn">
            <Array n="3" type="string">&quot;Fri&quot;   &quot;Sat&quot;   &quot;Thur&quot;</Array>
           </SimpleSetPredicate>
           <Node id="48" score="2.865">
            <SimpleSetPredicate field="Sex" booleanOperator="isIn">
             <Array n="1" type="string">&quot;Female&quot;</Array>
            </SimpleSetPredicate>
           </Node>
           <Node id="49">
            <SimpleSetPredicate field="Sex" booleanOperator="isIn">
             <Array n="1" type="string">&quot;Male&quot;</Array>
            </SimpleSetPredicate>
            <Node id="58">
             <SimplePredicate field="Size" operator="lessOrEqual" value="2.5"/>
             <Node id="64" score="2.428">
              <SimplePredicate field="Total_Bill" operator="lessOrEqual" value="17.870000000000001"/>
             </Node>
             <Node id="65" score="3.78">
              <SimplePredicate field="Total_Bill" operator="greaterThan" value="17.870000000000001"/>
             </Node>
            </Node>
            <Node id="59" score="2.71333333333333">
             <SimplePredicate field="Size" operator="greaterThan" value="2.5"/>
            </Node>
           </Node>
          </Node>
         </Node>
        </Node>
       </Node>
      </Node>
      <Node id="3">
       <SimplePredicate field="Total_Bill" operator="greaterThan" value="21.329999999999998"/>
       <Node id="6">
        <SimpleSetPredicate field="Day" booleanOperator="isIn">
         <Array n="2" type="string">&quot;Fri&quot;   &quot;Sun&quot;</Array>
        </SimpleSetPredicate>
        <Node id="12" score="3.07">
         <SimpleSetPredicate field="Smoker" booleanOperator="isIn">
          <Array n="1" type="string">&quot;Yes&quot;</Array>
         </SimpleSetPredicate>
        </Node>
        <Node id="13">
         <SimpleSetPredicate field="Smoker" booleanOperator="isIn">
          <Array n="1" type="string">&quot;No&quot;</Array>
         </SimpleSetPredicate>
         <Node id="22">
          <SimplePredicate field="Size" operator="lessOrEqual" value="3.5"/>
          <Node id="34" score="3.65166666666667">
           <SimpleSetPredicate field="Sex" booleanOperator="isIn">
            <Array n="1" type="string">&quot;Male&quot;</Array>
           </SimpleSetPredicate>
          </Node>
          <Node id="35" score="3.8125">
           <SimpleSetPredicate field="Sex" booleanOperator="isIn">
            <Array n="1" type="string">&quot;Female&quot;</Array>
           </SimpleSetPredicate>
          </Node>
         </Node>
         <Node id="23">
          <SimplePredicate field="Size" operator="greaterThan" value="3.5"/>
          <Node id="36" score="4.33">
           <SimplePredicate field="Size" operator="lessOrEqual" value="4.5"/>
          </Node>
          <Node id="37" score="5.14">
           <SimplePredicate field="Size" operator="greaterThan" value="4.5"/>
          </Node>
         </Node>
        </Node>
       </Node>
       <Node id="7">
        <SimpleSetPredicate field="Day" booleanOperator="isIn">
         <Array n="2" type="string">&quot;Sat&quot;   &quot;Thur&quot;</Array>
        </SimpleSetPredicate>
        <Node id="14">
         <SimpleSetPredicate field="Smoker" booleanOperator="isIn">
          <Array n="1" type="string">&quot;Yes&quot;</Array>
         </SimpleSetPredicate>
         <Node id="24">
          <SimpleSetPredicate field="Day" booleanOperator="isIn">
           <Array n="3" type="string">&quot;Fri&quot;   &quot;Sat&quot;   &quot;Sun&quot;</Array>
          </SimpleSetPredicate>
          <Node id="38">
           <SimplePredicate field="Size" operator="lessOrEqual" value="2.5"/>
           <Node id="50" score="2.756">
            <SimpleSetPredicate field="Sex" booleanOperator="isIn">
             <Array n="1" type="string">&quot;Male&quot;</Array>
            </SimpleSetPredicate>
           </Node>
           <Node id="51" score="3.14">
            <SimpleSetPredicate field="Sex" booleanOperator="isIn">
             <Array n="1" type="string">&quot;Female&quot;</Array>
            </SimpleSetPredicate>
           </Node>
          </Node>
          <Node id="39" score="4.714">
           <SimplePredicate field="Size" operator="greaterThan" value="2.5"/>
          </Node>
         </Node>
         <Node id="25" score="5">
          <SimpleSetPredicate field="Day" booleanOperator="isIn">
           <Array n="1" type="string">&quot;Thur&quot;</Array>
          </SimpleSetPredicate>
         </Node>
        </Node>
        <Node id="15">
         <SimpleSetPredicate field="Smoker" booleanOperator="isIn">
          <Array n="1" type="string">&quot;No&quot;</Array>
         </SimpleSetPredicate>
         <Node id="26">
          <SimpleSetPredicate field="Day" booleanOperator="isIn">
           <Array n="3" type="string">&quot;Fri&quot;   &quot;Sun&quot;   &quot;Thur&quot;</Array>
          </SimpleSetPredicate>
          <Node id="40" score="2.67333333333333">
           <SimplePredicate field="Total_Bill" operator="lessOrEqual" value="24.395"/>
          </Node>
          <Node id="41" score="5.2975">
           <SimplePredicate field="Total_Bill" operator="greaterThan" value="24.395"/>
          </Node>
         </Node>
         <Node id="27">
          <SimpleSetPredicate field="Day" booleanOperator="isIn">
           <Array n="1" type="string">&quot;Sat&quot;</Array>
          </SimpleSetPredicate>
          <Node id="42">
           <SimplePredicate field="Size" operator="lessOrEqual" value="3.5"/>
           <Node id="52" score="4.3">
            <SimplePredicate field="Total_Bill" operator="lessOrEqual" value="26.484999999999999"/>
           </Node>
           <Node id="53" score="4.89">
            <SimplePredicate field="Total_Bill" operator="greaterThan" value="26.484999999999999"/>
           </Node>
          </Node>
          <Node id="43" score="7.58">
           <SimplePredicate field="Size" operator="greaterThan" value="3.5"/>
          </Node>
         </Node>
        </Node>
       </Node>
      </Node>
     </Node>
    </TreeModel>
   </Segment>
   <Segment id="2">
    <True/>
    <TreeModel modelName="randomForest_Model" functionName="regression" algorithmName="randomForest" splitCharacteristic="binarySplit">
     <MiningSchema>
      <MiningField name="Tip_Amount" usageType="predicted"/>
      <MiningField name="Total_Bill" usageType="active"/>
      <MiningField name="Sex" usageType="active"/>
      <MiningField name="Smoker" usageType="active"/>
      <MiningField name="Day" usageType="active"/>
      <MiningField name="Time" usageType="active"/>
      <MiningField name="Size" usageType="active"/>
     </MiningSchema>
     <Node id="1">
      <True/>
      <Node id="2">
       <SimplePredicate field="Total_Bill" operator="lessOrEqual" value="20.57"/>
       <Node id="4">
        <SimpleSetPredicate field="Smoker" booleanOperator="isIn">
         <Array n="1" type="string">&quot;No&quot;</Array>
        </SimpleSetPredicate>
        <Node id="8" score="1.90625">
         <SimpleSetPredicate field="Time" booleanOperator="isIn">
          <Array n="1" type="string">&quot;Lunch&quot;</Array>
         </SimpleSetPredicate>
        </Node>
        <Node id="9">
         <SimpleSetPredicate field="Time" booleanOperator="isIn">
          <Array n="1" type="string">&quot;Dinner&quot;</Array>
         </SimpleSetPredicate>
         <Node id="14" score="1">
          <SimplePredicate field="Size" operator="lessOrEqual" value="1.5"/>
         </Node>
         <Node id="15">
          <SimplePredicate field="Size" operator="greaterThan" value="1.5"/>
          <Node id="24">
           <SimplePredicate field="Total_Bill" operator="lessOrEqual" value="17.030000000000001"/>
           <Node id="34">
            <SimplePredicate field="Total_Bill" operator="lessOrEqual" value="16.960000000000001"/>
            <Node id="48" score="2.23904761904762">
             <SimplePredicate field="Size" operator="lessOrEqual" value="2.5"/>
            </Node>
            <Node id="49">
             <SimplePredicate field="Size" operator="greaterThan" value="2.5"/>
             <Node id="60" score="2.2675">
              <SimpleSetPredicate field="Day" booleanOperator="isIn">
               <Array n="1" type="string">&quot;Sat&quot;</Array>
              </SimpleSetPredicate>
             </Node>
             <Node id="61" score="3.14">
              <SimpleSetPredicate field="Day" booleanOperator="isIn">
               <Array n="3" type="string">&quot;Fri&quot;   &quot;Sun&quot;   &quot;Thur&quot;</Array>
              </SimpleSetPredicate>
             </Node>
            </Node>
           </Node>
           <Node id="35" score="1.01">
            <SimplePredicate field="Total_Bill" operator="greaterThan" value="16.960000000000001"/>
           </Node>
          </Node>
          <Node id="25">
           <SimplePredicate field="Total_Bill" operator="greaterThan" value="17.030000000000001"/>
           <Node id="36">
            <SimplePredicate field="Size" operator="lessOrEqual" value="2.5"/>
            <Node id="50">
             <SimpleSetPredicate field="Day" booleanOperator="isIn">
              <Array n="1" type="string">&quot;Sat&quot;</Array>
             </SimpleSetPredicate>
             <Node id="62" score="3.63">
              <SimplePredicate field="Total_Bill" operator="lessOrEqual" value="20.024999999999999"/>
             </Node>
             <Node id="63" score="2.38">
              <SimplePredicate field="Total_Bill" operator="greaterThan" value="20.024999999999999"/>
             </Node>
            </Node>
            <Node id="51" score="3.005">
             <SimpleSetPredicate field="Day" booleanOperator="isIn">
              <Array n="3" type="string">&quot;Fri&quot;   &quot;Sun&quot;   &quot;Thur&quot;</Array>
             </SimpleSetPredicate>
            </Node>
           </Node>
           <Node id="37">
            <SimplePredicate field="Size" operator="greaterThan" value="2.5"/>
            <Node id="52">
             <SimplePredicate field="Total_Bill" operator="lessOrEqual" value="19.384999999999998"/>
             <Node id="64" score="2.514">
              <SimpleSetPredicate field="Sex" booleanOperator="isIn">
               <Array n="1" type="string">&quot;Male&quot;</Array>
              </SimpleSetPredicate>
             </Node>
             <Node id="65" score="3">
              <SimpleSetPredicate field="Sex" booleanOperator="isIn">
               <Array n="1" type="string">&quot;Female&quot;</Array>
              </SimpleSetPredicate>
             </Node>
            </Node>
            <Node id="53" score="3.12">
             <SimplePredicate field="Total_Bill" operator="greaterThan" value="19.384999999999998"/>
            </Node>
           </Node>
          </Node>
         </Node>
        </Node>
       </Node>
       <Node id="5">
        <SimpleSetPredicate field="Smoker" booleanOperator="isIn">
         <Array n="1" type="string">&quot;Yes&quot;</Array>
        </SimpleSetPredicate>
        <Node id="10">
         <SimpleSetPredicate field="Sex" booleanOperator="isIn">
          <Array n="1" type="string">&quot;Male&quot;</Array>
         </SimpleSetPredicate>
         <Node id="16" score="1.96157894736842">
          <SimplePredicate field="Size" operator="lessOrEqual" value="2.5"/>
         </Node>
         <Node id="17" score="3.69">
          <SimplePredicate field="Size" operator="greaterThan" value="2.5"/>
         </Node>
        </Node>
        <Node id="11">
         <SimpleSetPredicate field="Sex" booleanOperator="isIn">
          <Array n="1" type="string">&quot;Female&quot;</Array>
         </SimpleSetPredicate>
         <Node id="18" score="1.55">
          <SimpleSetPredicate field="Day" booleanOperator="isIn">
           <Array n="1" type="string">&quot;Sat&quot;</Array>
          </SimpleSetPredicate>
         </Node>
         <Node id="19">
          <SimpleSetPredicate field="Day" booleanOperator="isIn">
           <Array n="3" type="string">&quot;Fri&quot;   &quot;Sun&quot;   &quot;Thur&quot;</Array>
          </SimpleSetPredicate>
          <Node id="26" score="2.82166666666667">
           <SimpleSetPredicate field="Day" booleanOperator="isIn">
            <Array n="2" type="string">&quot;Sat&quot;   &quot;Thur&quot;</Array>
           </SimpleSetPredicate>
          </Node>
          <Node id="27" score="3.688">
           <SimpleSetPredicate field="Day" booleanOperator="isIn">
            <Array n="2" type="string">&quot;Fri&quot;   &quot;Sun&quot;</Array>
           </SimpleSetPredicate>
          </Node>
         </Node>
        </Node>
       </Node>
      </Node>
      <Node id="3">
       <SimplePredicate field="Total_Bill" operator="greaterThan" value="20.57"/>
       <Node id="6">
        <SimplePredicate field="Total_Bill" operator="lessOrEqual" value="46"/>
        <Node id="12">
         <SimplePredicate field="Total_Bill" operator="lessOrEqual" value="34.730000000000004"/>
         <Node id="20">
          <SimplePredicate field="Size" operator="lessOrEqual" value="2.5"/>
          <Node id="28">
           <SimplePredicate field="Total_Bill" operator="lessOrEqual" value="25.810000000000002"/>
           <Node id="38">
            <SimplePredicate field="Total_Bill" operator="lessOrEqual" value="24.490000000000002"/>
            <Node id="54">
             <SimpleSetPredicate field="Sex" booleanOperator="isIn">
              <Array n="1" type="string">&quot;Female&quot;</Array>
             </SimpleSetPredicate>
             <Node id="66" score="3.25">
              <SimpleSetPredicate field="Smoker" booleanOperator="isIn">
               <Array n="1" type="string">&quot;No&quot;</Array>
              </SimpleSetPredicate>
             </Node>
             <Node id="67" score="3.48">
              <SimpleSetPredicate field="Smoker" booleanOperator="isIn">
               <Array n="1" type="string">&quot;Yes&quot;</Array>
              </SimpleSetPredicate>
             </Node>
            </Node>
            <Node id="55">
             <SimpleSetPredicate field="Sex" booleanOperator="isIn">
              <Array n="1" type="string">&quot;Male&quot;</Array>
             </SimpleSetPredicate>
             <Node id="68">
              <SimpleSetPredicate field="Day" booleanOperator="isIn">
               <Array n="3" type="string">&quot;Fri&quot;   &quot;Sat&quot;   &quot;Thur&quot;</Array>
              </SimpleSetPredicate>
              <Node id="72" score="3">
               <SimpleSetPredicate field="Day" booleanOperator="isIn">
                <Array n="2" type="string">&quot;Sun&quot;   &quot;Thur&quot;</Array>
               </SimpleSetPredicate>
              </Node>
              <Node id="73">
               <SimpleSetPredicate field="Day" booleanOperator="isIn">
                <Array n="2" type="string">&quot;Fri&quot;   &quot;Sat&quot;</Array>
               </SimpleSetPredicate>
               <Node id="76" score="4.1">
                <SimplePredicate field="Total_Bill" operator="lessOrEqual" value="23.379999999999999"/>
               </Node>
               <Node id="77" score="2.03">
                <SimplePredicate field="Total_Bill" operator="greaterThan" value="23.379999999999999"/>
               </Node>
              </Node>
             </Node>
             <Node id="69">
              <SimpleSetPredicate field="Day" booleanOperator="isIn">
               <Array n="1" type="string">&quot;Sun&quot;</Array>
              </SimpleSetPredicate>
              <Node id="74" score="3.282">
               <SimpleSetPredicate field="Smoker" booleanOperator="isIn">
                <Array n="1" type="string">&quot;No&quot;</Array>
               </SimpleSetPredicate>
              </Node>
              <Node id="75" score="5.65">
               <SimpleSetPredicate field="Smoker" booleanOperator="isIn">
                <Array n="1" type="string">&quot;Yes&quot;</Array>
               </SimpleSetPredicate>
              </Node>
             </Node>
            </Node>
           </Node>
           <Node id="39" score="4.68">
            <SimplePredicate field="Total_Bill" operator="greaterThan" value="24.490000000000002"/>
           </Node>
          </Node>
          <Node id="29">
           <SimplePredicate field="Total_Bill" operator="greaterThan" value="25.810000000000002"/>
           <Node id="40">
            <SimpleSetPredicate field="Time" booleanOperator="isIn">
             <Array n="1" type="string">&quot;Dinner&quot;</Array>
            </SimpleSetPredicate>
            <Node id="56" score="2.32">
             <SimpleSetPredicate field="Sex" booleanOperator="isIn">
              <Array n="1" type="string">&quot;Female&quot;</Array>
             </SimpleSetPredicate>
            </Node>
            <Node id="57" score="2.865">
             <SimpleSetPredicate field="Sex" booleanOperator="isIn">
              <Array n="1" type="string">&quot;Male&quot;</Array>
             </SimpleSetPredicate>
            </Node>
           </Node>
           <Node id="41" score="5">
            <SimpleSetPredicate field="Time" booleanOperator="isIn">
             <Array n="1" type="string">&quot;Lunch&quot;</Array>
            </SimpleSetPredicate>
           </Node>
          </Node>
         </Node>
         <Node id="21">
          <SimplePredicate field="Size" operator="greaterThan" value="2.5"/>
          <Node id="30">
           <SimplePredicate field="Total_Bill" operator="lessOrEqual" value="29.954999999999998"/>
           <Node id="42">
            <SimplePredicate field="Size" operator="lessOrEqual" value="4.5"/>
            <Node id="58">
             <SimpleSetPredicate field="Smoker" booleanOperator="isIn">
              <Array n="1" type="string">&quot;No&quot;</Array>
             </SimpleSetPredicate>
             <Node id="70" score="2.92">
              <SimpleSetPredicate field="Time" booleanOperator="isIn">
               <Array n="1" type="string">&quot;Lunch&quot;</Array>
              </SimpleSetPredicate>
             </Node>
             <Node id="71" score="3.08571428571429">
              <SimpleSetPredicate field="Time" booleanOperator="isIn">
               <Array n="1" type="string">&quot;Dinner&quot;</Array>
              </SimpleSetPredicate>
             </Node>
            </Node>
            <Node id="59" score="5.346">
             <SimpleSetPredicate field="Smoker" booleanOperator="isIn">
              <Array n="1" type="string">&quot;Yes&quot;</Array>
             </SimpleSetPredicate>
            </Node>
           </Node>
           <Node id="43" score="5.07">
            <SimplePredicate field="Size" operator="greaterThan" value="4.5"/>
           </Node>
          </Node>
          <Node id="31">
           <SimplePredicate field="Total_Bill" operator="greaterThan" value="29.954999999999998"/>
           <Node id="44" score="3.536">
            <SimplePredicate field="Size" operator="lessOrEqual" value="4.5"/>
           </Node>
           <Node id="45" score="2">
            <SimplePredicate field="Size" operator="greaterThan" value="4.5"/>
           </Node>
          </Node>
         </Node>
        </Node>
        <Node id="13">
         <SimplePredicate field="Total_Bill" operator="greaterThan" value="34.730000000000004"/>
         <Node id="22" score="3.692">
          <SimpleSetPredicate field="Smoker" booleanOperator="isIn">
           <Array n="1" type="string">&quot;Yes&quot;</Array>
          </SimpleSetPredicate>
         </Node>
         <Node id="23">
          <SimpleSetPredicate field="Smoker" booleanOperator="isIn">
           <Array n="1" type="string">&quot;No&quot;</Array>
          </SimpleSetPredicate>
          <Node id="32">
           <SimpleSetPredicate field="Sex" booleanOperator="isIn">
            <Array n="1" type="string">&quot;Female&quot;</Array>
           </SimpleSetPredicate>
           <Node id="46" score="5.0675">
            <SimpleSetPredicate field="Time" booleanOperator="isIn">
             <Array n="1" type="string">&quot;Dinner&quot;</Array>
            </SimpleSetPredicate>
           </Node>
           <Node id="47" score="5.17">
            <SimpleSetPredicate field="Time" booleanOperator="isIn">
             <Array n="1" type="string">&quot;Lunch&quot;</Array>
            </SimpleSetPredicate>
           </Node>
          </Node>
          <Node id="33" score="6.29">
           <SimpleSetPredicate field="Sex" booleanOperator="isIn">
            <Array n="1" type="string">&quot;Male&quot;</Array>
           </SimpleSetPredicate>
          </Node>
         </Node>
        </Node>
       </Node>
       <Node id="7" score="10">
        <SimplePredicate field="Total_Bill" operator="greaterThan" value="46"/>
       </Node>
      </Node>
     </Node>
    </TreeModel>
   </Segment>
   <Segment id="3">
    <True/>
    <TreeModel modelName="randomForest_Model" functionName="regression" algorithmName="randomForest" splitCharacteristic="binarySplit">
     <MiningSchema>
      <MiningField name="Tip_Amount" usageType="predicted"/>
      <MiningField name="Total_Bill" usageType="active"/>
      <MiningField name="Sex" usageType="active"/>
      <MiningField name="Smoker" usageType="active"/>
      <MiningField name="Day" usageType="active"/>
      <MiningField name="Time" usageType="active"/>
      <MiningField name="Size" usageType="active"/>
     </MiningSchema>
     <Node id="1">
      <True/>
      <Node id="2">
       <SimplePredicate field="Size" operator="lessOrEqual" value="3.5"/>
       <Node id="4">
        <SimpleSetPredicate field="Sex" booleanOperator="isIn">
         <Array n="1" type="string">&quot;Female&quot;</Array>
        </SimpleSetPredicate>
        <Node id="8">
         <SimplePredicate field="Total_Bill" operator="lessOrEqual" value="17.030000000000001"/>
         <Node id="16">
          <SimplePredicate field="Total_Bill" operator="lessOrEqual" value="9.2199999999999989"/>
          <Node id="30" score="1">
           <SimplePredicate field="Total_Bill" operator="lessOrEqual" value="7.7999999999999998"/>
          </Node>
          <Node id="31" score="1.5">
           <SimplePredicate field="Total_Bill" operator="greaterThan" value="7.7999999999999998"/>
          </Node>
         </Node>
         <Node id="17">
          <SimplePredicate field="Total_Bill" operator="greaterThan" value="9.2199999999999989"/>
          <Node id="32">
           <SimpleSetPredicate field="Smoker" booleanOperator="isIn">
            <Array n="1" type="string">&quot;No&quot;</Array>
           </SimpleSetPredicate>
           <Node id="52">
            <SimpleSetPredicate field="Day" booleanOperator="isIn">
             <Array n="3" type="string">&quot;Sat&quot;   &quot;Sun&quot;   &quot;Thur&quot;</Array>
            </SimpleSetPredicate>
            <Node id="72" score="1.97">
             <SimpleSetPredicate field="Time" booleanOperator="isIn">
              <Array n="1" type="string">&quot;Lunch&quot;</Array>
             </SimpleSetPredicate>
            </Node>
            <Node id="73">
             <SimpleSetPredicate field="Time" booleanOperator="isIn">
              <Array n="1" type="string">&quot;Dinner&quot;</Array>
             </SimpleSetPredicate>
             <Node id="88" score="2.458">
              <SimplePredicate field="Total_Bill" operator="lessOrEqual" value="16.379999999999999"/>
             </Node>
             <Node id="89" score="1.01">
              <SimplePredicate field="Total_Bill" operator="greaterThan" value="16.379999999999999"/>
             </Node>
            </Node>
           </Node>
           <Node id="53" score="3">
            <SimpleSetPredicate field="Day" booleanOperator="isIn">
             <Array n="1" type="string">&quot;Fri&quot;</Array>
            </SimpleSetPredicate>
           </Node>
          </Node>
          <Node id="33">
           <SimpleSetPredicate field="Smoker" booleanOperator="isIn">
            <Array n="1" type="string">&quot;Yes&quot;</Array>
           </SimpleSetPredicate>
           <Node id="54">
            <SimplePredicate field="Size" operator="lessOrEqual" value="2.5"/>
            <Node id="74" score="1.9">
             <SimpleSetPredicate field="Day" booleanOperator="isIn">
              <Array n="2" type="string">&quot;Sat&quot;   &quot;Thur&quot;</Array>
             </SimpleSetPredicate>
            </Node>
            <Node id="75" score="2.396">
             <SimpleSetPredicate field="Day" booleanOperator="isIn">
              <Array n="2" type="string">&quot;Fri&quot;   &quot;Sun&quot;</Array>
             </SimpleSetPredicate>
            </Node>
           </Node>
           <Node id="55" score="3.23">
            <SimplePredicate field="Size" operator="greaterThan" value="2.5"/>
           </Node>
          </Node>
         </Node>
        </Node>
        <Node id="9">
         <SimplePredicate field="Total_Bill" operator="greaterThan" value="17.030000000000001"/>
         <Node id="18">
          <SimplePredicate field="Size" operator="lessOrEqual" value="2.5"/>
          <Node id="34" score="3.304">
           <SimpleSetPredicate field="Day" booleanOperator="isIn">
            <Array n="2" type="string">&quot;Fri&quot;   &quot;Thur&quot;</Array>
           </SimpleSetPredicate>
          </Node>
          <Node id="35">
           <SimpleSetPredicate field="Day" booleanOperator="isIn">
            <Array n="2" type="string">&quot;Sat&quot;   &quot;Sun&quot;</Array>
           </SimpleSetPredicate>
           <Node id="56" score="3.145">
            <SimpleSetPredicate field="Smoker" booleanOperator="isIn">
             <Array n="1" type="string">&quot;No&quot;</Array>
            </SimpleSetPredicate>
           </Node>
           <Node id="57" score="3.87333333333333">
            <SimpleSetPredicate field="Smoker" booleanOperator="isIn">
             <Array n="1" type="string">&quot;Yes&quot;</Array>
            </SimpleSetPredicate>
           </Node>
          </Node>
         </Node>
         <Node id="19" score="2.872">
          <SimplePredicate field="Size" operator="greaterThan" value="2.5"/>
         </Node>
        </Node>
       </Node>
       <Node id="5">
        <SimpleSetPredicate field="Sex" booleanOperator="isIn">
         <Array n="1" type="string">&quot;Male&quot;</Array>
        </SimpleSetPredicate>
        <Node id="10">
         <SimplePredicate field="Total_Bill" operator="lessOrEqual" value="13.754999999999999"/>
         <Node id="20">
          <SimplePredicate field="Size" operator="lessOrEqual" value="2.5"/>
          <Node id="36">
           <SimpleSetPredicate field="Smoker" booleanOperator="isIn">
            <Array n="1" type="string">&quot;Yes&quot;</Array>
           </SimpleSetPredicate>
           <Node id="58">
            <SimpleSetPredicate field="Day" booleanOperator="isIn">
             <Array n="2" type="string">&quot;Fri&quot;   &quot;Sat&quot;</Array>
            </SimpleSetPredicate>
            <Node id="76" score="1.25333333333333">
             <SimpleSetPredicate field="Day" booleanOperator="isIn">
              <Array n="1" type="string">&quot;Sat&quot;</Array>
             </SimpleSetPredicate>
            </Node>
            <Node id="77">
             <SimpleSetPredicate field="Day" booleanOperator="isIn">
              <Array n="3" type="string">&quot;Fri&quot;   &quot;Sun&quot;   &quot;Thur&quot;</Array>
             </SimpleSetPredicate>
             <Node id="90" score="1.5">
              <SimpleSetPredicate field="Time" booleanOperator="isIn">
               <Array n="1" type="string">&quot;Dinner&quot;</Array>
              </SimpleSetPredicate>
             </Node>
             <Node id="91" score="1.58">
              <SimpleSetPredicate field="Time" booleanOperator="isIn">
               <Array n="1" type="string">&quot;Lunch&quot;</Array>
              </SimpleSetPredicate>
             </Node>
            </Node>
           </Node>
           <Node id="59" score="2">
            <SimpleSetPredicate field="Day" booleanOperator="isIn">
             <Array n="2" type="string">&quot;Sun&quot;   &quot;Thur&quot;</Array>
            </SimpleSetPredicate>
           </Node>
          </Node>
          <Node id="37">
           <SimpleSetPredicate field="Smoker" booleanOperator="isIn">
            <Array n="1" type="string">&quot;No&quot;</Array>
           </SimpleSetPredicate>
           <Node id="60">
            <SimplePredicate field="Total_Bill" operator="lessOrEqual" value="12.56"/>
            <Node id="78">
             <SimplePredicate field="Total_Bill" operator="lessOrEqual" value="11.23"/>
             <Node id="92" score="1.546">
              <SimpleSetPredicate field="Time" booleanOperator="isIn">
               <Array n="1" type="string">&quot;Dinner&quot;</Array>
              </SimpleSetPredicate>
             </Node>
             <Node id="93" score="1.585">
              <SimpleSetPredicate field="Time" booleanOperator="isIn">
               <Array n="1" type="string">&quot;Lunch&quot;</Array>
              </SimpleSetPredicate>
             </Node>
            </Node>
            <Node id="79" score="1.905">
             <SimplePredicate field="Total_Bill" operator="greaterThan" value="11.23"/>
            </Node>
           </Node>
           <Node id="61" score="2.40666666666667">
            <SimplePredicate field="Total_Bill" operator="greaterThan" value="12.56"/>
           </Node>
          </Node>
         </Node>
         <Node id="21" score="1.66">
          <SimplePredicate field="Size" operator="greaterThan" value="2.5"/>
         </Node>
        </Node>
        <Node id="11">
         <SimplePredicate field="Total_Bill" operator="greaterThan" value="13.754999999999999"/>
         <Node id="22">
          <SimplePredicate field="Total_Bill" operator="lessOrEqual" value="21.369999999999997"/>
          <Node id="38">
           <SimplePredicate field="Total_Bill" operator="lessOrEqual" value="17.905000000000001"/>
           <Node id="62">
            <SimpleSetPredicate field="Day" booleanOperator="isIn">
             <Array n="2" type="string">&quot;Sat&quot;   &quot;Thur&quot;</Array>
            </SimpleSetPredicate>
            <Node id="80" score="2.9">
             <SimplePredicate field="Total_Bill" operator="lessOrEqual" value="15.82"/>
            </Node>
            <Node id="81">
             <SimplePredicate field="Total_Bill" operator="greaterThan" value="15.82"/>
             <Node id="94" score="2.13">
              <SimpleSetPredicate field="Time" booleanOperator="isIn">
               <Array n="1" type="string">&quot;Dinner&quot;</Array>
              </SimpleSetPredicate>
             </Node>
             <Node id="95" score="2.3575">
              <SimpleSetPredicate field="Time" booleanOperator="isIn">
               <Array n="1" type="string">&quot;Lunch&quot;</Array>
              </SimpleSetPredicate>
             </Node>
            </Node>
           </Node>
           <Node id="63">
            <SimpleSetPredicate field="Day" booleanOperator="isIn">
             <Array n="2" type="string">&quot;Fri&quot;   &quot;Sun&quot;</Array>
            </SimpleSetPredicate>
            <Node id="82" score="3.6625">
             <SimplePredicate field="Total_Bill" operator="lessOrEqual" value="17.140000000000001"/>
            </Node>
            <Node id="83" score="2.27">
             <SimplePredicate field="Total_Bill" operator="greaterThan" value="17.140000000000001"/>
            </Node>
           </Node>
          </Node>
          <Node id="39">
           <SimplePredicate field="Total_Bill" operator="greaterThan" value="17.905000000000001"/>
           <Node id="64">
            <SimpleSetPredicate field="Day" booleanOperator="isIn">
             <Array n="3" type="string">&quot;Fri&quot;   &quot;Sat&quot;   &quot;Sun&quot;</Array>
            </SimpleSetPredicate>
            <Node id="84">
             <SimplePredicate field="Total_Bill" operator="lessOrEqual" value="20.524999999999999"/>
             <Node id="96" score="3.369">
              <SimplePredicate field="Size" operator="lessOrEqual" value="2.5"/>
             </Node>
             <Node id="97" score="2.31">
              <SimplePredicate field="Size" operator="greaterThan" value="2.5"/>
             </Node>
            </Node>
            <Node id="85" score="2.555">
             <SimplePredicate field="Total_Bill" operator="greaterThan" value="20.524999999999999"/>
            </Node>
           </Node>
           <Node id="65" score="3.6">
            <SimpleSetPredicate field="Day" booleanOperator="isIn">
             <Array n="1" type="string">&quot;Thur&quot;</Array>
            </SimpleSetPredicate>
           </Node>
          </Node>
         </Node>
         <Node id="23">
          <SimplePredicate field="Total_Bill" operator="greaterThan" value="21.369999999999997"/>
          <Node id="40">
           <SimpleSetPredicate field="Smoker" booleanOperator="isIn">
            <Array n="1" type="string">&quot;Yes&quot;</Array>
           </SimpleSetPredicate>
           <Node id="66">
            <SimplePredicate field="Size" operator="lessOrEqual" value="2.5"/>
            <Node id="86" score="2.91857142857143">
             <SimpleSetPredicate field="Day" booleanOperator="isIn">
              <Array n="3" type="string">&quot;Fri&quot;   &quot;Sat&quot;   &quot;Sun&quot;</Array>
             </SimpleSetPredicate>
            </Node>
            <Node id="87" score="5">
             <SimpleSetPredicate field="Day" booleanOperator="isIn">
              <Array n="1" type="string">&quot;Thur&quot;</Array>
             </SimpleSetPredicate>
            </Node>
           </Node>
           <Node id="67" score="2.94">
            <SimplePredicate field="Size" operator="greaterThan" value="2.5"/>
           </Node>
          </Node>
          <Node id="41">
           <SimpleSetPredicate field="Smoker" booleanOperator="isIn">
            <Array n="1" type="string">&quot;No&quot;</Array>
           </SimpleSetPredicate>
           <Node id="68" score="3.63583333333333">
            <SimplePredicate field="Total_Bill" operator="lessOrEqual" value="24.384999999999998"/>
           </Node>
           <Node id="69" score="5.25666666666667">
            <SimplePredicate field="Total_Bill" operator="greaterThan" value="24.384999999999998"/>
           </Node>
          </Node>
         </Node>
        </Node>
       </Node>
      </Node>
      <Node id="3">
       <SimplePredicate field="Size" operator="greaterThan" value="3.5"/>
       <Node id="6">
        <SimpleSetPredicate field="Smoker" booleanOperator="isIn">
         <Array n="1" type="string">&quot;Yes&quot;</Array>
        </SimpleSetPredicate>
        <Node id="12">
         <SimpleSetPredicate field="Day" booleanOperator="isIn">
          <Array n="3" type="string">&quot;Sat&quot;   &quot;Sun&quot;   &quot;Thur&quot;</Array>
         </SimpleSetPredicate>
         <Node id="24" score="4.868">
          <SimplePredicate field="Total_Bill" operator="lessOrEqual" value="28.015000000000001"/>
         </Node>
         <Node id="25">
          <SimplePredicate field="Total_Bill" operator="greaterThan" value="28.015000000000001"/>
          <Node id="42">
           <SimpleSetPredicate field="Sex" booleanOperator="isIn">
            <Array n="1" type="string">&quot;Male&quot;</Array>
           </SimpleSetPredicate>
           <Node id="70" score="2.56">
            <SimpleSetPredicate field="Day" booleanOperator="isIn">
             <Array n="1" type="string">&quot;Sun&quot;</Array>
            </SimpleSetPredicate>
           </Node>
           <Node id="71" score="3">
            <SimpleSetPredicate field="Day" booleanOperator="isIn">
             <Array n="3" type="string">&quot;Fri&quot;   &quot;Sat&quot;   &quot;Thur&quot;</Array>
            </SimpleSetPredicate>
           </Node>
          </Node>
          <Node id="43" score="3.09">
           <SimpleSetPredicate field="Sex" booleanOperator="isIn">
            <Array n="1" type="string">&quot;Female&quot;</Array>
           </SimpleSetPredicate>
          </Node>
         </Node>
        </Node>
        <Node id="13" score="4.73">
         <SimpleSetPredicate field="Day" booleanOperator="isIn">
          <Array n="1" type="string">&quot;Fri&quot;</Array>
         </SimpleSetPredicate>
        </Node>
       </Node>
       <Node id="7">
        <SimpleSetPredicate field="Smoker" booleanOperator="isIn">
         <Array n="1" type="string">&quot;No&quot;</Array>
        </SimpleSetPredicate>
        <Node id="14">
         <SimplePredicate field="Total_Bill" operator="lessOrEqual" value="24.920000000000002"/>
         <Node id="26">
          <SimplePredicate field="Total_Bill" operator="lessOrEqual" value="20.23"/>
          <Node id="44" score="2">
           <SimpleSetPredicate field="Day" booleanOperator="isIn">
            <Array n="1" type="string">&quot;Sun&quot;</Array>
           </SimpleSetPredicate>
          </Node>
          <Node id="45" score="2.44666666666667">
           <SimpleSetPredicate field="Day" booleanOperator="isIn">
            <Array n="3" type="string">&quot;Fri&quot;   &quot;Sat&quot;   &quot;Thur&quot;</Array>
           </SimpleSetPredicate>
          </Node>
         </Node>
         <Node id="27">
          <SimplePredicate field="Total_Bill" operator="greaterThan" value="20.23"/>
          <Node id="46" score="3.564">
           <SimplePredicate field="Total_Bill" operator="lessOrEqual" value="24.314999999999998"/>
          </Node>
          <Node id="47" score="2">
           <SimplePredicate field="Total_Bill" operator="greaterThan" value="24.314999999999998"/>
          </Node>
         </Node>
        </Node>
        <Node id="15">
         <SimplePredicate field="Total_Bill" operator="greaterThan" value="24.920000000000002"/>
         <Node id="28">
          <SimpleSetPredicate field="Sex" booleanOperator="isIn">
           <Array n="1" type="string">&quot;Female&quot;</Array>
          </SimpleSetPredicate>
          <Node id="48" score="5">
           <SimplePredicate field="Total_Bill" operator="lessOrEqual" value="28.450000000000003"/>
          </Node>
          <Node id="49" score="5.164">
           <SimplePredicate field="Total_Bill" operator="greaterThan" value="28.450000000000003"/>
          </Node>
         </Node>
         <Node id="29">
          <SimpleSetPredicate field="Sex" booleanOperator="isIn">
           <Array n="1" type="string">&quot;Male&quot;</Array>
          </SimpleSetPredicate>
          <Node id="50" score="5">
           <SimpleSetPredicate field="Time" booleanOperator="isIn">
            <Array n="1" type="string">&quot;Lunch&quot;</Array>
           </SimpleSetPredicate>
          </Node>
          <Node id="51" score="5.8525">
           <SimpleSetPredicate field="Time" booleanOperator="isIn">
            <Array n="1" type="string">&quot;Dinner&quot;</Array>
           </SimpleSetPredicate>
          </Node>
         </Node>
        </Node>
       </Node>
      </Node>
     </Node>
    </TreeModel>
   </Segment>
   <Segment id="4">
    <True/>
    <TreeModel modelName="randomForest_Model" functionName="regression" algorithmName="randomForest" splitCharacteristic="binarySplit">
     <MiningSchema>
      <MiningField name="Tip_Amount" usageType="predicted"/>
      <MiningField name="Total_Bill" usageType="active"/>
      <MiningField name="Sex" usageType="active"/>
      <MiningField name="Smoker" usageType="active"/>
      <MiningField name="Day" usageType="active"/>
      <MiningField name="Time" usageType="active"/>
      <MiningField name="Size" usageType="active"/>
     </MiningSchema>
     <Node id="1">
      <True/>
      <Node id="2">
       <SimpleSetPredicate field="Day" booleanOperator="isIn">
        <Array n="2" type="string">&quot;Fri&quot;   &quot;Thur&quot;</Array>
       </SimpleSetPredicate>
       <Node id="4">
        <SimpleSetPredicate field="Time" booleanOperator="isIn">
         <Array n="1" type="string">&quot;Lunch&quot;</Array>
        </SimpleSetPredicate>
        <Node id="8" score="2.68944444444444">
         <SimpleSetPredicate field="Sex" booleanOperator="isIn">
          <Array n="1" type="string">&quot;Female&quot;</Array>
         </SimpleSetPredicate>
        </Node>
        <Node id="9">
         <SimpleSetPredicate field="Sex" booleanOperator="isIn">
          <Array n="1" type="string">&quot;Male&quot;</Array>
         </SimpleSetPredicate>
         <Node id="14" score="2.617">
          <SimplePredicate field="Size" operator="lessOrEqual" value="2.5"/>
         </Node>
         <Node id="15" score="4.5">
          <SimplePredicate field="Size" operator="greaterThan" value="2.5"/>
         </Node>
        </Node>
       </Node>
       <Node id="5">
        <SimpleSetPredicate field="Time" booleanOperator="isIn">
         <Array n="1" type="string">&quot;Dinner&quot;</Array>
        </SimpleSetPredicate>
        <Node id="10">
         <SimplePredicate field="Size" operator="lessOrEqual" value="3"/>
         <Node id="16" score="2.875">
          <SimpleSetPredicate field="Sex" booleanOperator="isIn">
           <Array n="1" type="string">&quot;Male&quot;</Array>
          </SimpleSetPredicate>
         </Node>
         <Node id="17" score="3.43333333333333">
          <SimpleSetPredicate field="Sex" booleanOperator="isIn">
           <Array n="1" type="string">&quot;Female&quot;</Array>
          </SimpleSetPredicate>
         </Node>
        </Node>
        <Node id="11" score="4.73">
         <SimplePredicate field="Size" operator="greaterThan" value="3"/>
        </Node>
       </Node>
      </Node>
      <Node id="3">
       <SimpleSetPredicate field="Day" booleanOperator="isIn">
        <Array n="2" type="string">&quot;Sat&quot;   &quot;Sun&quot;</Array>
       </SimpleSetPredicate>
       <Node id="6">
        <SimplePredicate field="Total_Bill" operator="lessOrEqual" value="37.115000000000002"/>
        <Node id="12">
         <SimplePredicate field="Total_Bill" operator="lessOrEqual" value="17.865000000000002"/>
         <Node id="18">
          <SimpleSetPredicate field="Day" booleanOperator="isIn">
           <Array n="1" type="string">&quot;Sat&quot;</Array>
          </SimpleSetPredicate>
          <Node id="22">
           <SimpleSetPredicate field="Smoker" booleanOperator="isIn">
            <Array n="1" type="string">&quot;Yes&quot;</Array>
           </SimpleSetPredicate>
           <Node id="30" score="1.55">
            <SimpleSetPredicate field="Sex" booleanOperator="isIn">
             <Array n="1" type="string">&quot;Female&quot;</Array>
            </SimpleSetPredicate>
           </Node>
           <Node id="31">
            <SimpleSetPredicate field="Sex" booleanOperator="isIn">
             <Array n="1" type="string">&quot;Male&quot;</Array>
            </SimpleSetPredicate>
            <Node id="42" score="1.756">
             <SimplePredicate field="Size" operator="lessOrEqual" value="2.5"/>
            </Node>
            <Node id="43" score="3">
             <SimplePredicate field="Size" operator="greaterThan" value="2.5"/>
            </Node>
           </Node>
          </Node>
          <Node id="23">
           <SimpleSetPredicate field="Smoker" booleanOperator="isIn">
            <Array n="1" type="string">&quot;No&quot;</Array>
           </SimpleSetPredicate>
           <Node id="32" score="1.235">
            <SimplePredicate field="Total_Bill" operator="lessOrEqual" value="11.19"/>
           </Node>
           <Node id="33">
            <SimplePredicate field="Total_Bill" operator="greaterThan" value="11.19"/>
            <Node id="44" score="3.39">
             <SimplePredicate field="Total_Bill" operator="lessOrEqual" value="13.17"/>
            </Node>
            <Node id="45">
             <SimplePredicate field="Total_Bill" operator="greaterThan" value="13.17"/>
             <Node id="50" score="2.324">
              <SimpleSetPredicate field="Sex" booleanOperator="isIn">
               <Array n="1" type="string">&quot;Male&quot;</Array>
              </SimpleSetPredicate>
             </Node>
             <Node id="51">
              <SimpleSetPredicate field="Sex" booleanOperator="isIn">
               <Array n="1" type="string">&quot;Female&quot;</Array>
              </SimpleSetPredicate>
              <Node id="56" score="2.215">
               <SimplePredicate field="Total_Bill" operator="lessOrEqual" value="16.350000000000001"/>
              </Node>
              <Node id="57" score="3.0525">
               <SimplePredicate field="Total_Bill" operator="greaterThan" value="16.350000000000001"/>
              </Node>
             </Node>
            </Node>
           </Node>
          </Node>
         </Node>
         <Node id="19">
          <SimpleSetPredicate field="Day" booleanOperator="isIn">
           <Array n="3" type="string">&quot;Fri&quot;   &quot;Sun&quot;   &quot;Thur&quot;</Array>
          </SimpleSetPredicate>
          <Node id="24" score="2.72928571428571">
           <SimpleSetPredicate field="Sex" booleanOperator="isIn">
            <Array n="1" type="string">&quot;Male&quot;</Array>
           </SimpleSetPredicate>
          </Node>
          <Node id="25">
           <SimpleSetPredicate field="Sex" booleanOperator="isIn">
            <Array n="1" type="string">&quot;Female&quot;</Array>
           </SimpleSetPredicate>
           <Node id="34" score="2.40428571428571">
            <SimpleSetPredicate field="Smoker" booleanOperator="isIn">
             <Array n="1" type="string">&quot;No&quot;</Array>
            </SimpleSetPredicate>
           </Node>
           <Node id="35" score="3.5">
            <SimpleSetPredicate field="Smoker" booleanOperator="isIn">
             <Array n="1" type="string">&quot;Yes&quot;</Array>
            </SimpleSetPredicate>
           </Node>
          </Node>
         </Node>
        </Node>
        <Node id="13">
         <SimplePredicate field="Total_Bill" operator="greaterThan" value="17.865000000000002"/>
         <Node id="20">
          <SimplePredicate field="Size" operator="lessOrEqual" value="3.5"/>
          <Node id="26">
           <SimplePredicate field="Size" operator="lessOrEqual" value="2.5"/>
           <Node id="36">
            <SimplePredicate field="Total_Bill" operator="lessOrEqual" value="23.814999999999998"/>
            <Node id="46" score="3.51">
             <SimpleSetPredicate field="Smoker" booleanOperator="isIn">
              <Array n="1" type="string">&quot;Yes&quot;</Array>
             </SimpleSetPredicate>
            </Node>
            <Node id="47">
             <SimpleSetPredicate field="Smoker" booleanOperator="isIn">
              <Array n="1" type="string">&quot;No&quot;</Array>
             </SimpleSetPredicate>
             <Node id="52">
              <SimplePredicate field="Total_Bill" operator="lessOrEqual" value="20.905000000000001"/>
              <Node id="58" score="4.08">
               <SimplePredicate field="Total_Bill" operator="lessOrEqual" value="17.98"/>
              </Node>
              <Node id="59">
               <SimplePredicate field="Total_Bill" operator="greaterThan" value="17.98"/>
               <Node id="62" score="3.25428571428571">
                <SimplePredicate field="Total_Bill" operator="lessOrEqual" value="19.859999999999999"/>
               </Node>
               <Node id="63" score="2.01">
                <SimplePredicate field="Total_Bill" operator="greaterThan" value="19.859999999999999"/>
               </Node>
              </Node>
             </Node>
             <Node id="53">
              <SimplePredicate field="Total_Bill" operator="greaterThan" value="20.905000000000001"/>
              <Node id="60" score="4.288">
               <SimplePredicate field="Total_Bill" operator="lessOrEqual" value="22.954999999999998"/>
              </Node>
              <Node id="61" score="3.31">
               <SimplePredicate field="Total_Bill" operator="greaterThan" value="22.954999999999998"/>
              </Node>
             </Node>
            </Node>
           </Node>
           <Node id="37" score="2.60307692307692">
            <SimplePredicate field="Total_Bill" operator="greaterThan" value="23.814999999999998"/>
           </Node>
          </Node>
          <Node id="27">
           <SimplePredicate field="Size" operator="greaterThan" value="2.5"/>
           <Node id="38">
            <SimpleSetPredicate field="Day" booleanOperator="isIn">
             <Array n="3" type="string">&quot;Fri&quot;   &quot;Sun&quot;   &quot;Thur&quot;</Array>
            </SimpleSetPredicate>
            <Node id="48">
             <SimplePredicate field="Total_Bill" operator="lessOrEqual" value="25.115000000000002"/>
             <Node id="54" score="3.5">
              <SimpleSetPredicate field="Sex" booleanOperator="isIn">
               <Array n="1" type="string">&quot;Female&quot;</Array>
              </SimpleSetPredicate>
             </Node>
             <Node id="55" score="3.56">
              <SimpleSetPredicate field="Sex" booleanOperator="isIn">
               <Array n="1" type="string">&quot;Male&quot;</Array>
              </SimpleSetPredicate>
             </Node>
            </Node>
            <Node id="49" score="4">
             <SimplePredicate field="Total_Bill" operator="greaterThan" value="25.115000000000002"/>
            </Node>
           </Node>
           <Node id="39" score="4.075">
            <SimpleSetPredicate field="Day" booleanOperator="isIn">
             <Array n="1" type="string">&quot;Sat&quot;</Array>
            </SimpleSetPredicate>
           </Node>
          </Node>
         </Node>
         <Node id="21">
          <SimplePredicate field="Size" operator="greaterThan" value="3.5"/>
          <Node id="28">
           <SimpleSetPredicate field="Sex" booleanOperator="isIn">
            <Array n="1" type="string">&quot;Male&quot;</Array>
           </SimpleSetPredicate>
           <Node id="40" score="2.71777777777778">
            <SimpleSetPredicate field="Smoker" booleanOperator="isIn">
             <Array n="1" type="string">&quot;No&quot;</Array>
            </SimpleSetPredicate>
           </Node>
           <Node id="41" score="3.68">
            <SimpleSetPredicate field="Smoker" booleanOperator="isIn">
             <Array n="1" type="string">&quot;Yes&quot;</Array>
            </SimpleSetPredicate>
           </Node>
          </Node>
          <Node id="29" score="3.79333333333333">
           <SimpleSetPredicate field="Sex" booleanOperator="isIn">
            <Array n="1" type="string">&quot;Female&quot;</Array>
           </SimpleSetPredicate>
          </Node>
         </Node>
        </Node>
       </Node>
       <Node id="7" score="8.29">
        <SimplePredicate field="Total_Bill" operator="greaterThan" value="37.115000000000002"/>
       </Node>
      </Node>
     </Node>
    </TreeModel>
   </Segment>
   <Segment id="5">
    <True/>
    <TreeModel modelName="randomForest_Model" functionName="regression" algorithmName="randomForest" splitCharacteristic="binarySplit">
     <MiningSchema>
      <MiningField name="Tip_Amount" usageType="predicted"/>
      <MiningField name="Total_Bill" usageType="active"/>
      <MiningField name="Sex" usageType="active"/>
      <MiningField name="Smoker" usageType="active"/>
      <MiningField name="Day" usageType="active"/>
      <MiningField name="Time" usageType="active"/>
      <MiningField name="Size" usageType="active"/>
     </MiningSchema>
     <Node id="1">
      <True/>
      <Node id="2">
       <SimpleSetPredicate field="Day" booleanOperator="isIn">
        <Array n="2" type="string">&quot;Fri&quot;   &quot;Thur&quot;</Array>
       </SimpleSetPredicate>
       <Node id="4">
        <SimpleSetPredicate field="Time" booleanOperator="isIn">
         <Array n="1" type="string">&quot;Lunch&quot;</Array>
        </SimpleSetPredicate>
        <Node id="8">
         <SimpleSetPredicate field="Sex" booleanOperator="isIn">
          <Array n="1" type="string">&quot;Male&quot;</Array>
         </SimpleSetPredicate>
         <Node id="16">
          <SimplePredicate field="Total_Bill" operator="lessOrEqual" value="32.004999999999995"/>
          <Node id="26">
           <SimplePredicate field="Size" operator="lessOrEqual" value="2.5"/>
           <Node id="40" score="1.975">
            <SimpleSetPredicate field="Smoker" booleanOperator="isIn">
             <Array n="1" type="string">&quot;Yes&quot;</Array>
            </SimpleSetPredicate>
           </Node>
           <Node id="41">
            <SimpleSetPredicate field="Smoker" booleanOperator="isIn">
             <Array n="1" type="string">&quot;No&quot;</Array>
            </SimpleSetPredicate>
            <Node id="56" score="1.8075">
             <SimplePredicate field="Total_Bill" operator="lessOrEqual" value="13.645"/>
            </Node>
            <Node id="57">
             <SimplePredicate field="Total_Bill" operator="greaterThan" value="13.645"/>
             <Node id="70" score="3.1">
              <SimplePredicate field="Total_Bill" operator="lessOrEqual" value="18.68"/>
             </Node>
             <Node id="71" score="2.25">
              <SimplePredicate field="Total_Bill" operator="greaterThan" value="18.68"/>
             </Node>
            </Node>
           </Node>
          </Node>
          <Node id="27" score="2.78666666666667">
           <SimplePredicate field="Size" operator="greaterThan" value="2.5"/>
          </Node>
         </Node>
         <Node id="17" score="5">
          <SimplePredicate field="Total_Bill" operator="greaterThan" value="32.004999999999995"/>
         </Node>
        </Node>
        <Node id="9">
         <SimpleSetPredicate field="Sex" booleanOperator="isIn">
          <Array n="1" type="string">&quot;Female&quot;</Array>
         </SimpleSetPredicate>
         <Node id="18">
          <SimplePredicate field="Total_Bill" operator="lessOrEqual" value="26.939999999999998"/>
          <Node id="28">
           <SimplePredicate field="Total_Bill" operator="lessOrEqual" value="13.08"/>
           <Node id="42" score="1.79785714285714">
            <SimpleSetPredicate field="Day" booleanOperator="isIn">
             <Array n="1" type="string">&quot;Thur&quot;</Array>
            </SimpleSetPredicate>
           </Node>
           <Node id="43" score="2">
            <SimpleSetPredicate field="Day" booleanOperator="isIn">
             <Array n="3" type="string">&quot;Fri&quot;   &quot;Sat&quot;   &quot;Sun&quot;</Array>
            </SimpleSetPredicate>
           </Node>
          </Node>
          <Node id="29">
           <SimplePredicate field="Total_Bill" operator="greaterThan" value="13.08"/>
           <Node id="44" score="2.382">
            <SimplePredicate field="Total_Bill" operator="lessOrEqual" value="15.25"/>
           </Node>
           <Node id="45">
            <SimplePredicate field="Total_Bill" operator="greaterThan" value="15.25"/>
            <Node id="58" score="3.2075">
             <SimplePredicate field="Size" operator="lessOrEqual" value="2.5"/>
            </Node>
            <Node id="59" score="2.6275">
             <SimplePredicate field="Size" operator="greaterThan" value="2.5"/>
            </Node>
           </Node>
          </Node>
         </Node>
         <Node id="19" score="4.73333333333333">
          <SimplePredicate field="Total_Bill" operator="greaterThan" value="26.939999999999998"/>
         </Node>
        </Node>
       </Node>
       <Node id="5">
        <SimpleSetPredicate field="Time" booleanOperator="isIn">
         <Array n="1" type="string">&quot;Dinner&quot;</Array>
        </SimpleSetPredicate>
        <Node id="10">
         <SimplePredicate field="Size" operator="lessOrEqual" value="3"/>
         <Node id="20">
          <SimplePredicate field="Total_Bill" operator="lessOrEqual" value="15.620000000000001"/>
          <Node id="30" score="1.5">
           <SimpleSetPredicate field="Smoker" booleanOperator="isIn">
            <Array n="1" type="string">&quot;No&quot;</Array>
           </SimpleSetPredicate>
          </Node>
          <Node id="31" score="2">
           <SimpleSetPredicate field="Smoker" booleanOperator="isIn">
            <Array n="1" type="string">&quot;Yes&quot;</Array>
           </SimpleSetPredicate>
          </Node>
         </Node>
         <Node id="21" score="3.125">
          <SimplePredicate field="Total_Bill" operator="greaterThan" value="15.620000000000001"/>
         </Node>
        </Node>
        <Node id="11" score="4.73">
         <SimplePredicate field="Size" operator="greaterThan" value="3"/>
        </Node>
       </Node>
      </Node>
      <Node id="3">
       <SimpleSetPredicate field="Day" booleanOperator="isIn">
        <Array n="2" type="string">&quot;Sat&quot;   &quot;Sun&quot;</Array>
       </SimpleSetPredicate>
       <Node id="6">
        <SimplePredicate field="Size" operator="lessOrEqual" value="1.5"/>
        <Node id="12" score="1">
         <SimplePredicate field="Total_Bill" operator="lessOrEqual" value="5.1600000000000001"/>
        </Node>
        <Node id="13" score="1">
         <SimplePredicate field="Total_Bill" operator="greaterThan" value="5.1600000000000001"/>
        </Node>
       </Node>
       <Node id="7">
        <SimplePredicate field="Size" operator="greaterThan" value="1.5"/>
        <Node id="14">
         <SimplePredicate field="Size" operator="lessOrEqual" value="2.5"/>
         <Node id="22">
          <SimpleSetPredicate field="Day" booleanOperator="isIn">
           <Array n="3" type="string">&quot;Fri&quot;   &quot;Sat&quot;   &quot;Thur&quot;</Array>
          </SimpleSetPredicate>
          <Node id="32" score="2.134">
           <SimplePredicate field="Total_Bill" operator="lessOrEqual" value="17.870000000000001"/>
          </Node>
          <Node id="33" score="3.478125">
           <SimplePredicate field="Total_Bill" operator="greaterThan" value="17.870000000000001"/>
          </Node>
         </Node>
         <Node id="23">
          <SimpleSetPredicate field="Day" booleanOperator="isIn">
           <Array n="1" type="string">&quot;Sun&quot;</Array>
          </SimpleSetPredicate>
          <Node id="34">
           <SimplePredicate field="Total_Bill" operator="lessOrEqual" value="21.170000000000002"/>
           <Node id="46">
            <SimpleSetPredicate field="Sex" booleanOperator="isIn">
             <Array n="1" type="string">&quot;Male&quot;</Array>
            </SimpleSetPredicate>
            <Node id="60" score="1.67">
             <SimplePredicate field="Total_Bill" operator="lessOrEqual" value="12.105"/>
            </Node>
            <Node id="61">
             <SimplePredicate field="Total_Bill" operator="greaterThan" value="12.105"/>
             <Node id="72" score="1.875">
              <SimpleSetPredicate field="Smoker" booleanOperator="isIn">
               <Array n="1" type="string">&quot;Yes&quot;</Array>
              </SimpleSetPredicate>
             </Node>
             <Node id="73" score="2.92166666666667">
              <SimpleSetPredicate field="Smoker" booleanOperator="isIn">
               <Array n="1" type="string">&quot;No&quot;</Array>
              </SimpleSetPredicate>
             </Node>
            </Node>
           </Node>
           <Node id="47" score="2.886">
            <SimpleSetPredicate field="Sex" booleanOperator="isIn">
             <Array n="1" type="string">&quot;Female&quot;</Array>
            </SimpleSetPredicate>
           </Node>
          </Node>
          <Node id="35">
           <SimplePredicate field="Total_Bill" operator="greaterThan" value="21.170000000000002"/>
           <Node id="48" score="4.108">
            <SimpleSetPredicate field="Smoker" booleanOperator="isIn">
             <Array n="1" type="string">&quot;No&quot;</Array>
            </SimpleSetPredicate>
           </Node>
           <Node id="49">
            <SimpleSetPredicate field="Smoker" booleanOperator="isIn">
             <Array n="1" type="string">&quot;Yes&quot;</Array>
            </SimpleSetPredicate>
            <Node id="62" score="5.65">
             <SimplePredicate field="Total_Bill" operator="lessOrEqual" value="27.59"/>
            </Node>
            <Node id="63" score="3.314">
             <SimplePredicate field="Total_Bill" operator="greaterThan" value="27.59"/>
            </Node>
           </Node>
          </Node>
         </Node>
        </Node>
        <Node id="15">
         <SimplePredicate field="Size" operator="greaterThan" value="2.5"/>
         <Node id="24">
          <SimpleSetPredicate field="Smoker" booleanOperator="isIn">
           <Array n="1" type="string">&quot;Yes&quot;</Array>
          </SimpleSetPredicate>
          <Node id="36">
           <SimplePredicate field="Size" operator="lessOrEqual" value="3.5"/>
           <Node id="50" score="3.66666666666667">
            <SimpleSetPredicate field="Day" booleanOperator="isIn">
             <Array n="3" type="string">&quot;Fri&quot;   &quot;Sun&quot;   &quot;Thur&quot;</Array>
            </SimpleSetPredicate>
           </Node>
           <Node id="51" score="3.946">
            <SimpleSetPredicate field="Day" booleanOperator="isIn">
             <Array n="1" type="string">&quot;Sat&quot;</Array>
            </SimpleSetPredicate>
           </Node>
          </Node>
          <Node id="37" score="3.31428571428571">
           <SimplePredicate field="Size" operator="greaterThan" value="3.5"/>
          </Node>
         </Node>
         <Node id="25">
          <SimpleSetPredicate field="Smoker" booleanOperator="isIn">
           <Array n="1" type="string">&quot;No&quot;</Array>
          </SimpleSetPredicate>
          <Node id="38">
           <SimplePredicate field="Size" operator="lessOrEqual" value="3.5"/>
           <Node id="52" score="2.6725">
            <SimpleSetPredicate field="Day" booleanOperator="isIn">
             <Array n="3" type="string">&quot;Fri&quot;   &quot;Sun&quot;   &quot;Thur&quot;</Array>
            </SimpleSetPredicate>
           </Node>
           <Node id="53">
            <SimpleSetPredicate field="Day" booleanOperator="isIn">
             <Array n="1" type="string">&quot;Sat&quot;</Array>
            </SimpleSetPredicate>
            <Node id="64" score="3.75461538461538">
             <SimpleSetPredicate field="Sex" booleanOperator="isIn">
              <Array n="1" type="string">&quot;Male&quot;</Array>
             </SimpleSetPredicate>
            </Node>
            <Node id="65" score="3.8525">
             <SimpleSetPredicate field="Sex" booleanOperator="isIn">
              <Array n="1" type="string">&quot;Female&quot;</Array>
             </SimpleSetPredicate>
            </Node>
           </Node>
          </Node>
          <Node id="39">
           <SimplePredicate field="Size" operator="greaterThan" value="3.5"/>
           <Node id="54">
            <SimplePredicate field="Total_Bill" operator="lessOrEqual" value="27.704999999999998"/>
            <Node id="66" score="2.33333333333333">
             <SimplePredicate field="Total_Bill" operator="lessOrEqual" value="20.57"/>
            </Node>
            <Node id="67">
             <SimplePredicate field="Total_Bill" operator="greaterThan" value="20.57"/>
             <Node id="74" score="2.45">
              <SimpleSetPredicate field="Day" booleanOperator="isIn">
               <Array n="3" type="string">&quot;Fri&quot;   &quot;Sat&quot;   &quot;Thur&quot;</Array>
              </SimpleSetPredicate>
             </Node>
             <Node id="75" score="4.46">
              <SimpleSetPredicate field="Day" booleanOperator="isIn">
               <Array n="1" type="string">&quot;Sun&quot;</Array>
              </SimpleSetPredicate>
             </Node>
            </Node>
           </Node>
           <Node id="55">
            <SimplePredicate field="Total_Bill" operator="greaterThan" value="27.704999999999998"/>
            <Node id="68">
             <SimplePredicate field="Size" operator="lessOrEqual" value="4.5"/>
             <Node id="76">
              <SimpleSetPredicate field="Day" booleanOperator="isIn">
               <Array n="3" type="string">&quot;Fri&quot;   &quot;Sun&quot;   &quot;Thur&quot;</Array>
              </SimpleSetPredicate>
              <Node id="78" score="5.168">
               <SimplePredicate field="Total_Bill" operator="lessOrEqual" value="32.055"/>
              </Node>
              <Node id="79" score="6">
               <SimplePredicate field="Total_Bill" operator="greaterThan" value="32.055"/>
              </Node>
             </Node>
             <Node id="77" score="8.29">
              <SimpleSetPredicate field="Day" booleanOperator="isIn">
               <Array n="1" type="string">&quot;Sat&quot;</Array>
              </SimpleSetPredicate>
             </Node>
            </Node>
            <Node id="69" score="5.14">
             <SimplePredicate field="Size" operator="greaterThan" value="4.5"/>
            </Node>
           </Node>
          </Node>
         </Node>
        </Node>
       </Node>
      </Node>
     </Node>
    </TreeModel>
   </Segment>
   <Segment id="6">
    <True/>
    <TreeModel modelName="randomForest_Model" functionName="regression" algorithmName="randomForest" splitCharacteristic="binarySplit">
     <MiningSchema>
      <MiningField name="Tip_Amount" usageType="predicted"/>
      <MiningField name="Total_Bill" usageType="active"/>
      <MiningField name="Sex" usageType="active"/>
      <MiningField name="Smoker" usageType="active"/>
      <MiningField name="Day" usageType="active"/>
      <MiningField name="Time" usageType="active"/>
      <MiningField name="Size" usageType="active"/>
     </MiningSchema>
     <Node id="1">
      <True/>
      <Node id="2">
       <SimpleSetPredicate field="Day" booleanOperator="isIn">
        <Array n="2" type="string">&quot;Fri&quot;   &quot;Thur&quot;</Array>
       </SimpleSetPredicate>
       <Node id="4">
        <SimpleSetPredicate field="Sex" booleanOperator="isIn">
         <Array n="1" type="string">&quot;Male&quot;</Array>
        </SimpleSetPredicate>
        <Node id="8">
         <SimpleSetPredicate field="Time" booleanOperator="isIn">
          <Array n="1" type="string">&quot;Dinner&quot;</Array>
         </SimpleSetPredicate>
         <Node id="14" score="1.5">
          <SimplePredicate field="Total_Bill" operator="lessOrEqual" value="17.475000000000001"/>
         </Node>
         <Node id="15" score="3.25">
          <SimplePredicate field="Total_Bill" operator="greaterThan" value="17.475000000000001"/>
         </Node>
        </Node>
        <Node id="9">
         <SimpleSetPredicate field="Time" booleanOperator="isIn">
          <Array n="1" type="string">&quot;Lunch&quot;</Array>
         </SimpleSetPredicate>
         <Node id="16" score="1.81357142857143">
          <SimplePredicate field="Total_Bill" operator="lessOrEqual" value="16.32"/>
         </Node>
         <Node id="17" score="3.20384615384615">
          <SimplePredicate field="Total_Bill" operator="greaterThan" value="16.32"/>
         </Node>
        </Node>
       </Node>
       <Node id="5">
        <SimpleSetPredicate field="Sex" booleanOperator="isIn">
         <Array n="1" type="string">&quot;Female&quot;</Array>
        </SimpleSetPredicate>
        <Node id="10">
         <SimplePredicate field="Size" operator="lessOrEqual" value="3.5"/>
         <Node id="18">
          <SimpleSetPredicate field="Time" booleanOperator="isIn">
           <Array n="1" type="string">&quot;Lunch&quot;</Array>
          </SimpleSetPredicate>
          <Node id="24">
           <SimplePredicate field="Total_Bill" operator="lessOrEqual" value="15.25"/>
           <Node id="28" score="1.83">
            <SimplePredicate field="Size" operator="lessOrEqual" value="1.5"/>
           </Node>
           <Node id="29">
            <SimplePredicate field="Size" operator="greaterThan" value="1.5"/>
            <Node id="34" score="1.94666666666667">
             <SimpleSetPredicate field="Smoker" booleanOperator="isIn">
              <Array n="1" type="string">&quot;No&quot;</Array>
             </SimpleSetPredicate>
            </Node>
            <Node id="35" score="2">
             <SimpleSetPredicate field="Smoker" booleanOperator="isIn">
              <Array n="1" type="string">&quot;Yes&quot;</Array>
             </SimpleSetPredicate>
            </Node>
           </Node>
          </Node>
          <Node id="25">
           <SimplePredicate field="Total_Bill" operator="greaterThan" value="15.25"/>
           <Node id="30">
            <SimplePredicate field="Total_Bill" operator="lessOrEqual" value="18.450000000000003"/>
            <Node id="36" score="3.115">
             <SimplePredicate field="Total_Bill" operator="lessOrEqual" value="16.969999999999999"/>
            </Node>
            <Node id="37" score="3.4375">
             <SimplePredicate field="Total_Bill" operator="greaterThan" value="16.969999999999999"/>
            </Node>
           </Node>
           <Node id="31" score="1.36">
            <SimplePredicate field="Total_Bill" operator="greaterThan" value="18.450000000000003"/>
           </Node>
          </Node>
         </Node>
         <Node id="19" score="2.66">
          <SimpleSetPredicate field="Time" booleanOperator="isIn">
           <Array n="1" type="string">&quot;Dinner&quot;</Array>
          </SimpleSetPredicate>
         </Node>
        </Node>
        <Node id="11" score="4.42">
         <SimplePredicate field="Size" operator="greaterThan" value="3.5"/>
        </Node>
       </Node>
      </Node>
      <Node id="3">
       <SimpleSetPredicate field="Day" booleanOperator="isIn">
        <Array n="2" type="string">&quot;Sat&quot;   &quot;Sun&quot;</Array>
       </SimpleSetPredicate>
       <Node id="6" score="3.02235294117647">
        <SimpleSetPredicate field="Smoker" booleanOperator="isIn">
         <Array n="1" type="string">&quot;No&quot;</Array>
        </SimpleSetPredicate>
       </Node>
       <Node id="7">
        <SimpleSetPredicate field="Smoker" booleanOperator="isIn">
         <Array n="1" type="string">&quot;Yes&quot;</Array>
        </SimpleSetPredicate>
        <Node id="12">
         <SimpleSetPredicate field="Day" booleanOperator="isIn">
          <Array n="3" type="string">&quot;Fri&quot;   &quot;Sat&quot;   &quot;Thur&quot;</Array>
         </SimpleSetPredicate>
         <Node id="20" score="3.08172413793103">
          <SimplePredicate field="Total_Bill" operator="lessOrEqual" value="44.769999999999996"/>
         </Node>
         <Node id="21" score="10">
          <SimplePredicate field="Total_Bill" operator="greaterThan" value="44.769999999999996"/>
         </Node>
        </Node>
        <Node id="13">
         <SimpleSetPredicate field="Day" booleanOperator="isIn">
          <Array n="1" type="string">&quot;Sun&quot;</Array>
         </SimpleSetPredicate>
         <Node id="22">
          <SimplePredicate field="Total_Bill" operator="lessOrEqual" value="26.895"/>
          <Node id="26">
           <SimplePredicate field="Total_Bill" operator="lessOrEqual" value="23.215"/>
           <Node id="32" score="5.15">
            <SimplePredicate field="Total_Bill" operator="lessOrEqual" value="11.469999999999999"/>
           </Node>
           <Node id="33">
            <SimplePredicate field="Total_Bill" operator="greaterThan" value="11.469999999999999"/>
            <Node id="38" score="3.375">
             <SimpleSetPredicate field="Sex" booleanOperator="isIn">
              <Array n="1" type="string">&quot;Female&quot;</Array>
             </SimpleSetPredicate>
            </Node>
            <Node id="39">
             <SimpleSetPredicate field="Sex" booleanOperator="isIn">
              <Array n="1" type="string">&quot;Male&quot;</Array>
             </SimpleSetPredicate>
             <Node id="40" score="3.5">
              <SimplePredicate field="Size" operator="lessOrEqual" value="2.5"/>
             </Node>
             <Node id="41" score="4">
              <SimplePredicate field="Size" operator="greaterThan" value="2.5"/>
             </Node>
            </Node>
           </Node>
          </Node>
          <Node id="27" score="5.65">
           <SimplePredicate field="Total_Bill" operator="greaterThan" value="23.215"/>
          </Node>
         </Node>
         <Node id="23" score="2.95333333333333">
          <SimplePredicate field="Total_Bill" operator="greaterThan" value="26.895"/>
         </Node>
        </Node>
       </Node>
      </Node>
     </Node>
    </TreeModel>
   </Segment>
   <Segment id="7">
    <True/>
    <TreeModel modelName="randomForest_Model" functionName="regression" algorithmName="randomForest" splitCharacteristic="binarySplit">
     <MiningSchema>
      <MiningField name="Tip_Amount" usageType="predicted"/>
      <MiningField name="Total_Bill" usageType="active"/>
      <MiningField name="Sex" usageType="active"/>
      <MiningField name="Smoker" usageType="active"/>
      <MiningField name="Day" usageType="active"/>
      <MiningField name="Time" usageType="active"/>
      <MiningField name="Size" usageType="active"/>
     </MiningSchema>
     <Node id="1">
      <True/>
      <Node id="2">
       <SimpleSetPredicate field="Time" booleanOperator="isIn">
        <Array n="1" type="string">&quot;Lunch&quot;</Array>
       </SimpleSetPredicate>
       <Node id="4">
        <SimpleSetPredicate field="Day" booleanOperator="isIn">
         <Array n="1" type="string">&quot;Fri&quot;</Array>
        </SimpleSetPredicate>
        <Node id="8" score="1.72">
         <SimpleSetPredicate field="Smoker" booleanOperator="isIn">
          <Array n="1" type="string">&quot;Yes&quot;</Array>
         </SimpleSetPredicate>
        </Node>
        <Node id="9" score="3">
         <SimpleSetPredicate field="Smoker" booleanOperator="isIn">
          <Array n="1" type="string">&quot;No&quot;</Array>
         </SimpleSetPredicate>
        </Node>
       </Node>
       <Node id="5">
        <SimpleSetPredicate field="Day" booleanOperator="isIn">
         <Array n="3" type="string">&quot;Sat&quot;   &quot;Sun&quot;   &quot;Thur&quot;</Array>
        </SimpleSetPredicate>
        <Node id="10">
         <SimplePredicate field="Size" operator="lessOrEqual" value="3.5"/>
         <Node id="16">
          <SimplePredicate field="Total_Bill" operator="lessOrEqual" value="27.75"/>
          <Node id="26">
           <SimplePredicate field="Size" operator="lessOrEqual" value="2.5"/>
           <Node id="40">
            <SimpleSetPredicate field="Sex" booleanOperator="isIn">
             <Array n="1" type="string">&quot;Female&quot;</Array>
            </SimpleSetPredicate>
            <Node id="54" score="1.83">
             <SimplePredicate field="Size" operator="lessOrEqual" value="1.5"/>
            </Node>
            <Node id="55" score="1.94823529411765">
             <SimplePredicate field="Size" operator="greaterThan" value="1.5"/>
            </Node>
           </Node>
           <Node id="41">
            <SimpleSetPredicate field="Sex" booleanOperator="isIn">
             <Array n="1" type="string">&quot;Male&quot;</Array>
            </SimpleSetPredicate>
            <Node id="56" score="2.06428571428571">
             <SimplePredicate field="Total_Bill" operator="lessOrEqual" value="16.329999999999998"/>
            </Node>
            <Node id="57" score="3.075">
             <SimplePredicate field="Total_Bill" operator="greaterThan" value="16.329999999999998"/>
            </Node>
           </Node>
          </Node>
          <Node id="27" score="2.58">
           <SimplePredicate field="Size" operator="greaterThan" value="2.5"/>
          </Node>
         </Node>
         <Node id="17" score="5">
          <SimplePredicate field="Total_Bill" operator="greaterThan" value="27.75"/>
         </Node>
        </Node>
        <Node id="11">
         <SimplePredicate field="Size" operator="greaterThan" value="3.5"/>
         <Node id="18" score="4.686">
          <SimplePredicate field="Size" operator="lessOrEqual" value="5"/>
         </Node>
         <Node id="19" score="4.6">
          <SimplePredicate field="Size" operator="greaterThan" value="5"/>
         </Node>
        </Node>
       </Node>
      </Node>
      <Node id="3">
       <SimpleSetPredicate field="Time" booleanOperator="isIn">
        <Array n="1" type="string">&quot;Dinner&quot;</Array>
       </SimpleSetPredicate>
       <Node id="6">
        <SimplePredicate field="Total_Bill" operator="lessOrEqual" value="24.57"/>
        <Node id="12">
         <SimpleSetPredicate field="Smoker" booleanOperator="isIn">
          <Array n="1" type="string">&quot;Yes&quot;</Array>
         </SimpleSetPredicate>
         <Node id="20">
          <SimplePredicate field="Size" operator="lessOrEqual" value="2.5"/>
          <Node id="28">
           <SimpleSetPredicate field="Sex" booleanOperator="isIn">
            <Array n="1" type="string">&quot;Male&quot;</Array>
           </SimpleSetPredicate>
           <Node id="42" score="5.15">
            <SimplePredicate field="Total_Bill" operator="lessOrEqual" value="7.4950000000000001"/>
           </Node>
           <Node id="43">
            <SimplePredicate field="Total_Bill" operator="greaterThan" value="7.4950000000000001"/>
            <Node id="58">
             <SimplePredicate field="Total_Bill" operator="lessOrEqual" value="12.92"/>
             <Node id="68" score="1.5">
              <SimpleSetPredicate field="Day" booleanOperator="isIn">
               <Array n="1" type="string">&quot;Fri&quot;</Array>
              </SimpleSetPredicate>
             </Node>
             <Node id="69" score="1.68">
              <SimpleSetPredicate field="Day" booleanOperator="isIn">
               <Array n="3" type="string">&quot;Sat&quot;   &quot;Sun&quot;   &quot;Thur&quot;</Array>
              </SimpleSetPredicate>
             </Node>
            </Node>
            <Node id="59" score="1.945">
             <SimplePredicate field="Total_Bill" operator="greaterThan" value="12.92"/>
            </Node>
           </Node>
          </Node>
          <Node id="29" score="2.92">
           <SimpleSetPredicate field="Sex" booleanOperator="isIn">
            <Array n="1" type="string">&quot;Female&quot;</Array>
           </SimpleSetPredicate>
          </Node>
         </Node>
         <Node id="21">
          <SimplePredicate field="Size" operator="greaterThan" value="2.5"/>
          <Node id="30" score="3.5">
           <SimpleSetPredicate field="Sex" booleanOperator="isIn">
            <Array n="1" type="string">&quot;Female&quot;</Array>
           </SimpleSetPredicate>
          </Node>
          <Node id="31" score="3.6">
           <SimpleSetPredicate field="Sex" booleanOperator="isIn">
            <Array n="1" type="string">&quot;Male&quot;</Array>
           </SimpleSetPredicate>
          </Node>
         </Node>
        </Node>
        <Node id="13">
         <SimpleSetPredicate field="Smoker" booleanOperator="isIn">
          <Array n="1" type="string">&quot;No&quot;</Array>
         </SimpleSetPredicate>
         <Node id="22">
          <SimplePredicate field="Total_Bill" operator="lessOrEqual" value="13.875"/>
          <Node id="32">
           <SimpleSetPredicate field="Sex" booleanOperator="isIn">
            <Array n="1" type="string">&quot;Male&quot;</Array>
           </SimpleSetPredicate>
           <Node id="44" score="1.602">
            <SimplePredicate field="Total_Bill" operator="lessOrEqual" value="11.734999999999999"/>
           </Node>
           <Node id="45" score="2">
            <SimplePredicate field="Total_Bill" operator="greaterThan" value="11.734999999999999"/>
           </Node>
          </Node>
          <Node id="33" score="2.61">
           <SimpleSetPredicate field="Sex" booleanOperator="isIn">
            <Array n="1" type="string">&quot;Female&quot;</Array>
           </SimpleSetPredicate>
          </Node>
         </Node>
         <Node id="23">
          <SimplePredicate field="Total_Bill" operator="greaterThan" value="13.875"/>
          <Node id="34">
           <SimplePredicate field="Total_Bill" operator="lessOrEqual" value="24.535"/>
           <Node id="46">
            <SimplePredicate field="Total_Bill" operator="lessOrEqual" value="21.130000000000003"/>
            <Node id="60">
             <SimpleSetPredicate field="Sex" booleanOperator="isIn">
              <Array n="1" type="string">&quot;Female&quot;</Array>
             </SimpleSetPredicate>
             <Node id="70" score="2.93875">
              <SimplePredicate field="Size" operator="lessOrEqual" value="3.5"/>
             </Node>
             <Node id="71" score="2.45">
              <SimplePredicate field="Size" operator="greaterThan" value="3.5"/>
             </Node>
            </Node>
            <Node id="61">
             <SimpleSetPredicate field="Sex" booleanOperator="isIn">
              <Array n="1" type="string">&quot;Male&quot;</Array>
             </SimpleSetPredicate>
             <Node id="72">
              <SimpleSetPredicate field="Day" booleanOperator="isIn">
               <Array n="1" type="string">&quot;Sat&quot;</Array>
              </SimpleSetPredicate>
              <Node id="78">
               <SimplePredicate field="Total_Bill" operator="lessOrEqual" value="20.155000000000001"/>
               <Node id="84">
                <SimplePredicate field="Total_Bill" operator="lessOrEqual" value="19.255000000000003"/>
                <Node id="88" score="3.54">
                 <SimplePredicate field="Size" operator="lessOrEqual" value="2.5"/>
                </Node>
                <Node id="89" score="2.4125">
                 <SimplePredicate field="Size" operator="greaterThan" value="2.5"/>
                </Node>
               </Node>
               <Node id="85" score="3.16">
                <SimplePredicate field="Total_Bill" operator="greaterThan" value="19.255000000000003"/>
               </Node>
              </Node>
              <Node id="79" score="2.34">
               <SimplePredicate field="Total_Bill" operator="greaterThan" value="20.155000000000001"/>
              </Node>
             </Node>
             <Node id="73">
              <SimpleSetPredicate field="Day" booleanOperator="isIn">
               <Array n="3" type="string">&quot;Fri&quot;   &quot;Sun&quot;   &quot;Thur&quot;</Array>
              </SimpleSetPredicate>
              <Node id="80">
               <SimplePredicate field="Size" operator="lessOrEqual" value="2.5"/>
               <Node id="86">
                <SimplePredicate field="Total_Bill" operator="lessOrEqual" value="20.125"/>
                <Node id="90" score="2.9">
                 <SimplePredicate field="Total_Bill" operator="lessOrEqual" value="18.765000000000001"/>
                </Node>
                <Node id="91" score="3.51">
                 <SimplePredicate field="Total_Bill" operator="greaterThan" value="18.765000000000001"/>
                </Node>
               </Node>
               <Node id="87" score="2.24">
                <SimplePredicate field="Total_Bill" operator="greaterThan" value="20.125"/>
               </Node>
              </Node>
              <Node id="81" score="3.23666666666667">
               <SimplePredicate field="Size" operator="greaterThan" value="2.5"/>
              </Node>
             </Node>
            </Node>
           </Node>
           <Node id="47">
            <SimplePredicate field="Total_Bill" operator="greaterThan" value="21.130000000000003"/>
            <Node id="62">
             <SimpleSetPredicate field="Day" booleanOperator="isIn">
              <Array n="3" type="string">&quot;Fri&quot;   &quot;Sun&quot;   &quot;Thur&quot;</Array>
             </SimpleSetPredicate>
             <Node id="74" score="3.24125">
              <SimpleSetPredicate field="Day" booleanOperator="isIn">
               <Array n="3" type="string">&quot;Sat&quot;   &quot;Sun&quot;   &quot;Thur&quot;</Array>
              </SimpleSetPredicate>
             </Node>
             <Node id="75" score="3.375">
              <SimpleSetPredicate field="Day" booleanOperator="isIn">
               <Array n="1" type="string">&quot;Fri&quot;</Array>
              </SimpleSetPredicate>
             </Node>
            </Node>
            <Node id="63" score="4.3">
             <SimpleSetPredicate field="Day" booleanOperator="isIn">
              <Array n="1" type="string">&quot;Sat&quot;</Array>
             </SimpleSetPredicate>
            </Node>
           </Node>
          </Node>
          <Node id="35" score="2">
           <SimplePredicate field="Total_Bill" operator="greaterThan" value="24.535"/>
          </Node>
         </Node>
        </Node>
       </Node>
       <Node id="7">
        <SimplePredicate field="Total_Bill" operator="greaterThan" value="24.57"/>
        <Node id="14">
         <SimplePredicate field="Total_Bill" operator="lessOrEqual" value="44.25"/>
         <Node id="24">
          <SimpleSetPredicate field="Smoker" booleanOperator="isIn">
           <Array n="1" type="string">&quot;Yes&quot;</Array>
          </SimpleSetPredicate>
          <Node id="36">
           <SimplePredicate field="Size" operator="lessOrEqual" value="2.5"/>
           <Node id="48" score="4.645">
            <SimplePredicate field="Total_Bill" operator="lessOrEqual" value="27.125"/>
           </Node>
           <Node id="49" score="2.60285714285714">
            <SimplePredicate field="Total_Bill" operator="greaterThan" value="27.125"/>
           </Node>
          </Node>
          <Node id="37">
           <SimplePredicate field="Size" operator="greaterThan" value="2.5"/>
           <Node id="50" score="2.84">
            <SimpleSetPredicate field="Day" booleanOperator="isIn">
             <Array n="2" type="string">&quot;Sun&quot;   &quot;Thur&quot;</Array>
            </SimpleSetPredicate>
           </Node>
           <Node id="51">
            <SimpleSetPredicate field="Day" booleanOperator="isIn">
             <Array n="2" type="string">&quot;Fri&quot;   &quot;Sat&quot;</Array>
            </SimpleSetPredicate>
            <Node id="64" score="4.2625">
             <SimpleSetPredicate field="Sex" booleanOperator="isIn">
              <Array n="1" type="string">&quot;Male&quot;</Array>
             </SimpleSetPredicate>
            </Node>
            <Node id="65" score="6.5">
             <SimpleSetPredicate field="Sex" booleanOperator="isIn">
              <Array n="1" type="string">&quot;Female&quot;</Array>
             </SimpleSetPredicate>
            </Node>
           </Node>
          </Node>
         </Node>
         <Node id="25">
          <SimpleSetPredicate field="Smoker" booleanOperator="isIn">
           <Array n="1" type="string">&quot;No&quot;</Array>
          </SimpleSetPredicate>
          <Node id="38" score="2.9275">
           <SimplePredicate field="Total_Bill" operator="lessOrEqual" value="28.789999999999999"/>
          </Node>
          <Node id="39">
           <SimplePredicate field="Total_Bill" operator="greaterThan" value="28.789999999999999"/>
           <Node id="52">
            <SimpleSetPredicate field="Day" booleanOperator="isIn">
             <Array n="3" type="string">&quot;Fri&quot;   &quot;Sun&quot;   &quot;Thur&quot;</Array>
            </SimpleSetPredicate>
            <Node id="66">
             <SimplePredicate field="Total_Bill" operator="lessOrEqual" value="35.234999999999999"/>
             <Node id="76">
              <SimplePredicate field="Total_Bill" operator="lessOrEqual" value="32.055"/>
              <Node id="82" score="5.296">
               <SimplePredicate field="Total_Bill" operator="lessOrEqual" value="31.055"/>
              </Node>
              <Node id="83" score="4.5">
               <SimplePredicate field="Total_Bill" operator="greaterThan" value="31.055"/>
              </Node>
             </Node>
             <Node id="77" score="6">
              <SimplePredicate field="Total_Bill" operator="greaterThan" value="32.055"/>
             </Node>
            </Node>
            <Node id="67" score="4">
             <SimplePredicate field="Total_Bill" operator="greaterThan" value="35.234999999999999"/>
            </Node>
           </Node>
           <Node id="53" score="5.92">
            <SimpleSetPredicate field="Day" booleanOperator="isIn">
             <Array n="1" type="string">&quot;Sat&quot;</Array>
            </SimpleSetPredicate>
           </Node>
          </Node>
         </Node>
        </Node>
        <Node id="15" score="9">
         <SimplePredicate field="Total_Bill" operator="greaterThan" value="44.25"/>
        </Node>
       </Node>
      </Node>
     </Node>
    </TreeModel>
   </Segment>
   <Segment id="8">
    <True/>
    <TreeModel modelName="randomForest_Model" functionName="regression" algorithmName="randomForest" splitCharacteristic="binarySplit">
     <MiningSchema>
      <MiningField name="Tip_Amount" usageType="predicted"/>
      <MiningField name="Total_Bill" usageType="active"/>
      <MiningField name="Sex" usageType="active"/>
      <MiningField name="Smoker" usageType="active"/>
      <MiningField name="Day" usageType="active"/>
      <MiningField name="Time" usageType="active"/>
      <MiningField name="Size" usageType="active"/>
     </MiningSchema>
     <Node id="1">
      <True/>
      <Node id="2">
       <SimplePredicate field="Size" operator="lessOrEqual" value="2.5"/>
       <Node id="4">
        <SimpleSetPredicate field="Day" booleanOperator="isIn">
         <Array n="1" type="string">&quot;Thur&quot;</Array>
        </SimpleSetPredicate>
        <Node id="8">
         <SimplePredicate field="Total_Bill" operator="lessOrEqual" value="17.120000000000001"/>
         <Node id="14" score="1.83">
          <SimplePredicate field="Size" operator="lessOrEqual" value="1.5"/>
         </Node>
         <Node id="15">
          <SimplePredicate field="Size" operator="greaterThan" value="1.5"/>
          <Node id="24" score="1.42857142857143">
           <SimplePredicate field="Total_Bill" operator="lessOrEqual" value="11.275"/>
          </Node>
          <Node id="25">
           <SimplePredicate field="Total_Bill" operator="greaterThan" value="11.275"/>
           <Node id="36" score="2.006">
            <SimpleSetPredicate field="Smoker" booleanOperator="isIn">
             <Array n="1" type="string">&quot;Yes&quot;</Array>
            </SimpleSetPredicate>
           </Node>
           <Node id="37">
            <SimpleSetPredicate field="Smoker" booleanOperator="isIn">
             <Array n="1" type="string">&quot;No&quot;</Array>
            </SimpleSetPredicate>
            <Node id="52" score="2.1125">
             <SimpleSetPredicate field="Sex" booleanOperator="isIn">
              <Array n="1" type="string">&quot;Male&quot;</Array>
             </SimpleSetPredicate>
            </Node>
            <Node id="53" score="2.15">
             <SimpleSetPredicate field="Sex" booleanOperator="isIn">
              <Array n="1" type="string">&quot;Female&quot;</Array>
             </SimpleSetPredicate>
            </Node>
           </Node>
          </Node>
         </Node>
        </Node>
        <Node id="9">
         <SimplePredicate field="Total_Bill" operator="greaterThan" value="17.120000000000001"/>
         <Node id="16" score="2">
