<?xml version="1.0"?>
<PMML version="4.3" xmlns="http://www.dmg.org/PMML-4_3" xmlns:xsi="http://www.w3.org/2001/XMLSchema-instance" xsi:schemaLocation="http://www.dmg.org/PMML-4_3 http://www.dmg.org/pmml/v4-3/pmml-4-3.xsd">
 <Header copyright="Copyright (c) 2017 Syncfusion" description="Support Vector Machine PMML Model">
  <Extension name="user" value="Syncfusion" extender="Rattle/PMML"/>
  <Application name="Rattle/PMML" version="1.4"/>
  <Timestamp>2017-11-07 14:18:13</Timestamp>
 </Header>
 <DataDictionary numberOfFields="13">
  <DataField name="Adjusted" optype="categorical" dataType="string">
   <Value value="0"/>
   <Value value="1"/>
  </DataField>
  <DataField name="ID" optype="continuous" dataType="double"/>
  <DataField name="Age" optype="continuous" dataType="double"/>
  <DataField name="Employment" optype="categorical" dataType="string">
   <Value value="PSFederal"/>
   <Value value="Private"/>
   <Value value="Consultant"/>
   <Value value="PSLocal"/>
   <Value value="SelfEmp"/>
   <Value value="PSState"/>
   <Value value="Volunteer"/>
  </DataField>
  <DataField name="Education" optype="categorical" dataType="string">
   <Value value="Master"/>
   <Value value="Vocational"/>
   <Value value="College"/>
   <Value value="Yr11"/>
   <Value value="HSgrad"/>
   <Value value="Associate"/>
   <Value value="Bachelor"/>
   <Value value="Yr12"/>
   <Value value="Yr7t8"/>
   <Value value="Yr10"/>
   <Value value="Professional"/>
   <Value value="Yr5t6"/>
   <Value value="Preschool"/>
   <Value value="Yr9"/>
   <Value value="Doctorate"/>
   <Value value="Yr1t4"/>
  </DataField>
  <DataField name="Marital" optype="categorical" dataType="string">
   <Value value="Married"/>
   <Value value="Unmarried"/>
   <Value value="Absent"/>
   <Value value="Widowed"/>
   <Value value="Divorced"/>
   <Value value="Married-spouse-absent"/>
  </DataField>
  <DataField name="Occupation" optype="categorical" dataType="string">
   <Value value="Executive"/>
   <Value value="Repair"/>
   <Value value="Professional"/>
   <Value value="Protective"/>
   <Value value="Farming"/>
   <Value value="Sales"/>
   <Value value="Cleaner"/>
   <Value value="Machinist"/>
   <Value value="Transport"/>
   <Value value="Service"/>
   <Value value="Clerical"/>
   <Value value="Home"/>
   <Value value="Support"/>
   <Value value="Military"/>
  </DataField>
  <DataField name="Income" optype="continuous" dataType="double"/>
  <DataField name="Sex" optype="categorical" dataType="string">
   <Value value="Male"/>
   <Value value="Female"/>
  </DataField>
  <DataField name="Deductions" optype="continuous" dataType="double"/>
  <DataField name="Hours" optype="continuous" dataType="double"/>
  <DataField name="Accounts" optype="categorical" dataType="string">
   <Value value="UnitedStates"/>
   <Value value="China"/>
   <Value value="Mexico"/>
   <Value value="Germany"/>
   <Value value="Ireland"/>
   <Value value="Poland"/>
   <Value value="Philippines"/>
   <Value value="Nicaragua"/>
   <Value value="Japan"/>
   <Value value="Greece"/>
   <Value value="Taiwan"/>
   <Value value="Jamaica"/>
   <Value value="Hong"/>
   <Value value="Singapore"/>
   <Value value="Yugoslavia"/>
   <Value value="Portugal"/>
   <Value value="Malaysia"/>
   <Value value="Iran"/>
   <Value value="Guatemala"/>
   <Value value="Fiji"/>
   <Value value="Vietnam"/>
   <Value value="England"/>
   <Value value="Hungary"/>
   <Value value="Italy"/>
   <Value value="Indonesia"/>
   <Value value="NewZealand"/>
   <Value value="Cuba"/>
   <Value value="Columbia"/>
   <Value value="India"/>
   <Value value="Ecuador"/>
  </DataField>
  <DataField name="Adjustment" optype="continuous" dataType="double"/>
 </DataDictionary>
 <SupportVectorMachineModel modelName="SVM_model" functionName="classification" algorithmName="supportVectorMachine" svmRepresentation="SupportVectors">
  <MiningSchema>
   <MiningField name="Adjusted" usageType="predicted"/>
   <MiningField name="ID" usageType="active"/>
   <MiningField name="Age" usageType="active"/>
   <MiningField name="Employment" usageType="active"/>
   <MiningField name="Education" usageType="active"/>
   <MiningField name="Marital" usageType="active"/>
   <MiningField name="Occupation" usageType="active"/>
   <MiningField name="Income" usageType="active"/>
   <MiningField name="Sex" usageType="active"/>
   <MiningField name="Deductions" usageType="active"/>
   <MiningField name="Hours" usageType="active"/>
   <MiningField name="Accounts" usageType="active"/>
   <MiningField name="Adjustment" usageType="active"/>
  </MiningSchema>
  <Output>
   <OutputField name="Predicted_Adjusted" feature="predictedValue"/>
   <OutputField name="Probability_0" optype="continuous" dataType="double" feature="probability" value="0"/>
   <OutputField name="Probability_1" optype="continuous" dataType="double" feature="probability" value="1"/>
  </Output>
  <LocalTransformations>
   <DerivedField name="derived_ID" optype="continuous" dataType="double">
    <NormContinuous field="ID">
     <LinearNorm orig="0" norm="-2.11946602041872"/>
     <LinearNorm orig="5559409.63080027" norm="0"/>
    </NormContinuous>
   </DerivedField>
   <DerivedField name="derived_Age" optype="continuous" dataType="double">
    <NormContinuous field="Age">
     <LinearNorm orig="0" norm="-2.92617720406167"/>
     <LinearNorm orig="38.4283792871553" norm="0"/>
    </NormContinuous>
   </DerivedField>
   <DerivedField name="derived_EmploymentConsultant" optype="continuous" dataType="double">
    <NormDiscrete field="Employment" value="Consultant"/>
   </DerivedField>
   <DerivedField name="derived_EmploymentPrivate" optype="continuous" dataType="double">
    <NormDiscrete field="Employment" value="Private"/>
   </DerivedField>
   <DerivedField name="derived_EmploymentPSFederal" optype="continuous" dataType="double">
    <NormDiscrete field="Employment" value="PSFederal"/>
   </DerivedField>
   <DerivedField name="derived_EmploymentPSLocal" optype="continuous" dataType="double">
    <NormDiscrete field="Employment" value="PSLocal"/>
   </DerivedField>
   <DerivedField name="derived_EmploymentPSState" optype="continuous" dataType="double">
    <NormDiscrete field="Employment" value="PSState"/>
   </DerivedField>
   <DerivedField name="derived_EmploymentSelfEmp" optype="continuous" dataType="double">
    <NormDiscrete field="Employment" value="SelfEmp"/>
   </DerivedField>
   <DerivedField name="derived_EmploymentVolunteer" optype="continuous" dataType="double">
    <NormDiscrete field="Employment" value="Volunteer"/>
   </DerivedField>
   <DerivedField name="derived_EducationAssociate" optype="continuous" dataType="double">
    <NormDiscrete field="Education" value="Associate"/>
   </DerivedField>
   <DerivedField name="derived_EducationBachelor" optype="continuous" dataType="double">
    <NormDiscrete field="Education" value="Bachelor"/>
   </DerivedField>
   <DerivedField name="derived_EducationCollege" optype="continuous" dataType="double">
    <NormDiscrete field="Education" value="College"/>
   </DerivedField>
   <DerivedField name="derived_EducationDoctorate" optype="continuous" dataType="double">
    <NormDiscrete field="Education" value="Doctorate"/>
   </DerivedField>
   <DerivedField name="derived_EducationHSgrad" optype="continuous" dataType="double">
    <NormDiscrete field="Education" value="HSgrad"/>
   </DerivedField>
   <DerivedField name="derived_EducationMaster" optype="continuous" dataType="double">
    <NormDiscrete field="Education" value="Master"/>
   </DerivedField>
   <DerivedField name="derived_EducationPreschool" optype="continuous" dataType="double">
    <NormDiscrete field="Education" value="Preschool"/>
   </DerivedField>
   <DerivedField name="derived_EducationProfessional" optype="continuous" dataType="double">
    <NormDiscrete field="Education" value="Professional"/>
   </DerivedField>
   <DerivedField name="derived_EducationVocational" optype="continuous" dataType="double">
    <NormDiscrete field="Education" value="Vocational"/>
   </DerivedField>
   <DerivedField name="derived_EducationYr10" optype="continuous" dataType="double">
    <NormDiscrete field="Education" value="Yr10"/>
   </DerivedField>
   <DerivedField name="derived_EducationYr11" optype="continuous" dataType="double">
    <NormDiscrete field="Education" value="Yr11"/>
   </DerivedField>
   <DerivedField name="derived_EducationYr12" optype="continuous" dataType="double">
    <NormDiscrete field="Education" value="Yr12"/>
   </DerivedField>
   <DerivedField name="derived_EducationYr1t4" optype="continuous" dataType="double">
    <NormDiscrete field="Education" value="Yr1t4"/>
   </DerivedField>
   <DerivedField name="derived_EducationYr5t6" optype="continuous" dataType="double">
    <NormDiscrete field="Education" value="Yr5t6"/>
   </DerivedField>
   <DerivedField name="derived_EducationYr7t8" optype="continuous" dataType="double">
    <NormDiscrete field="Education" value="Yr7t8"/>
   </DerivedField>
   <DerivedField name="derived_EducationYr9" optype="continuous" dataType="double">
    <NormDiscrete field="Education" value="Yr9"/>
   </DerivedField>
   <DerivedField name="derived_MaritalAbsent" optype="continuous" dataType="double">
    <NormDiscrete field="Marital" value="Absent"/>
   </DerivedField>
   <DerivedField name="derived_MaritalDivorced" optype="continuous" dataType="double">
    <NormDiscrete field="Marital" value="Divorced"/>
   </DerivedField>
   <DerivedField name="derived_MaritalMarried" optype="continuous" dataType="double">
    <NormDiscrete field="Marital" value="Married"/>
   </DerivedField>
   <DerivedField name="derived_MaritalMarried-spouse-absent" optype="continuous" dataType="double">
    <NormDiscrete field="Marital" value="Married-spouse-absent"/>
   </DerivedField>
   <DerivedField name="derived_MaritalUnmarried" optype="continuous" dataType="double">
    <NormDiscrete field="Marital" value="Unmarried"/>
   </DerivedField>
   <DerivedField name="derived_MaritalWidowed" optype="continuous" dataType="double">
    <NormDiscrete field="Marital" value="Widowed"/>
   </DerivedField>
   <DerivedField name="derived_OccupationCleaner" optype="continuous" dataType="double">
    <NormDiscrete field="Occupation" value="Cleaner"/>
   </DerivedField>
   <DerivedField name="derived_OccupationClerical" optype="continuous" dataType="double">
    <NormDiscrete field="Occupation" value="Clerical"/>
   </DerivedField>
   <DerivedField name="derived_OccupationExecutive" optype="continuous" dataType="double">
    <NormDiscrete field="Occupation" value="Executive"/>
   </DerivedField>
   <DerivedField name="derived_OccupationFarming" optype="continuous" dataType="double">
    <NormDiscrete field="Occupation" value="Farming"/>
   </DerivedField>
   <DerivedField name="derived_OccupationHome" optype="continuous" dataType="double">
    <NormDiscrete field="Occupation" value="Home"/>
   </DerivedField>
   <DerivedField name="derived_OccupationMachinist" optype="continuous" dataType="double">
    <NormDiscrete field="Occupation" value="Machinist"/>
   </DerivedField>
   <DerivedField name="derived_OccupationMilitary" optype="continuous" dataType="double">
    <NormDiscrete field="Occupation" value="Military"/>
   </DerivedField>
   <DerivedField name="derived_OccupationProfessional" optype="continuous" dataType="double">
    <NormDiscrete field="Occupation" value="Professional"/>
   </DerivedField>
   <DerivedField name="derived_OccupationProtective" optype="continuous" dataType="double">
    <NormDiscrete field="Occupation" value="Protective"/>
   </DerivedField>
   <DerivedField name="derived_OccupationRepair" optype="continuous" dataType="double">
    <NormDiscrete field="Occupation" value="Repair"/>
   </DerivedField>
   <DerivedField name="derived_OccupationSales" optype="continuous" dataType="double">
    <NormDiscrete field="Occupation" value="Sales"/>
   </DerivedField>
   <DerivedField name="derived_OccupationService" optype="continuous" dataType="double">
    <NormDiscrete field="Occupation" value="Service"/>
   </DerivedField>
   <DerivedField name="derived_OccupationSupport" optype="continuous" dataType="double">
    <NormDiscrete field="Occupation" value="Support"/>
   </DerivedField>
   <DerivedField name="derived_OccupationTransport" optype="continuous" dataType="double">
    <NormDiscrete field="Occupation" value="Transport"/>
   </DerivedField>
   <DerivedField name="derived_Income" optype="continuous" dataType="double">
    <NormContinuous field="Income">
     <LinearNorm orig="0" norm="-1.20495568909186"/>
     <LinearNorm orig="84348.6332548756" norm="0"/>
    </NormContinuous>
   </DerivedField>
   <DerivedField name="derived_SexFemale" optype="continuous" dataType="double">
    <NormDiscrete field="Sex" value="Female"/>
   </DerivedField>
   <DerivedField name="derived_SexMale" optype="continuous" dataType="double">
    <NormDiscrete field="Sex" value="Male"/>
   </DerivedField>
   <DerivedField name="derived_Deductions" optype="continuous" dataType="double">
    <NormContinuous field="Deductions">
     <LinearNorm orig="0" norm="-0.201183384575153"/>
     <LinearNorm orig="68.8659583053127" norm="0"/>
    </NormContinuous>
   </DerivedField>
   <DerivedField name="derived_Hours" optype="continuous" dataType="double">
    <NormContinuous field="Hours">
     <LinearNorm orig="0" norm="-3.43241234030786"/>
     <LinearNorm orig="40.7162071284465" norm="0"/>
    </NormContinuous>
   </DerivedField>
   <DerivedField name="derived_AccountsCanada" optype="continuous" dataType="double">
    <NormDiscrete field="Accounts" value="Canada"/>
   </DerivedField>
   <DerivedField name="derived_AccountsChina" optype="continuous" dataType="double">
    <NormDiscrete field="Accounts" value="China"/>
   </DerivedField>
   <DerivedField name="derived_AccountsColumbia" optype="continuous" dataType="double">
    <NormDiscrete field="Accounts" value="Columbia"/>
   </DerivedField>
   <DerivedField name="derived_AccountsCuba" optype="continuous" dataType="double">
    <NormDiscrete field="Accounts" value="Cuba"/>
   </DerivedField>
   <DerivedField name="derived_AccountsEcuador" optype="continuous" dataType="double">
    <NormDiscrete field="Accounts" value="Ecuador"/>
   </DerivedField>
   <DerivedField name="derived_AccountsEngland" optype="continuous" dataType="double">
    <NormDiscrete field="Accounts" value="England"/>
   </DerivedField>
   <DerivedField name="derived_AccountsFiji" optype="continuous" dataType="double">
    <NormDiscrete field="Accounts" value="Fiji"/>
   </DerivedField>
   <DerivedField name="derived_AccountsGermany" optype="continuous" dataType="double">
    <NormDiscrete field="Accounts" value="Germany"/>
   </DerivedField>
   <DerivedField name="derived_AccountsGreece" optype="continuous" dataType="double">
    <NormDiscrete field="Accounts" value="Greece"/>
   </DerivedField>
   <DerivedField name="derived_AccountsGuatemala" optype="continuous" dataType="double">
    <NormDiscrete field="Accounts" value="Guatemala"/>
   </DerivedField>
   <DerivedField name="derived_AccountsHong" optype="continuous" dataType="double">
    <NormDiscrete field="Accounts" value="Hong"/>
   </DerivedField>
   <DerivedField name="derived_AccountsHungary" optype="continuous" dataType="double">
    <NormDiscrete field="Accounts" value="Hungary"/>
   </DerivedField>
   <DerivedField name="derived_AccountsIndia" optype="continuous" dataType="double">
    <NormDiscrete field="Accounts" value="India"/>
   </DerivedField>
   <DerivedField name="derived_AccountsIndonesia" optype="continuous" dataType="double">
    <NormDiscrete field="Accounts" value="Indonesia"/>
   </DerivedField>
   <DerivedField name="derived_AccountsIran" optype="continuous" dataType="double">
    <NormDiscrete field="Accounts" value="Iran"/>
   </DerivedField>
   <DerivedField name="derived_AccountsIreland" optype="continuous" dataType="double">
    <NormDiscrete field="Accounts" value="Ireland"/>
   </DerivedField>
   <DerivedField name="derived_AccountsItaly" optype="continuous" dataType="double">
    <NormDiscrete field="Accounts" value="Italy"/>
   </DerivedField>
   <DerivedField name="derived_AccountsJamaica" optype="continuous" dataType="double">
    <NormDiscrete field="Accounts" value="Jamaica"/>
   </DerivedField>
   <DerivedField name="derived_AccountsJapan" optype="continuous" dataType="double">
    <NormDiscrete field="Accounts" value="Japan"/>
   </DerivedField>
   <DerivedField name="derived_AccountsMalaysia" optype="continuous" dataType="double">
    <NormDiscrete field="Accounts" value="Malaysia"/>
   </DerivedField>
   <DerivedField name="derived_AccountsMexico" optype="continuous" dataType="double">
    <NormDiscrete field="Accounts" value="Mexico"/>
   </DerivedField>
   <DerivedField name="derived_AccountsNewZealand" optype="continuous" dataType="double">
    <NormDiscrete field="Accounts" value="NewZealand"/>
   </DerivedField>
   <DerivedField name="derived_AccountsNicaragua" optype="continuous" dataType="double">
    <NormDiscrete field="Accounts" value="Nicaragua"/>
   </DerivedField>
   <DerivedField name="derived_AccountsPhilippines" optype="continuous" dataType="double">
    <NormDiscrete field="Accounts" value="Philippines"/>
   </DerivedField>
   <DerivedField name="derived_AccountsPoland" optype="continuous" dataType="double">
    <NormDiscrete field="Accounts" value="Poland"/>
   </DerivedField>
   <DerivedField name="derived_AccountsPortugal" optype="continuous" dataType="double">
    <NormDiscrete field="Accounts" value="Portugal"/>
   </DerivedField>
   <DerivedField name="derived_AccountsScotland" optype="continuous" dataType="double">
    <NormDiscrete field="Accounts" value="Scotland"/>
   </DerivedField>
   <DerivedField name="derived_AccountsSingapore" optype="continuous" dataType="double">
    <NormDiscrete field="Accounts" value="Singapore"/>
   </DerivedField>
   <DerivedField name="derived_AccountsTaiwan" optype="continuous" dataType="double">
    <NormDiscrete field="Accounts" value="Taiwan"/>
   </DerivedField>
   <DerivedField name="derived_AccountsUnitedStates" optype="continuous" dataType="double">
    <NormDiscrete field="Accounts" value="UnitedStates"/>
   </DerivedField>
   <DerivedField name="derived_AccountsVietnam" optype="continuous" dataType="double">
    <NormDiscrete field="Accounts" value="Vietnam"/>
   </DerivedField>
   <DerivedField name="derived_AccountsYugoslavia" optype="continuous" dataType="double">
    <NormDiscrete field="Accounts" value="Yugoslavia"/>
   </DerivedField>
   <DerivedField name="derived_Adjustment" optype="continuous" dataType="double">
    <NormContinuous field="Adjustment">
     <LinearNorm orig="0" norm="-0.242362535246828"/>
     <LinearNorm orig="2023.48285137861" norm="0"/>
    </NormContinuous>
   </DerivedField>
  </LocalTransformations>
  <RadialBasisKernelType gamma="0.0903495954776224" description="Radial basis kernel type"/>
  <VectorDictionary numberOfVectors="345">
   <VectorFields numberOfFields="78">
    <FieldRef field="derived_ID"/>
    <FieldRef field="derived_Age"/>
    <FieldRef field="derived_EmploymentConsultant"/>
    <FieldRef field="derived_EmploymentPrivate"/>
    <FieldRef field="derived_EmploymentPSFederal"/>
    <FieldRef field="derived_EmploymentPSLocal"/>
    <FieldRef field="derived_EmploymentPSState"/>
    <FieldRef field="derived_EmploymentSelfEmp"/>
    <FieldRef field="derived_EmploymentVolunteer"/>
    <FieldRef field="derived_EducationBachelor"/>
    <FieldRef field="derived_EducationCollege"/>
    <FieldRef field="derived_EducationDoctorate"/>
    <FieldRef field="derived_EducationHSgrad"/>
    <FieldRef field="derived_EducationMaster"/>
    <FieldRef field="derived_EducationPreschool"/>
    <FieldRef field="derived_EducationProfessional"/>
    <FieldRef field="derived_EducationVocational"/>
    <FieldRef field="derived_EducationYr10"/>
    <FieldRef field="derived_EducationYr11"/>
    <FieldRef field="derived_EducationYr12"/>
    <FieldRef field="derived_EducationYr1t4"/>
    <FieldRef field="derived_EducationYr5t6"/>
    <FieldRef field="derived_EducationYr7t8"/>
    <FieldRef field="derived_EducationYr9"/>
    <FieldRef field="derived_MaritalDivorced"/>
    <FieldRef field="derived_MaritalMarried"/>
    <FieldRef field="derived_MaritalMarried-spouse-absent"/>
    <FieldRef field="derived_MaritalUnmarried"/>
    <FieldRef field="derived_MaritalWidowed"/>
    <FieldRef field="derived_OccupationClerical"/>
    <FieldRef field="derived_OccupationExecutive"/>
    <FieldRef field="derived_OccupationFarming"/>
    <FieldRef field="derived_OccupationHome"/>
    <FieldRef field="derived_OccupationMachinist"/>
    <FieldRef field="derived_OccupationMilitary"/>
    <FieldRef field="derived_OccupationProfessional"/>
    <FieldRef field="derived_OccupationProtective"/>
    <FieldRef field="derived_OccupationRepair"/>
    <FieldRef field="derived_OccupationSales"/>
    <FieldRef field="derived_OccupationService"/>
    <FieldRef field="derived_OccupationSupport"/>
    <FieldRef field="derived_OccupationTransport"/>
    <FieldRef field="derived_Income"/>
    <FieldRef field="derived_SexMale"/>
    <FieldRef field="derived_Deductions"/>
    <FieldRef field="derived_Hours"/>
    <FieldRef field="derived_AccountsChina"/>
    <FieldRef field="derived_AccountsColumbia"/>
    <FieldRef field="derived_AccountsCuba"/>
    <FieldRef field="derived_AccountsEcuador"/>
    <FieldRef field="derived_AccountsEngland"/>
    <FieldRef field="derived_AccountsFiji"/>
    <FieldRef field="derived_AccountsGermany"/>
    <FieldRef field="derived_AccountsGreece"/>
    <FieldRef field="derived_AccountsGuatemala"/>
    <FieldRef field="derived_AccountsHong"/>
    <FieldRef field="derived_AccountsHungary"/>
    <FieldRef field="derived_AccountsIndia"/>
    <FieldRef field="derived_AccountsIndonesia"/>
    <FieldRef field="derived_AccountsIran"/>
    <FieldRef field="derived_AccountsIreland"/>
    <FieldRef field="derived_AccountsItaly"/>
    <FieldRef field="derived_AccountsJamaica"/>
    <FieldRef field="derived_AccountsJapan"/>
    <FieldRef field="derived_AccountsMalaysia"/>
    <FieldRef field="derived_AccountsMexico"/>
    <FieldRef field="derived_AccountsNewZealand"/>
    <FieldRef field="derived_AccountsNicaragua"/>
    <FieldRef field="derived_AccountsPhilippines"/>
    <FieldRef field="derived_AccountsPoland"/>
    <FieldRef field="derived_AccountsPortugal"/>
    <FieldRef field="derived_AccountsScotland"/>
    <FieldRef field="derived_AccountsSingapore"/>
    <FieldRef field="derived_AccountsTaiwan"/>
    <FieldRef field="derived_AccountsUnitedStates"/>
    <FieldRef field="derived_AccountsVietnam"/>
    <FieldRef field="derived_AccountsYugoslavia"/>
    <FieldRef field="derived_Adjustment"/>
   </VectorFields>
   <VectorInstance id="1">
    <REAL-SparseArray n="78">
     <Indices>1 2 3 4 5 6 7 8 9 10 11 12 13 14 15 16 17 18 19 20 21 22 23 24 25 26 27 28 29 30 31 32 33 34 35 36 37 38 39 40 41 42 43 44 45 46 47 48 49 50 51 52 53 54 55 56 57 58 59 60 61 62 63 64 65 66 67 68 69 70 71 72 73 74 75 76 77 78 </Indices>
     <REAL-Entries>-0.993444557029409 0.500404312655804 1 0 0 0 0 0 0 0 0 0 1 0 0 0 0 0 0 0 0 0 0 0 0 1 0 0 0 0 1 0 0 0 0 0 0 0 0 0 0 0 -0.561800204535421 1 -0.201183384575153 -0.0603768955723488 1 0 0 0 0 0 0 0 0 0 0 0 0 0 0 0 0 0 0 0 0 0 0 0 0 0 0 0 0 0 0 -0.242362535246828 </REAL-Entries>
    </REAL-SparseArray>
   </VectorInstance>
   <VectorInstance id="2">
    <REAL-SparseArray n="78">
     <Indices>1 2 3 4 5 6 7 8 9 10 11 12 13 14 15 16 17 18 19 20 21 22 23 24 25 26 27 28 29 30 31 32 33 34 35 36 37 38 39 40 41 42 43 44 45 46 47 48 49 50 51 52 53 54 55 56 57 58 59 60 61 62 63 64 65 66 67 68 69 70 71 72 73 74 75 76 77 78 </Indices>
     <REAL-Entries>-1.2030393072565 1.49030563970752 0 1 0 0 0 0 0 0 0 0 0 0 0 0 1 0 0 0 0 0 0 0 0 1 0 0 0 0 1 0 0 0 0 0 0 0 0 0 0 0 -0.501701155060541 1 -0.201183384575153 -0.0603768955723488 0 0 0 0 0 0 1 0 0 0 0 0 0 0 0 0 0 0 0 0 0 0 0 0 0 0 0 0 0 0 0 -0.242362535246828 </REAL-Entries>
    </REAL-SparseArray>
   </VectorInstance>
   <VectorInstance id="3">
    <REAL-SparseArray n="78">
     <Indices>1 2 3 4 5 6 7 8 9 10 11 12 13 14 15 16 17 18 19 20 21 22 23 24 25 26 27 28 29 30 31 32 33 34 35 36 37 38 39 40 41 42 43 44 45 46 47 48 49 50 51 52 53 54 55 56 57 58 59 60 61 62 63 64 65 66 67 68 69 70 71 72 73 74 75 76 77 78 </Indices>
     <REAL-Entries>-0.682770278367429 0.881135592291079 0 0 0 0 0 1 0 0 1 0 0 0 0 0 0 0 0 0 0 0 0 0 0 1 0 0 0 0 0 0 0 0 0 0 0 1 0 0 0 0 -0.652355913230113 1 -0.201183384575153 2.46864968797929 0 0 0 0 0 0 0 0 0 0 0 0 0 0 0 0 0 0 0 0 0 0 0 0 0 0 0 0 1 0 0 -0.242362535246828 </REAL-Entries>
    </REAL-SparseArray>
   </VectorInstance>
   <VectorInstance id="4">
    <REAL-SparseArray n="78">
     <Indices>1 2 3 4 5 6 7 8 9 10 11 12 13 14 15 16 17 18 19 20 21 22 23 24 25 26 27 28 29 30 31 32 33 34 35 36 37 38 39 40 41 42 43 44 45 46 47 48 49 50 51 52 53 54 55 56 57 58 59 60 61 62 63 64 65 66 67 68 69 70 71 72 73 74 75 76 77 78 </Indices>
     <REAL-Entries>-1.27834362075119 -0.64178952625002 0 1 0 0 0 0 0 0 0 0 1 0 0 0 0 0 0 0 0 0 0 0 0 1 0 0 0 0 0 0 0 0 0 0 0 1 0 0 0 0 -0.785239036962784 1 5.19752018165693 -0.0603768955723488 0 0 0 0 0 0 0 0 0 0 0 0 0 0 0 0 0 0 0 0 0 0 0 0 0 0 0 0 1 0 0 0.458081308474313 </REAL-Entries>
    </REAL-SparseArray>
   </VectorInstance>
   <VectorInstance id="5">
    <REAL-SparseArray n="78">
     <Indices>1 2 3 4 5 6 7 8 9 10 11 12 13 14 15 16 17 18 19 20 21 22 23 24 25 26 27 28 29 30 31 32 33 34 35 36 37 38 39 40 41 42 43 44 45 46 47 48 49 50 51 52 53 54 55 56 57 58 59 60 61 62 63 64 65 66 67 68 69 70 71 72 73 74 75 76 77 78 </Indices>
     <REAL-Entries>-0.228902860384889 0.652696824509914 1 0 0 0 0 0 0 0 0 0 1 0 0 0 0 0 0 0 0 0 0 0 0 1 0 0 0 0 0 0 0 0 0 0 0 0 1 0 0 0 -0.216399452297294 1 -0.201183384575153 2.89015411857122 0 0 0 0 0 0 0 0 0 0 0 0 0 0 0 0 0 0 0 0 0 0 0 0 0 0 0 0 1 0 0 0.244402817161297 </REAL-Entries>
    </REAL-SparseArray>
   </VectorInstance>
   <VectorInstance id="6">
    <REAL-SparseArray n="78">
     <Indices>1 2 3 4 5 6 7 8 9 10 11 12 13 14 15 16 17 18 19 20 21 22 23 24 25 26 27 28 29 30 31 32 33 34 35 36 37 38 39 40 41 42 43 44 45 46 47 48 49 50 51 52 53 54 55 56 57 58 59 60 61 62 63 64 65 66 67 68 69 70 71 72 73 74 75 76 77 78 </Indices>
     <REAL-Entries>0.606804033533028 1.56645189563457 0 0 0 0 0 1 0 0 0 0 0 0 0 0 0 0 0 0 0 0 0 0 0 1 0 0 0 0 0 0 0 0 0 0 0 1 0 0 0 0 -0.767609399604999 1 -0.201183384575153 -0.0603768955723488 0 0 0 0 0 0 0 0 0 0 0 0 0 0 0 0 0 0 0 0 0 0 0 0 0 0 0 0 1 0 0 -0.242362535246828 </REAL-Entries>
    </REAL-SparseArray>
   </VectorInstance>
   <VectorInstance id="7">
    <REAL-SparseArray n="78">
     <Indices>1 2 3 4 5 6 7 8 9 10 11 12 13 14 15 16 17 18 19 20 21 22 23 24 25 26 27 28 29 30 31 32 33 34 35 36 37 38 39 40 41 42 43 44 45 46 47 48 49 50 51 52 53 54 55 56 57 58 59 60 61 62 63 64 65 66 67 68 69 70 71 72 73 74 75 76 77 78 </Indices>
     <REAL-Entries>1.15295998050799 0.576550568582859 0 0 0 0 1 0 0 1 0 0 0 0 0 0 0 0 0 0 0 0 0 0 0 1 0 0 0 0 0 0 0 0 0 1 0 0 0 0 0 0 -0.830685387844151 1 -0.201183384575153 -0.313279553927512 0 0 0 0 0 0 0 0 0 0 0 0 0 0 0 0 0 0 0 0 0 0 0 0 0 0 0 0 1 0 0 -0.242362535246828 </REAL-Entries>
    </REAL-SparseArray>
   </VectorInstance>
   <VectorInstance id="8">
    <REAL-SparseArray n="78">
     <Indices>1 2 3 4 5 6 7 8 9 10 11 12 13 14 15 16 17 18 19 20 21 22 23 24 25 26 27 28 29 30 31 32 33 34 35 36 37 38 39 40 41 42 43 44 45 46 47 48 49 50 51 52 53 54 55 56 57 58 59 60 61 62 63 64 65 66 67 68 69 70 71 72 73 74 75 76 77 78 </Indices>
     <REAL-Entries>0.195000284074085 0.11967303302053 0 0 0 0 1 0 0 1 0 0 0 0 0 0 0 0 0 0 0 0 0 0 0 1 0 0 0 0 1 0 0 0 0 0 0 0 0 0 0 0 -0.5515662721906 0 -0.201183384575153 -1.74639461794011 0 0 0 0 0 0 0 0 0 0 0 0 0 0 0 0 0 0 0 0 0 0 0 0 0 0 0 0 1 0 0 -0.242362535246828 </REAL-Entries>
    </REAL-SparseArray>
   </VectorInstance>
   <VectorInstance id="9">
    <REAL-SparseArray n="78">
     <Indices>1 2 3 4 5 6 7 8 9 10 11 12 13 14 15 16 17 18 19 20 21 22 23 24 25 26 27 28 29 30 31 32 33 34 35 36 37 38 39 40 41 42 43 44 45 46 47 48 49 50 51 52 53 54 55 56 57 58 59 60 61 62 63 64 65 66 67 68 69 70 71 72 73 74 75 76 77 78 </Indices>
     <REAL-Entries>1.44124025651371 1.49030563970752 1 0 0 0 0 0 0 0 0 0 1 0 0 0 0 0 0 0 0 0 0 0 0 1 0 0 0 0 0 0 0 0 0 0 0 0 0 1 0 0 -0.36151589581875 1 -0.201183384575153 1.20413639620347 0 0 0 0 0 0 0 0 0 0 0 0 0 0 0 0 0 0 0 0 0 0 0 0 0 0 0 0 1 0 0 0.678467196375629 </REAL-Entries>
    </REAL-SparseArray>
   </VectorInstance>
   <VectorInstance id="10">
    <REAL-SparseArray n="78">
     <Indices>1 2 3 4 5 6 7 8 9 10 11 12 13 14 15 16 17 18 19 20 21 22 23 24 25 26 27 28 29 30 31 32 33 34 35 36 37 38 39 40 41 42 43 44 45 46 47 48 49 50 51 52 53 54 55 56 57 58 59 60 61 62 63 64 65 66 67 68 69 70 71 72 73 74 75 76 77 78 </Indices>
     <REAL-Entries>-1.63642730687524 -0.565643270322965 0 1 0 0 0 0 0 1 0 0 0 0 0 0 0 0 0 0 0 0 0 0 0 0 0 0 0 0 1 0 0 0 0 0 0 0 0 0 0 0 -0.0172202637054085 1 3.18957054844357 -0.228978667809124 0 0 0 0 0 0 0 0 0 0 0 0 0 0 0 0 0 0 0 0 0 0 0 0 0 0 0 0 1 0 0 -0.242362535246828 </REAL-Entries>
    </REAL-SparseArray>
   </VectorInstance>
   <VectorInstance id="11">
    <REAL-SparseArray n="78">
     <Indices>1 2 3 4 5 6 7 8 9 10 11 12 13 14 15 16 17 18 19 20 21 22 23 24 25 26 27 28 29 30 31 32 33 34 35 36 37 38 39 40 41 42 43 44 45 46 47 48 49 50 51 52 53 54 55 56 57 58 59 60 61 62 63 64 65 66 67 68 69 70 71 72 73 74 75 76 77 78 </Indices>
     <REAL-Entries>0.996295365568401 0.957281848218134 0 0 0 0 0 1 0 0 0 0 0 0 0 1 0 0 0 0 0 0 0 0 1 0 0 0 0 0 0 0 0 0 0 1 0 0 0 0 0 0 -0.517670540855469 1 -0.201183384575153 1.62564082679541 0 0 0 0 0 0 0 0 0 0 0 0 0 0 0 0 0 0 0 0 0 0 0 0 0 0 0 0 1 0 0 3.09073446938243 </REAL-Entries>
    </REAL-SparseArray>
   </VectorInstance>
   <VectorInstance id="12">
    <REAL-SparseArray n="78">
     <Indices>1 2 3 4 5 6 7 8 9 10 11 12 13 14 15 16 17 18 19 20 21 22 23 24 25 26 27 28 29 30 31 32 33 34 35 36 37 38 39 40 41 42 43 44 45 46 47 48 49 50 51 52 53 54 55 56 57 58 59 60 61 62 63 64 65 66 67 68 69 70 71 72 73 74 75 76 77 78 </Indices>
     <REAL-Entries>-0.458625145004849 0.424258056728749 0 1 0 0 0 0 0 0 0 0 0 0 0 0 1 0 0 0 0 0 0 0 0 1 0 0 0 0 1 0 0 0 0 0 0 0 0 0 0 0 -1.06884106040278 1 -0.201183384575153 -0.0603768955723488 0 0 0 0 0 0 0 0 0 0 0 0 0 0 0 0 0 0 0 0 0 0 0 0 0 0 0 0 1 0 0 -0.242362535246828 </REAL-Entries>
    </REAL-SparseArray>
   </VectorInstance>
   <VectorInstance id="13">
    <REAL-SparseArray n="78">
     <Indices>1 2 3 4 5 6 7 8 9 10 11 12 13 14 15 16 17 18 19 20 21 22 23 24 25 26 27 28 29 30 31 32 33 34 35 36 37 38 39 40 41 42 43 44 45 46 47 48 49 50 51 52 53 54 55 56 57 58 59 60 61 62 63 64 65 66 67 68 69 70 71 72 73 74 75 76 77 78 </Indices>
     <REAL-Entries>1.22732377639027 -0.48949701439591 0 0 1 0 0 0 0 1 0 0 0 0 0 0 0 0 0 0 0 0 0 0 0 1 0 0 0 0 1 0 0 0 0 0 0 0 0 0 0 0 -0.837476676718546 1 -0.201183384575153 -0.0603768955723488 0 0 0 0 0 0 0 0 0 0 0 0 0 0 0 0 0 0 0 0 0 0 0 0 0 0 0 0 1 0 0 -0.242362535246828 </REAL-Entries>
    </REAL-SparseArray>
   </VectorInstance>
   <VectorInstance id="14">
    <REAL-SparseArray n="78">
     <Indices>1 2 3 4 5 6 7 8 9 10 11 12 13 14 15 16 17 18 19 20 21 22 23 24 25 26 27 28 29 30 31 32 33 34 35 36 37 38 39 40 41 42 43 44 45 46 47 48 49 50 51 52 53 54 55 56 57 58 59 60 61 62 63 64 65 66 67 68 69 70 71 72 73 74 75 76 77 78 </Indices>
     <REAL-Entries>1.50241965004901 -1.02252080588529 0 1 0 0 0 0 0 1 0 0 0 0 0 0 0 0 0 0 0 0 0 0 0 1 0 0 0 1 0 0 0 0 0 0 0 0 0 0 0 0 2.7021603699749 0 -0.201183384575153 -0.0603768955723488 0 0 0 0 0 0 0 0 0 0 0 0 0 0 0 0 0 0 0 0 0 0 0 0 0 0 0 0 1 0 0 -0.242362535246828 </REAL-Entries>
    </REAL-SparseArray>
   </VectorInstance>
   <VectorInstance id="15">
    <REAL-SparseArray n="78">
     <Indices>1 2 3 4 5 6 7 8 9 10 11 12 13 14 15 16 17 18 19 20 21 22 23 24 25 26 27 28 29 30 31 32 33 34 35 36 37 38 39 40 41 42 43 44 45 46 47 48 49 50 51 52 53 54 55 56 57 58 59 60 61 62 63 64 65 66 67 68 69 70 71 72 73 74 75 76 77 78 </Indices>
     <REAL-Entries>1.56355138865868 -0.18491199068769 0 1 0 0 0 0 0 0 1 0 0 0 0 0 0 0 0 0 0 0 0 0 0 1 0 0 0 0 0 0 0 1 0 0 0 0 0 0 0 0 -0.503257408762637 1 -0.201183384575153 0.782631965611529 0 0 0 0 0 0 0 0 0 0 0 0 0 0 0 0 0 0 0 0 0 0 0 0 0 0 0 0 1 0 0 1.25087163022367 </REAL-Entries>
    </REAL-SparseArray>
   </VectorInstance>
   <VectorInstance id="16">
    <REAL-SparseArray n="78">
     <Indices>1 2 3 4 5 6 7 8 9 10 11 12 13 14 15 16 17 18 19 20 21 22 23 24 25 26 27 28 29 30 31 32 33 34 35 36 37 38 39 40 41 42 43 44 45 46 47 48 49 50 51 52 53 54 55 56 57 58 59 60 61 62 63 64 65 66 67 68 69 70 71 72 73 74 75 76 77 78 </Indices>
     <REAL-Entries>1.40250747667257 1.56645189563457 0 1 0 0 0 0 0 0 1 0 0 0 0 0 0 0 0 0 0 0 0 0 0 1 0 0 0 0 0 0 0 0 0 0 0 0 1 0 0 0 -0.577386169645896 1 -0.201183384575153 -0.0603768955723488 0 0 0 0 0 0 0 0 0 0 0 0 0 0 0 0 0 0 0 0 0 0 0 0 0 0 0 0 1 0 0 1.13217466559856 </REAL-Entries>
    </REAL-SparseArray>
   </VectorInstance>
   <VectorInstance id="17">
    <REAL-SparseArray n="78">
     <Indices>1 2 3 4 5 6 7 8 9 10 11 12 13 14 15 16 17 18 19 20 21 22 23 24 25 26 27 28 29 30 31 32 33 34 35 36 37 38 39 40 41 42 43 44 45 46 47 48 49 50 51 52 53 54 55 56 57 58 59 60 61 62 63 64 65 66 67 68 69 70 71 72 73 74 75 76 77 78 </Indices>
     <REAL-Entries>-0.171970092583124 1.26186687192635 1 0 0 0 0 0 0 1 0 0 0 0 0 0 0 0 0 0 0 0 0 0 0 1 0 0 0 0 0 0 0 0 0 1 0 0 0 0 0 0 3.51742160002483 0 -0.201183384575153 -2.75800525136076 0 0 0 0 0 0 0 0 0 0 0 0 0 0 0 0 0 0 0 0 0 0 0 0 0 0 0 0 1 0 0 -0.242362535246828 </REAL-Entries>
    </REAL-SparseArray>
   </VectorInstance>
   <VectorInstance id="18">
    <REAL-SparseArray n="78">
     <Indices>1 2 3 4 5 6 7 8 9 10 11 12 13 14 15 16 17 18 19 20 21 22 23 24 25 26 27 28 29 30 31 32 33 34 35 36 37 38 39 40 41 42 43 44 45 46 47 48 49 50 51 52 53 54 55 56 57 58 59 60 61 62 63 64 65 66 67 68 69 70 71 72 73 74 75 76 77 78 </Indices>
     <REAL-Entries>-1.64123626073132 -0.870228294031184 0 1 0 0 0 0 0 1 0 0 0 0 0 0 0 0 0 0 0 0 0 0 0 0 0 0 0 0 0 0 0 0 0 1 0 0 0 0 0 0 0.0775199303428552 1 -0.201183384575153 -0.0603768955723488 0 0 0 0 0 0 0 0 0 0 0 0 0 0 0 0 0 0 0 0 0 0 0 0 0 0 0 0 1 0 0 1.38058788924385 </REAL-Entries>
    </REAL-SparseArray>
   </VectorInstance>
   <VectorInstance id="19">
    <REAL-SparseArray n="78">
     <Indices>1 2 3 4 5 6 7 8 9 10 11 12 13 14 15 16 17 18 19 20 21 22 23 24 25 26 27 28 29 30 31 32 33 34 35 36 37 38 39 40 41 42 43 44 45 46 47 48 49 50 51 52 53 54 55 56 57 58 59 60 61 62 63 64 65 66 67 68 69 70 71 72 73 74 75 76 77 78 </Indices>
     <REAL-Entries>-1.020397420492 0.195819288947585 0 1 0 0 0 0 0 1 0 0 0 0 0 0 0 0 0 0 0 0 0 0 0 0 0 0 0 0 0 0 0 0 0 1 0 0 0 0 0 0 -0.106871133869802 1 -0.201183384575153 -0.0603768955723488 0 0 0 0 0 0 0 0 0 0 0 0 0 0 0 0 0 0 0 0 0 0 0 0 0 0 0 0 1 0 0 0.135647172479561 </REAL-Entries>
    </REAL-SparseArray>
   </VectorInstance>
   <VectorInstance id="20">
    <REAL-SparseArray n="78">
     <Indices>1 2 3 4 5 6 7 8 9 10 11 12 13 14 15 16 17 18 19 20 21 22 23 24 25 26 27 28 29 30 31 32 33 34 35 36 37 38 39 40 41 42 43 44 45 46 47 48 49 50 51 52 53 54 55 56 57 58 59 60 61 62 63 64 65 66 67 68 69 70 71 72 73 74 75 76 77 78 </Indices>
     <REAL-Entries>0.563354178532444 -0.717935782177075 0 1 0 0 0 0 0 1 0 0 0 0 0 0 0 0 0 0 0 0 0 0 0 1 0 0 0 0 0 0 0 0 0 0 0 0 0 0 1 0 -0.625019189833118 1 -0.201183384575153 -0.0603768955723488 0 0 0 0 0 0 0 0 0 0 0 0 0 0 0 0 0 0 0 0 0 0 0 0 0 0 0 0 1 0 0 -0.242362535246828 </REAL-Entries>
    </REAL-SparseArray>
   </VectorInstance>
   <VectorInstance id="21">
    <REAL-SparseArray n="78">
     <Indices>1 2 3 4 5 6 7 8 9 10 11 12 13 14 15 16 17 18 19 20 21 22 23 24 25 26 27 28 29 30 31 32 33 34 35 36 37 38 39 40 41 42 43 44 45 46 47 48 49 50 51 52 53 54 55 56 57 58 59 60 61 62 63 64 65 66 67 68 69 70 71 72 73 74 75 76 77 78 </Indices>
     <REAL-Entries>1.10037677307914 0.500404312655804 0 0 0 0 0 1 0 0 0 0 1 0 0 0 0 0 0 0 0 0 0 0 0 1 0 0 0 0 1 0 0 0 0 0 0 0 0 0 0 0 -0.766303855031522 1 -0.201183384575153 1.20413639620347 0 0 0 0 0 0 0 0 0 0 0 0 0 0 0 0 0 0 0 0 0 0 0 0 0 0 0 0 1 0 0 1.55713614944305 </REAL-Entries>
    </REAL-SparseArray>
   </VectorInstance>
   <VectorInstance id="22">
    <REAL-SparseArray n="78">
     <Indices>1 2 3 4 5 6 7 8 9 10 11 12 13 14 15 16 17 18 19 20 21 22 23 24 25 26 27 28 29 30 31 32 33 34 35 36 37 38 39 40 41 42 43 44 45 46 47 48 49 50 51 52 53 54 55 56 57 58 59 60 61 62 63 64 65 66 67 68 69 70 71 72 73 74 75 76 77 78 </Indices>
     <REAL-Entries>-0.0708505340106933 1.79489066341574 0 1 0 0 0 0 0 0 0 0 0 0 0 0 0 0 0 0 0 1 0 0 0 1 0 0 0 0 0 1 0 0 0 0 0 0 0 0 0 0 -0.557644147168513 1 -0.201183384575153 -0.0603768955723488 0 0 0 0 0 0 0 0 0 0 0 0 0 0 0 0 0 0 0 0 0 0 1 0 0 0 0 0 0 0 0 -0.242362535246828 </REAL-Entries>
    </REAL-SparseArray>
   </VectorInstance>
   <VectorInstance id="23">
    <REAL-SparseArray n="78">
     <Indices>1 2 3 4 5 6 7 8 9 10 11 12 13 14 15 16 17 18 19 20 21 22 23 24 25 26 27 28 29 30 31 32 33 34 35 36 37 38 39 40 41 42 43 44 45 46 47 48 49 50 51 52 53 54 55 56 57 58 59 60 61 62 63 64 65 66 67 68 69 70 71 72 73 74 75 76 77 78 </Indices>
     <REAL-Entries>-0.820837272646858 -0.565643270322965 1 0 0 0 0 0 0 0 0 0 1 0 0 0 0 0 0 0 0 0 0 0 0 1 0 0 0 0 0 0 0 0 0 0 0 1 0 0 0 0 -0.347836177211007 1 5.35527450664423 -0.0603768955723488 0 0 0 0 0 0 0 0 0 0 0 0 0 0 0 0 0 0 0 0 0 0 0 0 0 0 0 0 1 0 0 2.13816437890462 </REAL-Entries>
    </REAL-SparseArray>
   </VectorInstance>
   <VectorInstance id="24">
    <REAL-SparseArray n="78">
     <Indices>1 2 3 4 5 6 7 8 9 10 11 12 13 14 15 16 17 18 19 20 21 22 23 24 25 26 27 28 29 30 31 32 33 34 35 36 37 38 39 40 41 42 43 44 45 46 47 48 49 50 51 52 53 54 55 56 57 58 59 60 61 62 63 64 65 66 67 68 69 70 71 72 73 74 75 76 77 78 </Indices>
     <REAL-Entries>1.62199920185636 -0.48949701439591 0 1 0 0 0 0 0 1 0 0 0 0 0 0 0 0 0 0 0 0 0 0 0 1 0 0 0 0 0 0 0 0 0 0 0 0 1 0 0 0 -0.762571646088896 1 -0.201183384575153 0.108224876664427 0 0 0 0 0 0 0 0 0 0 0 0 0 0 0 0 0 0 0 0 0 0 0 0 0 0 0 0 1 0 0 -0.242362535246828 </REAL-Entries>
    </REAL-SparseArray>
   </VectorInstance>
   <VectorInstance id="25">
    <REAL-SparseArray n="78">
     <Indices>1 2 3 4 5 6 7 8 9 10 11 12 13 14 15 16 17 18 19 20 21 22 23 24 25 26 27 28 29 30 31 32 33 34 35 36 37 38 39 40 41 42 43 44 45 46 47 48 49 50 51 52 53 54 55 56 57 58 59 60 61 62 63 64 65 66 67 68 69 70 71 72 73 74 75 76 77 78 </Indices>
     <REAL-Entries>-0.694419429630023 -0.3372045025418 0 1 0 0 0 0 0 1 0 0 0 0 0 0 0 0 0 0 0 0 0 0 0 1 0 0 0 0 1 0 0 0 0 0 0 0 0 0 0 0 -0.551851552036669 1 -0.201183384575153 -0.0603768955723488 0 0 0 0 0 0 0 0 0 0 0 0 0 0 0 0 0 0 0 0 0 0 0 0 0 0 0 0 1 0 0 0.789378789960749 </REAL-Entries>
    </REAL-SparseArray>
   </VectorInstance>
   <VectorInstance id="26">
    <REAL-SparseArray n="78">
     <Indices>1 2 3 4 5 6 7 8 9 10 11 12 13 14 15 16 17 18 19 20 21 22 23 24 25 26 27 28 29 30 31 32 33 34 35 36 37 38 39 40 41 42 43 44 45 46 47 48 49 50 51 52 53 54 55 56 57 58 59 60 61 62 63 64 65 66 67 68 69 70 71 72 73 74 75 76 77 78 </Indices>
     <REAL-Entries>1.58675438133259 -0.794082038104129 0 1 0 0 0 0 0 1 0 0 0 0 0 0 0 0 0 0 0 0 0 0 0 1 0 0 0 0 0 0 0 0 0 0 0 1 0 0 0 0 -0.665573212778402 1 -0.201183384575153 -0.0603768955723488 0 0 0 0 0 0 0 0 0 0 0 0 0 0 0 0 0 0 0 0 0 0 0 0 0 0 0 0 1 0 0 -0.242362535246828 </REAL-Entries>
    </REAL-SparseArray>
   </VectorInstance>
   <VectorInstance id="27">
    <REAL-SparseArray n="78">
     <Indices>1 2 3 4 5 6 7 8 9 10 11 12 13 14 15 16 17 18 19 20 21 22 23 24 25 26 27 28 29 30 31 32 33 34 35 36 37 38 39 40 41 42 43 44 45 46 47 48 49 50 51 52 53 54 55 56 57 58 59 60 61 62 63 64 65 66 67 68 69 70 71 72 73 74 75 76 77 78 </Indices>
     <REAL-Entries>1.09786211796303 -0.794082038104129 0 1 0 0 0 0 0 1 0 0 0 0 0 0 0 0 0 0 0 0 0 0 0 1 0 0 0 0 0 0 0 0 0 0 0 0 0 1 0 0 -0.830656245586465 1 -0.201183384575153 -0.0603768955723488 0 0 0 0 0 0 0 0 0 0 0 0 0 0 0 0 0 0 0 0 0 0 0 0 0 0 0 0 1 0 0 -0.242362535246828 </REAL-Entries>
    </REAL-SparseArray>
   </VectorInstance>
   <VectorInstance id="28">
    <REAL-SparseArray n="78">
     <Indices>1 2 3 4 5 6 7 8 9 10 11 12 13 14 15 16 17 18 19 20 21 22 23 24 25 26 27 28 29 30 31 32 33 34 35 36 37 38 39 40 41 42 43 44 45 46 47 48 49 50 51 52 53 54 55 56 57 58 59 60 61 62 63 64 65 66 67 68 69 70 71 72 73 74 75 76 77 78 </Indices>
     <REAL-Entries>0.313749496457097 0.881135592291079 0 0 0 1 0 0 0 0 1 0 0 0 0 0 0 0 0 0 0 0 0 0 0 1 0 0 0 0 0 0 0 0 0 0 1 0 0 0 0 0 -0.662649987194962 1 -0.201183384575153 0.951233737848305 0 0 0 0 0 0 0 0 0 0 0 0 0 0 0 0 0 0 0 0 0 0 0 0 0 0 0 0 1 0 0 0.489342567573358 </REAL-Entries>
    </REAL-SparseArray>
   </VectorInstance>
   <VectorInstance id="29">
    <REAL-SparseArray n="78">
     <Indices>1 2 3 4 5 6 7 8 9 10 11 12 13 14 15 16 17 18 19 20 21 22 23 24 25 26 27 28 29 30 31 32 33 34 35 36 37 38 39 40 41 42 43 44 45 46 47 48 49 50 51 52 53 54 55 56 57 58 59 60 61 62 63 64 65 66 67 68 69 70 71 72 73 74 75 76 77 78 </Indices>
     <REAL-Entries>-1.26428884884234 0.500404312655804 1 0 0 0 0 0 0 0 0 0 1 0 0 0 0 0 0 0 0 0 0 0 0 1 0 0 0 0 1 0 0 0 0 0 0 0 0 0 0 0 -1.04248117405507 1 -0.201183384575153 0.782631965611529 0 0 0 0 0 0 0 0 0 0 0 0 0 0 0 0 0 0 0 0 0 0 0 0 0 0 0 0 1 0 0 -0.242362535246828 </REAL-Entries>
    </REAL-SparseArray>
   </VectorInstance>
   <VectorInstance id="30">
    <REAL-SparseArray n="78">
     <Indices>1 2 3 4 5 6 7 8 9 10 11 12 13 14 15 16 17 18 19 20 21 22 23 24 25 26 27 28 29 30 31 32 33 34 35 36 37 38 39 40 41 42 43 44 45 46 47 48 49 50 51 52 53 54 55 56 57 58 59 60 61 62 63 64 65 66 67 68 69 70 71 72 73 74 75 76 77 78 </Indices>
     <REAL-Entries>-0.0440284356640575 1.56645189563457 0 0 0 0 0 1 0 0 0 0 0 0 0 1 0 0 0 0 0 0 0 0 0 1 0 0 0 0 0 0 0 0 0 1 0 0 0 0 0 0 -0.826412190029684 1 -0.201183384575153 -0.0603768955723488 0 0 0 0 0 0 0 0 0 0 0 0 0 0 0 0 0 0 0 0 0 0 0 0 0 0 0 0 1 0 0 -0.147620558437077 </REAL-Entries>
    </REAL-SparseArray>
   </VectorInstance>
   <VectorInstance id="31">
    <REAL-SparseArray n="78">
     <Indices>1 2 3 4 5 6 7 8 9 10 11 12 13 14 15 16 17 18 19 20 21 22 23 24 25 26 27 28 29 30 31 32 33 34 35 36 37 38 39 40 41 42 43 44 45 46 47 48 49 50 51 52 53 54 55 56 57 58 59 60 61 62 63 64 65 66 67 68 69 70 71 72 73 74 75 76 77 78 </Indices>
     <REAL-Entries>-1.24520286050423 0.652696824509914 0 0 0 0 1 0 0 0 0 0 1 0 0 0 0 0 0 0 0 0 0 0 0 1 0 0 0 1 0 0 0 0 0 0 0 0 0 0 0 0 0.885410312011375 0 -0.201183384575153 -0.0603768955723488 0 0 0 0 0 0 0 0 0 0 0 0 0 0 0 0 0 0 0 0 0 0 0 0 0 0 0 0 1 0 0 1.63714580874636 </REAL-Entries>
    </REAL-SparseArray>
   </VectorInstance>
   <VectorInstance id="32">
    <REAL-SparseArray n="78">
     <Indices>1 2 3 4 5 6 7 8 9 10 11 12 13 14 15 16 17 18 19 20 21 22 23 24 25 26 27 28 29 30 31 32 33 34 35 36 37 38 39 40 41 42 43 44 45 46 47 48 49 50 51 52 53 54 55 56 57 58 59 60 61 62 63 64 65 66 67 68 69 70 71 72 73 74 75 76 77 78 </Indices>
     <REAL-Entries>-1.7004518900909 2.0233294311969 0 0 0 0 0 1 0 0 1 0 0 0 0 0 0 0 0 0 0 0 0 0 0 1 0 0 0 0 0 0 0 0 0 0 0 0 1 0 0 0 -0.734059804006988 1 -0.201183384575153 -0.0603768955723488 0 0 0 0 0 0 0 0 0 0 0 0 0 0 0 0 0 0 0 0 0 0 0 0 0 0 0 0 1 0 0 -0.242362535246828 </REAL-Entries>
    </REAL-SparseArray>
   </VectorInstance>
   <VectorInstance id="33">
    <REAL-SparseArray n="78">
     <Indices>1 2 3 4 5 6 7 8 9 10 11 12 13 14 15 16 17 18 19 20 21 22 23 24 25 26 27 28 29 30 31 32 33 34 35 36 37 38 39 40 41 42 43 44 45 46 47 48 49 50 51 52 53 54 55 56 57 58 59 60 61 62 63 64 65 66 67 68 69 70 71 72 73 74 75 76 77 78 </Indices>
     <REAL-Entries>1.30868598403219 -0.794082038104129 0 1 0 0 0 0 0 0 0 0 0 0 0 1 0 0 0 0 0 0 0 0 0 0 0 0 0 0 0 0 0 0 0 1 0 0 0 0 0 0 0.176779031437054 1 -0.201183384575153 1.20413639620347 0 0 0 0 0 0 0 0 0 0 0 0 0 0 0 0 0 0 0 0 0 0 0 0 0 0 0 0 1 0 0 0.55222441058868 </REAL-Entries>
    </REAL-SparseArray>
   </VectorInstance>
   <VectorInstance id="34">
    <REAL-SparseArray n="78">
     <Indices>1 2 3 4 5 6 7 8 9 10 11 12 13 14 15 16 17 18 19 20 21 22 23 24 25 26 27 28 29 30 31 32 33 34 35 36 37 38 39 40 41 42 43 44 45 46 47 48 49 50 51 52 53 54 55 56 57 58 59 60 61 62 63 64 65 66 67 68 69 70 71 72 73 74 75 76 77 78 </Indices>
     <REAL-Entries>-1.46258137566548 0.271965544874639 0 1 0 0 0 0 0 1 0 0 0 0 0 0 0 0 0 0 0 0 0 0 0 1 0 0 0 0 1 0 0 0 0 0 0 0 0 0 0 0 -0.248514220266898 1 -0.201183384575153 -0.0603768955723488 0 0 0 0 0 0 0 0 0 0 0 0 0 0 0 0 0 0 0 0 0 0 0 0 0 0 0 0 1 0 0 -0.242362535246828 </REAL-Entries>
    </REAL-SparseArray>
   </VectorInstance>
   <VectorInstance id="35">
    <REAL-SparseArray n="78">
     <Indices>1 2 3 4 5 6 7 8 9 10 11 12 13 14 15 16 17 18 19 20 21 22 23 24 25 26 27 28 29 30 31 32 33 34 35 36 37 38 39 40 41 42 43 44 45 46 47 48 49 50 51 52 53 54 55 56 57 58 59 60 61 62 63 64 65 66 67 68 69 70 71 72 73 74 75 76 77 78 </Indices>
     <REAL-Entries>0.825878301568217 1.41415938378046 0 1 0 0 0 0 0 1 0 0 0 0 0 0 0 0 0 0 0 0 0 0 0 1 0 0 0 0 0 0 0 0 0 0 0 0 0 0 0 1 -0.900937657038399 1 -0.201183384575153 -0.0603768955723488 0 0 0 0 0 0 0 0 0 0 0 0 0 0 0 0 0 0 0 0 0 0 0 0 0 0 0 0 1 0 0 -0.242362535246828 </REAL-Entries>
    </REAL-SparseArray>
   </VectorInstance>
   <VectorInstance id="36">
    <REAL-SparseArray n="78">
     <Indices>1 2 3 4 5 6 7 8 9 10 11 12 13 14 15 16 17 18 19 20 21 22 23 24 25 26 27 28 29 30 31 32 33 34 35 36 37 38 39 40 41 42 43 44 45 46 47 48 49 50 51 52 53 54 55 56 57 58 59 60 61 62 63 64 65 66 67 68 69 70 71 72 73 74 75 76 77 78 </Indices>
     <REAL-Entries>1.30194872126506 1.71874440748868 0 0 0 1 0 0 0 1 0 0 0 0 0 0 0 0 0 0 0 0 0 0 0 1 0 0 0 0 0 0 0 0 0 1 0 0 0 0 0 0 -0.771662030527963 1 -0.201183384575153 0.108224876664427 0 0 0 0 0 0 0 0 0 0 0 0 0 0 0 0 0 0 0 0 0 0 0 0 0 0 0 0 1 0 0 -0.242362535246828 </REAL-Entries>
    </REAL-SparseArray>
   </VectorInstance>
   <VectorInstance id="37">
    <REAL-SparseArray n="78">
     <Indices>1 2 3 4 5 6 7 8 9 10 11 12 13 14 15 16 17 18 19 20 21 22 23 24 25 26 27 28 29 30 31 32 33 34 35 36 37 38 39 40 41 42 43 44 45 46 47 48 49 50 51 52 53 54 55 56 57 58 59 60 61 62 63 64 65 66 67 68 69 70 71 72 73 74 75 76 77 78 </Indices>
     <REAL-Entries>0.595670317946145 0.500404312655804 1 0 0 0 0 0 0 1 0 0 0 0 0 0 0 0 0 0 0 0 0 0 0 1 0 0 0 0 0 0 0 0 0 0 0 0 1 0 0 0 -0.772745722522098 1 -0.201183384575153 -0.0603768955723488 0 0 0 0 0 0 0 0 0 0 0 0 0 0 0 0 0 0 0 0 0 0 0 0 0 0 0 0 1 0 0 0.589474416641565 </REAL-Entries>
    </REAL-SparseArray>
   </VectorInstance>
   <VectorInstance id="38">
    <REAL-SparseArray n="78">
     <Indices>1 2 3 4 5 6 7 8 9 10 11 12 13 14 15 16 17 18 19 20 21 22 23 24 25 26 27 28 29 30 31 32 33 34 35 36 37 38 39 40 41 42 43 44 45 46 47 48 49 50 51 52 53 54 55 56 57 58 59 60 61 62 63 64 65 66 67 68 69 70 71 72 73 74 75 76 77 78 </Indices>
     <REAL-Entries>1.62720921956661 1.1857206159993 0 1 0 0 0 0 0 0 0 0 0 1 0 0 0 0 0 0 0 0 0 0 0 1 0 0 0 0 0 0 0 0 0 0 0 0 0 0 0 1 -0.593637692494398 1 -0.201183384575153 1.62564082679541 0 0 0 0 0 0 0 0 0 0 0 0 0 0 0 0 0 0 0 0 0 0 0 0 0 0 0 0 1 0 0 0.678467196375629 </REAL-Entries>
    </REAL-SparseArray>
   </VectorInstance>
   <VectorInstance id="39">
    <REAL-SparseArray n="78">
     <Indices>1 2 3 4 5 6 7 8 9 10 11 12 13 14 15 16 17 18 19 20 21 22 23 24 25 26 27 28 29 30 31 32 33 34 35 36 37 38 39 40 41 42 43 44 45 46 47 48 49 50 51 52 53 54 55 56 57 58 59 60 61 62 63 64 65 66 67 68 69 70 71 72 73 74 75 76 77 78 </Indices>
     <REAL-Entries>-0.925111587296587 -0.565643270322965 0 1 0 0 0 0 0 0 0 1 0 0 0 0 0 0 0 0 0 0 0 0 0 1 0 0 0 0 0 0 0 0 0 1 0 0 0 0 0 0 -0.646852312153652 1 -0.201183384575153 -0.0603768955723488 1 0 0 0 0 0 0 0 0 0 0 0 0 0 0 0 0 0 0 0 0 0 0 0 0 0 0 0 0 0 0 -0.242362535246828 </REAL-Entries>
    </REAL-SparseArray>
   </VectorInstance>
   <VectorInstance id="40">
    <REAL-SparseArray n="78">
     <Indices>1 2 3 4 5 6 7 8 9 10 11 12 13 14 15 16 17 18 19 20 21 22 23 24 25 26 27 28 29 30 31 32 33 34 35 36 37 38 39 40 41 42 43 44 45 46 47 48 49 50 51 52 53 54 55 56 57 58 59 60 61 62 63 64 65 66 67 68 69 70 71 72 73 74 75 76 77 78 </Indices>
     <REAL-Entries>-0.947688966106709 2.0233294311969 0 1 0 0 0 0 0 1 0 0 0 0 0 0 0 0 0 0 0 0 0 0 0 0 0 0 0 0 1 0 0 0 0 0 0 0 0 0 0 0 -0.832445923058456 1 -0.201183384575153 -0.0603768955723488 0 0 0 0 0 0 0 0 0 0 0 0 0 0 0 0 0 0 0 0 0 0 0 0 0 0 0 0 1 0 0 -0.242362535246828 </REAL-Entries>
    </REAL-SparseArray>
   </VectorInstance>
   <VectorInstance id="41">
    <REAL-SparseArray n="78">
     <Indices>1 2 3 4 5 6 7 8 9 10 11 12 13 14 15 16 17 18 19 20 21 22 23 24 25 26 27 28 29 30 31 32 33 34 35 36 37 38 39 40 41 42 43 44 45 46 47 48 49 50 51 52 53 54 55 56 57 58 59 60 61 62 63 64 65 66 67 68 69 70 71 72 73 74 75 76 77 78 </Indices>
     <REAL-Entries>1.28466447035551 0.957281848218134 0 1 0 0 0 0 0 0 1 0 0 0 0 0 0 0 0 0 0 0 0 0 0 1 0 0 0 0 1 0 0 0 0 0 0 0 0 0 0 0 -0.907258527017897 1 -0.201183384575153 0.36112753501959 0 0 0 0 0 0 0 0 0 0 0 0 0 0 0 0 0 0 0 0 0 0 0 0 0 0 0 0 1 0 0 -0.242362535246828 </REAL-Entries>
    </REAL-SparseArray>
   </VectorInstance>
   <VectorInstance id="42">
    <REAL-SparseArray n="78">
     <Indices>1 2 3 4 5 6 7 8 9 10 11 12 13 14 15 16 17 18 19 20 21 22 23 24 25 26 27 28 29 30 31 32 33 34 35 36 37 38 39 40 41 42 43 44 45 46 47 48 49 50 51 52 53 54 55 56 57 58 59 60 61 62 63 64 65 66 67 68 69 70 71 72 73 74 75 76 77 78 </Indices>
     <REAL-Entries>-1.5356718319347 0.576550568582859 0 1 0 0 0 0 0 0 0 0 1 0 0 0 0 0 0 0 0 0 0 0 0 1 0 0 0 0 1 0 0 0 0 0 0 0 0 0 0 0 -0.612929724228106 1 -0.201183384575153 -0.0603768955723488 0 0 0 0 0 0 0 0 0 0 0 0 0 0 0 0 0 0 0 0 0 0 0 0 0 0 0 0 1 0 0 1.23494156332645 </REAL-Entries>
    </REAL-SparseArray>
   </VectorInstance>
   <VectorInstance id="43">
    <REAL-SparseArray n="78">
     <Indices>1 2 3 4 5 6 7 8 9 10 11 12 13 14 15 16 17 18 19 20 21 22 23 24 25 26 27 28 29 30 31 32 33 34 35 36 37 38 39 40 41 42 43 44 45 46 47 48 49 50 51 52 53 54 55 56 57 58 59 60 61 62 63 64 65 66 67 68 69 70 71 72 73 74 75 76 77 78 </Indices>
     <REAL-Entries>0.874335736154943 0.0435267770934747 0 1 0 0 0 0 0 0 0 0 1 0 0 0 0 0 0 0 0 0 0 0 0 1 0 0 0 1 0 0 0 0 0 0 0 0 0 0 0 0 1.78983756505616 0 -0.201183384575153 -0.0603768955723488 0 0 0 0 0 0 0 0 0 0 0 0 0 0 0 0 0 0 0 0 0 0 0 0 0 0 0 0 1 0 0 1.95610647150788 </REAL-Entries>
    </REAL-SparseArray>
   </VectorInstance>
   <VectorInstance id="44">
    <REAL-SparseArray n="78">
     <Indices>1 2 3 4 5 6 7 8 9 10 11 12 13 14 15 16 17 18 19 20 21 22 23 24 25 26 27 28 29 30 31 32 33 34 35 36 37 38 39 40 41 42 43 44 45 46 47 48 49 50 51 52 53 54 55 56 57 58 59 60 61 62 63 64 65 66 67 68 69 70 71 72 73 74 75 76 77 78 </Indices>
     <REAL-Entries>-0.582648423318176 0.957281848218134 0 1 0 0 0 0 0 1 0 0 0 0 0 0 0 0 0 0 0 0 0 0 0 0 0 0 0 0 0 0 0 0 0 0 0 0 1 0 0 0 -0.614130270961392 0 4.36784928727928 0.192525762782815 0 0 0 0 0 0 0 0 0 0 0 0 0 0 0 0 0 0 0 0 0 0 0 0 0 0 0 0 1 0 0 0.136365822114021 </REAL-Entries>
    </REAL-SparseArray>
   </VectorInstance>
   <VectorInstance id="45">
    <REAL-SparseArray n="78">
     <Indices>1 2 3 4 5 6 7 8 9 10 11 12 13 14 15 16 17 18 19 20 21 22 23 24 25 26 27 28 29 30 31 32 33 34 35 36 37 38 39 40 41 42 43 44 45 46 47 48 49 50 51 52 53 54 55 56 57 58 59 60 61 62 63 64 65 66 67 68 69 70 71 72 73 74 75 76 77 78 </Indices>
     <REAL-Entries>-0.180443900840542 -0.261058246614745 0 1 0 0 0 0 0 0 0 0 0 0 0 0 0 0 1 0 0 0 0 0 0 1 0 0 0 0 0 0 0 0 0 0 0 0 1 0 0 0 -0.510809824837764 1 -0.201183384575153 2.04714525738735 0 0 0 0 0 0 0 0 0 0 0 0 0 0 0 0 0 0 0 0 0 0 0 0 0 0 0 0 1 0 0 -0.242362535246828 </REAL-Entries>
    </REAL-SparseArray>
   </VectorInstance>
   <VectorInstance id="46">
    <REAL-SparseArray n="78">
     <Indices>1 2 3 4 5 6 7 8 9 10 11 12 13 14 15 16 17 18 19 20 21 22 23 24 25 26 27 28 29 30 31 32 33 34 35 36 37 38 39 40 41 42 43 44 45 46 47 48 49 50 51 52 53 54 55 56 57 58 59 60 61 62 63 64 65 66 67 68 69 70 71 72 73 74 75 76 77 78 </Indices>
     <REAL-Entries>1.246799010161 0.348111800801694 0 1 0 0 0 0 0 1 0 0 0 0 0 0 0 0 0 0 0 0 0 0 0 0 0 0 0 0 0 0 0 0 0 1 0 0 0 0 0 0 -0.830600532446772 0 -0.201183384575153 -0.0603768955723488 0 0 0 0 0 0 0 0 0 0 0 0 0 0 0 0 0 0 0 0 0 0 0 0 0 0 0 0 1 0 0 -0.242362535246828 </REAL-Entries>
    </REAL-SparseArray>
   </VectorInstance>
   <VectorInstance id="47">
    <REAL-SparseArray n="78">
     <Indices>1 2 3 4 5 6 7 8 9 10 11 12 13 14 15 16 17 18 19 20 21 22 23 24 25 26 27 28 29 30 31 32 33 34 35 36 37 38 39 40 41 42 43 44 45 46 47 48 49 50 51 52 53 54 55 56 57 58 59 60 61 62 63 64 65 66 67 68 69 70 71 72 73 74 75 76 77 78 </Indices>
     <REAL-Entries>-0.0862705242292475 -0.565643270322965 0 1 0 0 0 0 0 1 0 0 0 0 0 0 0 0 0 0 0 0 0 0 0 1 0 0 0 0 0 0 0 0 0 0 0 0 1 0 0 0 -0.801328420289359 1 -0.201183384575153 -0.0603768955723488 0 0 0 0 0 0 0 0 0 0 0 0 0 0 0 0 0 0 0 0 0 0 0 0 0 0 0 0 1 0 0 0.728413345970656 </REAL-Entries>
    </REAL-SparseArray>
   </VectorInstance>
   <VectorInstance id="48">
    <REAL-SparseArray n="78">
     <Indices>1 2 3 4 5 6 7 8 9 10 11 12 13 14 15 16 17 18 19 20 21 22 23 24 25 26 27 28 29 30 31 32 33 34 35 36 37 38 39 40 41 42 43 44 45 46 47 48 49 50 51 52 53 54 55 56 57 58 59 60 61 62 63 64 65 66 67 68 69 70 71 72 73 74 75 76 77 78 </Indices>
     <REAL-Entries>0.269634759933998 0.652696824509914 0 1 0 0 0 0 0 0 1 0 0 0 0 0 0 0 0 0 0 0 0 0 0 1 0 0 0 1 0 0 0 0 0 0 0 0 0 0 0 0 -0.806694024204426 1 -0.201183384575153 0.36112753501959 0 0 0 0 0 0 0 0 0 0 0 0 0 0 0 0 0 0 0 1 0 0 0 0 0 0 0 0 0 0 0 -0.242362535246828 </REAL-Entries>
    </REAL-SparseArray>
   </VectorInstance>
   <VectorInstance id="49">
    <REAL-SparseArray n="78">
     <Indices>1 2 3 4 5 6 7 8 9 10 11 12 13 14 15 16 17 18 19 20 21 22 23 24 25 26 27 28 29 30 31 32 33 34 35 36 37 38 39 40 41 42 43 44 45 46 47 48 49 50 51 52 53 54 55 56 57 58 59 60 61 62 63 64 65 66 67 68 69 70 71 72 73 74 75 76 77 78 </Indices>
     <REAL-Entries>1.08072006935158 1.41415938378046 0 0 0 0 1 0 0 0 0 0 1 0 0 0 0 0 0 0 0 0 0 0 0 1 0 0 0 0 1 0 0 0 0 0 0 0 0 0 0 0 -0.604735892775486 1 -0.201183384575153 -0.0603768955723488 0 0 0 0 0 0 0 0 0 0 0 0 0 0 0 0 0 0 0 0 0 0 0 0 0 0 0 0 1 0 0 -0.266197748123112 </REAL-Entries>
    </REAL-SparseArray>
   </VectorInstance>
   <VectorInstance id="50">
    <REAL-SparseArray n="78">
     <Indices>1 2 3 4 5 6 7 8 9 10 11 12 13 14 15 16 17 18 19 20 21 22 23 24 25 26 27 28 29 30 31 32 33 34 35 36 37 38 39 40 41 42 43 44 45 46 47 48 49 50 51 52 53 54 55 56 57 58 59 60 61 62 63 64 65 66 67 68 69 70 71 72 73 74 75 76 77 78 </Indices>
     <REAL-Entries>-0.728845729151018 0.576550568582859 0 0 0 1 0 0 0 1 0 0 0 0 0 0 0 0 0 0 0 0 0 0 0 0 0 0 0 0 0 0 0 0 0 1 0 0 0 0 0 0 -0.310555372649801 0 -0.201183384575153 -0.0603768955723488 0 0 0 0 0 0 0 0 0 0 0 0 0 0 0 0 0 0 0 0 0 0 0 0 0 0 0 0 1 0 0 -0.242362535246828 </REAL-Entries>
    </REAL-SparseArray>
   </VectorInstance>
   <VectorInstance id="51">
    <REAL-SparseArray n="78">
     <Indices>1 2 3 4 5 6 7 8 9 10 11 12 13 14 15 16 17 18 19 20 21 22 23 24 25 26 27 28 29 30 31 32 33 34 35 36 37 38 39 40 41 42 43 44 45 46 47 48 49 50 51 52 53 54 55 56 57 58 59 60 61 62 63 64 65 66 67 68 69 70 71 72 73 74 75 76 77 78 </Indices>
     <REAL-Entries>-1.19150338409722 0.0435267770934747 0 1 0 0 0 0 0 0 0 0 1 0 0 0 0 0 0 0 0 0 0 0 0 1 0 0 0 0 0 0 0 1 0 0 0 0 0 0 0 0 -0.746676258771817 1 3.79330219292275 -0.0603768955723488 0 0 0 0 0 0 0 0 0 0 0 0 0 0 0 0 0 0 0 0 0 0 0 0 0 0 0 0 1 0 0 -0.242362535246828 </REAL-Entries>
    </REAL-SparseArray>
   </VectorInstance>
   <VectorInstance id="52">
    <REAL-SparseArray n="78">
     <Indices>1 2 3 4 5 6 7 8 9 10 11 12 13 14 15 16 17 18 19 20 21 22 23 24 25 26 27 28 29 30 31 32 33 34 35 36 37 38 39 40 41 42 43 44 45 46 47 48 49 50 51 52 53 54 55 56 57 58 59 60 61 62 63 64 65 66 67 68 69 70 71 72 73 74 75 76 77 78 </Indices>
     <REAL-Entries>-1.42289587855097 -0.261058246614745 0 0 0 0 0 1 0 1 0 0 0 0 0 0 0 0 0 0 0 0 0 0 0 0 0 1 0 0 0 0 0 0 0 1 0 0 0 0 0 0 -0.594442961644272 0 -0.201183384575153 0.782631965611529 0 0 0 0 0 0 0 0 0 0 0 0 0 0 0 0 0 0 0 0 0 0 0 0 0 0 0 0 1 0 0 -0.242362535246828 </REAL-Entries>
    </REAL-SparseArray>
   </VectorInstance>
   <VectorInstance id="53">
    <REAL-SparseArray n="78">
     <Indices>1 2 3 4 5 6 7 8 9 10 11 12 13 14 15 16 17 18 19 20 21 22 23 24 25 26 27 28 29 30 31 32 33 34 35 36 37 38 39 40 41 42 43 44 45 46 47 48 49 50 51 52 53 54 55 56 57 58 59 60 61 62 63 64 65 66 67 68 69 70 71 72 73 74 75 76 77 78 </Indices>
     <REAL-Entries>1.64136158876317 0.271965544874639 0 1 0 0 0 0 0 1 0 0 0 0 0 0 0 0 0 0 0 0 0 0 0 1 0 0 0 0 0 0 0 0 0 1 0 0 0 0 0 0 2.31481162346553 0 -0.201183384575153 -1.15628841511139 0 0 0 0 0 0 0 0 0 0 0 0 0 0 0 0 0 0 0 0 0 0 0 0 0 0 0 1 0 0 0 1.03839088830142 </REAL-Entries>
    </REAL-SparseArray>
   </VectorInstance>
   <VectorInstance id="54">
    <REAL-SparseArray n="78">
     <Indices>1 2 3 4 5 6 7 8 9 10 11 12 13 14 15 16 17 18 19 20 21 22 23 24 25 26 27 28 29 30 31 32 33 34 35 36 37 38 39 40 41 42 43 44 45 46 47 48 49 50 51 52 53 54 55 56 57 58 59 60 61 62 63 64 65 66 67 68 69 70 71 72 73 74 75 76 77 78 </Indices>
     <REAL-Entries>-0.373618288650061 1.71874440748868 1 0 0 0 0 0 0 0 0 0 1 0 0 0 0 0 0 0 0 0 0 0 0 1 0 0 0 0 0 1 0 0 0 0 0 0 0 0 0 0 -0.785070611855865 1 4.37953479283389 0.782631965611529 0 0 0 0 0 0 0 0 0 0 0 0 0 0 0 0 0 0 0 0 0 0 0 0 0 0 0 0 1 0 0 -0.242362535246828 </REAL-Entries>
    </REAL-SparseArray>
   </VectorInstance>
   <VectorInstance id="55">
    <REAL-SparseArray n="78">
     <Indices>1 2 3 4 5 6 7 8 9 10 11 12 13 14 15 16 17 18 19 20 21 22 23 24 25 26 27 28 29 30 31 32 33 34 35 36 37 38 39 40 41 42 43 44 45 46 47 48 49 50 51 52 53 54 55 56 57 58 59 60 61 62 63 64 65 66 67 68 69 70 71 72 73 74 75 76 77 78 </Indices>
     <REAL-Entries>-1.46437891946059 0.424258056728749 0 0 0 1 0 0 0 1 0 0 0 0 0 0 0 0 0 0 0 0 0 0 1 0 0 0 0 0 0 0 0 0 0 1 0 0 0 0 0 0 2.26749631102876 0 -0.201183384575153 1.62564082679541 0 0 0 0 0 0 0 0 0 0 0 0 0 0 0 0 0 0 0 0 0 0 0 0 0 0 0 0 1 0 0 -0.242362535246828 </REAL-Entries>
    </REAL-SparseArray>
   </VectorInstance>
   <VectorInstance id="56">
    <REAL-SparseArray n="78">
     <Indices>1 2 3 4 5 6 7 8 9 10 11 12 13 14 15 16 17 18 19 20 21 22 23 24 25 26 27 28 29 30 31 32 33 34 35 36 37 38 39 40 41 42 43 44 45 46 47 48 49 50 51 52 53 54 55 56 57 58 59 60 61 62 63 64 65 66 67 68 69 70 71 72 73 74 75 76 77 78 </Indices>
     <REAL-Entries>-0.312854446066328 0.957281848218134 0 1 0 0 0 0 0 1 0 0 0 0 0 0 0 0 0 0 0 0 0 0 0 1 0 0 0 0 0 0 0 0 0 0 0 1 0 0 0 0 -0.837023114619762 1 -0.201183384575153 0.782631965611529 0 0 0 0 0 0 0 0 0 0 0 0 0 0 0 0 0 0 0 0 0 0 0 0 0 0 0 0 1 0 0 -0.242362535246828 </REAL-Entries>
    </REAL-SparseArray>
   </VectorInstance>
   <VectorInstance id="57">
    <REAL-SparseArray n="78">
     <Indices>1 2 3 4 5 6 7 8 9 10 11 12 13 14 15 16 17 18 19 20 21 22 23 24 25 26 27 28 29 30 31 32 33 34 35 36 37 38 39 40 41 42 43 44 45 46 47 48 49 50 51 52 53 54 55 56 57 58 59 60 61 62 63 64 65 66 67 68 69 70 71 72 73 74 75 76 77 78 </Indices>
     <REAL-Entries>1.39139472925297 1.10957436007224 0 1 0 0 0 0 0 1 0 0 0 0 0 0 0 0 0 0 0 0 0 0 1 0 0 0 0 0 0 0 0 0 0 1 0 0 0 0 0 0 0.285570222170143 1 -0.201183384575153 1.20413639620347 0 0 0 0 0 0 0 0 0 0 0 0 0 0 0 0 0 0 0 0 0 0 0 0 0 0 0 0 1 0 0 1.47568919087083 </REAL-Entries>
    </REAL-SparseArray>
   </VectorInstance>
   <VectorInstance id="58">
    <REAL-SparseArray n="78">
     <Indices>1 2 3 4 5 6 7 8 9 10 11 12 13 14 15 16 17 18 19 20 21 22 23 24 25 26 27 28 29 30 31 32 33 34 35 36 37 38 39 40 41 42 43 44 45 46 47 48 49 50 51 52 53 54 55 56 57 58 59 60 61 62 63 64 65 66 67 68 69 70 71 72 73 74 75 76 77 78 </Indices>
     <REAL-Entries>0.314013695364839 -0.717935782177075 0 0 1 0 0 0 0 0 0 0 0 0 0 0 1 0 0 0 0 0 0 0 0 1 0 0 0 0 0 0 0 0 0 0 0 0 0 0 1 0 -0.464554204888803 1 -0.201183384575153 0.108224876664427 0 0 0 0 0 0 0 0 0 0 0 0 0 0 0 0 0 0 0 0 0 0 0 0 0 0 0 0 1 0 0 0.575340973830503 </REAL-Entries>
    </REAL-SparseArray>
   </VectorInstance>
   <VectorInstance id="59">
    <REAL-SparseArray n="78">
     <Indices>1 2 3 4 5 6 7 8 9 10 11 12 13 14 15 16 17 18 19 20 21 22 23 24 25 26 27 28 29 30 31 32 33 34 35 36 37 38 39 40 41 42 43 44 45 46 47 48 49 50 51 52 53 54 55 56 57 58 59 60 61 62 63 64 65 66 67 68 69 70 71 72 73 74 75 76 77 78 </Indices>
     <REAL-Entries>0.966154196960863 1.10957436007224 0 1 0 0 0 0 0 0 0 0 1 0 0 0 0 0 0 0 0 0 0 0 0 1 0 0 0 0 1 0 0 0 0 0 0 0 0 0 0 0 -0.710809282270978 1 -0.201183384575153 0.36112753501959 0 0 0 0 0 0 0 0 0 0 0 0 0 0 0 0 0 0 0 0 0 0 0 0 0 0 0 0 1 0 0 -0.242362535246828 </REAL-Entries>
    </REAL-SparseArray>
   </VectorInstance>
   <VectorInstance id="60">
    <REAL-SparseArray n="78">
     <Indices>1 2 3 4 5 6 7 8 9 10 11 12 13 14 15 16 17 18 19 20 21 22 23 24 25 26 27 28 29 30 31 32 33 34 35 36 37 38 39 40 41 42 43 44 45 46 47 48 49 50 51 52 53 54 55 56 57 58 59 60 61 62 63 64 65 66 67 68 69 70 71 72 73 74 75 76 77 78 </Indices>
     <REAL-Entries>-1.21903382525855 -0.870228294031184 0 1 0 0 0 0 0 0 0 0 0 0 0 0 0 0 0 0 0 0 0 0 0 1 0 0 0 1 0 0 0 0 0 0 0 0 0 0 0 0 1.63933651801046 0 -0.201183384575153 -1.32489018734817 0 0 0 0 0 0 0 0 0 0 0 0 0 0 0 0 0 0 0 0 0 0 0 0 0 0 0 0 1 0 0 -0.242362535246828 </REAL-Entries>
    </REAL-SparseArray>
   </VectorInstance>
   <VectorInstance id="61">
    <REAL-SparseArray n="78">
     <Indices>1 2 3 4 5 6 7 8 9 10 11 12 13 14 15 16 17 18 19 20 21 22 23 24 25 26 27 28 29 30 31 32 33 34 35 36 37 38 39 40 41 42 43 44 45 46 47 48 49 50 51 52 53 54 55 56 57 58 59 60 61 62 63 64 65 66 67 68 69 70 71 72 73 74 75 76 77 78 </Indices>
     <REAL-Entries>1.41150167671797 0.195819288947585 0 0 0 1 0 0 0 1 0 0 0 0 0 0 0 0 0 0 0 0 0 0 0 0 0 0 0 0 0 0 0 0 0 1 0 0 0 0 0 0 0.375496800948916 0 -0.201183384575153 2.46864968797929 0 0 0 0 0 0 0 0 0 0 0 0 0 0 0 0 0 0 0 0 0 0 0 0 0 0 0 0 1 0 0 -0.242362535246828 </REAL-Entries>
    </REAL-SparseArray>
   </VectorInstance>
   <VectorInstance id="62">
    <REAL-SparseArray n="78">
     <Indices>1 2 3 4 5 6 7 8 9 10 11 12 13 14 15 16 17 18 19 20 21 22 23 24 25 26 27 28 29 30 31 32 33 34 35 36 37 38 39 40 41 42 43 44 45 46 47 48 49 50 51 52 53 54 55 56 57 58 59 60 61 62 63 64 65 66 67 68 69 70 71 72 73 74 75 76 77 78 </Indices>
     <REAL-Entries>-1.41831528709856 1.10957436007224 0 1 0 0 0 0 0 0 0 0 1 0 0 0 0 0 0 0 0 0 0 0 0 1 0 0 0 0 1 0 0 0 0 0 0 0 0 0 0 0 -0.77207916480464 1 -0.201183384575153 1.62564082679541 0 0 0 0 0 0 0 0 0 0 0 0 0 0 0 0 0 0 0 0 0 0 0 0 0 0 0 0 1 0 0 0.103787038685131 </REAL-Entries>
    </REAL-SparseArray>
   </VectorInstance>
   <VectorInstance id="63">
    <REAL-SparseArray n="78">
     <Indices>1 2 3 4 5 6 7 8 9 10 11 12 13 14 15 16 17 18 19 20 21 22 23 24 25 26 27 28 29 30 31 32 33 34 35 36 37 38 39 40 41 42 43 44 45 46 47 48 49 50 51 52 53 54 55 56 57 58 59 60 61 62 63 64 65 66 67 68 69 70 71 72 73 74 75 76 77 78 </Indices>
     <REAL-Entries>0.277282422400539 0.804989336364024 0 0 0 1 0 0 0 0 0 0 0 1 0 0 0 0 0 0 0 0 0 0 0 1 0 0 0 0 0 0 0 0 0 0 1 0 0 0 0 0 -0.627961843588349 1 -0.201183384575153 -0.0603768955723488 0 0 0 0 0 0 0 0 0 0 0 0 0 0 0 0 0 0 0 0 0 0 0 0 0 0 0 0 1 0 0 0.541085341254537 </REAL-Entries>
    </REAL-SparseArray>
   </VectorInstance>
   <VectorInstance id="64">
    <REAL-SparseArray n="78">
     <Indices>1 2 3 4 5 6 7 8 9 10 11 12 13 14 15 16 17 18 19 20 21 22 23 24 25 26 27 28 29 30 31 32 33 34 35 36 37 38 39 40 41 42 43 44 45 46 47 48 49 50 51 52 53 54 55 56 57 58 59 60 61 62 63 64 65 66 67 68 69 70 71 72 73 74 75 76 77 78 </Indices>
     <REAL-Entries>1.60649800764451 -0.946374549958239 0 0 0 1 0 0 0 0 1 0 0 0 0 0 0 0 0 0 0 0 0 0 0 1 0 0 0 0 0 0 0 0 0 1 0 0 0 0 0 0 -0.310804653236376 1 -0.201183384575153 -0.0603768955723488 0 0 0 0 0 0 0 0 0 0 0 0 0 0 0 0 0 0 0 0 0 0 0 0 0 0 0 0 1 0 0 -0.242362535246828 </REAL-Entries>
    </REAL-SparseArray>
   </VectorInstance>
   <VectorInstance id="65">
    <REAL-SparseArray n="78">
     <Indices>1 2 3 4 5 6 7 8 9 10 11 12 13 14 15 16 17 18 19 20 21 22 23 24 25 26 27 28 29 30 31 32 33 34 35 36 37 38 39 40 41 42 43 44 45 46 47 48 49 50 51 52 53 54 55 56 57 58 59 60 61 62 63 64 65 66 67 68 69 70 71 72 73 74 75 76 77 78 </Indices>
     <REAL-Entries>0.168154167644927 0.652696824509914 0 0 0 1 0 0 0 0 1 0 0 0 0 0 0 0 0 0 0 0 0 0 0 1 0 0 0 0 0 0 0 0 0 0 0 0 0 0 0 1 -0.761984801017461 1 5.31145386081443 -0.0603768955723488 0 0 0 0 0 0 0 0 0 0 0 0 0 0 0 0 0 0 0 0 0 0 0 0 0 0 0 0 1 0 0 -0.242362535246828 </REAL-Entries>
    </REAL-SparseArray>
   </VectorInstance>
   <VectorInstance id="66">
    <REAL-SparseArray n="78">
     <Indices>1 2 3 4 5 6 7 8 9 10 11 12 13 14 15 16 17 18 19 20 21 22 23 24 25 26 27 28 29 30 31 32 33 34 35 36 37 38 39 40 41 42 43 44 45 46 47 48 49 50 51 52 53 54 55 56 57 58 59 60 61 62 63 64 65 66 67 68 69 70 71 72 73 74 75 76 77 78 </Indices>
     <REAL-Entries>-1.44007795729995 1.1857206159993 0 0 0 0 1 0 0 0 0 1 0 0 0 0 0 0 0 0 0 0 0 0 0 0 0 0 0 0 1 0 0 0 0 0 0 0 0 0 0 0 -0.180469619946545 0 -0.201183384575153 0.782631965611529 0 0 0 0 0 0 0 0 0 0 0 0 0 0 0 0 0 0 0 0 0 0 0 0 0 0 0 0 1 0 0 0.701344209739299 </REAL-Entries>
    </REAL-SparseArray>
   </VectorInstance>
   <VectorInstance id="67">
    <REAL-SparseArray n="78">
     <Indices>1 2 3 4 5 6 7 8 9 10 11 12 13 14 15 16 17 18 19 20 21 22 23 24 25 26 27 28 29 30 31 32 33 34 35 36 37 38 39 40 41 42 43 44 45 46 47 48 49 50 51 52 53 54 55 56 57 58 59 60 61 62 63 64 65 66 67 68 69 70 71 72 73 74 75 76 77 78 </Indices>
     <REAL-Entries>1.56727838508305 -0.413350758468855 0 1 0 0 0 0 0 0 0 0 0 1 0 0 0 0 0 0 0 0 0 0 0 0 0 0 0 0 1 0 0 0 0 0 0 0 0 0 0 0 -0.304798348214838 1 -0.201183384575153 -0.0603768955723488 0 0 0 0 0 0 0 0 0 0 0 0 0 0 0 0 0 0 0 0 0 0 0 0 0 0 0 0 1 0 0 0.961375602475037 </REAL-Entries>
    </REAL-SparseArray>
   </VectorInstance>
   <VectorInstance id="68">
    <REAL-SparseArray n="78">
     <Indices>1 2 3 4 5 6 7 8 9 10 11 12 13 14 15 16 17 18 19 20 21 22 23 24 25 26 27 28 29 30 31 32 33 34 35 36 37 38 39 40 41 42 43 44 45 46 47 48 49 50 51 52 53 54 55 56 57 58 59 60 61 62 63 64 65 66 67 68 69 70 71 72 73 74 75 76 77 78 </Indices>
     <REAL-Entries>0.208275802638886 -0.413350758468855 0 1 0 0 0 0 0 1 0 0 0 0 0 0 0 0 0 0 0 0 0 0 0 0 0 1 0 0 0 0 0 0 0 0 0 0 1 0 0 0 -0.818671634967439 0 -0.201183384575153 0.782631965611529 0 0 0 0 0 0 0 0 0 0 0 0 0 0 0 0 0 0 0 0 0 0 0 0 0 0 0 0 1 0 0 2.55605914134359 </REAL-Entries>
    </REAL-SparseArray>
   </VectorInstance>
   <VectorInstance id="69">
    <REAL-SparseArray n="78">
     <Indices>1 2 3 4 5 6 7 8 9 10 11 12 13 14 15 16 17 18 19 20 21 22 23 24 25 26 27 28 29 30 31 32 33 34 35 36 37 38 39 40 41 42 43 44 45 46 47 48 49 50 51 52 53 54 55 56 57 58 59 60 61 62 63 64 65 66 67 68 69 70 71 72 73 74 75 76 77 78 </Indices>
     <REAL-Entries>-0.514641413276726 0.0435267770934747 0 1 0 0 0 0 0 0 0 0 1 0 0 0 0 0 0 0 0 0 0 0 0 0 0 0 0 0 0 0 0 0 0 0 0 1 0 0 0 0 -0.556383030252586 1 4.36784928727928 0.782631965611529 0 0 0 0 0 0 0 0 0 0 0 0 0 0 0 0 0 0 0 0 0 0 0 0 0 0 0 0 1 0 0 0.497008163674274 </REAL-Entries>
    </REAL-SparseArray>
   </VectorInstance>
   <VectorInstance id="70">
    <REAL-SparseArray n="78">
     <Indices>1 2 3 4 5 6 7 8 9 10 11 12 13 14 15 16 17 18 19 20 21 22 23 24 25 26 27 28 29 30 31 32 33 34 35 36 37 38 39 40 41 42 43 44 45 46 47 48 49 50 51 52 53 54 55 56 57 58 59 60 61 62 63 64 65 66 67 68 69 70 71 72 73 74 75 76 77 78 </Indices>
     <REAL-Entries>-0.374407835458047 1.41415938378046 0 1 0 0 0 0 0 0 0 0 1 0 0 0 0 0 0 0 0 0 0 0 0 1 0 0 0 0 1 0 0 0 0 0 0 0 0 0 0 0 -0.667839309021871 1 -0.201183384575153 0.782631965611529 0 0 0 0 0 0 0 0 0 0 0 0 0 0 0 0 0 0 0 0 0 0 0 0 0 0 0 0 1 0 0 -0.242362535246828 </REAL-Entries>
    </REAL-SparseArray>
   </VectorInstance>
   <VectorInstance id="71">
    <REAL-SparseArray n="78">
     <Indices>1 2 3 4 5 6 7 8 9 10 11 12 13 14 15 16 17 18 19 20 21 22 23 24 25 26 27 28 29 30 31 32 33 34 35 36 37 38 39 40 41 42 43 44 45 46 47 48 49 50 51 52 53 54 55 56 57 58 59 60 61 62 63 64 65 66 67 68 69 70 71 72 73 74 75 76 77 78 </Indices>
     <REAL-Entries>1.20700447857663 -0.48949701439591 0 1 0 0 0 0 0 1 0 0 0 0 0 0 0 0 0 0 0 0 0 0 0 0 0 0 0 0 1 0 0 0 0 0 0 0 0 0 0 0 1.90313552022782 0 -0.201183384575153 -0.0603768955723488 0 0 0 0 0 0 0 0 0 0 0 0 0 0 0 0 0 0 0 0 0 0 0 0 0 0 0 0 1 0 0 -0.242362535246828 </REAL-Entries>
    </REAL-SparseArray>
   </VectorInstance>
   <VectorInstance id="72">
    <REAL-SparseArray n="78">
     <Indices>1 2 3 4 5 6 7 8 9 10 11 12 13 14 15 16 17 18 19 20 21 22 23 24 25 26 27 28 29 30 31 32 33 34 35 36 37 38 39 40 41 42 43 44 45 46 47 48 49 50 51 52 53 54 55 56 57 58 59 60 61 62 63 64 65 66 67 68 69 70 71 72 73 74 75 76 77 78 </Indices>
     <REAL-Entries>-0.608211669149133 1.03342810414519 0 1 0 0 0 0 0 0 1 0 0 0 0 0 0 0 0 0 0 0 0 0 0 1 0 0 0 0 0 0 0 0 0 0 0 0 0 0 1 0 -0.684141545112915 1 -0.201183384575153 -0.0603768955723488 0 0 0 0 0 0 0 0 0 0 0 0 0 0 0 0 0 0 0 0 0 0 0 0 0 0 0 0 1 0 0 -0.190739536504726 </REAL-Entries>
    </REAL-SparseArray>
   </VectorInstance>
   <VectorInstance id="73">
    <REAL-SparseArray n="78">
     <Indices>1 2 3 4 5 6 7 8 9 10 11 12 13 14 15 16 17 18 19 20 21 22 23 24 25 26 27 28 29 30 31 32 33 34 35 36 37 38 39 40 41 42 43 44 45 46 47 48 49 50 51 52 53 54 55 56 57 58 59 60 61 62 63 64 65 66 67 68 69 70 71 72 73 74 75 76 77 78 </Indices>
     <REAL-Entries>-0.718933504618113 1.79489066341574 0 0 0 1 0 0 0 0 0 0 1 0 0 0 0 0 0 0 0 0 0 0 0 1 0 0 0 0 0 0 0 0 0 0 0 0 0 1 0 0 -0.632403466509735 1 -0.201183384575153 -0.0603768955723488 0 0 0 0 0 0 0 0 0 0 0 0 0 0 0 0 0 0 0 0 0 0 0 0 0 0 0 0 1 0 0 9.08822499377516 </REAL-Entries>
    </REAL-SparseArray>
   </VectorInstance>
   <VectorInstance id="74">
    <REAL-SparseArray n="78">
     <Indices>1 2 3 4 5 6 7 8 9 10 11 12 13 14 15 16 17 18 19 20 21 22 23 24 25 26 27 28 29 30 31 32 33 34 35 36 37 38 39 40 41 42 43 44 45 46 47 48 49 50 51 52 53 54 55 56 57 58 59 60 61 62 63 64 65 66 67 68 69 70 71 72 73 74 75 76 77 78 </Indices>
     <REAL-Entries>0.279173369849894 0.0435267770934747 0 1 0 0 0 0 0 1 0 0 0 0 0 0 0 0 0 0 0 0 0 0 0 1 0 0 0 0 0 0 0 0 0 1 0 0 0 0 0 0 -0.513578339317902 1 -0.201183384575153 -0.0603768955723488 0 0 0 0 0 0 0 0 0 0 0 0 0 0 0 0 0 0 0 0 0 0 0 0 0 0 0 0 1 0 0 -0.242362535246828 </REAL-Entries>
    </REAL-SparseArray>
   </VectorInstance>
   <VectorInstance id="75">
    <REAL-SparseArray n="78">
     <Indices>1 2 3 4 5 6 7 8 9 10 11 12 13 14 15 16 17 18 19 20 21 22 23 24 25 26 27 28 29 30 31 32 33 34 35 36 37 38 39 40 41 42 43 44 45 46 47 48 49 50 51 52 53 54 55 56 57 58 59 60 61 62 63 64 65 66 67 68 69 70 71 72 73 74 75 76 77 78 </Indices>
     <REAL-Entries>-0.698135751351052 0.804989336364024 0 0 0 0 1 0 0 0 0 0 0 1 0 0 0 0 0 0 0 0 0 0 1 0 0 0 0 0 0 0 0 0 0 1 0 0 0 0 0 0 1.90748000229025 0 -0.201183384575153 -0.0603768955723488 0 0 0 0 0 0 0 0 0 0 0 0 0 0 0 0 0 0 0 0 0 0 0 0 0 0 0 0 1 0 0 0.647565262093814 </REAL-Entries>
    </REAL-SparseArray>
   </VectorInstance>
   <VectorInstance id="76">
    <REAL-SparseArray n="78">
     <Indices>1 2 3 4 5 6 7 8 9 10 11 12 13 14 15 16 17 18 19 20 21 22 23 24 25 26 27 28 29 30 31 32 33 34 35 36 37 38 39 40 41 42 43 44 45 46 47 48 49 50 51 52 53 54 55 56 57 58 59 60 61 62 63 64 65 66 67 68 69 70 71 72 73 74 75 76 77 78 </Indices>
     <REAL-Entries>1.00019506344329 0.652696824509914 0 1 0 0 0 0 0 0 0 0 1 0 0 0 0 0 0 0 0 0 0 0 0 1 0 0 0 1 0 0 0 0 0 0 0 0 0 0 0 0 -0.888370201265659 1 -0.201183384575153 0.782631965611529 0 0 0 0 0 0 0 0 0 0 0 0 0 0 0 0 0 0 0 0 0 0 0 0 0 0 0 0 1 0 0 0.654631983499346 </REAL-Entries>
    </REAL-SparseArray>
   </VectorInstance>
   <VectorInstance id="77">
    <REAL-SparseArray n="78">
     <Indices>1 2 3 4 5 6 7 8 9 10 11 12 13 14 15 16 17 18 19 20 21 22 23 24 25 26 27 28 29 30 31 32 33 34 35 36 37 38 39 40 41 42 43 44 45 46 47 48 49 50 51 52 53 54 55 56 57 58 59 60 61 62 63 64 65 66 67 68 69 70 71 72 73 74 75 76 77 78 </Indices>
     <REAL-Entries>-0.218193464255895 -0.413350758468855 0 1 0 0 0 0 0 1 0 0 0 0 0 0 0 0 0 0 0 0 0 0 0 1 0 0 0 0 1 0 0 0 0 0 0 0 0 0 0 0 0.959194508553762 0 -0.201183384575153 -0.734783984519451 0 0 0 0 0 0 0 0 0 0 0 0 0 0 0 0 0 0 0 0 0 0 0 0 0 0 0 0 1 0 0 -0.242362535246828 </REAL-Entries>
    </REAL-SparseArray>
   </VectorInstance>
   <VectorInstance id="78">
    <REAL-SparseArray n="78">
     <Indices>1 2 3 4 5 6 7 8 9 10 11 12 13 14 15 16 17 18 19 20 21 22 23 24 25 26 27 28 29 30 31 32 33 34 35 36 37 38 39 40 41 42 43 44 45 46 47 48 49 50 51 52 53 54 55 56 57 58 59 60 61 62 63 64 65 66 67 68 69 70 71 72 73 74 75 76 77 78 </Indices>
     <REAL-Entries>-0.0141853962713164 0.0435267770934747 0 1 0 0 0 0 0 0 1 0 0 0 0 0 0 0 0 0 0 0 0 0 0 1 0 0 0 0 1 0 0 0 0 0 0 0 0 0 0 0 -0.43904472961954 1 -0.201183384575153 0.782631965611529 0 0 0 0 0 0 0 0 0 0 0 0 0 0 0 0 0 0 0 0 0 0 0 0 0 0 0 0 1 0 0 0.3791496236227 </REAL-Entries>
    </REAL-SparseArray>
   </VectorInstance>
   <VectorInstance id="79">
    <REAL-SparseArray n="78">
     <Indices>1 2 3 4 5 6 7 8 9 10 11 12 13 14 15 16 17 18 19 20 21 22 23 24 25 26 27 28 29 30 31 32 33 34 35 36 37 38 39 40 41 42 43 44 45 46 47 48 49 50 51 52 53 54 55 56 57 58 59 60 61 62 63 64 65 66 67 68 69 70 71 72 73 74 75 76 77 78 </Indices>
     <REAL-Entries>1.53185171336304 1.41415938378046 0 1 0 0 0 0 0 0 0 0 1 0 0 0 0 0 0 0 0 0 0 0 0 1 0 0 0 0 1 0 0 0 0 0 0 0 0 0 0 0 -0.613577282336386 1 -0.201183384575153 1.62564082679541 0 0 0 0 0 0 0 0 0 0 0 0 0 0 0 0 0 0 0 0 0 0 0 0 0 0 0 0 1 0 0 -0.242362535246828 </REAL-Entries>
    </REAL-SparseArray>
   </VectorInstance>
   <VectorInstance id="80">
    <REAL-SparseArray n="78">
     <Indices>1 2 3 4 5 6 7 8 9 10 11 12 13 14 15 16 17 18 19 20 21 22 23 24 25 26 27 28 29 30 31 32 33 34 35 36 37 38 39 40 41 42 43 44 45 46 47 48 49 50 51 52 53 54 55 56 57 58 59 60 61 62 63 64 65 66 67 68 69 70 71 72 73 74 75 76 77 78 </Indices>
     <REAL-Entries>-1.46438921292452 0.195819288947585 0 1 0 0 0 0 0 1 0 0 0 0 0 0 0 0 0 0 0 0 0 0 0 1 0 0 0 0 0 0 0 0 0 1 0 0 0 0 0 0 -0.937043342914692 1 -0.201183384575153 -0.0603768955723488 0 0 0 0 0 0 0 0 0 0 0 0 0 0 0 0 0 0 0 0 0 0 0 0 0 0 0 0 1 0 0 -0.357466251699635 </REAL-Entries>
    </REAL-SparseArray>
   </VectorInstance>
   <VectorInstance id="81">
    <REAL-SparseArray n="78">
     <Indices>1 2 3 4 5 6 7 8 9 10 11 12 13 14 15 16 17 18 19 20 21 22 23 24 25 26 27 28 29 30 31 32 33 34 35 36 37 38 39 40 41 42 43 44 45 46 47 48 49 50 51 52 53 54 55 56 57 58 59 60 61 62 63 64 65 66 67 68 69 70 71 72 73 74 75 76 77 78 </Indices>
     <REAL-Entries>1.09859219142382 1.1857206159993 0 1 0 0 0 0 0 0 0 0 0 0 0 0 0 1 0 0 0 0 0 0 0 1 0 0 0 0 0 0 0 0 0 0 0 0 0 0 0 0 -0.764333609845244 1 -0.201183384575153 -0.0603768955723488 0 0 0 0 0 0 0 0 0 0 0 0 0 0 0 0 0 0 0 0 0 0 0 0 0 0 0 0 1 0 0 -0.242362535246828 </REAL-Entries>
    </REAL-SparseArray>
   </VectorInstance>
   <VectorInstance id="82">
    <REAL-SparseArray n="78">
     <Indices>1 2 3 4 5 6 7 8 9 10 11 12 13 14 15 16 17 18 19 20 21 22 23 24 25 26 27 28 29 30 31 32 33 34 35 36 37 38 39 40 41 42 43 44 45 46 47 48 49 50 51 52 53 54 55 56 57 58 59 60 61 62 63 64 65 66 67 68 69 70 71 72 73 74 75 76 77 78 </Indices>
     <REAL-Entries>1.01438555658036 0.500404312655804 0 0 0 1 0 0 0 0 1 0 0 0 0 0 0 0 0 0 0 0 0 0 0 1 0 0 0 0 1 0 0 0 0 0 0 0 0 0 0 0 -0.879548668439162 1 -0.201183384575153 -0.0603768955723488 0 0 0 0 0 0 0 0 0 0 0 0 0 0 0 0 0 0 0 0 0 0 0 0 0 0 0 0 1 0 0 0.769256600195846 </REAL-Entries>
    </REAL-SparseArray>
   </VectorInstance>
   <VectorInstance id="83">
    <REAL-SparseArray n="78">
     <Indices>1 2 3 4 5 6 7 8 9 10 11 12 13 14 15 16 17 18 19 20 21 22 23 24 25 26 27 28 29 30 31 32 33 34 35 36 37 38 39 40 41 42 43 44 45 46 47 48 49 50 51 52 53 54 55 56 57 58 59 60 61 62 63 64 65 66 67 68 69 70 71 72 73 74 75 76 77 78 </Indices>
     <REAL-Entries>1.28968234340559 1.41415938378046 0 0 1 0 0 0 0 0 0 0 0 0 0 1 0 0 0 0 0 0 0 0 1 0 0 0 0 0 1 0 0 0 0 0 0 0 0 0 0 0 0.551613178229295 1 -0.201183384575153 1.20413639620347 0 0 0 0 0 0 0 0 0 0 0 0 0 0 0 0 0 0 0 0 0 0 0 0 0 0 0 0 1 0 0 0.598816861889556 </REAL-Entries>
    </REAL-SparseArray>
   </VectorInstance>
   <VectorInstance id="84">
    <REAL-SparseArray n="78">
     <Indices>1 2 3 4 5 6 7 8 9 10 11 12 13 14 15 16 17 18 19 20 21 22 23 24 25 26 27 28 29 30 31 32 33 34 35 36 37 38 39 40 41 42 43 44 45 46 47 48 49 50 51 52 53 54 55 56 57 58 59 60 61 62 63 64 65 66 67 68 69 70 71 72 73 74 75 76 77 78 </Indices>
     <REAL-Entries>-0.763352470186491 0.271965544874639 0 1 0 0 0 0 0 0 1 0 0 0 0 0 0 0 0 0 0 0 0 0 0 1 0 0 0 0 0 0 0 0 0 0 0 0 1 0 0 0 -0.719595387254798 1 -0.201183384575153 0.782631965611529 0 0 0 0 0 0 0 0 0 0 0 0 0 0 0 0 0 0 0 0 0 0 0 0 0 0 0 0 1 0 0 0.169064380481988 </REAL-Entries>
    </REAL-SparseArray>
   </VectorInstance>
   <VectorInstance id="85">
    <REAL-SparseArray n="78">
     <Indices>1 2 3 4 5 6 7 8 9 10 11 12 13 14 15 16 17 18 19 20 21 22 23 24 25 26 27 28 29 30 31 32 33 34 35 36 37 38 39 40 41 42 43 44 45 46 47 48 49 50 51 52 53 54 55 56 57 58 59 60 61 62 63 64 65 66 67 68 69 70 71 72 73 74 75 76 77 78 </Indices>
     <REAL-Entries>-0.715071549444331 -0.261058246614745 0 1 0 0 0 0 0 0 0 0 1 0 0 0 0 0 0 0 0 0 0 0 0 1 0 0 0 0 0 0 0 1 0 0 0 0 0 0 0 0 3.28344655575626 0 -0.201183384575153 -0.0603768955723488 0 0 0 0 0 0 0 0 0 0 0 0 0 0 0 0 0 0 0 0 0 0 0 0 0 0 0 0 1 0 0 -0.242362535246828 </REAL-Entries>
    </REAL-SparseArray>
   </VectorInstance>
   <VectorInstance id="86">
    <REAL-SparseArray n="78">
     <Indices>1 2 3 4 5 6 7 8 9 10 11 12 13 14 15 16 17 18 19 20 21 22 23 24 25 26 27 28 29 30 31 32 33 34 35 36 37 38 39 40 41 42 43 44 45 46 47 48 49 50 51 52 53 54 55 56 57 58 59 60 61 62 63 64 65 66 67 68 69 70 71 72 73 74 75 76 77 78 </Indices>
     <REAL-Entries>-1.67779292604808 0.500404312655804 0 1 0 0 0 0 0 0 0 0 0 0 0 0 1 0 0 0 0 0 0 0 0 1 0 0 0 0 0 0 0 0 0 0 0 1 0 0 0 0 -0.823285111496648 1 -0.201183384575153 -0.0603768955723488 0 0 0 0 0 0 0 0 0 0 0 0 0 0 0 0 0 0 0 0 0 0 0 0 0 0 0 0 1 0 0 -0.242362535246828 </REAL-Entries>
    </REAL-SparseArray>
   </VectorInstance>
   <VectorInstance id="87">
    <REAL-SparseArray n="78">
     <Indices>1 2 3 4 5 6 7 8 9 10 11 12 13 14 15 16 17 18 19 20 21 22 23 24 25 26 27 28 29 30 31 32 33 34 35 36 37 38 39 40 41 42 43 44 45 46 47 48 49 50 51 52 53 54 55 56 57 58 59 60 61 62 63 64 65 66 67 68 69 70 71 72 73 74 75 76 77 78 </Indices>
     <REAL-Entries>1.50912298250909 -0.794082038104129 0 1 0 0 0 0 0 1 0 0 0 0 0 0 0 0 0 0 0 0 0 0 0 1 0 0 0 0 0 0 0 0 0 0 0 0 1 0 0 0 -0.819407619828207 1 -0.201183384575153 0.36112753501959 0 0 0 0 0 0 0 0 0 0 0 0 0 0 0 0 0 0 0 0 0 0 0 0 0 0 0 0 1 0 0 0.663974428747336 </REAL-Entries>
    </REAL-SparseArray>
   </VectorInstance>
   <VectorInstance id="88">
    <REAL-SparseArray n="78">
     <Indices>1 2 3 4 5 6 7 8 9 10 11 12 13 14 15 16 17 18 19 20 21 22 23 24 25 26 27 28 29 30 31 32 33 34 35 36 37 38 39 40 41 42 43 44 45 46 47 48 49 50 51 52 53 54 55 56 57 58 59 60 61 62 63 64 65 66 67 68 69 70 71 72 73 74 75 76 77 78 </Indices>
     <REAL-Entries>-0.517255571877577 -0.64178952625002 0 1 0 0 0 0 0 0 0 0 1 0 0 0 0 0 0 0 0 0 0 0 0 1 0 0 0 0 1 0 0 0 0 0 0 0 0 0 0 0 0.859021283405982 0 -0.201183384575153 -0.0603768955723488 0 0 0 0 0 0 0 0 0 0 0 0 0 0 0 0 0 0 0 0 0 0 0 0 0 0 0 0 1 0 0 -0.242362535246828 </REAL-Entries>
    </REAL-SparseArray>
   </VectorInstance>
   <VectorInstance id="89">
    <REAL-SparseArray n="78">
     <Indices>1 2 3 4 5 6 7 8 9 10 11 12 13 14 15 16 17 18 19 20 21 22 23 24 25 26 27 28 29 30 31 32 33 34 35 36 37 38 39 40 41 42 43 44 45 46 47 48 49 50 51 52 53 54 55 56 57 58 59 60 61 62 63 64 65 66 67 68 69 70 71 72 73 74 75 76 77 78 </Indices>
     <REAL-Entries>1.56369625963262 0.348111800801694 0 1 0 0 0 0 0 0 0 0 1 0 0 0 0 0 0 0 0 0 0 0 0 1 0 0 0 0 1 0 0 0 0 0 0 0 0 0 0 0 -0.835755140702027 1 -0.201183384575153 -0.0603768955723488 0 0 0 0 0 0 0 0 0 0 0 0 0 0 0 0 0 0 0 0 0 0 0 0 0 0 0 0 1 0 0 -0.242362535246828 </REAL-Entries>
    </REAL-SparseArray>
   </VectorInstance>
   <VectorInstance id="90">
    <REAL-SparseArray n="78">
     <Indices>1 2 3 4 5 6 7 8 9 10 11 12 13 14 15 16 17 18 19 20 21 22 23 24 25 26 27 28 29 30 31 32 33 34 35 36 37 38 39 40 41 42 43 44 45 46 47 48 49 50 51 52 53 54 55 56 57 58 59 60 61 62 63 64 65 66 67 68 69 70 71 72 73 74 75 76 77 78 </Indices>
     <REAL-Entries>0.414624299331445 -0.0326194788335802 0 1 0 0 0 0 0 0 0 0 0 0 0 0 0 1 0 0 0 0 0 0 0 0 0 1 0 1 0 0 0 0 0 0 0 0 0 0 0 0 0.114633166922369 1 7.14119953431992 -0.0603768955723488 0 0 0 0 0 0 0 0 0 0 0 0 0 0 0 0 0 0 0 0 0 0 0 0 0 0 0 0 1 0 0 -0.242362535246828 </REAL-Entries>
    </REAL-SparseArray>
   </VectorInstance>
   <VectorInstance id="91">
    <REAL-SparseArray n="78">
     <Indices>1 2 3 4 5 6 7 8 9 10 11 12 13 14 15 16 17 18 19 20 21 22 23 24 25 26 27 28 29 30 31 32 33 34 35 36 37 38 39 40 41 42 43 44 45 46 47 48 49 50 51 52 53 54 55 56 57 58 59 60 61 62 63 64 65 66 67 68 69 70 71 72 73 74 75 76 77 78 </Indices>
     <REAL-Entries>-0.23859777845688 1.71874440748868 0 1 0 0 0 0 0 0 0 0 1 0 0 0 0 0 0 0 0 0 0 0 0 1 0 0 0 0 0 0 0 0 0 0 0 1 0 0 0 0 -1.01713298118251 1 3.79330219292275 -1.74639461794011 0 0 0 0 0 0 0 0 0 0 0 0 0 0 0 0 0 0 0 0 0 0 0 0 0 0 0 0 1 0 0 -0.242362535246828 </REAL-Entries>
    </REAL-SparseArray>
   </VectorInstance>
   <VectorInstance id="92">
    <REAL-SparseArray n="78">
     <Indices>1 2 3 4 5 6 7 8 9 10 11 12 13 14 15 16 17 18 19 20 21 22 23 24 25 26 27 28 29 30 31 32 33 34 35 36 37 38 39 40 41 42 43 44 45 46 47 48 49 50 51 52 53 54 55 56 57 58 59 60 61 62 63 64 65 66 67 68 69 70 71 72 73 74 75 76 77 78 </Indices>
     <REAL-Entries>0.20190986705233 -0.3372045025418 0 1 0 0 0 0 0 0 0 1 0 0 0 0 0 0 0 0 0 0 0 0 0 1 0 0 0 0 0 0 0 0 0 1 0 0 0 0 0 0 -0.927389112931089 1 -0.201183384575153 0.36112753501959 0 0 0 0 0 0 0 0 0 0 0 0 0 0 0 0 0 0 0 0 0 0 0 0 0 0 0 0 1 0 0 0.622172975009532 </REAL-Entries>
    </REAL-SparseArray>
   </VectorInstance>
   <VectorInstance id="93">
    <REAL-SparseArray n="78">
     <Indices>1 2 3 4 5 6 7 8 9 10 11 12 13 14 15 16 17 18 19 20 21 22 23 24 25 26 27 28 29 30 31 32 33 34 35 36 37 38 39 40 41 42 43 44 45 46 47 48 49 50 51 52 53 54 55 56 57 58 59 60 61 62 63 64 65 66 67 68 69 70 71 72 73 74 75 76 77 78 </Indices>
     <REAL-Entries>-0.743196342838233 -1.02252080588529 0 1 0 0 0 0 0 0 1 0 0 0 0 0 0 0 0 0 0 0 0 0 0 1 0 0 0 1 0 0 0 0 0 0 0 0 0 0 0 0 1.32520512256065 0 -0.201183384575153 1.28843728232186 0 0 0 0 0 0 0 0 0 0 0 0 0 0 0 0 0 0 0 0 0 0 0 0 0 0 0 0 1 0 0 1.86184359445444 </REAL-Entries>
    </REAL-SparseArray>
   </VectorInstance>
   <VectorInstance id="94">
    <REAL-SparseArray n="78">
     <Indices>1 2 3 4 5 6 7 8 9 10 11 12 13 14 15 16 17 18 19 20 21 22 23 24 25 26 27 28 29 30 31 32 33 34 35 36 37 38 39 40 41 42 43 44 45 46 47 48 49 50 51 52 53 54 55 56 57 58 59 60 61 62 63 64 65 66 67 68 69 70 71 72 73 74 75 76 77 78 </Indices>
     <REAL-Entries>-0.392285676121357 0.500404312655804 0 1 0 0 0 0 0 0 1 0 0 0 0 0 0 0 0 0 0 0 0 0 0 1 0 0 0 1 0 0 0 0 0 0 0 0 0 0 0 0 1.62808046383358 0 5.35527450664423 -0.481881326164288 0 0 0 0 0 0 0 0 0 0 0 0 0 0 0 0 0 0 0 0 0 0 0 0 0 0 0 0 1 0 0 0.214219532513943 </REAL-Entries>
    </REAL-SparseArray>
   </VectorInstance>
   <VectorInstance id="95">
    <REAL-SparseArray n="78">
     <Indices>1 2 3 4 5 6 7 8 9 10 11 12 13 14 15 16 17 18 19 20 21 22 23 24 25 26 27 28 29 30 31 32 33 34 35 36 37 38 39 40 41 42 43 44 45 46 47 48 49 50 51 52 53 54 55 56 57 58 59 60 61 62 63 64 65 66 67 68 69 70 71 72 73 74 75 76 77 78 </Indices>
     <REAL-Entries>0.928620033809398 1.49030563970752 1 0 0 0 0 0 0 0 0 0 0 1 0 0 0 0 0 0 0 0 0 0 0 1 0 0 0 0 1 0 0 0 0 0 0 0 0 0 0 0 -0.550638005570788 1 -0.201183384575153 0.782631965611529 0 0 0 0 0 0 0 0 0 0 0 0 0 0 0 0 0 0 0 0 0 0 0 0 0 0 0 0 1 0 0 -0.242362535246828 </REAL-Entries>
    </REAL-SparseArray>
   </VectorInstance>
   <VectorInstance id="96">
    <REAL-SparseArray n="78">
     <Indices>1 2 3 4 5 6 7 8 9 10 11 12 13 14 15 16 17 18 19 20 21 22 23 24 25 26 27 28 29 30 31 32 33 34 35 36 37 38 39 40 41 42 43 44 45 46 47 48 49 50 51 52 53 54 55 56 57 58 59 60 61 62 63 64 65 66 67 68 69 70 71 72 73 74 75 76 77 78 </Indices>
     <REAL-Entries>0.276690738843806 0.195819288947585 0 1 0 0 0 0 0 0 0 0 1 0 0 0 0 0 0 0 0 0 0 0 0 1 0 0 0 0 1 0 0 0 0 0 0 0 0 0 0 0 -0.770850904355712 1 4.13706055257563 -0.0603768955723488 0 0 0 0 0 0 0 0 0 0 0 0 0 0 0 0 0 0 0 0 0 0 0 0 0 0 0 0 1 0 0 0.331359422931056 </REAL-Entries>
    </REAL-SparseArray>
   </VectorInstance>
   <VectorInstance id="97">
    <REAL-SparseArray n="78">
     <Indices>1 2 3 4 5 6 7 8 9 10 11 12 13 14 15 16 17 18 19 20 21 22 23 24 25 26 27 28 29 30 31 32 33 34 35 36 37 38 39 40 41 42 43 44 45 46 47 48 49 50 51 52 53 54 55 56 57 58 59 60 61 62 63 64 65 66 67 68 69 70 71 72 73 74 75 76 77 78 </Indices>
     <REAL-Entries>-0.602557507531921 0.424258056728749 0 1 0 0 0 0 0 0 0 0 0 0 0 0 1 0 0 0 0 0 0 0 0 1 0 0 0 0 1 0 0 0 0 0 0 0 0 0 0 0 -1.11733777710945 1 -0.201183384575153 -0.0603768955723488 0 0 0 0 0 0 0 0 0 0 0 0 0 0 0 0 0 0 0 0 0 0 0 0 0 0 0 0 1 0 0 -0.242362535246828 </REAL-Entries>
    </REAL-SparseArray>
   </VectorInstance>
   <VectorInstance id="98">
    <REAL-SparseArray n="78">
     <Indices>1 2 3 4 5 6 7 8 9 10 11 12 13 14 15 16 17 18 19 20 21 22 23 24 25 26 27 28 29 30 31 32 33 34 35 36 37 38 39 40 41 42 43 44 45 46 47 48 49 50 51 52 53 54 55 56 57 58 59 60 61 62 63 64 65 66 67 68 69 70 71 72 73 74 75 76 77 78 </Indices>
     <REAL-Entries>-1.65800965083802 0.0435267770934747 0 1 0 0 0 0 0 1 0 0 0 0 0 0 0 0 0 0 0 0 0 0 0 1 0 0 0 0 0 0 0 0 0 1 0 0 0 0 0 0 -0.902247344383801 1 -0.201183384575153 -0.0603768955723488 0 0 0 0 0 0 0 0 0 0 0 0 0 0 0 0 0 0 0 0 0 0 0 0 0 0 0 0 1 0 0 0.190144769759506 </REAL-Entries>
    </REAL-SparseArray>
   </VectorInstance>
   <VectorInstance id="99">
    <REAL-SparseArray n="78">
     <Indices>1 2 3 4 5 6 7 8 9 10 11 12 13 14 15 16 17 18 19 20 21 22 23 24 25 26 27 28 29 30 31 32 33 34 35 36 37 38 39 40 41 42 43 44 45 46 47 48 49 50 51 52 53 54 55 56 57 58 59 60 61 62 63 64 65 66 67 68 69 70 71 72 73 74 75 76 77 78 </Indices>
     <REAL-Entries>-0.867155572931502 -0.870228294031184 0 1 0 0 0 0 0 1 0 0 0 0 0 0 0 0 0 0 0 0 0 0 0 1 0 0 0 0 0 0 0 0 0 1 0 0 0 0 0 0 -0.708475615988855 1 -0.201183384575153 0.108224876664427 0 0 0 0 0 0 0 0 0 0 0 0 0 0 0 0 0 0 0 0 0 0 0 0 0 0 0 0 1 0 0 -0.242362535246828 </REAL-Entries>
    </REAL-SparseArray>
   </VectorInstance>
   <VectorInstance id="100">
    <REAL-SparseArray n="78">
     <Indices>1 2 3 4 5 6 7 8 9 10 11 12 13 14 15 16 17 18 19 20 21 22 23 24 25 26 27 28 29 30 31 32 33 34 35 36 37 38 39 40 41 42 43 44 45 46 47 48 49 50 51 52 53 54 55 56 57 58 59 60 61 62 63 64 65 66 67 68 69 70 71 72 73 74 75 76 77 78 </Indices>
     <REAL-Entries>-1.53016177881262 -0.18491199068769 0 1 0 0 0 0 0 0 0 0 1 0 0 0 0 0 0 0 0 0 0 0 0 1 0 0 0 0 0 0 0 0 0 0 0 1 0 0 0 0 -0.667332319450663 1 5.31145386081443 1.62564082679541 0 0 0 0 0 0 0 0 0 0 0 0 0 0 0 0 0 0 0 0 0 0 0 0 0 0 0 0 1 0 0 0.30908128426277 </REAL-Entries>
    </REAL-SparseArray>
   </VectorInstance>
   <VectorInstance id="101">
    <REAL-SparseArray n="78">
     <Indices>1 2 3 4 5 6 7 8 9 10 11 12 13 14 15 16 17 18 19 20 21 22 23 24 25 26 27 28 29 30 31 32 33 34 35 36 37 38 39 40 41 42 43 44 45 46 47 48 49 50 51 52 53 54 55 56 57 58 59 60 61 62 63 64 65 66 67 68 69 70 71 72 73 74 75 76 77 78 </Indices>
     <REAL-Entries>-1.26447794358728 0.500404312655804 0 0 0 1 0 0 0 0 0 0 0 1 0 0 0 0 0 0 0 0 0 0 1 0 0 0 0 0 0 0 0 0 0 1 0 0 0 0 0 0 -0.841830730012671 1 -0.201183384575153 -0.0603768955723488 0 0 0 0 0 0 0 0 0 0 0 0 0 0 0 0 0 0 0 0 0 0 0 0 0 0 0 0 1 0 0 -0.242362535246828 </REAL-Entries>
    </REAL-SparseArray>
   </VectorInstance>
   <VectorInstance id="102">
    <REAL-SparseArray n="78">
     <Indices>1 2 3 4 5 6 7 8 9 10 11 12 13 14 15 16 17 18 19 20 21 22 23 24 25 26 27 28 29 30 31 32 33 34 35 36 37 38 39 40 41 42 43 44 45 46 47 48 49 50 51 52 53 54 55 56 57 58 59 60 61 62 63 64 65 66 67 68 69 70 71 72 73 74 75 76 77 78 </Indices>
     <REAL-Entries>1.16324124478504 1.10957436007224 0 1 0 0 0 0 0 0 1 0 0 0 0 0 0 0 0 0 0 0 0 0 0 1 0 0 0 0 0 0 0 0 0 0 0 0 0 0 0 1 -0.670705678631983 1 -0.201183384575153 0.36112753501959 0 0 0 0 0 0 0 0 0 0 0 0 0 0 0 0 0 0 0 0 0 0 0 0 0 0 0 0 1 0 0 0.631754970135676 </REAL-Entries>
    </REAL-SparseArray>
   </VectorInstance>
   <VectorInstance id="103">
    <REAL-SparseArray n="78">
     <Indices>1 2 3 4 5 6 7 8 9 10 11 12 13 14 15 16 17 18 19 20 21 22 23 24 25 26 27 28 29 30 31 32 33 34 35 36 37 38 39 40 41 42 43 44 45 46 47 48 49 50 51 52 53 54 55 56 57 58 59 60 61 62 63 64 65 66 67 68 69 70 71 72 73 74 75 76 77 78 </Indices>
     <REAL-Entries>-0.254896144264812 0.576550568582859 0 1 0 0 0 0 0 0 1 0 0 0 0 0 0 0 0 0 0 0 0 0 0 1 0 0 0 0 1 0 0 0 0 0 0 0 0 0 0 0 0.228552109320297 0 -0.201183384575153 -0.0603768955723488 0 0 0 0 0 0 0 0 0 0 0 0 0 0 0 0 0 0 0 0 0 0 0 0 0 0 0 0 1 0 0 0.0859405727626875 </REAL-Entries>
    </REAL-SparseArray>
   </VectorInstance>
   <VectorInstance id="104">
    <REAL-SparseArray n="78">
     <Indices>1 2 3 4 5 6 7 8 9 10 11 12 13 14 15 16 17 18 19 20 21 22 23 24 25 26 27 28 29 30 31 32 33 34 35 36 37 38 39 40 41 42 43 44 45 46 47 48 49 50 51 52 53 54 55 56 57 58 59 60 61 62 63 64 65 66 67 68 69 70 71 72 73 74 75 76 77 78 </Indices>
     <REAL-Entries>-0.439611210914306 0.957281848218134 0 1 0 0 0 0 0 0 0 0 0 1 0 0 0 0 0 0 0 0 0 0 0 0 0 0 0 0 0 0 0 0 0 1 0 0 0 0 0 0 0.0820182663833648 1 -0.201183384575153 -0.0603768955723488 0 0 0 0 0 0 0 0 0 0 0 0 0 0 0 0 0 0 0 0 0 0 0 0 0 0 0 0 1 0 0 3.09073446938243 </REAL-Entries>
    </REAL-SparseArray>
   </VectorInstance>
   <VectorInstance id="105">
    <REAL-SparseArray n="78">
     <Indices>1 2 3 4 5 6 7 8 9 10 11 12 13 14 15 16 17 18 19 20 21 22 23 24 25 26 27 28 29 30 31 32 33 34 35 36 37 38 39 40 41 42 43 44 45 46 47 48 49 50 51 52 53 54 55 56 57 58 59 60 61 62 63 64 65 66 67 68 69 70 71 72 73 74 75 76 77 78 </Indices>
     <REAL-Entries>1.16950043333817 0.195819288947585 0 0 0 0 0 1 0 0 0 0 1 0 0 0 0 0 0 0 0 0 0 0 0 1 0 0 0 0 0 0 0 0 0 0 0 0 1 0 0 0 -0.754150962159782 1 -0.201183384575153 1.79424259903218 0 0 0 0 0 0 0 0 0 0 0 0 0 0 0 0 0 0 0 0 0 0 0 0 0 0 0 0 1 0 0 -0.242362535246828 </REAL-Entries>
    </REAL-SparseArray>
   </VectorInstance>
   <VectorInstance id="106">
    <REAL-SparseArray n="78">
     <Indices>1 2 3 4 5 6 7 8 9 10 11 12 13 14 15 16 17 18 19 20 21 22 23 24 25 26 27 28 29 30 31 32 33 34 35 36 37 38 39 40 41 42 43 44 45 46 47 48 49 50 51 52 53 54 55 56 57 58 59 60 61 62 63 64 65 66 67 68 69 70 71 72 73 74 75 76 77 78 </Indices>
     <REAL-Entries>1.04635629309303 -0.794082038104129 0 1 0 0 0 0 0 0 0 0 0 0 0 0 0 1 0 0 0 0 0 0 0 0 0 0 1 1 0 0 0 0 0 0 0 0 0 0 0 0 1.51554606438413 0 4.15751018729621 -0.481881326164288 0 0 0 0 0 0 0 0 0 0 0 0 0 0 0 0 0 0 0 0 0 0 0 0 0 0 0 0 1 0 0 -0.242362535246828 </REAL-Entries>
    </REAL-SparseArray>
   </VectorInstance>
   <VectorInstance id="107">
    <REAL-SparseArray n="78">
     <Indices>1 2 3 4 5 6 7 8 9 10 11 12 13 14 15 16 17 18 19 20 21 22 23 24 25 26 27 28 29 30 31 32 33 34 35 36 37 38 39 40 41 42 43 44 45 46 47 48 49 50 51 52 53 54 55 56 57 58 59 60 61 62 63 64 65 66 67 68 69 70 71 72 73 74 75 76 77 78 </Indices>
     <REAL-Entries>-1.47487634648034 -0.413350758468855 0 1 0 0 0 0 0 1 0 0 0 0 0 0 0 0 0 0 0 0 0 0 0 1 0 0 0 0 0 0 0 0 0 1 0 0 0 0 0 0 -1.07107972863901 1 -0.201183384575153 -0.0603768955723488 0 0 0 0 0 0 0 0 0 0 0 0 0 0 0 0 0 0 0 0 0 0 0 0 0 0 0 0 1 0 0 -0.242362535246828 </REAL-Entries>
    </REAL-SparseArray>
   </VectorInstance>
   <VectorInstance id="108">
    <REAL-SparseArray n="78">
     <Indices>1 2 3 4 5 6 7 8 9 10 11 12 13 14 15 16 17 18 19 20 21 22 23 24 25 26 27 28 29 30 31 32 33 34 35 36 37 38 39 40 41 42 43 44 45 46 47 48 49 50 51 52 53 54 55 56 57 58 59 60 61 62 63 64 65 66 67 68 69 70 71 72 73 74 75 76 77 78 </Indices>
     <REAL-Entries>-0.99617956852168 0.500404312655804 0 1 0 0 0 0 0 0 0 0 0 0 0 0 0 0 0 1 0 0 0 0 0 1 0 0 0 1 0 0 0 0 0 0 0 0 0 0 0 0 2.69532093923364 0 -0.201183384575153 -0.0603768955723488 0 0 0 0 0 0 0 0 0 0 0 0 0 0 0 0 0 0 0 0 0 0 0 0 0 0 0 0 1 0 0 0.12929910070849 </REAL-Entries>
    </REAL-SparseArray>
   </VectorInstance>
   <VectorInstance id="109">
    <REAL-SparseArray n="78">
     <Indices>1 2 3 4 5 6 7 8 9 10 11 12 13 14 15 16 17 18 19 20 21 22 23 24 25 26 27 28 29 30 31 32 33 34 35 36 37 38 39 40 41 42 43 44 45 46 47 48 49 50 51 52 53 54 55 56 57 58 59 60 61 62 63 64 65 66 67 68 69 70 71 72 73 74 75 76 77 78 </Indices>
     <REAL-Entries>0.14119253567602 0.804989336364024 0 0 0 0 1 0 0 0 0 0 1 0 0 0 0 0 0 0 0 0 0 0 0 1 0 0 0 0 0 0 0 0 0 1 0 0 0 0 0 0 -0.882154043417943 1 -0.201183384575153 -0.0603768955723488 0 0 0 0 0 0 0 0 0 0 0 0 0 0 0 0 0 0 0 0 0 0 0 0 0 0 0 0 1 0 0 1.74877605196594 </REAL-Entries>
    </REAL-SparseArray>
   </VectorInstance>
   <VectorInstance id="110">
    <REAL-SparseArray n="78">
     <Indices>1 2 3 4 5 6 7 8 9 10 11 12 13 14 15 16 17 18 19 20 21 22 23 24 25 26 27 28 29 30 31 32 33 34 35 36 37 38 39 40 41 42 43 44 45 46 47 48 49 50 51 52 53 54 55 56 57 58 59 60 61 62 63 64 65 66 67 68 69 70 71 72 73 74 75 76 77 78 </Indices>
     <REAL-Entries>0.921385634857997 0.576550568582859 1 0 0 0 0 0 0 0 0 0 1 0 0 0 0 0 0 0 0 0 0 0 0 1 0 0 0 0 0 0 0 0 0 1 0 0 0 0 0 0 -0.231908704700038 1 -0.201183384575153 1.62564082679541 0 0 0 0 0 0 0 0 0 0 0 0 0 0 0 0 0 0 0 0 0 0 0 0 0 0 0 0 1 0 0 -0.242362535246828 </REAL-Entries>
    </REAL-SparseArray>
   </VectorInstance>
   <VectorInstance id="111">
    <REAL-SparseArray n="78">
     <Indices>1 2 3 4 5 6 7 8 9 10 11 12 13 14 15 16 17 18 19 20 21 22 23 24 25 26 27 28 29 30 31 32 33 34 35 36 37 38 39 40 41 42 43 44 45 46 47 48 49 50 51 52 53 54 55 56 57 58 59 60 61 62 63 64 65 66 67 68 69 70 71 72 73 74 75 76 77 78 </Indices>
     <REAL-Entries>-1.6841336998339 -0.48949701439591 1 0 0 0 0 0 0 0 0 0 1 0 0 0 0 0 0 0 0 0 0 0 0 1 0 0 0 0 0 0 0 0 0 0 0 0 1 0 0 0 -1.18455225164837 1 -0.201183384575153 1.62564082679541 0 0 0 0 0 0 0 0 0 0 0 0 0 0 0 0 0 0 0 0 0 0 0 0 0 0 0 0 1 0 0 3.13948286958669 </REAL-Entries>
    </REAL-SparseArray>
   </VectorInstance>
   <VectorInstance id="112">
    <REAL-SparseArray n="78">
     <Indices>1 2 3 4 5 6 7 8 9 10 11 12 13 14 15 16 17 18 19 20 21 22 23 24 25 26 27 28 29 30 31 32 33 34 35 36 37 38 39 40 41 42 43 44 45 46 47 48 49 50 51 52 53 54 55 56 57 58 59 60 61 62 63 64 65 66 67 68 69 70 71 72 73 74 75 76 77 78 </Indices>
     <REAL-Entries>1.39839047233677 0.424258056728749 0 1 0 0 0 0 0 1 0 0 0 0 0 0 0 0 0 0 0 0 0 0 0 1 0 0 0 0 1 0 0 0 0 0 0 0 0 0 0 0 -1.03617901797634 1 -0.201183384575153 -0.481881326164288 0 0 0 0 0 0 0 0 0 0 0 0 0 0 0 0 0 0 0 0 0 0 0 0 0 0 0 0 1 0 0 -0.242362535246828 </REAL-Entries>
    </REAL-SparseArray>
   </VectorInstance>
   <VectorInstance id="113">
    <REAL-SparseArray n="78">
     <Indices>1 2 3 4 5 6 7 8 9 10 11 12 13 14 15 16 17 18 19 20 21 22 23 24 25 26 27 28 29 30 31 32 33 34 35 36 37 38 39 40 41 42 43 44 45 46 47 48 49 50 51 52 53 54 55 56 57 58 59 60 61 62 63 64 65 66 67 68 69 70 71 72 73 74 75 76 77 78 </Indices>
     <REAL-Entries>-1.40353730403821 2.63249947861334 0 0 0 0 0 1 0 1 0 0 0 0 0 0 0 0 0 0 0 0 0 0 0 1 0 0 0 0 0 0 0 0 0 0 0 0 1 0 0 0 -0.910557173450347 1 -0.201183384575153 0.782631965611529 0 0 0 0 0 0 0 0 0 0 0 0 0 0 0 0 0 0 0 0 0 0 0 0 0 0 0 0 1 0 0 -0.0460514100999489 </REAL-Entries>
    </REAL-SparseArray>
   </VectorInstance>
   <VectorInstance id="114">
    <REAL-SparseArray n="78">
     <Indices>1 2 3 4 5 6 7 8 9 10 11 12 13 14 15 16 17 18 19 20 21 22 23 24 25 26 27 28 29 30 31 32 33 34 35 36 37 38 39 40 41 42 43 44 45 46 47 48 49 50 51 52 53 54 55 56 57 58 59 60 61 62 63 64 65 66 67 68 69 70 71 72 73 74 75 76 77 78 </Indices>
     <REAL-Entries>0.249334142851204 0.500404312655804 0 1 0 0 0 0 0 1 0 0 0 0 0 0 0 0 0 0 0 0 0 0 0 1 0 0 0 0 1 0 0 0 0 0 0 0 0 0 0 0 -0.812950609791971 1 -0.201183384575153 -0.734783984519451 0 0 0 0 0 0 0 0 0 0 0 0 0 0 0 0 0 0 0 0 0 0 0 0 0 0 0 0 1 0 0 -0.242362535246828 </REAL-Entries>
    </REAL-SparseArray>
   </VectorInstance>
   <VectorInstance id="115">
    <REAL-SparseArray n="78">
     <Indices>1 2 3 4 5 6 7 8 9 10 11 12 13 14 15 16 17 18 19 20 21 22 23 24 25 26 27 28 29 30 31 32 33 34 35 36 37 38 39 40 41 42 43 44 45 46 47 48 49 50 51 52 53 54 55 56 57 58 59 60 61 62 63 64 65 66 67 68 69 70 71 72 73 74 75 76 77 78 </Indices>
     <REAL-Entries>1.5337502856005 -0.870228294031184 0 0 0 1 0 0 0 1 0 0 0 0 0 0 0 0 0 0 0 0 0 0 0 1 0 0 0 0 0 0 0 0 0 0 1 0 0 0 0 0 -0.389502320137089 1 -0.201183384575153 2.30004791574251 0 0 0 0 0 0 0 0 0 0 0 0 0 0 0 0 0 0 0 0 0 0 0 0 0 0 0 0 1 0 0 -0.242362535246828 </REAL-Entries>
    </REAL-SparseArray>
   </VectorInstance>
   <VectorInstance id="116">
    <REAL-SparseArray n="78">
     <Indices>1 2 3 4 5 6 7 8 9 10 11 12 13 14 15 16 17 18 19 20 21 22 23 24 25 26 27 28 29 30 31 32 33 34 35 36 37 38 39 40 41 42 43 44 45 46 47 48 49 50 51 52 53 54 55 56 57 58 59 60 61 62 63 64 65 66 67 68 69 70 71 72 73 74 75 76 77 78 </Indices>
     <REAL-Entries>-0.291822611804529 1.56645189563457 0 0 0 0 1 0 0 1 0 0 0 0 0 0 0 0 0 0 0 0 0 0 0 0 0 0 0 0 1 0 0 0 0 0 0 0 0 0 0 0 -0.497633524446121 0 -0.201183384575153 -0.0603768955723488 0 0 0 0 0 1 0 0 0 0 0 0 0 0 0 0 0 0 0 0 0 0 0 0 0 0 0 0 0 0 0 -0.242362535246828 </REAL-Entries>
    </REAL-SparseArray>
   </VectorInstance>
   <VectorInstance id="117">
    <REAL-SparseArray n="78">
     <Indices>1 2 3 4 5 6 7 8 9 10 11 12 13 14 15 16 17 18 19 20 21 22 23 24 25 26 27 28 29 30 31 32 33 34 35 36 37 38 39 40 41 42 43 44 45 46 47 48 49 50 51 52 53 54 55 56 57 58 59 60 61 62 63 64 65 66 67 68 69 70 71 72 73 74 75 76 77 78 </Indices>
     <REAL-Entries>0.538825235207555 0.424258056728749 0 0 1 0 0 0 0 0 0 0 0 0 0 0 0 0 0 0 0 0 0 0 0 1 0 0 0 1 0 0 0 0 0 0 0 0 0 0 0 0 -0.677952243855615 1 -0.201183384575153 -0.0603768955723488 0 0 0 0 0 0 0 0 0 0 0 0 0 0 0 0 0 0 0 0 0 0 0 0 0 0 0 0 1 0 0 0.541564441010844 </REAL-Entries>
    </REAL-SparseArray>
   </VectorInstance>
   <VectorInstance id="118">
    <REAL-SparseArray n="78">
     <Indices>1 2 3 4 5 6 7 8 9 10 11 12 13 14 15 16 17 18 19 20 21 22 23 24 25 26 27 28 29 30 31 32 33 34 35 36 37 38 39 40 41 42 43 44 45 46 47 48 49 50 51 52 53 54 55 56 57 58 59 60 61 62 63 64 65 66 67 68 69 70 71 72 73 74 75 76 77 78 </Indices>
     <REAL-Entries>0.198060111539512 0.424258056728749 0 1 0 0 0 0 0 0 1 0 0 0 0 0 0 0 0 0 0 0 0 0 0 1 0 0 0 1 0 0 0 0 0 0 0 0 0 0 0 0 4.677541164899 0 6.8539405940236 -2.92660702359753 0 0 0 0 0 0 0 0 0 0 0 0 0 0 0 0 0 0 0 0 0 0 0 0 0 0 0 0 1 0 0 0.193139143236426 </REAL-Entries>
    </REAL-SparseArray>
   </VectorInstance>
   <VectorInstance id="119">
    <REAL-SparseArray n="78">
     <Indices>1 2 3 4 5 6 7 8 9 10 11 12 13 14 15 16 17 18 19 20 21 22 23 24 25 26 27 28 29 30 31 32 33 34 35 36 37 38 39 40 41 42 43 44 45 46 47 48 49 50 51 52 53 54 55 56 57 58 59 60 61 62 63 64 65 66 67 68 69 70 71 72 73 74 75 76 77 78 </Indices>
     <REAL-Entries>1.64071729416853 0.500404312655804 0 1 0 0 0 0 0 0 0 1 0 0 0 0 0 0 0 0 0 0 0 0 0 0 0 0 1 0 0 0 0 0 0 1 0 0 0 0 0 0 1.47037613638816 1 -0.201183384575153 -0.0603768955723488 0 0 0 0 0 0 0 0 0 0 0 0 0 1 0 0 0 0 0 0 0 0 0 0 0 0 0 0 0 0 0 1.55665704968675 </REAL-Entries>
    </REAL-SparseArray>
   </VectorInstance>
   <VectorInstance id="120">
    <REAL-SparseArray n="78">
     <Indices>1 2 3 4 5 6 7 8 9 10 11 12 13 14 15 16 17 18 19 20 21 22 23 24 25 26 27 28 29 30 31 32 33 34 35 36 37 38 39 40 41 42 43 44 45 46 47 48 49 50 51 52 53 54 55 56 57 58 59 60 61 62 63 64 65 66 67 68 69 70 71 72 73 74 75 76 77 78 </Indices>
     <REAL-Entries>-0.850030680093288 -0.261058246614745 1 0 0 0 0 0 0 0 0 0 1 0 0 0 0 0 0 0 0 0 0 0 0 1 0 0 0 0 1 0 0 0 0 0 0 0 0 0 0 0 -0.405234425098606 1 -0.201183384575153 1.62564082679541 0 0 0 0 0 0 0 0 0 0 0 0 0 0 0 0 0 0 0 0 0 0 0 0 0 0 0 0 1 0 0 -0.242362535246828 </REAL-Entries>
    </REAL-SparseArray>
   </VectorInstance>
   <VectorInstance id="121">
    <REAL-SparseArray n="78">
