<?xml version="1.0"?>
<PMML version="4.3" xmlns="http://www.dmg.org/PMML-4_3" xmlns:xsi="http://www.w3.org/2001/XMLSchema-instance" xsi:schemaLocation="http://www.dmg.org/PMML-4_3 http://www.dmg.org/pmml/v4-3/pmml-4-3.xsd">
 <Header copyright="Copyright (c) 2017 Syncfusion" description="Generalized Linear Regression Model">
  <Extension name="user" value="Syncfusion" extender="Rattle/PMML"/>
  <Application name="Rattle/PMML" version="1.4"/>
  <Timestamp>2017-11-07 17:05:40</Timestamp>
 </Header>
 <DataDictionary numberOfFields="15">
  <DataField name="Price" optype="continuous" dataType="double"/>
  <DataField name="Mileage" optype="continuous" dataType="double"/>
  <DataField name="Cylinder" optype="continuous" dataType="double"/>
  <DataField name="Doors" optype="continuous" dataType="double"/>
  <DataField name="Cruise" optype="continuous" dataType="double"/>
  <DataField name="Sound" optype="continuous" dataType="double"/>
  <DataField name="Leather" optype="continuous" dataType="double"/>
  <DataField name="Buick" optype="continuous" dataType="double"/>
  <DataField name="Cadillac" optype="continuous" dataType="double"/>
  <DataField name="Chevy" optype="continuous" dataType="double"/>
  <DataField name="Pontiac" optype="continuous" dataType="double"/>
  <DataField name="Saab" optype="continuous" dataType="double"/>
  <DataField name="Convertible" optype="continuous" dataType="double"/>
  <DataField name="Hatchback" optype="continuous" dataType="double"/>
  <DataField name="Wagon" optype="continuous" dataType="double"/>
 </DataDictionary>
 <GeneralRegressionModel modelName="General_Regression_Model" modelType="generalizedLinear" functionName="regression" algorithmName="glm" distribution="normal" linkFunction="identity">
  <MiningSchema>
   <MiningField name="Price" usageType="predicted"/>
   <MiningField name="Mileage" usageType="active"/>
   <MiningField name="Cylinder" usageType="active"/>
   <MiningField name="Doors" usageType="active"/>
   <MiningField name="Cruise" usageType="active"/>
   <MiningField name="Sound" usageType="active"/>
   <MiningField name="Leather" usageType="active"/>
   <MiningField name="Buick" usageType="active"/>
   <MiningField name="Cadillac" usageType="active"/>
   <MiningField name="Chevy" usageType="active"/>
   <MiningField name="Pontiac" usageType="active"/>
   <MiningField name="Saab" usageType="active"/>
   <MiningField name="Convertible" usageType="active"/>
   <MiningField name="Hatchback" usageType="active"/>
   <MiningField name="Wagon" usageType="active"/>
  </MiningSchema>
  <Output>
   <OutputField name="Predicted_Price" feature="predictedValue"/>
  </Output>
  <ParameterList>
   <Parameter name="p0" label="(Intercept)"/>
   <Parameter name="p1" label="Mileage"/>
   <Parameter name="p2" label="Cylinder"/>
   <Parameter name="p3" label="Doors"/>
   <Parameter name="p4" label="Cruise"/>
   <Parameter name="p5" label="Sound"/>
   <Parameter name="p6" label="Leather"/>
   <Parameter name="p7" label="Buick"/>
   <Parameter name="p8" label="Cadillac"/>
   <Parameter name="p9" label="Chevy"/>
   <Parameter name="p10" label="Pontiac"/>
   <Parameter name="p11" label="Saab"/>
   <Parameter name="p12" label="Convertible"/>
   <Parameter name="p13" label="Hatchback"/>
   <Parameter name="p14" label="Wagon"/>
  </ParameterList>
  <FactorList/>
  <CovariateList>
   <Predictor name="Mileage"/>
   <Predictor name="Cylinder"/>
   <Predictor name="Doors"/>
   <Predictor name="Cruise"/>
   <Predictor name="Sound"/>
   <Predictor name="Leather"/>
   <Predictor name="Buick"/>
   <Predictor name="Cadillac"/>
   <Predictor name="Chevy"/>
   <Predictor name="Pontiac"/>
   <Predictor name="Saab"/>
   <Predictor name="Convertible"/>
   <Predictor name="Hatchback"/>
   <Predictor name="Wagon"/>
  </CovariateList>
  <PPMatrix>
   <PPCell value="1" predictorName="Mileage" parameterName="p1"/>
   <PPCell value="1" predictorName="Cylinder" parameterName="p2"/>
   <PPCell value="1" predictorName="Doors" parameterName="p3"/>
   <PPCell value="1" predictorName="Cruise" parameterName="p4"/>
   <PPCell value="1" predictorName="Sound" parameterName="p5"/>
   <PPCell value="1" predictorName="Leather" parameterName="p6"/>
   <PPCell value="1" predictorName="Buick" parameterName="p7"/>
   <PPCell value="1" predictorName="Cadillac" parameterName="p8"/>
   <PPCell value="1" predictorName="Chevy" parameterName="p9"/>
   <PPCell value="1" predictorName="Pontiac" parameterName="p10"/>
   <PPCell value="1" predictorName="Saab" parameterName="p11"/>
   <PPCell value="1" predictorName="Convertible" parameterName="p12"/>
   <PPCell value="1" predictorName="Hatchback" parameterName="p13"/>
   <PPCell value="1" predictorName="Wagon" parameterName="p14"/>
  </PPMatrix>
  <ParamMatrix>
   <PCell parameterName="p0" df="1" beta="3493.11950474313"/>
   <PCell parameterName="p1" df="1" beta="-0.175716032516672"/>
   <PCell parameterName="p2" df="1" beta="3609.21982408734"/>
   <PCell parameterName="p3" df="1" beta="-671.834273001598"/>
   <PCell parameterName="p4" df="1" beta="349.748540982984"/>
   <PCell parameterName="p5" df="1" beta="376.759523244726"/>
   <PCell parameterName="p6" df="1" beta="798.434651867665"/>
   <PCell parameterName="p7" df="1" beta="963.443736440381"/>
   <PCell parameterName="p8" df="1" beta="13663.0282512824"/>
   <PCell parameterName="p9" df="1" beta="-568.699571389486"/>
   <PCell parameterName="p10" df="1" beta="-1286.33265265975"/>
   <PCell parameterName="p11" df="1" beta="12582.6678222495"/>
   <PCell parameterName="p12" df="1" beta="10453.2240996239"/>
   <PCell parameterName="p13" df="1" beta="-1873.43816945326"/>
   <PCell parameterName="p14" df="1" beta="4328.10214111893"/>
  </ParamMatrix>
 </GeneralRegressionModel>
</PMML>
