<?xml version="1.0"?>
<PMML version="4.3" xmlns="http://www.dmg.org/PMML-4_3" xmlns:xsi="http://www.w3.org/2001/XMLSchema-instance" xsi:schemaLocation="http://www.dmg.org/PMML-4_3 http://www.dmg.org/pmml/v4-3/pmml-4-3.xsd">
 <Header copyright="Copyright (c) 2017 Syncfusion" description="Support Vector Machine PMML Model">
  <Extension name="user" value="Syncfusion" extender="Rattle/PMML"/>
  <Application name="Rattle/PMML" version="1.4"/>
  <Timestamp>2017-11-07 14:08:10</Timestamp>
 </Header>
 <DataDictionary numberOfFields="18">
  <DataField name="Price" optype="continuous" dataType="double"/>
  <DataField name="Mileage" optype="continuous" dataType="double"/>
  <DataField name="Cylinder" optype="continuous" dataType="double"/>
  <DataField name="Doors" optype="continuous" dataType="double"/>
  <DataField name="Cruise" optype="continuous" dataType="double"/>
  <DataField name="Sound" optype="continuous" dataType="double"/>
  <DataField name="Leather" optype="continuous" dataType="double"/>
  <DataField name="Buick" optype="continuous" dataType="double"/>
  <DataField name="Cadillac" optype="continuous" dataType="double"/>
  <DataField name="Chevy" optype="continuous" dataType="double"/>
  <DataField name="Pontiac" optype="continuous" dataType="double"/>
  <DataField name="Saab" optype="continuous" dataType="double"/>
  <DataField name="Saturn" optype="continuous" dataType="double"/>
  <DataField name="Convertible" optype="continuous" dataType="double"/>
  <DataField name="Coupe" optype="continuous" dataType="double"/>
  <DataField name="Hatchback" optype="continuous" dataType="double"/>
  <DataField name="Sedan" optype="continuous" dataType="double"/>
  <DataField name="Wagon" optype="continuous" dataType="double"/>
 </DataDictionary>
 <SupportVectorMachineModel modelName="SVM_model" functionName="regression" algorithmName="supportVectorMachine" svmRepresentation="SupportVectors">
  <MiningSchema>
   <MiningField name="Price" usageType="predicted"/>
   <MiningField name="Mileage" usageType="active"/>
   <MiningField name="Cylinder" usageType="active"/>
   <MiningField name="Doors" usageType="active"/>
   <MiningField name="Cruise" usageType="active"/>
   <MiningField name="Sound" usageType="active"/>
   <MiningField name="Leather" usageType="active"/>
   <MiningField name="Buick" usageType="active"/>
   <MiningField name="Cadillac" usageType="active"/>
   <MiningField name="Chevy" usageType="active"/>
   <MiningField name="Pontiac" usageType="active"/>
   <MiningField name="Saab" usageType="active"/>
   <MiningField name="Saturn" usageType="active"/>
   <MiningField name="Convertible" usageType="active"/>
   <MiningField name="Coupe" usageType="active"/>
   <MiningField name="Hatchback" usageType="active"/>
   <MiningField name="Sedan" usageType="active"/>
   <MiningField name="Wagon" usageType="active"/>
  </MiningSchema>
  <Output>
   <OutputField name="Predicted_Price" feature="predictedValue"/>
  </Output>
  <Targets>
   <Target field="Price" rescaleConstant="21260.5671539658" rescaleFactor="10044.864516387"/>
  </Targets>
  <LocalTransformations>
   <DerivedField name="derived_Mileage" optype="continuous" dataType="double">
    <NormContinuous field="Mileage">
     <LinearNorm orig="0" norm="-2.48848299663521"/>
     <LinearNorm orig="19812.0544323484" norm="0"/>
    </NormContinuous>
   </DerivedField>
   <DerivedField name="derived_Cylinder" optype="continuous" dataType="double">
    <NormContinuous field="Cylinder">
     <LinearNorm orig="0" norm="-3.79230442300537"/>
     <LinearNorm orig="5.27527216174184" norm="0"/>
    </NormContinuous>
   </DerivedField>
   <DerivedField name="derived_Doors" optype="continuous" dataType="double">
    <NormContinuous field="Doors">
     <LinearNorm orig="0" norm="-4.14774971443631"/>
     <LinearNorm orig="3.52721617418351" norm="0"/>
    </NormContinuous>
   </DerivedField>
   <DerivedField name="derived_Cruise" optype="continuous" dataType="double">
    <NormContinuous field="Cruise">
     <LinearNorm orig="0" norm="-1.70768537977427"/>
     <LinearNorm orig="0.744945567651633" norm="0"/>
    </NormContinuous>
   </DerivedField>
   <DerivedField name="derived_Sound" optype="continuous" dataType="double">
    <NormContinuous field="Sound">
     <LinearNorm orig="0" norm="-1.45017395001967"/>
     <LinearNorm orig="0.678071539657854" norm="0"/>
    </NormContinuous>
   </DerivedField>
   <DerivedField name="derived_Leather" optype="continuous" dataType="double">
    <NormContinuous field="Leather">
     <LinearNorm orig="0" norm="-1.62766166099734"/>
     <LinearNorm orig="0.726283048211509" norm="0"/>
    </NormContinuous>
   </DerivedField>
   <DerivedField name="derived_Buick" optype="continuous" dataType="double">
    <NormContinuous field="Buick">
     <LinearNorm orig="0" norm="-0.329320150730989"/>
     <LinearNorm orig="0.0979782270606532" norm="0"/>
    </NormContinuous>
   </DerivedField>
   <DerivedField name="derived_Cadillac" optype="continuous" dataType="double">
    <NormContinuous field="Cadillac">
     <LinearNorm orig="0" norm="-0.320555605253894"/>
     <LinearNorm orig="0.0933125972006221" norm="0"/>
    </NormContinuous>
   </DerivedField>
   <DerivedField name="derived_Chevy" optype="continuous" dataType="double">
    <NormContinuous field="Chevy">
     <LinearNorm orig="0" norm="-0.825943994593249"/>
     <LinearNorm orig="0.405909797822706" norm="0"/>
    </NormContinuous>
   </DerivedField>
   <DerivedField name="derived_Pontiac" optype="continuous" dataType="double">
    <NormContinuous field="Pontiac">
     <LinearNorm orig="0" norm="-0.488415222537671"/>
     <LinearNorm orig="0.192846034214619" norm="0"/>
    </NormContinuous>
   </DerivedField>
   <DerivedField name="derived_Saab" optype="continuous" dataType="double">
    <NormContinuous field="Saab">
     <LinearNorm orig="0" norm="-0.397884363490324"/>
     <LinearNorm orig="0.136858475894246" norm="0"/>
    </NormContinuous>
   </DerivedField>
   <DerivedField name="derived_Saturn" optype="continuous" dataType="double">
    <NormContinuous field="Saturn">
     <LinearNorm orig="0" norm="-0.280600103362481"/>
     <LinearNorm orig="0.073094867807154" norm="0"/>
    </NormContinuous>
   </DerivedField>
   <DerivedField name="derived_Convertible" optype="continuous" dataType="double">
    <NormContinuous field="Convertible">
     <LinearNorm orig="0" norm="-0.260768849131939"/>
     <LinearNorm orig="0.0637636080870918" norm="0"/>
    </NormContinuous>
   </DerivedField>
   <DerivedField name="derived_Coupe" optype="continuous" dataType="double">
    <NormContinuous field="Coupe">
     <LinearNorm orig="0" norm="-0.456423188769564"/>
     <LinearNorm orig="0.172628304821151" norm="0"/>
    </NormContinuous>
   </DerivedField>
   <DerivedField name="derived_Hatchback" optype="continuous" dataType="double">
    <NormContinuous field="Hatchback">
     <LinearNorm orig="0" norm="-0.290148067980827"/>
     <LinearNorm orig="0.0777604976671851" norm="0"/>
    </NormContinuous>
   </DerivedField>
   <DerivedField name="derived_Sedan" optype="continuous" dataType="double">
    <NormContinuous field="Sedan">
     <LinearNorm orig="0" norm="-1.24060655208167"/>
     <LinearNorm orig="0.606531881804043" norm="0"/>
    </NormContinuous>
   </DerivedField>
   <DerivedField name="derived_Wagon" optype="continuous" dataType="double">
    <NormContinuous field="Wagon">
     <LinearNorm orig="0" norm="-0.293282576047066"/>
     <LinearNorm orig="0.0793157076205288" norm="0"/>
    </NormContinuous>
   </DerivedField>
  </LocalTransformations>
  <RadialBasisKernelType gamma="0.0418763535943516" description="Radial basis kernel type"/>
  <VectorDictionary numberOfVectors="330">
   <VectorFields numberOfFields="17">
    <FieldRef field="derived_Mileage"/>
    <FieldRef field="derived_Cylinder"/>
    <FieldRef field="derived_Doors"/>
    <FieldRef field="derived_Cruise"/>
    <FieldRef field="derived_Sound"/>
    <FieldRef field="derived_Leather"/>
    <FieldRef field="derived_Buick"/>
    <FieldRef field="derived_Cadillac"/>
    <FieldRef field="derived_Chevy"/>
    <FieldRef field="derived_Pontiac"/>
    <FieldRef field="derived_Saab"/>
    <FieldRef field="derived_Saturn"/>
    <FieldRef field="derived_Convertible"/>
    <FieldRef field="derived_Coupe"/>
    <FieldRef field="derived_Hatchback"/>
    <FieldRef field="derived_Sedan"/>
    <FieldRef field="derived_Wagon"/>
   </VectorFields>
   <VectorInstance id="1">
    <REAL-SparseArray n="17">
     <Indices>1 2 3 4 5 6 7 8 9 10 11 12 13 14 15 16 17 </Indices>
     <REAL-Entries>-0.358733260936286 -0.916771706033137 0.555959397349487 0.584677249025012 -1.45017395001967 0.613422810140325 -0.329320150730989 -0.320555605253894 -0.825943994593249 -0.488415222537671 2.50938433792193 -0.280600103362481 -0.260768849131939 -0.456423188769564 -0.290148067980827 -1.24060655208167 3.40437813764438 </REAL-Entries>
    </REAL-SparseArray>
   </VectorInstance>
   <VectorInstance id="2">
    <REAL-SparseArray n="17">
     <Indices>1 2 3 4 5 6 7 8 9 10 11 12 13 14 15 16 17 </Indices>
     <REAL-Entries>0.760779560146782 0.520994652452978 0.555959397349487 0.584677249025012 -1.45017395001967 -1.62766166099734 3.03183630831705 -0.320555605253894 -0.825943994593249 -0.488415222537671 -0.397884363490324 -0.280600103362481 -0.260768849131939 -0.456423188769564 -0.290148067980827 0.804803737632468 -0.293282576047066 </REAL-Entries>
    </REAL-SparseArray>
   </VectorInstance>
   <VectorInstance id="3">
    <REAL-SparseArray n="17">
     <Indices>1 2 3 4 5 6 7 8 9 10 11 12 13 14 15 16 17 </Indices>
     <REAL-Entries>0.249318076084148 0.520994652452978 0.555959397349487 0.584677249025012 -1.45017395001967 0.613422810140325 3.03183630831705 -0.320555605253894 -0.825943994593249 -0.488415222537671 -0.397884363490324 -0.280600103362481 -0.260768849131939 -0.456423188769564 -0.290148067980827 0.804803737632468 -0.293282576047066 </REAL-Entries>
    </REAL-SparseArray>
   </VectorInstance>
   <VectorInstance id="4">
    <REAL-SparseArray n="17">
     <Indices>1 2 3 4 5 6 7 8 9 10 11 12 13 14 15 16 17 </Indices>
     <REAL-Entries>-2.00766900817947 -0.916771706033137 -1.79589515854341 0.584677249025012 0.688500017555212 0.613422810140325 -0.329320150730989 -0.320555605253894 -0.825943994593249 -0.488415222537671 2.50938433792193 -0.280600103362481 3.82884993115677 -0.456423188769564 -0.290148067980827 -1.24060655208167 -0.293282576047066 </REAL-Entries>
    </REAL-SparseArray>
   </VectorInstance>
   <VectorInstance id="5">
    <REAL-SparseArray n="17">
     <Indices>1 2 3 4 5 6 7 8 9 10 11 12 13 14 15 16 17 </Indices>
     <REAL-Entries>1.94862122389441 0.520994652452978 0.555959397349487 0.584677249025012 0.688500017555212 0.613422810140325 -0.329320150730989 3.11473196438367 -0.825943994593249 -0.488415222537671 -0.397884363490324 -0.280600103362481 -0.260768849131939 -0.456423188769564 -0.290148067980827 0.804803737632468 -0.293282576047066 </REAL-Entries>
    </REAL-SparseArray>
   </VectorInstance>
   <VectorInstance id="6">
    <REAL-SparseArray n="17">
     <Indices>1 2 3 4 5 6 7 8 9 10 11 12 13 14 15 16 17 </Indices>
     <REAL-Entries>-0.188036758765088 0.520994652452978 -1.79589515854341 -1.70768537977427 0.688500017555212 0.613422810140325 -0.329320150730989 -0.320555605253894 -0.825943994593249 2.04425403626654 -0.397884363490324 -0.280600103362481 -0.260768849131939 2.18754176959827 -0.290148067980827 -1.24060655208167 -0.293282576047066 </REAL-Entries>
    </REAL-SparseArray>
   </VectorInstance>
   <VectorInstance id="7">
    <REAL-SparseArray n="17">
     <Indices>1 2 3 4 5 6 7 8 9 10 11 12 13 14 15 16 17 </Indices>
     <REAL-Entries>1.77026284782148 0.520994652452978 0.555959397349487 -1.70768537977427 0.688500017555212 0.613422810140325 -0.329320150730989 -0.320555605253894 1.20885289630123 -0.488415222537671 -0.397884363490324 -0.280600103362481 -0.260768849131939 -0.456423188769564 3.4411560862526 -1.24060655208167 -0.293282576047066 </REAL-Entries>
    </REAL-SparseArray>
   </VectorInstance>
   <VectorInstance id="8">
    <REAL-SparseArray n="17">
     <Indices>1 2 3 4 5 6 7 8 9 10 11 12 13 14 15 16 17 </Indices>
     <REAL-Entries>0.31224592567044 -0.916771706033137 0.555959397349487 0.584677249025012 0.688500017555212 0.613422810140325 -0.329320150730989 -0.320555605253894 -0.825943994593249 -0.488415222537671 2.50938433792193 -0.280600103362481 -0.260768849131939 -0.456423188769564 -0.290148067980827 -1.24060655208167 3.40437813764438 </REAL-Entries>
    </REAL-SparseArray>
   </VectorInstance>
   <VectorInstance id="9">
    <REAL-SparseArray n="17">
     <Indices>1 2 3 4 5 6 7 8 9 10 11 12 13 14 15 16 17 </Indices>
     <REAL-Entries>0.80863487091001 1.95876101093909 0.555959397349487 0.584677249025012 0.688500017555212 0.613422810140325 -0.329320150730989 3.11473196438367 -0.825943994593249 -0.488415222537671 -0.397884363490324 -0.280600103362481 -0.260768849131939 -0.456423188769564 -0.290148067980827 0.804803737632468 -0.293282576047066 </REAL-Entries>
    </REAL-SparseArray>
   </VectorInstance>
   <VectorInstance id="10">
    <REAL-SparseArray n="17">
     <Indices>1 2 3 4 5 6 7 8 9 10 11 12 13 14 15 16 17 </Indices>
     <REAL-Entries>2.87369829415995 1.95876101093909 -1.79589515854341 0.584677249025012 0.688500017555212 0.613422810140325 -0.329320150730989 3.11473196438367 -0.825943994593249 -0.488415222537671 -0.397884363490324 -0.280600103362481 3.82884993115677 -0.456423188769564 -0.290148067980827 -1.24060655208167 -0.293282576047066 </REAL-Entries>
    </REAL-SparseArray>
   </VectorInstance>
   <VectorInstance id="11">
    <REAL-SparseArray n="17">
     <Indices>1 2 3 4 5 6 7 8 9 10 11 12 13 14 15 16 17 </Indices>
     <REAL-Entries>1.47898603506577 1.95876101093909 0.555959397349487 0.584677249025012 -1.45017395001967 0.613422810140325 -0.329320150730989 3.11473196438367 -0.825943994593249 -0.488415222537671 -0.397884363490324 -0.280600103362481 -0.260768849131939 -0.456423188769564 -0.290148067980827 0.804803737632468 -0.293282576047066 </REAL-Entries>
    </REAL-SparseArray>
   </VectorInstance>
   <VectorInstance id="12">
    <REAL-SparseArray n="17">
     <Indices>1 2 3 4 5 6 7 8 9 10 11 12 13 14 15 16 17 </Indices>
     <REAL-Entries>-0.699623847317914 0.520994652452978 0.555959397349487 0.584677249025012 -1.45017395001967 -1.62766166099734 -0.329320150730989 -0.320555605253894 -0.825943994593249 -0.488415222537671 -0.397884363490324 3.55824811923486 -0.260768849131939 -0.456423188769564 -0.290148067980827 0.804803737632468 -0.293282576047066 </REAL-Entries>
    </REAL-SparseArray>
   </VectorInstance>
   <VectorInstance id="13">
    <REAL-SparseArray n="17">
     <Indices>1 2 3 4 5 6 7 8 9 10 11 12 13 14 15 16 17 </Indices>
     <REAL-Entries>0.22369476008494 1.95876101093909 0.555959397349487 0.584677249025012 -1.45017395001967 0.613422810140325 -0.329320150730989 3.11473196438367 -0.825943994593249 -0.488415222537671 -0.397884363490324 -0.280600103362481 -0.260768849131939 -0.456423188769564 -0.290148067980827 0.804803737632468 -0.293282576047066 </REAL-Entries>
    </REAL-SparseArray>
   </VectorInstance>
   <VectorInstance id="14">
    <REAL-SparseArray n="17">
     <Indices>1 2 3 4 5 6 7 8 9 10 11 12 13 14 15 16 17 </Indices>
     <REAL-Entries>-0.0677076571609617 -0.916771706033137 0.555959397349487 0.584677249025012 0.688500017555212 -1.62766166099734 -0.329320150730989 -0.320555605253894 1.20885289630123 -0.488415222537671 -0.397884363490324 -0.280600103362481 -0.260768849131939 -0.456423188769564 -0.290148067980827 0.804803737632468 -0.293282576047066 </REAL-Entries>
    </REAL-SparseArray>
   </VectorInstance>
   <VectorInstance id="15">
    <REAL-SparseArray n="17">
     <Indices>1 2 3 4 5 6 7 8 9 10 11 12 13 14 15 16 17 </Indices>
     <REAL-Entries>-2.27030799717136 -0.916771706033137 0.555959397349487 -1.70768537977427 -1.45017395001967 0.613422810140325 -0.329320150730989 -0.320555605253894 -0.825943994593249 -0.488415222537671 -0.397884363490324 3.55824811923486 -0.260768849131939 -0.456423188769564 -0.290148067980827 0.804803737632468 -0.293282576047066 </REAL-Entries>
    </REAL-SparseArray>
   </VectorInstance>
   <VectorInstance id="16">
    <REAL-SparseArray n="17">
     <Indices>1 2 3 4 5 6 7 8 9 10 11 12 13 14 15 16 17 </Indices>
     <REAL-Entries>0.532556201467557 1.95876101093909 0.555959397349487 0.584677249025012 -1.45017395001967 0.613422810140325 -0.329320150730989 3.11473196438367 -0.825943994593249 -0.488415222537671 -0.397884363490324 -0.280600103362481 -0.260768849131939 -0.456423188769564 -0.290148067980827 0.804803737632468 -0.293282576047066 </REAL-Entries>
    </REAL-SparseArray>
   </VectorInstance>
   <VectorInstance id="17">
    <REAL-SparseArray n="17">
     <Indices>1 2 3 4 5 6 7 8 9 10 11 12 13 14 15 16 17 </Indices>
     <REAL-Entries>0.993399075982734 0.520994652452978 0.555959397349487 0.584677249025012 -1.45017395001967 0.613422810140325 -0.329320150730989 -0.320555605253894 -0.825943994593249 2.04425403626654 -0.397884363490324 -0.280600103362481 -0.260768849131939 -0.456423188769564 -0.290148067980827 0.804803737632468 -0.293282576047066 </REAL-Entries>
    </REAL-SparseArray>
   </VectorInstance>
   <VectorInstance id="18">
    <REAL-SparseArray n="17">
     <Indices>1 2 3 4 5 6 7 8 9 10 11 12 13 14 15 16 17 </Indices>
     <REAL-Entries>0.658160691659755 0.520994652452978 0.555959397349487 0.584677249025012 0.688500017555212 -1.62766166099734 3.03183630831705 -0.320555605253894 -0.825943994593249 -0.488415222537671 -0.397884363490324 -0.280600103362481 -0.260768849131939 -0.456423188769564 -0.290148067980827 0.804803737632468 -0.293282576047066 </REAL-Entries>
    </REAL-SparseArray>
   </VectorInstance>
   <VectorInstance id="19">
    <REAL-SparseArray n="17">
     <Indices>1 2 3 4 5 6 7 8 9 10 11 12 13 14 15 16 17 </Indices>
     <REAL-Entries>0.875079646221683 0.520994652452978 0.555959397349487 0.584677249025012 0.688500017555212 -1.62766166099734 3.03183630831705 -0.320555605253894 -0.825943994593249 -0.488415222537671 -0.397884363490324 -0.280600103362481 -0.260768849131939 -0.456423188769564 -0.290148067980827 0.804803737632468 -0.293282576047066 </REAL-Entries>
    </REAL-SparseArray>
   </VectorInstance>
   <VectorInstance id="20">
    <REAL-SparseArray n="17">
     <Indices>1 2 3 4 5 6 7 8 9 10 11 12 13 14 15 16 17 </Indices>
     <REAL-Entries>-0.966784597956721 1.95876101093909 -1.79589515854341 0.584677249025012 -1.45017395001967 0.613422810140325 -0.329320150730989 -0.320555605253894 1.20885289630123 -0.488415222537671 -0.397884363490324 -0.280600103362481 3.82884993115677 -0.456423188769564 -0.290148067980827 -1.24060655208167 -0.293282576047066 </REAL-Entries>
    </REAL-SparseArray>
   </VectorInstance>
   <VectorInstance id="21">
    <REAL-SparseArray n="17">
     <Indices>1 2 3 4 5 6 7 8 9 10 11 12 13 14 15 16 17 </Indices>
     <REAL-Entries>-1.49319301635223 -0.916771706033137 0.555959397349487 0.584677249025012 -1.45017395001967 0.613422810140325 -0.329320150730989 -0.320555605253894 -0.825943994593249 -0.488415222537671 2.50938433792193 -0.280600103362481 -0.260768849131939 -0.456423188769564 -0.290148067980827 0.804803737632468 -0.293282576047066 </REAL-Entries>
    </REAL-SparseArray>
   </VectorInstance>
   <VectorInstance id="22">
    <REAL-SparseArray n="17">
     <Indices>1 2 3 4 5 6 7 8 9 10 11 12 13 14 15 16 17 </Indices>
     <REAL-Entries>-0.610947077242222 0.520994652452978 -1.79589515854341 0.584677249025012 0.688500017555212 -1.62766166099734 -0.329320150730989 -0.320555605253894 1.20885289630123 -0.488415222537671 -0.397884363490324 -0.280600103362481 -0.260768849131939 2.18754176959827 -0.290148067980827 -1.24060655208167 -0.293282576047066 </REAL-Entries>
    </REAL-SparseArray>
   </VectorInstance>
   <VectorInstance id="23">
    <REAL-SparseArray n="17">
     <Indices>1 2 3 4 5 6 7 8 9 10 11 12 13 14 15 16 17 </Indices>
     <REAL-Entries>-1.15996430387232 0.520994652452978 0.555959397349487 0.584677249025012 0.688500017555212 0.613422810140325 3.03183630831705 -0.320555605253894 -0.825943994593249 -0.488415222537671 -0.397884363490324 -0.280600103362481 -0.260768849131939 -0.456423188769564 -0.290148067980827 0.804803737632468 -0.293282576047066 </REAL-Entries>
    </REAL-SparseArray>
   </VectorInstance>
   <VectorInstance id="24">
    <REAL-SparseArray n="17">
     <Indices>1 2 3 4 5 6 7 8 9 10 11 12 13 14 15 16 17 </Indices>
     <REAL-Entries>0.989002918826007 -0.916771706033137 0.555959397349487 0.584677249025012 -1.45017395001967 -1.62766166099734 -0.329320150730989 -0.320555605253894 -0.825943994593249 -0.488415222537671 2.50938433792193 -0.280600103362481 -0.260768849131939 -0.456423188769564 -0.290148067980827 0.804803737632468 -0.293282576047066 </REAL-Entries>
    </REAL-SparseArray>
   </VectorInstance>
   <VectorInstance id="25">
    <REAL-SparseArray n="17">
     <Indices>1 2 3 4 5 6 7 8 9 10 11 12 13 14 15 16 17 </Indices>
     <REAL-Entries>0.417125674980926 0.520994652452978 0.555959397349487 0.584677249025012 0.688500017555212 0.613422810140325 -0.329320150730989 -0.320555605253894 1.20885289630123 -0.488415222537671 -0.397884363490324 -0.280600103362481 -0.260768849131939 -0.456423188769564 -0.290148067980827 0.804803737632468 -0.293282576047066 </REAL-Entries>
    </REAL-SparseArray>
   </VectorInstance>
   <VectorInstance id="26">
    <REAL-SparseArray n="17">
     <Indices>1 2 3 4 5 6 7 8 9 10 11 12 13 14 15 16 17 </Indices>
     <REAL-Entries>-0.969924710211526 -0.916771706033137 -1.79589515854341 0.584677249025012 0.688500017555212 0.613422810140325 -0.329320150730989 -0.320555605253894 -0.825943994593249 -0.488415222537671 2.50938433792193 -0.280600103362481 3.82884993115677 -0.456423188769564 -0.290148067980827 -1.24060655208167 -0.293282576047066 </REAL-Entries>
    </REAL-SparseArray>
   </VectorInstance>
   <VectorInstance id="27">
    <REAL-SparseArray n="17">
     <Indices>1 2 3 4 5 6 7 8 9 10 11 12 13 14 15 16 17 </Indices>
     <REAL-Entries>-0.929480064369638 -0.916771706033137 0.555959397349487 -1.70768537977427 -1.45017395001967 0.613422810140325 -0.329320150730989 -0.320555605253894 -0.825943994593249 -0.488415222537671 -0.397884363490324 3.55824811923486 -0.260768849131939 -0.456423188769564 -0.290148067980827 0.804803737632468 -0.293282576047066 </REAL-Entries>
    </REAL-SparseArray>
   </VectorInstance>
   <VectorInstance id="28">
    <REAL-SparseArray n="17">
     <Indices>1 2 3 4 5 6 7 8 9 10 11 12 13 14 15 16 17 </Indices>
     <REAL-Entries>0.27054523492663 1.95876101093909 0.555959397349487 0.584677249025012 -1.45017395001967 0.613422810140325 -0.329320150730989 3.11473196438367 -0.825943994593249 -0.488415222537671 -0.397884363490324 -0.280600103362481 -0.260768849131939 -0.456423188769564 -0.290148067980827 0.804803737632468 -0.293282576047066 </REAL-Entries>
    </REAL-SparseArray>
   </VectorInstance>
   <VectorInstance id="29">
    <REAL-SparseArray n="17">
     <Indices>1 2 3 4 5 6 7 8 9 10 11 12 13 14 15 16 17 </Indices>
     <REAL-Entries>1.60860986894412 -0.916771706033137 0.555959397349487 0.584677249025012 -1.45017395001967 0.613422810140325 -0.329320150730989 -0.320555605253894 -0.825943994593249 -0.488415222537671 -0.397884363490324 3.55824811923486 -0.260768849131939 -0.456423188769564 -0.290148067980827 0.804803737632468 -0.293282576047066 </REAL-Entries>
    </REAL-SparseArray>
   </VectorInstance>
   <VectorInstance id="30">
    <REAL-SparseArray n="17">
     <Indices>1 2 3 4 5 6 7 8 9 10 11 12 13 14 15 16 17 </Indices>
     <REAL-Entries>0.353695407433865 0.520994652452978 0.555959397349487 0.584677249025012 0.688500017555212 -1.62766166099734 -0.329320150730989 -0.320555605253894 -0.825943994593249 2.04425403626654 -0.397884363490324 -0.280600103362481 -0.260768849131939 -0.456423188769564 -0.290148067980827 0.804803737632468 -0.293282576047066 </REAL-Entries>
    </REAL-SparseArray>
   </VectorInstance>
   <VectorInstance id="31">
    <REAL-SparseArray n="17">
     <Indices>1 2 3 4 5 6 7 8 9 10 11 12 13 14 15 16 17 </Indices>
     <REAL-Entries>1.83821487701546 -0.916771706033137 -1.79589515854341 0.584677249025012 0.688500017555212 0.613422810140325 -0.329320150730989 -0.320555605253894 1.20885289630123 -0.488415222537671 -0.397884363490324 -0.280600103362481 -0.260768849131939 2.18754176959827 -0.290148067980827 -1.24060655208167 -0.293282576047066 </REAL-Entries>
    </REAL-SparseArray>
   </VectorInstance>
   <VectorInstance id="32">
    <REAL-SparseArray n="17">
     <Indices>1 2 3 4 5 6 7 8 9 10 11 12 13 14 15 16 17 </Indices>
     <REAL-Entries>-0.163418278687417 -0.916771706033137 0.555959397349487 -1.70768537977427 0.688500017555212 0.613422810140325 -0.329320150730989 -0.320555605253894 -0.825943994593249 -0.488415222537671 -0.397884363490324 3.55824811923486 -0.260768849131939 -0.456423188769564 -0.290148067980827 0.804803737632468 -0.293282576047066 </REAL-Entries>
    </REAL-SparseArray>
   </VectorInstance>
   <VectorInstance id="33">
    <REAL-SparseArray n="17">
     <Indices>1 2 3 4 5 6 7 8 9 10 11 12 13 14 15 16 17 </Indices>
     <REAL-Entries>0.203598041654188 -0.916771706033137 0.555959397349487 0.584677249025012 0.688500017555212 0.613422810140325 -0.329320150730989 -0.320555605253894 -0.825943994593249 -0.488415222537671 2.50938433792193 -0.280600103362481 -0.260768849131939 -0.456423188769564 -0.290148067980827 0.804803737632468 -0.293282576047066 </REAL-Entries>
    </REAL-SparseArray>
   </VectorInstance>
   <VectorInstance id="34">
    <REAL-SparseArray n="17">
     <Indices>1 2 3 4 5 6 7 8 9 10 11 12 13 14 15 16 17 </Indices>
     <REAL-Entries>-0.672116463965822 0.520994652452978 0.555959397349487 0.584677249025012 0.688500017555212 0.613422810140325 -0.329320150730989 -0.320555605253894 1.20885289630123 -0.488415222537671 -0.397884363490324 -0.280600103362481 -0.260768849131939 -0.456423188769564 -0.290148067980827 0.804803737632468 -0.293282576047066 </REAL-Entries>
    </REAL-SparseArray>
   </VectorInstance>
   <VectorInstance id="35">
    <REAL-SparseArray n="17">
     <Indices>1 2 3 4 5 6 7 8 9 10 11 12 13 14 15 16 17 </Indices>
     <REAL-Entries>-0.311129159153443 0.520994652452978 0.555959397349487 0.584677249025012 -1.45017395001967 0.613422810140325 3.03183630831705 -0.320555605253894 -0.825943994593249 -0.488415222537671 -0.397884363490324 -0.280600103362481 -0.260768849131939 -0.456423188769564 -0.290148067980827 0.804803737632468 -0.293282576047066 </REAL-Entries>
    </REAL-SparseArray>
   </VectorInstance>
   <VectorInstance id="36">
    <REAL-SparseArray n="17">
     <Indices>1 2 3 4 5 6 7 8 9 10 11 12 13 14 15 16 17 </Indices>
     <REAL-Entries>-0.209138313117378 0.520994652452978 0.555959397349487 0.584677249025012 0.688500017555212 0.613422810140325 3.03183630831705 -0.320555605253894 -0.825943994593249 -0.488415222537671 -0.397884363490324 -0.280600103362481 -0.260768849131939 -0.456423188769564 -0.290148067980827 0.804803737632468 -0.293282576047066 </REAL-Entries>
    </REAL-SparseArray>
   </VectorInstance>
   <VectorInstance id="37">
    <REAL-SparseArray n="17">
     <Indices>1 2 3 4 5 6 7 8 9 10 11 12 13 14 15 16 17 </Indices>
     <REAL-Entries>-1.84400635745904 0.520994652452978 -1.79589515854341 -1.70768537977427 0.688500017555212 0.613422810140325 -0.329320150730989 -0.320555605253894 -0.825943994593249 2.04425403626654 -0.397884363490324 -0.280600103362481 -0.260768849131939 2.18754176959827 -0.290148067980827 -1.24060655208167 -0.293282576047066 </REAL-Entries>
    </REAL-SparseArray>
   </VectorInstance>
   <VectorInstance id="38">
    <REAL-SparseArray n="17">
     <Indices>1 2 3 4 5 6 7 8 9 10 11 12 13 14 15 16 17 </Indices>
     <REAL-Entries>-2.13101261754821 0.520994652452978 0.555959397349487 0.584677249025012 -1.45017395001967 0.613422810140325 -0.329320150730989 3.11473196438367 -0.825943994593249 -0.488415222537671 -0.397884363490324 -0.280600103362481 -0.260768849131939 -0.456423188769564 -0.290148067980827 0.804803737632468 -0.293282576047066 </REAL-Entries>
    </REAL-SparseArray>
   </VectorInstance>
   <VectorInstance id="39">
    <REAL-SparseArray n="17">
     <Indices>1 2 3 4 5 6 7 8 9 10 11 12 13 14 15 16 17 </Indices>
     <REAL-Entries>-0.384105367955111 0.520994652452978 0.555959397349487 0.584677249025012 -1.45017395001967 0.613422810140325 -0.329320150730989 3.11473196438367 -0.825943994593249 -0.488415222537671 -0.397884363490324 -0.280600103362481 -0.260768849131939 -0.456423188769564 -0.290148067980827 0.804803737632468 -0.293282576047066 </REAL-Entries>
    </REAL-SparseArray>
   </VectorInstance>
   <VectorInstance id="40">
    <REAL-SparseArray n="17">
     <Indices>1 2 3 4 5 6 7 8 9 10 11 12 13 14 15 16 17 </Indices>
     <REAL-Entries>1.02417217607982 0.520994652452978 0.555959397349487 0.584677249025012 -1.45017395001967 0.613422810140325 -0.329320150730989 -0.320555605253894 -0.825943994593249 2.04425403626654 -0.397884363490324 -0.280600103362481 -0.260768849131939 -0.456423188769564 -0.290148067980827 0.804803737632468 -0.293282576047066 </REAL-Entries>
    </REAL-SparseArray>
   </VectorInstance>
   <VectorInstance id="41">
    <REAL-SparseArray n="17">
     <Indices>1 2 3 4 5 6 7 8 9 10 11 12 13 14 15 16 17 </Indices>
     <REAL-Entries>0.192042428556505 1.95876101093909 0.555959397349487 0.584677249025012 -1.45017395001967 0.613422810140325 -0.329320150730989 3.11473196438367 -0.825943994593249 -0.488415222537671 -0.397884363490324 -0.280600103362481 -0.260768849131939 -0.456423188769564 -0.290148067980827 0.804803737632468 -0.293282576047066 </REAL-Entries>
    </REAL-SparseArray>
   </VectorInstance>
   <VectorInstance id="42">
    <REAL-SparseArray n="17">
     <Indices>1 2 3 4 5 6 7 8 9 10 11 12 13 14 15 16 17 </Indices>
     <REAL-Entries>-0.232751957273511 0.520994652452978 0.555959397349487 0.584677249025012 -1.45017395001967 -1.62766166099734 -0.329320150730989 -0.320555605253894 -0.825943994593249 2.04425403626654 -0.397884363490324 -0.280600103362481 -0.260768849131939 -0.456423188769564 -0.290148067980827 0.804803737632468 -0.293282576047066 </REAL-Entries>
    </REAL-SparseArray>
   </VectorInstance>
   <VectorInstance id="43">
    <REAL-SparseArray n="17">
     <Indices>1 2 3 4 5 6 7 8 9 10 11 12 13 14 15 16 17 </Indices>
     <REAL-Entries>-0.586328597164551 0.520994652452978 0.555959397349487 0.584677249025012 0.688500017555212 0.613422810140325 -0.329320150730989 -0.320555605253894 1.20885289630123 -0.488415222537671 -0.397884363490324 -0.280600103362481 -0.260768849131939 -0.456423188769564 -0.290148067980827 0.804803737632468 -0.293282576047066 </REAL-Entries>
    </REAL-SparseArray>
   </VectorInstance>
   <VectorInstance id="44">
    <REAL-SparseArray n="17">
     <Indices>1 2 3 4 5 6 7 8 9 10 11 12 13 14 15 16 17 </Indices>
     <REAL-Entries>2.52891396858236 -0.916771706033137 0.555959397349487 0.584677249025012 0.688500017555212 0.613422810140325 -0.329320150730989 -0.320555605253894 1.20885289630123 -0.488415222537671 -0.397884363490324 -0.280600103362481 -0.260768849131939 -0.456423188769564 -0.290148067980827 0.804803737632468 -0.293282576047066 </REAL-Entries>
    </REAL-SparseArray>
   </VectorInstance>
   <VectorInstance id="45">
    <REAL-SparseArray n="17">
     <Indices>1 2 3 4 5 6 7 8 9 10 11 12 13 14 15 16 17 </Indices>
     <REAL-Entries>0.978200932669478 -0.916771706033137 0.555959397349487 0.584677249025012 0.688500017555212 -1.62766166099734 -0.329320150730989 -0.320555605253894 -0.825943994593249 -0.488415222537671 2.50938433792193 -0.280600103362481 -0.260768849131939 -0.456423188769564 -0.290148067980827 0.804803737632468 -0.293282576047066 </REAL-Entries>
    </REAL-SparseArray>
   </VectorInstance>
   <VectorInstance id="46">
    <REAL-SparseArray n="17">
     <Indices>1 2 3 4 5 6 7 8 9 10 11 12 13 14 15 16 17 </Indices>
     <REAL-Entries>0.12032226465676 0.520994652452978 0.555959397349487 0.584677249025012 0.688500017555212 0.613422810140325 -0.329320150730989 -0.320555605253894 -0.825943994593249 2.04425403626654 -0.397884363490324 -0.280600103362481 -0.260768849131939 -0.456423188769564 -0.290148067980827 0.804803737632468 -0.293282576047066 </REAL-Entries>
    </REAL-SparseArray>
   </VectorInstance>
   <VectorInstance id="47">
    <REAL-SparseArray n="17">
     <Indices>1 2 3 4 5 6 7 8 9 10 11 12 13 14 15 16 17 </Indices>
     <REAL-Entries>-1.72882703995279 -0.916771706033137 -1.79589515854341 -1.70768537977427 0.688500017555212 0.613422810140325 -0.329320150730989 -0.320555605253894 1.20885289630123 -0.488415222537671 -0.397884363490324 -0.280600103362481 -0.260768849131939 2.18754176959827 -0.290148067980827 -1.24060655208167 -0.293282576047066 </REAL-Entries>
    </REAL-SparseArray>
   </VectorInstance>
   <VectorInstance id="48">
    <REAL-SparseArray n="17">
     <Indices>1 2 3 4 5 6 7 8 9 10 11 12 13 14 15 16 17 </Indices>
     <REAL-Entries>-0.192809729392392 0.520994652452978 0.555959397349487 0.584677249025012 0.688500017555212 0.613422810140325 -0.329320150730989 -0.320555605253894 1.20885289630123 -0.488415222537671 -0.397884363490324 -0.280600103362481 -0.260768849131939 -0.456423188769564 -0.290148067980827 0.804803737632468 -0.293282576047066 </REAL-Entries>
    </REAL-SparseArray>
   </VectorInstance>
   <VectorInstance id="49">
    <REAL-SparseArray n="17">
     <Indices>1 2 3 4 5 6 7 8 9 10 11 12 13 14 15 16 17 </Indices>
     <REAL-Entries>-0.561333303616303 1.95876101093909 0.555959397349487 0.584677249025012 0.688500017555212 0.613422810140325 -0.329320150730989 3.11473196438367 -0.825943994593249 -0.488415222537671 -0.397884363490324 -0.280600103362481 -0.260768849131939 -0.456423188769564 -0.290148067980827 0.804803737632468 -0.293282576047066 </REAL-Entries>
    </REAL-SparseArray>
   </VectorInstance>
   <VectorInstance id="50">
    <REAL-SparseArray n="17">
     <Indices>1 2 3 4 5 6 7 8 9 10 11 12 13 14 15 16 17 </Indices>
     <REAL-Entries>1.46441591420348 0.520994652452978 0.555959397349487 0.584677249025012 0.688500017555212 -1.62766166099734 -0.329320150730989 -0.320555605253894 -0.825943994593249 2.04425403626654 -0.397884363490324 -0.280600103362481 -0.260768849131939 -0.456423188769564 -0.290148067980827 0.804803737632468 -0.293282576047066 </REAL-Entries>
    </REAL-SparseArray>
   </VectorInstance>
   <VectorInstance id="51">
    <REAL-SparseArray n="17">
     <Indices>1 2 3 4 5 6 7 8 9 10 11 12 13 14 15 16 17 </Indices>
     <REAL-Entries>0.213520796379371 0.520994652452978 0.555959397349487 0.584677249025012 0.688500017555212 -1.62766166099734 -0.329320150730989 -0.320555605253894 1.20885289630123 -0.488415222537671 -0.397884363490324 -0.280600103362481 -0.260768849131939 -0.456423188769564 -0.290148067980827 0.804803737632468 -0.293282576047066 </REAL-Entries>
    </REAL-SparseArray>
   </VectorInstance>
   <VectorInstance id="52">
    <REAL-SparseArray n="17">
     <Indices>1 2 3 4 5 6 7 8 9 10 11 12 13 14 15 16 17 </Indices>
     <REAL-Entries>2.40481673227247 -0.916771706033137 -1.79589515854341 -1.70768537977427 -1.45017395001967 -1.62766166099734 -0.329320150730989 -0.320555605253894 -0.825943994593249 -0.488415222537671 -0.397884363490324 3.55824811923486 -0.260768849131939 2.18754176959827 -0.290148067980827 -1.24060655208167 -0.293282576047066 </REAL-Entries>
    </REAL-SparseArray>
   </VectorInstance>
   <VectorInstance id="53">
    <REAL-SparseArray n="17">
     <Indices>1 2 3 4 5 6 7 8 9 10 11 12 13 14 15 16 17 </Indices>
     <REAL-Entries>0.494749249919705 1.95876101093909 0.555959397349487 0.584677249025012 -1.45017395001967 0.613422810140325 -0.329320150730989 3.11473196438367 -0.825943994593249 -0.488415222537671 -0.397884363490324 -0.280600103362481 -0.260768849131939 -0.456423188769564 -0.290148067980827 0.804803737632468 -0.293282576047066 </REAL-Entries>
    </REAL-SparseArray>
   </VectorInstance>
   <VectorInstance id="54">
    <REAL-SparseArray n="17">
     <Indices>1 2 3 4 5 6 7 8 9 10 11 12 13 14 15 16 17 </Indices>
     <REAL-Entries>-0.831006144058954 0.520994652452978 0.555959397349487 0.584677249025012 0.688500017555212 -1.62766166099734 3.03183630831705 -0.320555605253894 -0.825943994593249 -0.488415222537671 -0.397884363490324 -0.280600103362481 -0.260768849131939 -0.456423188769564 -0.290148067980827 0.804803737632468 -0.293282576047066 </REAL-Entries>
    </REAL-SparseArray>
   </VectorInstance>
   <VectorInstance id="55">
    <REAL-SparseArray n="17">
     <Indices>1 2 3 4 5 6 7 8 9 10 11 12 13 14 15 16 17 </Indices>
     <REAL-Entries>-0.974697680838829 0.520994652452978 0.555959397349487 0.584677249025012 0.688500017555212 -1.62766166099734 3.03183630831705 -0.320555605253894 -0.825943994593249 -0.488415222537671 -0.397884363490324 -0.280600103362481 -0.260768849131939 -0.456423188769564 -0.290148067980827 0.804803737632468 -0.293282576047066 </REAL-Entries>
    </REAL-SparseArray>
   </VectorInstance>
   <VectorInstance id="56">
    <REAL-SparseArray n="17">
     <Indices>1 2 3 4 5 6 7 8 9 10 11 12 13 14 15 16 17 </Indices>
     <REAL-Entries>0.156245148851729 0.520994652452978 0.555959397349487 0.584677249025012 0.688500017555212 0.613422810140325 -0.329320150730989 3.11473196438367 -0.825943994593249 -0.488415222537671 -0.397884363490324 -0.280600103362481 -0.260768849131939 -0.456423188769564 -0.290148067980827 0.804803737632468 -0.293282576047066 </REAL-Entries>
    </REAL-SparseArray>
   </VectorInstance>
   <VectorInstance id="57">
    <REAL-SparseArray n="17">
     <Indices>1 2 3 4 5 6 7 8 9 10 11 12 13 14 15 16 17 </Indices>
     <REAL-Entries>0.29855503623949 -0.916771706033137 0.555959397349487 0.584677249025012 -1.45017395001967 -1.62766166099734 -0.329320150730989 -0.320555605253894 -0.825943994593249 -0.488415222537671 2.50938433792193 -0.280600103362481 -0.260768849131939 -0.456423188769564 -0.290148067980827 0.804803737632468 -0.293282576047066 </REAL-Entries>
    </REAL-SparseArray>
   </VectorInstance>
   <VectorInstance id="58">
    <REAL-SparseArray n="17">
     <Indices>1 2 3 4 5 6 7 8 9 10 11 12 13 14 15 16 17 </Indices>
     <REAL-Entries>-0.835276696725489 -0.916771706033137 -1.79589515854341 0.584677249025012 -1.45017395001967 0.613422810140325 -0.329320150730989 -0.320555605253894 -0.825943994593249 -0.488415222537671 2.50938433792193 -0.280600103362481 3.82884993115677 -0.456423188769564 -0.290148067980827 -1.24060655208167 -0.293282576047066 </REAL-Entries>
    </REAL-SparseArray>
   </VectorInstance>
   <VectorInstance id="59">
    <REAL-SparseArray n="17">
     <Indices>1 2 3 4 5 6 7 8 9 10 11 12 13 14 15 16 17 </Indices>
     <REAL-Entries>0.656653437777449 0.520994652452978 0.555959397349487 0.584677249025012 0.688500017555212 -1.62766166099734 3.03183630831705 -0.320555605253894 -0.825943994593249 -0.488415222537671 -0.397884363490324 -0.280600103362481 -0.260768849131939 -0.456423188769564 -0.290148067980827 0.804803737632468 -0.293282576047066 </REAL-Entries>
    </REAL-SparseArray>
   </VectorInstance>
   <VectorInstance id="60">
    <REAL-SparseArray n="17">
     <Indices>1 2 3 4 5 6 7 8 9 10 11 12 13 14 15 16 17 </Indices>
     <REAL-Entries>-1.99284767833679 -0.916771706033137 0.555959397349487 0.584677249025012 0.688500017555212 0.613422810140325 -0.329320150730989 -0.320555605253894 -0.825943994593249 2.04425403626654 -0.397884363490324 -0.280600103362481 -0.260768849131939 -0.456423188769564 -0.290148067980827 0.804803737632468 -0.293282576047066 </REAL-Entries>
    </REAL-SparseArray>
   </VectorInstance>
   <VectorInstance id="61">
    <REAL-SparseArray n="17">
     <Indices>1 2 3 4 5 6 7 8 9 10 11 12 13 14 15 16 17 </Indices>
     <REAL-Entries>0.183375718733244 0.520994652452978 0.555959397349487 0.584677249025012 0.688500017555212 0.613422810140325 -0.329320150730989 -0.320555605253894 1.20885289630123 -0.488415222537671 -0.397884363490324 -0.280600103362481 -0.260768849131939 -0.456423188769564 -0.290148067980827 0.804803737632468 -0.293282576047066 </REAL-Entries>
    </REAL-SparseArray>
   </VectorInstance>
   <VectorInstance id="62">
    <REAL-SparseArray n="17">
     <Indices>1 2 3 4 5 6 7 8 9 10 11 12 13 14 15 16 17 </Indices>
     <REAL-Entries>-1.64881697970036 1.95876101093909 0.555959397349487 0.584677249025012 -1.45017395001967 0.613422810140325 -0.329320150730989 3.11473196438367 -0.825943994593249 -0.488415222537671 -0.397884363490324 -0.280600103362481 -0.260768849131939 -0.456423188769564 -0.290148067980827 0.804803737632468 -0.293282576047066 </REAL-Entries>
    </REAL-SparseArray>
   </VectorInstance>
   <VectorInstance id="63">
    <REAL-SparseArray n="17">
     <Indices>1 2 3 4 5 6 7 8 9 10 11 12 13 14 15 16 17 </Indices>
     <REAL-Entries>-1.9461228079853 -0.916771706033137 0.555959397349487 -1.70768537977427 0.688500017555212 0.613422810140325 -0.329320150730989 -0.320555605253894 -0.825943994593249 2.04425403626654 -0.397884363490324 -0.280600103362481 -0.260768849131939 -0.456423188769564 -0.290148067980827 0.804803737632468 -0.293282576047066 </REAL-Entries>
    </REAL-SparseArray>
   </VectorInstance>
   <VectorInstance id="64">
    <REAL-SparseArray n="17">
     <Indices>1 2 3 4 5 6 7 8 9 10 11 12 13 14 15 16 17 </Indices>
     <REAL-Entries>-1.34108597872947 0.520994652452978 0.555959397349487 0.584677249025012 0.688500017555212 -1.62766166099734 3.03183630831705 -0.320555605253894 -0.825943994593249 -0.488415222537671 -0.397884363490324 -0.280600103362481 -0.260768849131939 -0.456423188769564 -0.290148067980827 0.804803737632468 -0.293282576047066 </REAL-Entries>
    </REAL-SparseArray>
   </VectorInstance>
   <VectorInstance id="65">
    <REAL-SparseArray n="17">
     <Indices>1 2 3 4 5 6 7 8 9 10 11 12 13 14 15 16 17 </Indices>
     <REAL-Entries>-0.464869055148694 0.520994652452978 0.555959397349487 0.584677249025012 -1.45017395001967 -1.62766166099734 -0.329320150730989 -0.320555605253894 1.20885289630123 -0.488415222537671 -0.397884363490324 -0.280600103362481 -0.260768849131939 -0.456423188769564 -0.290148067980827 0.804803737632468 -0.293282576047066 </REAL-Entries>
    </REAL-SparseArray>
   </VectorInstance>
   <VectorInstance id="66">
    <REAL-SparseArray n="17">
     <Indices>1 2 3 4 5 6 7 8 9 10 11 12 13 14 15 16 17 </Indices>
     <REAL-Entries>0.154109872518461 0.520994652452978 0.555959397349487 0.584677249025012 -1.45017395001967 0.613422810140325 -0.329320150730989 3.11473196438367 -0.825943994593249 -0.488415222537671 -0.397884363490324 -0.280600103362481 -0.260768849131939 -0.456423188769564 -0.290148067980827 0.804803737632468 -0.293282576047066 </REAL-Entries>
    </REAL-SparseArray>
   </VectorInstance>
   <VectorInstance id="67">
    <REAL-SparseArray n="17">
     <Indices>1 2 3 4 5 6 7 8 9 10 11 12 13 14 15 16 17 </Indices>
     <REAL-Entries>0.820567297478268 -0.916771706033137 0.555959397349487 0.584677249025012 0.688500017555212 0.613422810140325 -0.329320150730989 -0.320555605253894 -0.825943994593249 -0.488415222537671 2.50938433792193 -0.280600103362481 -0.260768849131939 -0.456423188769564 -0.290148067980827 0.804803737632468 -0.293282576047066 </REAL-Entries>
    </REAL-SparseArray>
   </VectorInstance>
   <VectorInstance id="68">
    <REAL-SparseArray n="17">
     <Indices>1 2 3 4 5 6 7 8 9 10 11 12 13 14 15 16 17 </Indices>
     <REAL-Entries>-0.612328726634336 0.520994652452978 0.555959397349487 0.584677249025012 0.688500017555212 0.613422810140325 -0.329320150730989 3.11473196438367 -0.825943994593249 -0.488415222537671 -0.397884363490324 -0.280600103362481 -0.260768849131939 -0.456423188769564 -0.290148067980827 0.804803737632468 -0.293282576047066 </REAL-Entries>
    </REAL-SparseArray>
   </VectorInstance>
   <VectorInstance id="69">
    <REAL-SparseArray n="17">
     <Indices>1 2 3 4 5 6 7 8 9 10 11 12 13 14 15 16 17 </Indices>
     <REAL-Entries>0.353444198453481 0.520994652452978 -1.79589515854341 0.584677249025012 0.688500017555212 -1.62766166099734 -0.329320150730989 -0.320555605253894 1.20885289630123 -0.488415222537671 -0.397884363490324 -0.280600103362481 -0.260768849131939 2.18754176959827 -0.290148067980827 -1.24060655208167 -0.293282576047066 </REAL-Entries>
    </REAL-SparseArray>
   </VectorInstance>
   <VectorInstance id="70">
    <REAL-SparseArray n="17">
     <Indices>1 2 3 4 5 6 7 8 9 10 11 12 13 14 15 16 17 </Indices>
     <REAL-Entries>-1.23067963185053 -0.916771706033137 0.555959397349487 0.584677249025012 -1.45017395001967 0.613422810140325 -0.329320150730989 -0.320555605253894 -0.825943994593249 -0.488415222537671 2.50938433792193 -0.280600103362481 -0.260768849131939 -0.456423188769564 -0.290148067980827 0.804803737632468 -0.293282576047066 </REAL-Entries>
    </REAL-SparseArray>
   </VectorInstance>
   <VectorInstance id="71">
    <REAL-SparseArray n="17">
     <Indices>1 2 3 4 5 6 7 8 9 10 11 12 13 14 15 16 17 </Indices>
     <REAL-Entries>0.781504301028495 0.520994652452978 0.555959397349487 0.584677249025012 0.688500017555212 0.613422810140325 3.03183630831705 -0.320555605253894 -0.825943994593249 -0.488415222537671 -0.397884363490324 -0.280600103362481 -0.260768849131939 -0.456423188769564 -0.290148067980827 0.804803737632468 -0.293282576047066 </REAL-Entries>
    </REAL-SparseArray>
   </VectorInstance>
   <VectorInstance id="72">
    <REAL-SparseArray n="17">
     <Indices>1 2 3 4 5 6 7 8 9 10 11 12 13 14 15 16 17 </Indices>
     <REAL-Entries>-0.127746603472833 0.520994652452978 0.555959397349487 0.584677249025012 0.688500017555212 0.613422810140325 -0.329320150730989 -0.320555605253894 1.20885289630123 -0.488415222537671 -0.397884363490324 -0.280600103362481 -0.260768849131939 -0.456423188769564 -0.290148067980827 0.804803737632468 -0.293282576047066 </REAL-Entries>
    </REAL-SparseArray>
   </VectorInstance>
   <VectorInstance id="73">
    <REAL-SparseArray n="17">
     <Indices>1 2 3 4 5 6 7 8 9 10 11 12 13 14 15 16 17 </Indices>
     <REAL-Entries>0.00514294715051363 -0.916771706033137 0.555959397349487 -1.70768537977427 0.688500017555212 0.613422810140325 -0.329320150730989 -0.320555605253894 -0.825943994593249 -0.488415222537671 -0.397884363490324 3.55824811923486 -0.260768849131939 -0.456423188769564 -0.290148067980827 0.804803737632468 -0.293282576047066 </REAL-Entries>
    </REAL-SparseArray>
   </VectorInstance>
   <VectorInstance id="74">
    <REAL-SparseArray n="17">
     <Indices>1 2 3 4 5 6 7 8 9 10 11 12 13 14 15 16 17 </Indices>
     <REAL-Entries>-0.224964478881595 0.520994652452978 -1.79589515854341 0.584677249025012 -1.45017395001967 0.613422810140325 -0.329320150730989 -0.320555605253894 1.20885289630123 -0.488415222537671 -0.397884363490324 -0.280600103362481 -0.260768849131939 2.18754176959827 -0.290148067980827 -1.24060655208167 -0.293282576047066 </REAL-Entries>
    </REAL-SparseArray>
   </VectorInstance>
   <VectorInstance id="75">
    <REAL-SparseArray n="17">
     <Indices>1 2 3 4 5 6 7 8 9 10 11 12 13 14 15 16 17 </Indices>
     <REAL-Entries>-0.100239220120741 -0.916771706033137 0.555959397349487 -1.70768537977427 0.688500017555212 0.613422810140325 -0.329320150730989 -0.320555605253894 1.20885289630123 -0.488415222537671 -0.397884363490324 -0.280600103362481 -0.260768849131939 -0.456423188769564 -0.290148067980827 0.804803737632468 -0.293282576047066 </REAL-Entries>
    </REAL-SparseArray>
   </VectorInstance>
   <VectorInstance id="76">
    <REAL-SparseArray n="17">
     <Indices>1 2 3 4 5 6 7 8 9 10 11 12 13 14 15 16 17 </Indices>
     <REAL-Entries>-0.596125747399542 0.520994652452978 0.555959397349487 0.584677249025012 0.688500017555212 -1.62766166099734 3.03183630831705 -0.320555605253894 -0.825943994593249 -0.488415222537671 -0.397884363490324 -0.280600103362481 -0.260768849131939 -0.456423188769564 -0.290148067980827 0.804803737632468 -0.293282576047066 </REAL-Entries>
    </REAL-SparseArray>
   </VectorInstance>
   <VectorInstance id="77">
    <REAL-SparseArray n="17">
     <Indices>1 2 3 4 5 6 7 8 9 10 11 12 13 14 15 16 17 </Indices>
     <REAL-Entries>-2.11267436198015 0.520994652452978 0.555959397349487 0.584677249025012 -1.45017395001967 0.613422810140325 3.03183630831705 -0.320555605253894 -0.825943994593249 -0.488415222537671 -0.397884363490324 -0.280600103362481 -0.260768849131939 -0.456423188769564 -0.290148067980827 0.804803737632468 -0.293282576047066 </REAL-Entries>
    </REAL-SparseArray>
   </VectorInstance>
   <VectorInstance id="78">
    <REAL-SparseArray n="17">
     <Indices>1 2 3 4 5 6 7 8 9 10 11 12 13 14 15 16 17 </Indices>
     <REAL-Entries>0.165288672145567 -0.916771706033137 0.555959397349487 -1.70768537977427 0.688500017555212 0.613422810140325 -0.329320150730989 -0.320555605253894 1.20885289630123 -0.488415222537671 -0.397884363490324 -0.280600103362481 -0.260768849131939 -0.456423188769564 -0.290148067980827 0.804803737632468 -0.293282576047066 </REAL-Entries>
    </REAL-SparseArray>
   </VectorInstance>
   <VectorInstance id="79">
    <REAL-SparseArray n="17">
     <Indices>1 2 3 4 5 6 7 8 9 10 11 12 13 14 15 16 17 </Indices>
     <REAL-Entries>0.308980208925443 -0.916771706033137 0.555959397349487 0.584677249025012 0.688500017555212 0.613422810140325 -0.329320150730989 -0.320555605253894 -0.825943994593249 -0.488415222537671 2.50938433792193 -0.280600103362481 -0.260768849131939 -0.456423188769564 -0.290148067980827 0.804803737632468 -0.293282576047066 </REAL-Entries>
    </REAL-SparseArray>
   </VectorInstance>
   <VectorInstance id="80">
    <REAL-SparseArray n="17">
     <Indices>1 2 3 4 5 6 7 8 9 10 11 12 13 14 15 16 17 </Indices>
     <REAL-Entries>-1.89876991518284 0.520994652452978 0.555959397349487 0.584677249025012 0.688500017555212 -1.62766166099734 3.03183630831705 -0.320555605253894 -0.825943994593249 -0.488415222537671 -0.397884363490324 -0.280600103362481 -0.260768849131939 -0.456423188769564 -0.290148067980827 0.804803737632468 -0.293282576047066 </REAL-Entries>
    </REAL-SparseArray>
   </VectorInstance>
   <VectorInstance id="81">
    <REAL-SparseArray n="17">
     <Indices>1 2 3 4 5 6 7 8 9 10 11 12 13 14 15 16 17 </Indices>
     <REAL-Entries>0.760779560146782 -0.916771706033137 0.555959397349487 -1.70768537977427 -1.45017395001967 -1.62766166099734 -0.329320150730989 -0.320555605253894 1.20885289630123 -0.488415222537671 -0.397884363490324 -0.280600103362481 -0.260768849131939 -0.456423188769564 -0.290148067980827 0.804803737632468 -0.293282576047066 </REAL-Entries>
    </REAL-SparseArray>
   </VectorInstance>
   <VectorInstance id="82">
    <REAL-SparseArray n="17">
     <Indices>1 2 3 4 5 6 7 8 9 10 11 12 13 14 15 16 17 </Indices>
     <REAL-Entries>0.304458447278523 0.520994652452978 0.555959397349487 0.584677249025012 0.688500017555212 -1.62766166099734 3.03183630831705 -0.320555605253894 -0.825943994593249 -0.488415222537671 -0.397884363490324 -0.280600103362481 -0.260768849131939 -0.456423188769564 -0.290148067980827 0.804803737632468 -0.293282576047066 </REAL-Entries>
    </REAL-SparseArray>
   </VectorInstance>
   <VectorInstance id="83">
    <REAL-SparseArray n="17">
     <Indices>1 2 3 4 5 6 7 8 9 10 11 12 13 14 15 16 17 </Indices>
     <REAL-Entries>1.29321699407151 -0.916771706033137 -1.79589515854341 0.584677249025012 0.688500017555212 0.613422810140325 -0.329320150730989 -0.320555605253894 -0.825943994593249 -0.488415222537671 -0.397884363490324 3.55824811923486 -0.260768849131939 2.18754176959827 -0.290148067980827 -1.24060655208167 -0.293282576047066 </REAL-Entries>
    </REAL-SparseArray>
   </VectorInstance>
   <VectorInstance id="84">
    <REAL-SparseArray n="17">
     <Indices>1 2 3 4 5 6 7 8 9 10 11 12 13 14 15 16 17 </Indices>
     <REAL-Entries>-0.751624106257484 -0.916771706033137 0.555959397349487 0.584677249025012 0.688500017555212 0.613422810140325 -0.329320150730989 -0.320555605253894 1.20885289630123 -0.488415222537671 -0.397884363490324 -0.280600103362481 -0.260768849131939 -0.456423188769564 -0.290148067980827 0.804803737632468 -0.293282576047066 </REAL-Entries>
    </REAL-SparseArray>
   </VectorInstance>
   <VectorInstance id="85">
    <REAL-SparseArray n="17">
     <Indices>1 2 3 4 5 6 7 8 9 10 11 12 13 14 15 16 17 </Indices>
     <REAL-Entries>0.430188541960914 0.520994652452978 0.555959397349487 0.584677249025012 0.688500017555212 -1.62766166099734 3.03183630831705 -0.320555605253894 -0.825943994593249 -0.488415222537671 -0.397884363490324 -0.280600103362481 -0.260768849131939 -0.456423188769564 -0.290148067980827 0.804803737632468 -0.293282576047066 </REAL-Entries>
    </REAL-SparseArray>
   </VectorInstance>
   <VectorInstance id="86">
    <REAL-SparseArray n="17">
     <Indices>1 2 3 4 5 6 7 8 9 10 11 12 13 14 15 16 17 </Indices>
     <REAL-Entries>-0.0310311460248396 -0.916771706033137 0.555959397349487 -1.70768537977427 0.688500017555212 0.613422810140325 -0.329320150730989 -0.320555605253894 1.20885289630123 -0.488415222537671 -0.397884363490324 -0.280600103362481 -0.260768849131939 -0.456423188769564 -0.290148067980827 0.804803737632468 -0.293282576047066 </REAL-Entries>
    </REAL-SparseArray>
   </VectorInstance>
   <VectorInstance id="87">
    <REAL-SparseArray n="17">
     <Indices>1 2 3 4 5 6 7 8 9 10 11 12 13 14 15 16 17 </Indices>
     <REAL-Entries>-1.63927103844575 0.520994652452978 -1.79589515854341 0.584677249025012 0.688500017555212 0.613422810140325 -0.329320150730989 -0.320555605253894 -0.825943994593249 2.04425403626654 -0.397884363490324 -0.280600103362481 -0.260768849131939 2.18754176959827 -0.290148067980827 -1.24060655208167 -0.293282576047066 </REAL-Entries>
    </REAL-SparseArray>
   </VectorInstance>
   <VectorInstance id="88">
    <REAL-SparseArray n="17">
     <Indices>1 2 3 4 5 6 7 8 9 10 11 12 13 14 15 16 17 </Indices>
     <REAL-Entries>-2.00277043306198 -0.916771706033137 0.555959397349487 0.584677249025012 0.688500017555212 -1.62766166099734 -0.329320150730989 -0.320555605253894 -0.825943994593249 -0.488415222537671 2.50938433792193 -0.280600103362481 -0.260768849131939 -0.456423188769564 -0.290148067980827 0.804803737632468 -0.293282576047066 </REAL-Entries>
    </REAL-SparseArray>
   </VectorInstance>
   <VectorInstance id="89">
    <REAL-SparseArray n="17">
     <Indices>1 2 3 4 5 6 7 8 9 10 11 12 13 14 15 16 17 </Indices>
     <REAL-Entries>0.171945710125754 -0.916771706033137 0.555959397349487 0.584677249025012 0.688500017555212 0.613422810140325 -0.329320150730989 -0.320555605253894 1.20885289630123 -0.488415222537671 -0.397884363490324 -0.280600103362481 -0.260768849131939 -0.456423188769564 -0.290148067980827 0.804803737632468 -0.293282576047066 </REAL-Entries>
    </REAL-SparseArray>
   </VectorInstance>
   <VectorInstance id="90">
    <REAL-SparseArray n="17">
     <Indices>1 2 3 4 5 6 7 8 9 10 11 12 13 14 15 16 17 </Indices>
     <REAL-Entries>1.23945827226925 -0.916771706033137 0.555959397349487 -1.70768537977427 -1.45017395001967 0.613422810140325 -0.329320150730989 -0.320555605253894 1.20885289630123 -0.488415222537671 -0.397884363490324 -0.280600103362481 -0.260768849131939 -0.456423188769564 3.4411560862526 -1.24060655208167 -0.293282576047066 </REAL-Entries>
    </REAL-SparseArray>
   </VectorInstance>
   <VectorInstance id="91">
    <REAL-SparseArray n="17">
     <Indices>1 2 3 4 5 6 7 8 9 10 11 12 13 14 15 16 17 </Indices>
     <REAL-Entries>-1.02556749936667 0.520994652452978 -1.79589515854341 0.584677249025012 -1.45017395001967 0.613422810140325 -0.329320150730989 -0.320555605253894 1.20885289630123 -0.488415222537671 -0.397884363490324 -0.280600103362481 -0.260768849131939 2.18754176959827 -0.290148067980827 -1.24060655208167 -0.293282576047066 </REAL-Entries>
    </REAL-SparseArray>
   </VectorInstance>
   <VectorInstance id="92">
    <REAL-SparseArray n="17">
     <Indices>1 2 3 4 5 6 7 8 9 10 11 12 13 14 15 16 17 </Indices>
     <REAL-Entries>-0.435854417914296 0.520994652452978 0.555959397349487 0.584677249025012 -1.45017395001967 -1.62766166099734 3.03183630831705 -0.320555605253894 -0.825943994593249 -0.488415222537671 -0.397884363490324 -0.280600103362481 -0.260768849131939 -0.456423188769564 -0.290148067980827 0.804803737632468 -0.293282576047066 </REAL-Entries>
    </REAL-SparseArray>
   </VectorInstance>
   <VectorInstance id="93">
    <REAL-SparseArray n="17">
     <Indices>1 2 3 4 5 6 7 8 9 10 11 12 13 14 15 16 17 </Indices>
     <REAL-Entries>-1.23105644532111 -0.916771706033137 0.555959397349487 -1.70768537977427 -1.45017395001967 0.613422810140325 -0.329320150730989 -0.320555605253894 1.20885289630123 -0.488415222537671 -0.397884363490324 -0.280600103362481 -0.260768849131939 -0.456423188769564 3.4411560862526 -1.24060655208167 -0.293282576047066 </REAL-Entries>
    </REAL-SparseArray>
   </VectorInstance>
   <VectorInstance id="94">
    <REAL-SparseArray n="17">
     <Indices>1 2 3 4 5 6 7 8 9 10 11 12 13 14 15 16 17 </Indices>
     <REAL-Entries>0.713049853873746 0.520994652452978 0.555959397349487 0.584677249025012 0.688500017555212 0.613422810140325 3.03183630831705 -0.320555605253894 -0.825943994593249 -0.488415222537671 -0.397884363490324 -0.280600103362481 -0.260768849131939 -0.456423188769564 -0.290148067980827 0.804803737632468 -0.293282576047066 </REAL-Entries>
    </REAL-SparseArray>
   </VectorInstance>
   <VectorInstance id="95">
    <REAL-SparseArray n="17">
     <Indices>1 2 3 4 5 6 7 8 9 10 11 12 13 14 15 16 17 </Indices>
     <REAL-Entries>1.02090645933483 0.520994652452978 0.555959397349487 0.584677249025012 -1.45017395001967 -1.62766166099734 -0.329320150730989 -0.320555605253894 1.20885289630123 -0.488415222537671 -0.397884363490324 -0.280600103362481 -0.260768849131939 -0.456423188769564 -0.290148067980827 0.804803737632468 -0.293282576047066 </REAL-Entries>
    </REAL-SparseArray>
   </VectorInstance>
   <VectorInstance id="96">
    <REAL-SparseArray n="17">
     <Indices>1 2 3 4 5 6 7 8 9 10 11 12 13 14 15 16 17 </Indices>
     <REAL-Entries>1.90742295111136 -0.916771706033137 0.555959397349487 -1.70768537977427 0.688500017555212 0.613422810140325 -0.329320150730989 -0.320555605253894 -0.825943994593249 -0.488415222537671 -0.397884363490324 3.55824811923486 -0.260768849131939 -0.456423188769564 -0.290148067980827 0.804803737632468 -0.293282576047066 </REAL-Entries>
    </REAL-SparseArray>
   </VectorInstance>
   <VectorInstance id="97">
    <REAL-SparseArray n="17">
     <Indices>1 2 3 4 5 6 7 8 9 10 11 12 13 14 15 16 17 </Indices>
     <REAL-Entries>-0.661440082299486 1.95876101093909 -1.79589515854341 0.584677249025012 0.688500017555212 0.613422810140325 -0.329320150730989 -0.320555605253894 1.20885289630123 -0.488415222537671 -0.397884363490324 -0.280600103362481 3.82884993115677 -0.456423188769564 -0.290148067980827 -1.24060655208167 -0.293282576047066 </REAL-Entries>
    </REAL-SparseArray>
   </VectorInstance>
   <VectorInstance id="98">
    <REAL-SparseArray n="17">
     <Indices>1 2 3 4 5 6 7 8 9 10 11 12 13 14 15 16 17 </Indices>
     <REAL-Entries>0.768567038538698 0.520994652452978 -1.79589515854341 0.584677249025012 0.688500017555212 -1.62766166099734 -0.329320150730989 -0.320555605253894 1.20885289630123 -0.488415222537671 -0.397884363490324 -0.280600103362481 -0.260768849131939 2.18754176959827 -0.290148067980827 -1.24060655208167 -0.293282576047066 </REAL-Entries>
    </REAL-SparseArray>
   </VectorInstance>
   <VectorInstance id="99">
    <REAL-SparseArray n="17">
     <Indices>1 2 3 4 5 6 7 8 9 10 11 12 13 14 15 16 17 </Indices>
     <REAL-Entries>0.398661814922673 -0.916771706033137 0.555959397349487 -1.70768537977427 0.688500017555212 0.613422810140325 -0.329320150730989 -0.320555605253894 1.20885289630123 -0.488415222537671 -0.397884363490324 -0.280600103362481 -0.260768849131939 -0.456423188769564 3.4411560862526 -1.24060655208167 -0.293282576047066 </REAL-Entries>
    </REAL-SparseArray>
   </VectorInstance>
   <VectorInstance id="100">
    <REAL-SparseArray n="17">
     <Indices>1 2 3 4 5 6 7 8 9 10 11 12 13 14 15 16 17 </Indices>
     <REAL-Entries>1.58838754602318 -0.916771706033137 0.555959397349487 -1.70768537977427 -1.45017395001967 -1.62766166099734 -0.329320150730989 -0.320555605253894 -0.825943994593249 -0.488415222537671 -0.397884363490324 3.55824811923486 -0.260768849131939 -0.456423188769564 -0.290148067980827 0.804803737632468 -0.293282576047066 </REAL-Entries>
    </REAL-SparseArray>
   </VectorInstance>
   <VectorInstance id="101">
    <REAL-SparseArray n="17">
     <Indices>1 2 3 4 5 6 7 8 9 10 11 12 13 14 15 16 17 </Indices>
     <REAL-Entries>0.409086987608625 -0.916771706033137 0.555959397349487 0.584677249025012 0.688500017555212 0.613422810140325 -0.329320150730989 -0.320555605253894 1.20885289630123 -0.488415222537671 -0.397884363490324 -0.280600103362481 -0.260768849131939 -0.456423188769564 -0.290148067980827 0.804803737632468 -0.293282576047066 </REAL-Entries>
    </REAL-SparseArray>
   </VectorInstance>
   <VectorInstance id="102">
    <REAL-SparseArray n="17">
     <Indices>1 2 3 4 5 6 7 8 9 10 11 12 13 14 15 16 17 </Indices>
     <REAL-Entries>0.273810951671627 0.520994652452978 -1.79589515854341 0.584677249025012 0.688500017555212 -1.62766166099734 -0.329320150730989 -0.320555605253894 1.20885289630123 -0.488415222537671 -0.397884363490324 -0.280600103362481 -0.260768849131939 2.18754176959827 -0.290148067980827 -1.24060655208167 -0.293282576047066 </REAL-Entries>
    </REAL-SparseArray>
   </VectorInstance>
   <VectorInstance id="103">
    <REAL-SparseArray n="17">
     <Indices>1 2 3 4 5 6 7 8 9 10 11 12 13 14 15 16 17 </Indices>
     <REAL-Entries>-1.44031352598131 0.520994652452978 -1.79589515854341 0.584677249025012 -1.45017395001967 0.613422810140325 -0.329320150730989 -0.320555605253894 1.20885289630123 -0.488415222537671 -0.397884363490324 -0.280600103362481 -0.260768849131939 2.18754176959827 -0.290148067980827 -1.24060655208167 -0.293282576047066 </REAL-Entries>
    </REAL-SparseArray>
   </VectorInstance>
   <VectorInstance id="104">
    <REAL-SparseArray n="17">
     <Indices>1 2 3 4 5 6 7 8 9 10 11 12 13 14 15 16 17 </Indices>
     <REAL-Entries>0.0408146223650981 0.520994652452978 0.555959397349487 0.584677249025012 0.688500017555212 -1.62766166099734 3.03183630831705 -0.320555605253894 -0.825943994593249 -0.488415222537671 -0.397884363490324 -0.280600103362481 -0.260768849131939 -0.456423188769564 -0.290148067980827 0.804803737632468 -0.293282576047066 </REAL-Entries>
    </REAL-SparseArray>
   </VectorInstance>
   <VectorInstance id="105">
    <REAL-SparseArray n="17">
     <Indices>1 2 3 4 5 6 7 8 9 10 11 12 13 14 15 16 17 </Indices>
     <REAL-Entries>0.246931590770496 0.520994652452978 0.555959397349487 0.584677249025012 -1.45017395001967 0.613422810140325 -0.329320150730989 3.11473196438367 -0.825943994593249 -0.488415222537671 -0.397884363490324 -0.280600103362481 -0.260768849131939 -0.456423188769564 -0.290148067980827 0.804803737632468 -0.293282576047066 </REAL-Entries>
    </REAL-SparseArray>
   </VectorInstance>
   <VectorInstance id="106">
    <REAL-SparseArray n="17">
     <Indices>1 2 3 4 5 6 7 8 9 10 11 12 13 14 15 16 17 </Indices>
     <REAL-Entries>0.50416958668412 1.95876101093909 -1.79589515854341 0.584677249025012 0.688500017555212 0.613422810140325 -0.329320150730989 -0.320555605253894 1.20885289630123 -0.488415222537671 -0.397884363490324 -0.280600103362481 3.82884993115677 -0.456423188769564 -0.290148067980827 -1.24060655208167 -0.293282576047066 </REAL-Entries>
    </REAL-SparseArray>
   </VectorInstance>
   <VectorInstance id="107">
    <REAL-SparseArray n="17">
     <Indices>1 2 3 4 5 6 7 8 9 10 11 12 13 14 15 16 17 </Indices>
     <REAL-Entries>0.528662462271598 0.520994652452978 0.555959397349487 0.584677249025012 -1.45017395001967 0.613422810140325 3.03183630831705 -0.320555605253894 -0.825943994593249 -0.488415222537671 -0.397884363490324 -0.280600103362481 -0.260768849131939 -0.456423188769564 -0.290148067980827 0.804803737632468 -0.293282576047066 </REAL-Entries>
    </REAL-SparseArray>
   </VectorInstance>
   <VectorInstance id="108">
    <REAL-SparseArray n="17">
     <Indices>1 2 3 4 5 6 7 8 9 10 11 12 13 14 15 16 17 </Indices>
     <REAL-Entries>-1.36708610819926 0.520994652452978 0.555959397349487 0.584677249025012 -1.45017395001967 0.613422810140325 -0.329320150730989 -0.320555605253894 -0.825943994593249 2.04425403626654 -0.397884363490324 -0.280600103362481 -0.260768849131939 -0.456423188769564 -0.290148067980827 0.804803737632468 -0.293282576047066 </REAL-Entries>
    </REAL-SparseArray>
   </VectorInstance>
   <VectorInstance id="109">
    <REAL-SparseArray n="17">
     <Indices>1 2 3 4 5 6 7 8 9 10 11 12 13 14 15 16 17 </Indices>
     <REAL-Entries>0.500652660958738 0.520994652452978 0.555959397349487 0.584677249025012 -1.45017395001967 0.613422810140325 3.03183630831705 -0.320555605253894 -0.825943994593249 -0.488415222537671 -0.397884363490324 -0.280600103362481 -0.260768849131939 -0.456423188769564 -0.290148067980827 0.804803737632468 -0.293282576047066 </REAL-Entries>
    </REAL-SparseArray>
   </VectorInstance>
   <VectorInstance id="110">
    <REAL-SparseArray n="17">
     <Indices>1 2 3 4 5 6 7 8 9 10 11 12 13 14 15 16 17 </Indices>
     <REAL-Entries>2.14067048939828 -0.916771706033137 0.555959397349487 -1.70768537977427 0.688500017555212 0.613422810140325 -0.329320150730989 -0.320555605253894 1.20885289630123 -0.488415222537671 -0.397884363490324 -0.280600103362481 -0.260768849131939 -0.456423188769564 -0.290148067980827 0.804803737632468 -0.293282576047066 </REAL-Entries>
    </REAL-SparseArray>
   </VectorInstance>
   <VectorInstance id="111">
    <REAL-SparseArray n="17">
     <Indices>1 2 3 4 5 6 7 8 9 10 11 12 13 14 15 16 17 </Indices>
     <REAL-Entries>0.288004259063345 -0.916771706033137 0.555959397349487 0.584677249025012 -1.45017395001967 0.613422810140325 -0.329320150730989 -0.320555605253894 -0.825943994593249 -0.488415222537671 2.50938433792193 -0.280600103362481 -0.260768849131939 -0.456423188769564 -0.290148067980827 -1.24060655208167 3.40437813764438 </REAL-Entries>
    </REAL-SparseArray>
   </VectorInstance>
   <VectorInstance id="112">
    <REAL-SparseArray n="17">
     <Indices>1 2 3 4 5 6 7 8 9 10 11 12 13 14 15 16 17 </Indices>
     <REAL-Entries>0.841417642850173 0.520994652452978 0.555959397349487 0.584677249025012 -1.45017395001967 0.613422810140325 -0.329320150730989 -0.320555605253894 -0.825943994593249 2.04425403626654 -0.397884363490324 -0.280600103362481 -0.260768849131939 -0.456423188769564 -0.290148067980827 0.804803737632468 -0.293282576047066 </REAL-Entries>
    </REAL-SparseArray>
   </VectorInstance>
   <VectorInstance id="113">
    <REAL-SparseArray n="17">
     <Indices>1 2 3 4 5 6 7 8 9 10 11 12 13 14 15 16 17 </Indices>
     <REAL-Entries>0.534440268820439 0.520994652452978 -1.79589515854341 0.584677249025012 -1.45017395001967 -1.62766166099734 -0.329320150730989 -0.320555605253894 1.20885289630123 -0.488415222537671 -0.397884363490324 -0.280600103362481 -0.260768849131939 2.18754176959827 -0.290148067980827 -1.24060655208167 -0.293282576047066 </REAL-Entries>
    </REAL-SparseArray>
   </VectorInstance>
   <VectorInstance id="114">
    <REAL-SparseArray n="17">
     <Indices>1 2 3 4 5 6 7 8 9 10 11 12 13 14 15 16 17 </Indices>
     <REAL-Entries>0.909244067553961 -0.916771706033137 -1.79589515854341 0.584677249025012 -1.45017395001967 0.613422810140325 -0.329320150730989 -0.320555605253894 -0.825943994593249 -0.488415222537671 2.50938433792193 -0.280600103362481 3.82884993115677 -0.456423188769564 -0.290148067980827 -1.24060655208167 -0.293282576047066 </REAL-Entries>
    </REAL-SparseArray>
   </VectorInstance>
   <VectorInstance id="115">
    <REAL-SparseArray n="17">
     <Indices>1 2 3 4 5 6 7 8 9 10 11 12 13 14 15 16 17 </Indices>
     <REAL-Entries>-1.77844081357871 0.520994652452978 0.555959397349487 0.584677249025012 -1.45017395001967 -1.62766166099734 -0.329320150730989 -0.320555605253894 -0.825943994593249 2.04425403626654 -0.397884363490324 -0.280600103362481 -0.260768849131939 -0.456423188769564 -0.290148067980827 0.804803737632468 -0.293282576047066 </REAL-Entries>
    </REAL-SparseArray>
   </VectorInstance>
   <VectorInstance id="116">
    <REAL-SparseArray n="17">
     <Indices>1 2 3 4 5 6 7 8 9 10 11 12 13 14 15 16 17 </Indices>
     <REAL-Entries>-0.318916637545359 1.95876101093909 0.555959397349487 0.584677249025012 -1.45017395001967 0.613422810140325 -0.329320150730989 -0.320555605253894 -0.825943994593249 2.04425403626654 -0.397884363490324 -0.280600103362481 -0.260768849131939 -0.456423188769564 -0.290148067980827 0.804803737632468 -0.293282576047066 </REAL-Entries>
    </REAL-SparseArray>
   </VectorInstance>
   <VectorInstance id="117">
    <REAL-SparseArray n="17">
     <Indices>1 2 3 4 5 6 7 8 9 10 11 12 13 14 15 16 17 </Indices>
     <REAL-Entries>-1.6787108483661 1.95876101093909 0.555959397349487 0.584677249025012 -1.45017395001967 0.613422810140325 -0.329320150730989 3.11473196438367 -0.825943994593249 -0.488415222537671 -0.397884363490324 -0.280600103362481 -0.260768849131939 -0.456423188769564 -0.290148067980827 0.804803737632468 -0.293282576047066 </REAL-Entries>
    </REAL-SparseArray>
   </VectorInstance>
   <VectorInstance id="118">
    <REAL-SparseArray n="17">
     <Indices>1 2 3 4 5 6 7 8 9 10 11 12 13 14 15 16 17 </Indices>
     <REAL-Entries>1.70344125903923 -0.916771706033137 0.555959397349487 -1.70768537977427 0.688500017555212 0.613422810140325 -0.329320150730989 -0.320555605253894 -0.825943994593249 2.04425403626654 -0.397884363490324 -0.280600103362481 -0.260768849131939 -0.456423188769564 -0.290148067980827 -1.24060655208167 3.40437813764438 </REAL-Entries>
    </REAL-SparseArray>
   </VectorInstance>
   <VectorInstance id="119">
    <REAL-SparseArray n="17">
     <Indices>1 2 3 4 5 6 7 8 9 10 11 12 13 14 15 16 17 </Indices>
     <REAL-Entries>-0.664580194554291 -0.916771706033137 0.555959397349487 -1.70768537977427 0.688500017555212 -1.62766166099734 -0.329320150730989 -0.320555605253894 1.20885289630123 -0.488415222537671 -0.397884363490324 -0.280600103362481 -0.260768849131939 -0.456423188769564 3.4411560862526 -1.24060655208167 -0.293282576047066 </REAL-Entries>
    </REAL-SparseArray>
   </VectorInstance>
   <VectorInstance id="120">
    <REAL-SparseArray n="17">
     <Indices>1 2 3 4 5 6 7 8 9 10 11 12 13 14 15 16 17 </Indices>
     <REAL-Entries>-1.60246892281944 1.95876101093909 -1.79589515854341 0.584677249025012 -1.45017395001967 0.613422810140325 -0.329320150730989 -0.320555605253894 1.20885289630123 -0.488415222537671 -0.397884363490324 -0.280600103362481 -0.260768849131939 2.18754176959827 -0.290148067980827 -1.24060655208167 -0.293282576047066 </REAL-Entries>
    </REAL-SparseArray>
   </VectorInstance>
   <VectorInstance id="121">
    <REAL-SparseArray n="17">
     <Indices>1 2 3 4 5 6 7 8 9 10 11 12 13 14 15 16 17 </Indices>
     <REAL-Entries>0.22658366335936 -0.916771706033137 0.555959397349487 0.584677249025012 0.688500017555212 -1.62766166099734 -0.329320150730989 -0.320555605253894 -0.825943994593249 -0.488415222537671 2.50938433792193 -0.280600103362481 -0.260768849131939 -0.456423188769564 -0.290148067980827 -1.24060655208167 3.40437813764438 </REAL-Entries>
    </REAL-SparseArray>
   </VectorInstance>
   <VectorInstance id="122">
    <REAL-SparseArray n="17">
     <Indices>1 2 3 4 5 6 7 8 9 10 11 12 13 14 15 16 17 </Indices>
     <REAL-Entries>0.195308145301503 1.95876101093909 0.555959397349487 0.584677249025012 0.688500017555212 0.613422810140325 -0.329320150730989 3.11473196438367 -0.825943994593249 -0.488415222537671 -0.397884363490324 -0.280600103362481 -0.260768849131939 -0.456423188769564 -0.290148067980827 0.804803737632468 -0.293282576047066 </REAL-Entries>
    </REAL-SparseArray>
   </VectorInstance>
   <VectorInstance id="123">
    <REAL-SparseArray n="17">
     <Indices>1 2 3 4 5 6 7 8 9 10 11 12 13 14 15 16 17 </Indices>
     <REAL-Entries>0.811398169694238 0.520994652452978 0.555959397349487 0.584677249025012 0.688500017555212 0.613422810140325 -0.329320150730989 -0.320555605253894 1.20885289630123 -0.488415222537671 -0.397884363490324 -0.280600103362481 -0.260768849131939 -0.456423188769564 -0.290148067980827 0.804803737632468 -0.293282576047066 </REAL-Entries>
    </REAL-SparseArray>
   </VectorInstance>
   <VectorInstance id="124">
    <REAL-SparseArray n="17">
     <Indices>1 2 3 4 5 6 7 8 9 10 11 12 13 14 15 16 17 </Indices>
     <REAL-Entries>0.280091176181237 0.520994652452978 0.555959397349487 0.584677249025012 0.688500017555212 0.613422810140325 -0.329320150730989 3.11473196438367 -0.825943994593249 -0.488415222537671 -0.397884363490324 -0.280600103362481 -0.260768849131939 -0.456423188769564 -0.290148067980827 0.804803737632468 -0.293282576047066 </REAL-Entries>
    </REAL-SparseArray>
   </VectorInstance>
   <VectorInstance id="125">
    <REAL-SparseArray n="17">
     <Indices>1 2 3 4 5 6 7 8 9 10 11 12 13 14 15 16 17 </Indices>
     <REAL-Entries>-0.941914908898666 0.520994652452978 0.555959397349487 0.584677249025012 -1.45017395001967 0.613422810140325 -0.329320150730989 -0.320555605253894 -0.825943994593249 2.04425403626654 -0.397884363490324 -0.280600103362481 -0.260768849131939 -0.456423188769564 -0.290148067980827 0.804803737632468 -0.293282576047066 </REAL-Entries>
    </REAL-SparseArray>
   </VectorInstance>
   <VectorInstance id="126">
    <REAL-SparseArray n="17">
     <Indices>1 2 3 4 5 6 7 8 9 10 11 12 13 14 15 16 17 </Indices>
     <REAL-Entries>0.45392779060724 -0.916771706033137 0.555959397349487 0.584677249025012 0.688500017555212 0.613422810140325 -0.329320150730989 -0.320555605253894 -0.825943994593249 -0.488415222537671 2.50938433792193 -0.280600103362481 -0.260768849131939 -0.456423188769564 -0.290148067980827 -1.24060655208167 3.40437813764438 </REAL-Entries>
    </REAL-SparseArray>
   </VectorInstance>
   <VectorInstance id="127">
    <REAL-SparseArray n="17">
     <Indices>1 2 3 4 5 6 7 8 9 10 11 12 13 14 15 16 17 </Indices>
     <REAL-Entries>1.05883901537287 0.520994652452978 0.555959397349487 0.584677249025012 0.688500017555212 0.613422810140325 -0.329320150730989 -0.320555605253894 1.20885289630123 -0.488415222537671 -0.397884363490324 -0.280600103362481 -0.260768849131939 -0.456423188769564 -0.290148067980827 0.804803737632468 -0.293282576047066 </REAL-Entries>
    </REAL-SparseArray>
   </VectorInstance>
   <VectorInstance id="128">
    <REAL-SparseArray n="17">
     <Indices>1 2 3 4 5 6 7 8 9 10 11 12 13 14 15 16 17 </Indices>
     <REAL-Entries>0.963630811807183 0.520994652452978 0.555959397349487 0.584677249025012 0.688500017555212 0.613422810140325 -0.329320150730989 3.11473196438367 -0.825943994593249 -0.488415222537671 -0.397884363490324 -0.280600103362481 -0.260768849131939 -0.456423188769564 -0.290148067980827 0.804803737632468 -0.293282576047066 </REAL-Entries>
    </REAL-SparseArray>
   </VectorInstance>
   <VectorInstance id="129">
    <REAL-SparseArray n="17">
     <Indices>1 2 3 4 5 6 7 8 9 10 11 12 13 14 15 16 17 </Indices>
     <REAL-Entries>0.293907670102379 0.520994652452978 -1.79589515854341 0.584677249025012 0.688500017555212 0.613422810140325 -0.329320150730989 -0.320555605253894 1.20885289630123 -0.488415222537671 -0.397884363490324 -0.280600103362481 -0.260768849131939 2.18754176959827 -0.290148067980827 -1.24060655208167 -0.293282576047066 </REAL-Entries>
    </REAL-SparseArray>
   </VectorInstance>
   <VectorInstance id="130">
    <REAL-SparseArray n="17">
     <Indices>1 2 3 4 5 6 7 8 9 10 11 12 13 14 15 16 17 </Indices>
     <REAL-Entries>-0.694725272200418 -0.916771706033137 0.555959397349487 0.584677249025012 0.688500017555212 0.613422810140325 -0.329320150730989 -0.320555605253894 -0.825943994593249 -0.488415222537671 2.50938433792193 -0.280600103362481 -0.260768849131939 -0.456423188769564 -0.290148067980827 0.804803737632468 -0.293282576047066 </REAL-Entries>
    </REAL-SparseArray>
   </VectorInstance>
   <VectorInstance id="131">
    <REAL-SparseArray n="17">
     <Indices>1 2 3 4 5 6 7 8 9 10 11 12 13 14 15 16 17 </Indices>
     <REAL-Entries>0.367763110335392 1.95876101093909 -1.79589515854341 0.584677249025012 -1.45017395001967 0.613422810140325 -0.329320150730989 -0.320555605253894 1.20885289630123 -0.488415222537671 -0.397884363490324 -0.280600103362481 -0.260768849131939 2.18754176959827 -0.290148067980827 -1.24060655208167 -0.293282576047066 </REAL-Entries>
    </REAL-SparseArray>
   </VectorInstance>
   <VectorInstance id="132">
    <REAL-SparseArray n="17">
     <Indices>1 2 3 4 5 6 7 8 9 10 11 12 13 14 15 16 17 </Indices>
     <REAL-Entries>-1.56252669493832 -0.916771706033137 -1.79589515854341 0.584677249025012 0.688500017555212 0.613422810140325 -0.329320150730989 -0.320555605253894 1.20885289630123 -0.488415222537671 -0.397884363490324 -0.280600103362481 -0.260768849131939 2.18754176959827 -0.290148067980827 -1.24060655208167 -0.293282576047066 </REAL-Entries>
    </REAL-SparseArray>
   </VectorInstance>
   <VectorInstance id="133">
    <REAL-SparseArray n="17">
     <Indices>1 2 3 4 5 6 7 8 9 10 11 12 13 14 15 16 17 </Indices>
     <REAL-Entries>0.138786124715013 0.520994652452978 -1.79589515854341 0.584677249025012 0.688500017555212 0.613422810140325 -0.329320150730989 -0.320555605253894 -0.825943994593249 2.04425403626654 -0.397884363490324 -0.280600103362481 -0.260768849131939 2.18754176959827 -0.290148067980827 -1.24060655208167 -0.293282576047066 </REAL-Entries>
    </REAL-SparseArray>
   </VectorInstance>
   <VectorInstance id="134">
    <REAL-SparseArray n="17">
     <Indices>1 2 3 4 5 6 7 8 9 10 11 12 13 14 15 16 17 </Indices>
     <REAL-Entries>-0.144577605158587 1.95876101093909 0.555959397349487 0.584677249025012 -1.45017395001967 0.613422810140325 -0.329320150730989 3.11473196438367 -0.825943994593249 -0.488415222537671 -0.397884363490324 -0.280600103362481 -0.260768849131939 -0.456423188769564 -0.290148067980827 0.804803737632468 -0.293282576047066 </REAL-Entries>
    </REAL-SparseArray>
   </VectorInstance>
   <VectorInstance id="135">
    <REAL-SparseArray n="17">
     <Indices>1 2 3 4 5 6 7 8 9 10 11 12 13 14 15 16 17 </Indices>
     <REAL-Entries>-1.02908442509205 1.95876101093909 -1.79589515854341 0.584677249025012 0.688500017555212 0.613422810140325 -0.329320150730989 -0.320555605253894 1.20885289630123 -0.488415222537671 -0.397884363490324 -0.280600103362481 -0.260768849131939 2.18754176959827 -0.290148067980827 -1.24060655208167 -0.293282576047066 </REAL-Entries>
    </REAL-SparseArray>
   </VectorInstance>
   <VectorInstance id="136">
    <REAL-SparseArray n="17">
     <Indices>1 2 3 4 5 6 7 8 9 10 11 12 13 14 15 16 17 </Indices>
     <REAL-Entries>-1.96245139171028 -0.916771706033137 0.555959397349487 0.584677249025012 0.688500017555212 0.613422810140325 -0.329320150730989 -0.320555605253894 -0.825943994593249 2.04425403626654 -0.397884363490324 -0.280600103362481 -0.260768849131939 -0.456423188769564 -0.290148067980827 0.804803737632468 -0.293282576047066 </REAL-Entries>
    </REAL-SparseArray>
   </VectorInstance>
   <VectorInstance id="137">
    <REAL-SparseArray n="17">
     <Indices>1 2 3 4 5 6 7 8 9 10 11 12 13 14 15 16 17 </Indices>
     <REAL-Entries>0.68868258277646 0.520994652452978 0.555959397349487 0.584677249025012 0.688500017555212 -1.62766166099734 -0.329320150730989 -0.320555605253894 -0.825943994593249 2.04425403626654 -0.397884363490324 -0.280600103362481 -0.260768849131939 -0.456423188769564 -0.290148067980827 0.804803737632468 -0.293282576047066 </REAL-Entries>
    </REAL-SparseArray>
   </VectorInstance>
   <VectorInstance id="138">
    <REAL-SparseArray n="17">
     <Indices>1 2 3 4 5 6 7 8 9 10 11 12 13 14 15 16 17 </Indices>
     <REAL-Entries>-2.03266430172772 -0.916771706033137 0.555959397349487 -1.70768537977427 0.688500017555212 -1.62766166099734 -0.329320150730989 -0.320555605253894 1.20885289630123 -0.488415222537671 -0.397884363490324 -0.280600103362481 -0.260768849131939 -0.456423188769564 -0.290148067980827 0.804803737632468 -0.293282576047066 </REAL-Entries>
    </REAL-SparseArray>
   </VectorInstance>
   <VectorInstance id="139">
    <REAL-SparseArray n="17">
     <Indices>1 2 3 4 5 6 7 8 9 10 11 12 13 14 15 16 17 </Indices>
     <REAL-Entries>0.524643118585448 0.520994652452978 0.555959397349487 0.584677249025012 -1.45017395001967 -1.62766166099734 -0.329320150730989 -0.320555605253894 -0.825943994593249 2.04425403626654 -0.397884363490324 -0.280600103362481 -0.260768849131939 -0.456423188769564 -0.290148067980827 0.804803737632468 -0.293282576047066 </REAL-Entries>
    </REAL-SparseArray>
   </VectorInstance>
   <VectorInstance id="140">
    <REAL-SparseArray n="17">
     <Indices>1 2 3 4 5 6 7 8 9 10 11 12 13 14 15 16 17 </Indices>
     <REAL-Entries>-1.92791015690743 -0.916771706033137 0.555959397349487 0.584677249025012 -1.45017395001967 0.613422810140325 -0.329320150730989 -0.320555605253894 -0.825943994593249 2.04425403626654 -0.397884363490324 -0.280600103362481 -0.260768849131939 -0.456423188769564 -0.290148067980827 -1.24060655208167 3.40437813764438 </REAL-Entries>
    </REAL-SparseArray>
   </VectorInstance>
   <VectorInstance id="141">
    <REAL-SparseArray n="17">
     <Indices>1 2 3 4 5 6 7 8 9 10 11 12 13 14 15 16 17 </Indices>
     <REAL-Entries>1.50460935106498 -0.916771706033137 0.555959397349487 0.584677249025012 0.688500017555212 0.613422810140325 -0.329320150730989 -0.320555605253894 -0.825943994593249 2.04425403626654 -0.397884363490324 -0.280600103362481 -0.260768849131939 -0.456423188769564 -0.290148067980827 -1.24060655208167 3.40437813764438 </REAL-Entries>
    </REAL-SparseArray>
   </VectorInstance>
   <VectorInstance id="142">
    <REAL-SparseArray n="17">
     <Indices>1 2 3 4 5 6 7 8 9 10 11 12 13 14 15 16 17 </Indices>
     <REAL-Entries>-0.29781508319307 0.520994652452978 0.555959397349487 -1.70768537977427 0.688500017555212 0.613422810140325 -0.329320150730989 -0.320555605253894 1.20885289630123 -0.488415222537671 -0.397884363490324 -0.280600103362481 -0.260768849131939 -0.456423188769564 3.4411560862526 -1.24060655208167 -0.293282576047066 </REAL-Entries>
    </REAL-SparseArray>
   </VectorInstance>
   <VectorInstance id="143">
    <REAL-SparseArray n="17">
     <Indices>1 2 3 4 5 6 7 8 9 10 11 12 13 14 15 16 17 </Indices>
     <REAL-Entries>-1.81285644389137 0.520994652452978 0.555959397349487 0.584677249025012 0.688500017555212 -1.62766166099734 -0.329320150730989 -0.320555605253894 1.20885289630123 -0.488415222537671 -0.397884363490324 -0.280600103362481 -0.260768849131939 -0.456423188769564 -0.290148067980827 0.804803737632468 -0.293282576047066 </REAL-Entries>
    </REAL-SparseArray>
   </VectorInstance>
   <VectorInstance id="144">
    <REAL-SparseArray n="17">
     <Indices>1 2 3 4 5 6 7 8 9 10 11 12 13 14 15 16 17 </Indices>
     <REAL-Entries>-0.733411455179615 0.520994652452978 0.555959397349487 0.584677249025012 0.688500017555212 0.613422810140325 -0.329320150730989 3.11473196438367 -0.825943994593249 -0.488415222537671 -0.397884363490324 -0.280600103362481 -0.260768849131939 -0.456423188769564 -0.290148067980827 0.804803737632468 -0.293282576047066 </REAL-Entries>
    </REAL-SparseArray>
   </VectorInstance>
   <VectorInstance id="145">
    <REAL-SparseArray n="17">
     <Indices>1 2 3 4 5 6 7 8 9 10 11 12 13 14 15 16 17 </Indices>
     <REAL-Entries>1.18670438638853 1.95876101093909 -1.79589515854341 0.584677249025012 0.688500017555212 0.613422810140325 -0.329320150730989 3.11473196438367 -0.825943994593249 -0.488415222537671 -0.397884363490324 -0.280600103362481 3.82884993115677 -0.456423188769564 -0.290148067980827 -1.24060655208167 -0.293282576047066 </REAL-Entries>
    </REAL-SparseArray>
   </VectorInstance>
   <VectorInstance id="146">
    <REAL-SparseArray n="17">
     <Indices>1 2 3 4 5 6 7 8 9 10 11 12 13 14 15 16 17 </Indices>
     <REAL-Entries>-0.185022251000475 0.520994652452978 0.555959397349487 0.584677249025012 0.688500017555212 -1.62766166099734 3.03183630831705 -0.320555605253894 -0.825943994593249 -0.488415222537671 -0.397884363490324 -0.280600103362481 -0.260768849131939 -0.456423188769564 -0.290148067980827 0.804803737632468 -0.293282576047066 </REAL-Entries>
    </REAL-SparseArray>
   </VectorInstance>
   <VectorInstance id="147">
    <REAL-SparseArray n="17">
     <Indices>1 2 3 4 5 6 7 8 9 10 11 12 13 14 15 16 17 </Indices>
     <REAL-Entries>0.805117945184628 1.95876101093909 0.555959397349487 0.584677249025012 -1.45017395001967 0.613422810140325 -0.329320150730989 3.11473196438367 -0.825943994593249 -0.488415222537671 -0.397884363490324 -0.280600103362481 -0.260768849131939 -0.456423188769564 -0.290148067980827 0.804803737632468 -0.293282576047066 </REAL-Entries>
    </REAL-SparseArray>
   </VectorInstance>
   <VectorInstance id="148">
    <REAL-SparseArray n="17">
     <Indices>1 2 3 4 5 6 7 8 9 10 11 12 13 14 15 16 17 </Indices>
     <REAL-Entries>-1.14237967524541 1.95876101093909 -1.79589515854341 0.584677249025012 0.688500017555212 0.613422810140325 -0.329320150730989 -0.320555605253894 1.20885289630123 -0.488415222537671 -0.397884363490324 -0.280600103362481 -0.260768849131939 2.18754176959827 -0.290148067980827 -1.24060655208167 -0.293282576047066 </REAL-Entries>
    </REAL-SparseArray>
   </VectorInstance>
   <VectorInstance id="149">
    <REAL-SparseArray n="17">
     <Indices>1 2 3 4 5 6 7 8 9 10 11 12 13 14 15 16 17 </Indices>
     <REAL-Entries>0.0367952786789477 0.520994652452978 0.555959397349487 0.584677249025012 -1.45017395001967 -1.62766166099734 3.03183630831705 -0.320555605253894 -0.825943994593249 -0.488415222537671 -0.397884363490324 -0.280600103362481 -0.260768849131939 -0.456423188769564 -0.290148067980827 0.804803737632468 -0.293282576047066 </REAL-Entries>
    </REAL-SparseArray>
   </VectorInstance>
   <VectorInstance id="150">
    <REAL-SparseArray n="17">
     <Indices>1 2 3 4 5 6 7 8 9 10 11 12 13 14 15 16 17 </Indices>
     <REAL-Entries>-2.34278178801226 -0.916771706033137 -1.79589515854341 0.584677249025012 0.688500017555212 0.613422810140325 -0.329320150730989 -0.320555605253894 1.20885289630123 -0.488415222537671 -0.397884363490324 -0.280600103362481 -0.260768849131939 2.18754176959827 -0.290148067980827 -1.24060655208167 -0.293282576047066 </REAL-Entries>
    </REAL-SparseArray>
   </VectorInstance>
   <VectorInstance id="151">
    <REAL-SparseArray n="17">
     <Indices>1 2 3 4 5 6 7 8 9 10 11 12 13 14 15 16 17 </Indices>
     <REAL-Entries>-1.2472594245559 -0.916771706033137 0.555959397349487 -1.70768537977427 0.688500017555212 0.613422810140325 -0.329320150730989 -0.320555605253894 1.20885289630123 -0.488415222537671 -0.397884363490324 -0.280600103362481 -0.260768849131939 -0.456423188769564 -0.290148067980827 0.804803737632468 -0.293282576047066 </REAL-Entries>
    </REAL-SparseArray>
   </VectorInstance>
   <VectorInstance id="152">
    <REAL-SparseArray n="17">
     <Indices>1 2 3 4 5 6 7 8 9 10 11 12 13 14 15 16 17 </Indices>
     <REAL-Entries>-1.23067963185053 0.520994652452978 0.555959397349487 0.584677249025012 0.688500017555212 -1.62766166099734 3.03183630831705 -0.320555605253894 -0.825943994593249 -0.488415222537671 -0.397884363490324 -0.280600103362481 -0.260768849131939 -0.456423188769564 -0.290148067980827 0.804803737632468 -0.293282576047066 </REAL-Entries>
    </REAL-SparseArray>
   </VectorInstance>
   <VectorInstance id="153">
    <REAL-SparseArray n="17">
     <Indices>1 2 3 4 5 6 7 8 9 10 11 12 13 14 15 16 17 </Indices>
     <REAL-Entries>0.271550070848167 0.520994652452978 0.555959397349487 0.584677249025012 -1.45017395001967 -1.62766166099734 -0.329320150730989 -0.320555605253894 -0.825943994593249 2.04425403626654 -0.397884363490324 -0.280600103362481 -0.260768849131939 -0.456423188769564 -0.290148067980827 0.804803737632468 -0.293282576047066 </REAL-Entries>
    </REAL-SparseArray>
   </VectorInstance>
   <VectorInstance id="154">
    <REAL-SparseArray n="17">
     <Indices>1 2 3 4 5 6 7 8 9 10 11 12 13 14 15 16 17 </Indices>
     <REAL-Entries>-2.41525557885316 1.95876101093909 -1.79589515854341 0.584677249025012 0.688500017555212 0.613422810140325 -0.329320150730989 3.11473196438367 -0.825943994593249 -0.488415222537671 -0.397884363490324 -0.280600103362481 3.82884993115677 -0.456423188769564 -0.290148067980827 -1.24060655208167 -0.293282576047066 </REAL-Entries>
    </REAL-SparseArray>
   </VectorInstance>
   <VectorInstance id="155">
    <REAL-SparseArray n="17">
     <Indices>1 2 3 4 5 6 7 8 9 10 11 12 13 14 15 16 17 </Indices>
     <REAL-Entries>-1.52823666911585 0.520994652452978 0.555959397349487 -1.70768537977427 0.688500017555212 0.613422810140325 -0.329320150730989 -0.320555605253894 1.20885289630123 -0.488415222537671 -0.397884363490324 -0.280600103362481 -0.260768849131939 -0.456423188769564 3.4411560862526 -1.24060655208167 -0.293282576047066 </REAL-Entries>
    </REAL-SparseArray>
   </VectorInstance>
   <VectorInstance id="156">
    <REAL-SparseArray n="17">
     <Indices>1 2 3 4 5 6 7 8 9 10 11 12 13 14 15 16 17 </Indices>
     <REAL-Entries>-0.333361153917462 -0.916771706033137 0.555959397349487 0.584677249025012 0.688500017555212 0.613422810140325 -0.329320150730989 -0.320555605253894 1.20885289630123 -0.488415222537671 -0.397884363490324 -0.280600103362481 -0.260768849131939 -0.456423188769564 -0.290148067980827 0.804803737632468 -0.293282576047066 </REAL-Entries>
    </REAL-SparseArray>
   </VectorInstance>
   <VectorInstance id="157">
    <REAL-SparseArray n="17">
     <Indices>1 2 3 4 5 6 7 8 9 10 11 12 13 14 15 16 17 </Indices>
     <REAL-Entries>-1.18043783577365 0.520994652452978 -1.79589515854341 0.584677249025012 0.688500017555212 -1.62766166099734 -0.329320150730989 -0.320555605253894 1.20885289630123 -0.488415222537671 -0.397884363490324 -0.280600103362481 -0.260768849131939 2.18754176959827 -0.290148067980827 -1.24060655208167 -0.293282576047066 </REAL-Entries>
    </REAL-SparseArray>
   </VectorInstance>
   <VectorInstance id="158">
    <REAL-SparseArray n="17">
     <Indices>1 2 3 4 5 6 7 8 9 10 11 12 13 14 15 16 17 </Indices>
     <REAL-Entries>0.5270296038991 0.520994652452978 0.555959397349487 0.584677249025012 -1.45017395001967 -1.62766166099734 3.03183630831705 -0.320555605253894 -0.825943994593249 -0.488415222537671 -0.397884363490324 -0.280600103362481 -0.260768849131939 -0.456423188769564 -0.290148067980827 0.804803737632468 -0.293282576047066 </REAL-Entries>
    </REAL-SparseArray>
   </VectorInstance>
   <VectorInstance id="159">
    <REAL-SparseArray n="17">
     <Indices>1 2 3 4 5 6 7 8 9 10 11 12 13 14 15 16 17 </Indices>
     <REAL-Entries>-1.49721236003838 1.95876101093909 -1.79589515854341 0.584677249025012 0.688500017555212 0.613422810140325 -0.329320150730989 3.11473196438367 -0.825943994593249 -0.488415222537671 -0.397884363490324 -0.280600103362481 3.82884993115677 -0.456423188769564 -0.290148067980827 -1.24060655208167 -0.293282576047066 </REAL-Entries>
    </REAL-SparseArray>
   </VectorInstance>
   <VectorInstance id="160">
    <REAL-SparseArray n="17">
     <Indices>1 2 3 4 5 6 7 8 9 10 11 12 13 14 15 16 17 </Indices>
     <REAL-Entries>-0.837411973058756 -0.916771706033137 -1.79589515854341 -1.70768537977427 0.688500017555212 0.613422810140325 -0.329320150730989 -0.320555605253894 -0.825943994593249 2.04425403626654 -0.397884363490324 -0.280600103362481 -0.260768849131939 2.18754176959827 -0.290148067980827 -1.24060655208167 -0.293282576047066 </REAL-Entries>
    </REAL-SparseArray>
   </VectorInstance>
   <VectorInstance id="161">
    <REAL-SparseArray n="17">
     <Indices>1 2 3 4 5 6 7 8 9 10 11 12 13 14 15 16 17 </Indices>
     <REAL-Entries>0.609551753955374 0.520994652452978 -1.79589515854341 0.584677249025012 0.688500017555212 -1.62766166099734 -0.329320150730989 -0.320555605253894 1.20885289630123 -0.488415222537671 -0.397884363490324 -0.280600103362481 -0.260768849131939 2.18754176959827 -0.290148067980827 -1.24060655208167 -0.293282576047066 </REAL-Entries>
    </REAL-SparseArray>
   </VectorInstance>
   <VectorInstance id="162">
    <REAL-SparseArray n="17">
     <Indices>1 2 3 4 5 6 7 8 9 10 11 12 13 14 15 16 17 </Indices>
     <REAL-Entries>0.325685606121005 -0.916771706033137 -1.79589515854341 -1.70768537977427 0.688500017555212 0.613422810140325 -0.329320150730989 -0.320555605253894 1.20885289630123 -0.488415222537671 -0.397884363490324 -0.280600103362481 -0.260768849131939 2.18754176959827 -0.290148067980827 -1.24060655208167 -0.293282576047066 </REAL-Entries>
    </REAL-SparseArray>
   </VectorInstance>
   <VectorInstance id="163">
    <REAL-SparseArray n="17">
     <Indices>1 2 3 4 5 6 7 8 9 10 11 12 13 14 15 16 17 </Indices>
     <REAL-Entries>-1.52195644460624 -0.916771706033137 0.555959397349487 -1.70768537977427 0.688500017555212 0.613422810140325 -0.329320150730989 -0.320555605253894 1.20885289630123 -0.488415222537671 -0.397884363490324 -0.280600103362481 -0.260768849131939 -0.456423188769564 -0.290148067980827 0.804803737632468 -0.293282576047066 </REAL-Entries>
    </REAL-SparseArray>
   </VectorInstance>
   <VectorInstance id="164">
    <REAL-SparseArray n="17">
     <Indices>1 2 3 4 5 6 7 8 9 10 11 12 13 14 15 16 17 </Indices>
     <REAL-Entries>-1.05747103987549 0.520994652452978 0.555959397349487 0.584677249025012 0.688500017555212 0.613422810140325 -0.329320150730989 -0.320555605253894 1.20885289630123 -0.488415222537671 -0.397884363490324 -0.280600103362481 -0.260768849131939 -0.456423188769564 -0.290148067980827 0.804803737632468 -0.293282576047066 </REAL-Entries>
    </REAL-SparseArray>
   </VectorInstance>
   <VectorInstance id="165">
    <REAL-SparseArray n="17">
     <Indices>1 2 3 4 5 6 7 8 9 10 11 12 13 14 15 16 17 </Indices>
     <REAL-Entries>0.17571384483152 0.520994652452978 0.555959397349487 0.584677249025012 -1.45017395001967 0.613422810140325 -0.329320150730989 -0.320555605253894 -0.825943994593249 2.04425403626654 -0.397884363490324 -0.280600103362481 -0.260768849131939 -0.456423188769564 -0.290148067980827 0.804803737632468 -0.293282576047066 </REAL-Entries>
    </REAL-SparseArray>
   </VectorInstance>
   <VectorInstance id="166">
    <REAL-SparseArray n="17">
     <Indices>1 2 3 4 5 6 7 8 9 10 11 12 13 14 15 16 17 </Indices>
     <REAL-Entries>0.348922436806562 -0.916771706033137 0.555959397349487 0.584677249025012 0.688500017555212 0.613422810140325 -0.329320150730989 -0.320555605253894 -0.825943994593249 -0.488415222537671 2.50938433792193 -0.280600103362481 -0.260768849131939 -0.456423188769564 -0.290148067980827 0.804803737632468 -0.293282576047066 </REAL-Entries>
    </REAL-SparseArray>
   </VectorInstance>
   <VectorInstance id="167">
    <REAL-SparseArray n="17">
     <Indices>1 2 3 4 5 6 7 8 9 10 11 12 13 14 15 16 17 </Indices>
     <REAL-Entries>-0.341399841289763 0.520994652452978 0.555959397349487 0.584677249025012 0.688500017555212 0.613422810140325 -0.329320150730989 3.11473196438367 -0.825943994593249 -0.488415222537671 -0.397884363490324 -0.280600103362481 -0.260768849131939 -0.456423188769564 -0.290148067980827 0.804803737632468 -0.293282576047066 </REAL-Entries>
    </REAL-SparseArray>
   </VectorInstance>
   <VectorInstance id="168">
    <REAL-SparseArray n="17">
     <Indices>1 2 3 4 5 6 7 8 9 10 11 12 13 14 15 16 17 </Indices>
     <REAL-Entries>0.316014060376206 -0.916771706033137 0.555959397349487 0.584677249025012 0.688500017555212 -1.62766166099734 -0.329320150730989 -0.320555605253894 -0.825943994593249 -0.488415222537671 2.50938433792193 -0.280600103362481 -0.260768849131939 -0.456423188769564 -0.290148067980827 0.804803737632468 -0.293282576047066 </REAL-Entries>
    </REAL-SparseArray>
   </VectorInstance>
   <VectorInstance id="169">
    <REAL-SparseArray n="17">
     <Indices>1 2 3 4 5 6 7 8 9 10 11 12 13 14 15 16 17 </Indices>
     <REAL-Entries>0.415995234569196 1.95876101093909 0.555959397349487 0.584677249025012 0.688500017555212 0.613422810140325 -0.329320150730989 3.11473196438367 -0.825943994593249 -0.488415222537671 -0.397884363490324 -0.280600103362481 -0.260768849131939 -0.456423188769564 -0.290148067980827 0.804803737632468 -0.293282576047066 </REAL-Entries>
    </REAL-SparseArray>
   </VectorInstance>
   <VectorInstance id="170">
    <REAL-SparseArray n="17">
     <Indices>1 2 3 4 5 6 7 8 9 10 11 12 13 14 15 16 17 </Indices>
     <REAL-Entries>-0.626522034026054 -0.916771706033137 0.555959397349487 0.584677249025012 0.688500017555212 0.613422810140325 -0.329320150730989 -0.320555605253894 1.20885289630123 -0.488415222537671 -0.397884363490324 -0.280600103362481 -0.260768849131939 -0.456423188769564 -0.290148067980827 0.804803737632468 -0.293282576047066 </REAL-Entries>
    </REAL-SparseArray>
   </VectorInstance>
   <VectorInstance id="171">
    <REAL-SparseArray n="17">
     <Indices>1 2 3 4 5 6 7 8 9 10 11 12 13 14 15 16 17 </Indices>
     <REAL-Entries>0.923939792906448 1.95876101093909 0.555959397349487 0.584677249025012 -1.45017395001967 0.613422810140325 -0.329320150730989 -0.320555605253894 -0.825943994593249 2.04425403626654 -0.397884363490324 -0.280600103362481 -0.260768849131939 -0.456423188769564 -0.290148067980827 0.804803737632468 -0.293282576047066 </REAL-Entries>
    </REAL-SparseArray>
   </VectorInstance>
   <VectorInstance id="172">
    <REAL-SparseArray n="17">
     <Indices>1 2 3 4 5 6 7 8 9 10 11 12 13 14 15 16 17 </Indices>
     <REAL-Entries>-0.0276398247896503 0.520994652452978 0.555959397349487 0.584677249025012 -1.45017395001967 -1.62766166099734 3.03183630831705 -0.320555605253894 -0.825943994593249 -0.488415222537671 -0.397884363490324 -0.280600103362481 -0.260768849131939 -0.456423188769564 -0.290148067980827 0.804803737632468 -0.293282576047066 </REAL-Entries>
    </REAL-SparseArray>
   </VectorInstance>
   <VectorInstance id="173">
    <REAL-SparseArray n="17">
     <Indices>1 2 3 4 5 6 7 8 9 10 11 12 13 14 15 16 17 </Indices>
     <REAL-Entries>-0.507951395284619 -0.916771706033137 -1.79589515854341 0.584677249025012 0.688500017555212 0.613422810140325 -0.329320150730989 -0.320555605253894 1.20885289630123 -0.488415222537671 -0.397884363490324 -0.280600103362481 -0.260768849131939 2.18754176959827 -0.290148067980827 -1.24060655208167 -0.293282576047066 </REAL-Entries>
    </REAL-SparseArray>
   </VectorInstance>
   <VectorInstance id="174">
    <REAL-SparseArray n="17">
     <Indices>1 2 3 4 5 6 7 8 9 10 11 12 13 14 15 16 17 </Indices>
     <REAL-Entries>-1.99774625345429 -0.916771706033137 0.555959397349487 0.584677249025012 -1.45017395001967 0.613422810140325 -0.329320150730989 -0.320555605253894 -0.825943994593249 -0.488415222537671 2.50938433792193 -0.280600103362481 -0.260768849131939 -0.456423188769564 -0.290148067980827 0.804803737632468 -0.293282576047066 </REAL-Entries>
    </REAL-SparseArray>
   </VectorInstance>
   <VectorInstance id="175">
    <REAL-SparseArray n="17">
     <Indices>1 2 3 4 5 6 7 8 9 10 11 12 13 14 15 16 17 </Indices>
     <REAL-Entries>-1.2279163330663 0.520994652452978 0.555959397349487 0.584677249025012 0.688500017555212 0.613422810140325 3.03183630831705 -0.320555605253894 -0.825943994593249 -0.488415222537671 -0.397884363490324 -0.280600103362481 -0.260768849131939 -0.456423188769564 -0.290148067980827 0.804803737632468 -0.293282576047066 </REAL-Entries>
    </REAL-SparseArray>
   </VectorInstance>
   <VectorInstance id="176">
    <REAL-SparseArray n="17">
     <Indices>1 2 3 4 5 6 7 8 9 10 11 12 13 14 15 16 17 </Indices>
     <REAL-Entries>0.000746789993786668 -0.916771706033137 0.555959397349487 -1.70768537977427 0.688500017555212 0.613422810140325 -0.329320150730989 -0.320555605253894 1.20885289630123 -0.488415222537671 -0.397884363490324 -0.280600103362481 -0.260768849131939 -0.456423188769564 -0.290148067980827 0.804803737632468 -0.293282576047066 </REAL-Entries>
    </REAL-SparseArray>
   </VectorInstance>
   <VectorInstance id="177">
    <REAL-SparseArray n="17">
     <Indices>1 2 3 4 5 6 7 8 9 10 11 12 13 14 15 16 17 </Indices>
