<?xml version="1.0"?>
<PMML version="4.3" xmlns="http://www.dmg.org/PMML-4_3" xmlns:xsi="http://www.w3.org/2001/XMLSchema-instance" xsi:schemaLocation="http://www.dmg.org/PMML-4_3 http://www.dmg.org/pmml/v4-3/pmml-4-3.xsd">
 <Header copyright="Copyright (c) 2017 Syncfusion" description="Random Forest Tree Model">
  <Extension name="user" value="Syncfusion" extender="Rattle/PMML"/>
  <Application name="Rattle/PMML" version="1.4"/>
  <Timestamp>2017-11-06 18:00:28</Timestamp>
 </Header>
 <DataDictionary numberOfFields="18">
  <DataField name="Price" optype="continuous" dataType="double"/>
  <DataField name="Mileage" optype="continuous" dataType="double"/>
  <DataField name="Cylinder" optype="continuous" dataType="double"/>
  <DataField name="Doors" optype="continuous" dataType="double"/>
  <DataField name="Cruise" optype="continuous" dataType="double"/>
  <DataField name="Sound" optype="continuous" dataType="double"/>
  <DataField name="Leather" optype="continuous" dataType="double"/>
  <DataField name="Buick" optype="continuous" dataType="double"/>
  <DataField name="Cadillac" optype="continuous" dataType="double"/>
  <DataField name="Chevy" optype="continuous" dataType="double"/>
  <DataField name="Pontiac" optype="continuous" dataType="double"/>
  <DataField name="Saab" optype="continuous" dataType="double"/>
  <DataField name="Saturn" optype="continuous" dataType="double"/>
  <DataField name="Convertible" optype="continuous" dataType="double"/>
  <DataField name="Coupe" optype="continuous" dataType="double"/>
  <DataField name="Hatchback" optype="continuous" dataType="double"/>
  <DataField name="Sedan" optype="continuous" dataType="double"/>
  <DataField name="Wagon" optype="continuous" dataType="double"/>
 </DataDictionary>
 <MiningModel modelName="randomForest_Model" algorithmName="randomForest" functionName="regression">
  <MiningSchema>
   <MiningField name="Price" usageType="predicted"/>
   <MiningField name="Mileage" usageType="active"/>
   <MiningField name="Cylinder" usageType="active"/>
   <MiningField name="Doors" usageType="active"/>
   <MiningField name="Cruise" usageType="active"/>
   <MiningField name="Sound" usageType="active"/>
   <MiningField name="Leather" usageType="active"/>
   <MiningField name="Buick" usageType="active"/>
   <MiningField name="Cadillac" usageType="active"/>
   <MiningField name="Chevy" usageType="active"/>
   <MiningField name="Pontiac" usageType="active"/>
   <MiningField name="Saab" usageType="active"/>
   <MiningField name="Saturn" usageType="active"/>
   <MiningField name="Convertible" usageType="active"/>
   <MiningField name="Coupe" usageType="active"/>
   <MiningField name="Hatchback" usageType="active"/>
   <MiningField name="Sedan" usageType="active"/>
   <MiningField name="Wagon" usageType="active"/>
  </MiningSchema>
  <Output>
   <OutputField name="Predicted_Price" feature="predictedValue"/>
  </Output>
  <Segmentation multipleModelMethod="average">
   <Segment id="1">
    <True/>
    <TreeModel modelName="randomForest_Model" functionName="regression" algorithmName="randomForest" splitCharacteristic="binarySplit">
     <MiningSchema>
      <MiningField name="Price" usageType="predicted"/>
      <MiningField name="Mileage" usageType="active"/>
      <MiningField name="Cylinder" usageType="active"/>
      <MiningField name="Doors" usageType="active"/>
      <MiningField name="Cruise" usageType="active"/>
      <MiningField name="Sound" usageType="active"/>
      <MiningField name="Leather" usageType="active"/>
      <MiningField name="Buick" usageType="active"/>
      <MiningField name="Cadillac" usageType="active"/>
      <MiningField name="Chevy" usageType="active"/>
      <MiningField name="Pontiac" usageType="active"/>
      <MiningField name="Saab" usageType="active"/>
      <MiningField name="Saturn" usageType="active"/>
      <MiningField name="Convertible" usageType="active"/>
      <MiningField name="Coupe" usageType="active"/>
      <MiningField name="Hatchback" usageType="active"/>
      <MiningField name="Sedan" usageType="active"/>
      <MiningField name="Wagon" usageType="active"/>
     </MiningSchema>
     <Node id="1">
      <True/>
      <Node id="2">
       <SimplePredicate field="Convertible" operator="lessOrEqual" value="0.5"/>
       <Node id="4">
        <SimplePredicate field="Chevy" operator="lessOrEqual" value="0.5"/>
        <Node id="8">
         <SimplePredicate field="Pontiac" operator="lessOrEqual" value="0.5"/>
         <Node id="16">
          <SimplePredicate field="Cylinder" operator="lessOrEqual" value="7"/>
          <Node id="28">
           <SimplePredicate field="Cruise" operator="lessOrEqual" value="0.5"/>
           <Node id="40">
            <SimplePredicate field="Sedan" operator="lessOrEqual" value="0.5"/>
            <Node id="60" score="16256.24">
             <SimplePredicate field="Mileage" operator="lessOrEqual" value="17100"/>
            </Node>
            <Node id="61">
             <SimplePredicate field="Mileage" operator="greaterThan" value="17100"/>
             <Node id="84" score="13719.24">
              <SimplePredicate field="Leather" operator="lessOrEqual" value="0.5"/>
             </Node>
             <Node id="85" score="13815.8233333333">
              <SimplePredicate field="Leather" operator="greaterThan" value="0.5"/>
             </Node>
            </Node>
           </Node>
           <Node id="41">
            <SimplePredicate field="Sedan" operator="greaterThan" value="0.5"/>
            <Node id="62" score="14261.85">
             <SimplePredicate field="Mileage" operator="lessOrEqual" value="19055"/>
            </Node>
            <Node id="63" score="12167.7546153846">
             <SimplePredicate field="Mileage" operator="greaterThan" value="19055"/>
            </Node>
           </Node>
          </Node>
          <Node id="29">
           <SimplePredicate field="Cruise" operator="greaterThan" value="0.5"/>
           <Node id="42">
            <SimplePredicate field="Sedan" operator="lessOrEqual" value="0.5"/>
            <Node id="64" score="14399.6266666667">
             <SimplePredicate field="Doors" operator="lessOrEqual" value="3"/>
            </Node>
            <Node id="65">
             <SimplePredicate field="Doors" operator="greaterThan" value="3"/>
             <Node id="86" score="30431.0663636364">
              <SimplePredicate field="Mileage" operator="lessOrEqual" value="21580.5"/>
             </Node>
             <Node id="87">
              <SimplePredicate field="Mileage" operator="greaterThan" value="21580.5"/>
              <Node id="110" score="23274.48">
               <SimplePredicate field="Mileage" operator="lessOrEqual" value="22521"/>
              </Node>
              <Node id="111">
               <SimplePredicate field="Mileage" operator="greaterThan" value="22521"/>
               <Node id="128" score="30271.92">
                <SimplePredicate field="Mileage" operator="lessOrEqual" value="24322"/>
               </Node>
               <Node id="129" score="25946.8285714286">
                <SimplePredicate field="Mileage" operator="greaterThan" value="24322"/>
               </Node>
              </Node>
             </Node>
            </Node>
           </Node>
           <Node id="43">
            <SimplePredicate field="Sedan" operator="greaterThan" value="0.5"/>
            <Node id="66">
             <SimplePredicate field="Cadillac" operator="lessOrEqual" value="0.5"/>
             <Node id="88">
              <SimplePredicate field="Cylinder" operator="lessOrEqual" value="5"/>
              <Node id="112" score="12847.386">
               <SimplePredicate field="Saab" operator="lessOrEqual" value="0.5"/>
              </Node>
              <Node id="113">
               <SimplePredicate field="Saab" operator="greaterThan" value="0.5"/>
               <Node id="130" score="26696.9747058824">
                <SimplePredicate field="Sound" operator="lessOrEqual" value="0.5"/>
               </Node>
               <Node id="131">
                <SimplePredicate field="Sound" operator="greaterThan" value="0.5"/>
                <Node id="144">
                 <SimplePredicate field="Leather" operator="lessOrEqual" value="0.5"/>
                 <Node id="152" score="32149.26">
                  <SimplePredicate field="Mileage" operator="lessOrEqual" value="7573.5"/>
                 </Node>
                 <Node id="153" score="26310.126">
                  <SimplePredicate field="Mileage" operator="greaterThan" value="7573.5"/>
                 </Node>
                </Node>
                <Node id="145">
                 <SimplePredicate field="Leather" operator="greaterThan" value="0.5"/>
                 <Node id="154" score="35033.22">
                  <SimplePredicate field="Mileage" operator="lessOrEqual" value="7978.5"/>
                 </Node>
                 <Node id="155" score="27210.6038461538">
                  <SimplePredicate field="Mileage" operator="greaterThan" value="7978.5"/>
                 </Node>
                </Node>
               </Node>
              </Node>
             </Node>
             <Node id="89">
              <SimplePredicate field="Cylinder" operator="greaterThan" value="5"/>
              <Node id="114">
               <SimplePredicate field="Mileage" operator="lessOrEqual" value="21595.5"/>
               <Node id="132">
                <SimplePredicate field="Sound" operator="lessOrEqual" value="0.5"/>
                <Node id="146">
                 <SimplePredicate field="Leather" operator="lessOrEqual" value="0.5"/>
                 <Node id="156" score="18836.38">
                  <SimplePredicate field="Mileage" operator="lessOrEqual" value="16847.5"/>
                 </Node>
                 <Node id="157" score="21708.9928571429">
                  <SimplePredicate field="Mileage" operator="greaterThan" value="16847.5"/>
                 </Node>
                </Node>
                <Node id="147">
                 <SimplePredicate field="Leather" operator="greaterThan" value="0.5"/>
                 <Node id="158" score="19572.7466666667">
                  <SimplePredicate field="Mileage" operator="lessOrEqual" value="13305"/>
                 </Node>
                 <Node id="159" score="22549.31">
                  <SimplePredicate field="Mileage" operator="greaterThan" value="13305"/>
                 </Node>
                </Node>
               </Node>
               <Node id="133" score="22116.3992857143">
                <SimplePredicate field="Sound" operator="greaterThan" value="0.5"/>
               </Node>
              </Node>
              <Node id="115">
               <SimplePredicate field="Mileage" operator="greaterThan" value="21595.5"/>
               <Node id="134" score="21479.48">
                <SimplePredicate field="Sound" operator="lessOrEqual" value="0.5"/>
               </Node>
               <Node id="135">
                <SimplePredicate field="Sound" operator="greaterThan" value="0.5"/>
                <Node id="148" score="15118.89">
                 <SimplePredicate field="Buick" operator="lessOrEqual" value="0.5"/>
                </Node>
                <Node id="149">
                 <SimplePredicate field="Buick" operator="greaterThan" value="0.5"/>
                 <Node id="160" score="17890.2573333333">
                  <SimplePredicate field="Leather" operator="lessOrEqual" value="0.5"/>
                 </Node>
                 <Node id="161">
                  <SimplePredicate field="Leather" operator="greaterThan" value="0.5"/>
                  <Node id="162">
                   <SimplePredicate field="Mileage" operator="lessOrEqual" value="25799"/>
                   <Node id="164" score="19774.25">
                    <SimplePredicate field="Mileage" operator="lessOrEqual" value="23914"/>
                   </Node>
                   <Node id="165" score="21261.02">
                    <SimplePredicate field="Mileage" operator="greaterThan" value="23914"/>
                   </Node>
                  </Node>
                  <Node id="163" score="18530.7125">
                   <SimplePredicate field="Mileage" operator="greaterThan" value="25799"/>
                  </Node>
                 </Node>
                </Node>
               </Node>
              </Node>
             </Node>
            </Node>
            <Node id="67">
             <SimplePredicate field="Cadillac" operator="greaterThan" value="0.5"/>
             <Node id="90" score="42741.52">
              <SimplePredicate field="Mileage" operator="lessOrEqual" value="4722"/>
             </Node>
             <Node id="91" score="33409.6973684211">
              <SimplePredicate field="Mileage" operator="greaterThan" value="4722"/>
             </Node>
            </Node>
           </Node>
          </Node>
         </Node>
         <Node id="17" score="39809.865">
          <SimplePredicate field="Cylinder" operator="greaterThan" value="7"/>
         </Node>
        </Node>
        <Node id="9">
         <SimplePredicate field="Pontiac" operator="greaterThan" value="0.5"/>
         <Node id="18">
          <SimplePredicate field="Sound" operator="lessOrEqual" value="0.5"/>
          <Node id="30">
           <SimplePredicate field="Cruise" operator="lessOrEqual" value="0.5"/>
           <Node id="44" score="15635.2188888889">
            <SimplePredicate field="Leather" operator="lessOrEqual" value="0.5"/>
           </Node>
           <Node id="45">
            <SimplePredicate field="Leather" operator="greaterThan" value="0.5"/>
            <Node id="68" score="15821.95">
             <SimplePredicate field="Mileage" operator="lessOrEqual" value="20871"/>
            </Node>
            <Node id="69" score="15086.9">
             <SimplePredicate field="Mileage" operator="greaterThan" value="20871"/>
            </Node>
           </Node>
          </Node>
          <Node id="31">
           <SimplePredicate field="Cruise" operator="greaterThan" value="0.5"/>
           <Node id="46">
            <SimplePredicate field="Cylinder" operator="lessOrEqual" value="7"/>
            <Node id="70">
             <SimplePredicate field="Wagon" operator="lessOrEqual" value="0.5"/>
             <Node id="92" score="20629.4171428571">
              <SimplePredicate field="Mileage" operator="lessOrEqual" value="15137"/>
             </Node>
             <Node id="93">
              <SimplePredicate field="Mileage" operator="greaterThan" value="15137"/>
              <Node id="116" score="17358.2622222222">
               <SimplePredicate field="Leather" operator="lessOrEqual" value="0.5"/>
              </Node>
              <Node id="117" score="18887.41125">
               <SimplePredicate field="Leather" operator="greaterThan" value="0.5"/>
              </Node>
             </Node>
            </Node>
            <Node id="71">
             <SimplePredicate field="Wagon" operator="greaterThan" value="0.5"/>
             <Node id="94" score="17418.07">
              <SimplePredicate field="Mileage" operator="lessOrEqual" value="11964"/>
             </Node>
             <Node id="95" score="16716.05">
              <SimplePredicate field="Mileage" operator="greaterThan" value="11964"/>
             </Node>
            </Node>
           </Node>
           <Node id="47" score="22037.6875">
            <SimplePredicate field="Cylinder" operator="greaterThan" value="7"/>
           </Node>
          </Node>
         </Node>
         <Node id="19">
          <SimplePredicate field="Sound" operator="greaterThan" value="0.5"/>
          <Node id="32">
           <SimplePredicate field="Leather" operator="lessOrEqual" value="0.5"/>
           <Node id="48" score="19189.6033333333">
            <SimplePredicate field="Wagon" operator="lessOrEqual" value="0.5"/>
           </Node>
           <Node id="49" score="16391.93">
            <SimplePredicate field="Wagon" operator="greaterThan" value="0.5"/>
           </Node>
          </Node>
          <Node id="33">
           <SimplePredicate field="Leather" operator="greaterThan" value="0.5"/>
           <Node id="50">
            <SimplePredicate field="Cruise" operator="lessOrEqual" value="0.5"/>
            <Node id="72">
             <SimplePredicate field="Mileage" operator="lessOrEqual" value="8885"/>
             <Node id="96" score="17597.0825">
              <SimplePredicate field="Mileage" operator="lessOrEqual" value="5240.5"/>
             </Node>
             <Node id="97" score="15846.01">
              <SimplePredicate field="Mileage" operator="greaterThan" value="5240.5"/>
             </Node>
            </Node>
            <Node id="73">
             <SimplePredicate field="Mileage" operator="greaterThan" value="8885"/>
             <Node id="98">
              <SimplePredicate field="Wagon" operator="lessOrEqual" value="0.5"/>
              <Node id="118" score="14959.55">
               <SimplePredicate field="Coupe" operator="lessOrEqual" value="0.5"/>
              </Node>
              <Node id="119" score="12553.242">
               <SimplePredicate field="Coupe" operator="greaterThan" value="0.5"/>
              </Node>
             </Node>
             <Node id="99" score="15284.01">
              <SimplePredicate field="Wagon" operator="greaterThan" value="0.5"/>
             </Node>
            </Node>
           </Node>
           <Node id="51">
            <SimplePredicate field="Cruise" operator="greaterThan" value="0.5"/>
            <Node id="74">
             <SimplePredicate field="Coupe" operator="lessOrEqual" value="0.5"/>
             <Node id="100" score="16681.382">
              <SimplePredicate field="Cylinder" operator="lessOrEqual" value="5"/>
             </Node>
             <Node id="101" score="20439.6559090909">
              <SimplePredicate field="Cylinder" operator="greaterThan" value="5"/>
             </Node>
            </Node>
            <Node id="75" score="22522.4690909091">
             <SimplePredicate field="Coupe" operator="greaterThan" value="0.5"/>
            </Node>
           </Node>
          </Node>
         </Node>
        </Node>
       </Node>
       <Node id="5">
        <SimplePredicate field="Chevy" operator="greaterThan" value="0.5"/>
        <Node id="10">
         <SimplePredicate field="Doors" operator="lessOrEqual" value="3"/>
         <Node id="20" score="13060.4585714286">
          <SimplePredicate field="Cylinder" operator="lessOrEqual" value="5"/>
         </Node>
         <Node id="21" score="21058.3418518519">
          <SimplePredicate field="Cylinder" operator="greaterThan" value="5"/>
         </Node>
        </Node>
        <Node id="11">
         <SimplePredicate field="Doors" operator="greaterThan" value="3"/>
         <Node id="22">
          <SimplePredicate field="Cylinder" operator="lessOrEqual" value="5"/>
          <Node id="34" score="13548.4363414634">
           <SimplePredicate field="Mileage" operator="lessOrEqual" value="18986.5"/>
          </Node>
          <Node id="35">
           <SimplePredicate field="Mileage" operator="greaterThan" value="18986.5"/>
           <Node id="52">
            <SimplePredicate field="Sound" operator="lessOrEqual" value="0.5"/>
            <Node id="76">
             <SimplePredicate field="Cruise" operator="lessOrEqual" value="0.5"/>
             <Node id="102" score="10043.7975">
              <SimplePredicate field="Sedan" operator="lessOrEqual" value="0.5"/>
             </Node>
             <Node id="103" score="9709.54166666667">
              <SimplePredicate field="Sedan" operator="greaterThan" value="0.5"/>
             </Node>
            </Node>
            <Node id="77" score="10753.232">
             <SimplePredicate field="Cruise" operator="greaterThan" value="0.5"/>
            </Node>
           </Node>
           <Node id="53">
            <SimplePredicate field="Sound" operator="greaterThan" value="0.5"/>
            <Node id="78">
             <SimplePredicate field="Leather" operator="lessOrEqual" value="0.5"/>
             <Node id="104" score="9563.79">
              <SimplePredicate field="Mileage" operator="lessOrEqual" value="21618"/>
             </Node>
             <Node id="105" score="10331.2975">
              <SimplePredicate field="Mileage" operator="greaterThan" value="21618"/>
             </Node>
            </Node>
            <Node id="79">
             <SimplePredicate field="Leather" operator="greaterThan" value="0.5"/>
             <Node id="106">
              <SimplePredicate field="Mileage" operator="lessOrEqual" value="25077.5"/>
              <Node id="120" score="11023.76">
               <SimplePredicate field="Mileage" operator="lessOrEqual" value="20232.5"/>
              </Node>
              <Node id="121">
               <SimplePredicate field="Mileage" operator="greaterThan" value="20232.5"/>
               <Node id="136">
                <SimplePredicate field="Hatchback" operator="lessOrEqual" value="0.5"/>
                <Node id="150" score="13174.35125">
                 <SimplePredicate field="Mileage" operator="lessOrEqual" value="21568"/>
                </Node>
                <Node id="151" score="13579.201">
                 <SimplePredicate field="Mileage" operator="greaterThan" value="21568"/>
                </Node>
               </Node>
               <Node id="137" score="9789.04">
                <SimplePredicate field="Hatchback" operator="greaterThan" value="0.5"/>
               </Node>
              </Node>
             </Node>
             <Node id="107">
              <SimplePredicate field="Mileage" operator="greaterThan" value="25077.5"/>
              <Node id="122">
               <SimplePredicate field="Sedan" operator="lessOrEqual" value="0.5"/>
               <Node id="138" score="11178.3366666667">
                <SimplePredicate field="Cruise" operator="lessOrEqual" value="0.5"/>
               </Node>
               <Node id="139" score="11115.01">
                <SimplePredicate field="Cruise" operator="greaterThan" value="0.5"/>
               </Node>
              </Node>
              <Node id="123">
               <SimplePredicate field="Sedan" operator="greaterThan" value="0.5"/>
               <Node id="140" score="12186.6077777778">
                <SimplePredicate field="Cruise" operator="lessOrEqual" value="0.5"/>
               </Node>
               <Node id="141" score="12202.3125">
                <SimplePredicate field="Cruise" operator="greaterThan" value="0.5"/>
               </Node>
              </Node>
             </Node>
            </Node>
           </Node>
          </Node>
         </Node>
         <Node id="23">
          <SimplePredicate field="Cylinder" operator="greaterThan" value="5"/>
          <Node id="36" score="21976.5214285714">
           <SimplePredicate field="Sound" operator="lessOrEqual" value="0.5"/>
          </Node>
          <Node id="37">
           <SimplePredicate field="Sound" operator="greaterThan" value="0.5"/>
           <Node id="54">
            <SimplePredicate field="Cruise" operator="lessOrEqual" value="0.5"/>
            <Node id="80" score="16977.1488888889">
             <SimplePredicate field="Sedan" operator="lessOrEqual" value="0.5"/>
            </Node>
            <Node id="81" score="16376.2984615385">
             <SimplePredicate field="Sedan" operator="greaterThan" value="0.5"/>
            </Node>
           </Node>
           <Node id="55">
            <SimplePredicate field="Cruise" operator="greaterThan" value="0.5"/>
            <Node id="82" score="21923.12">
             <SimplePredicate field="Leather" operator="lessOrEqual" value="0.5"/>
            </Node>
            <Node id="83">
             <SimplePredicate field="Leather" operator="greaterThan" value="0.5"/>
             <Node id="108">
              <SimplePredicate field="Mileage" operator="lessOrEqual" value="22902.5"/>
              <Node id="124">
               <SimplePredicate field="Mileage" operator="lessOrEqual" value="19615"/>
               <Node id="142" score="17878.348">
                <SimplePredicate field="Sedan" operator="lessOrEqual" value="0.5"/>
               </Node>
               <Node id="143" score="17077.3375">
                <SimplePredicate field="Sedan" operator="greaterThan" value="0.5"/>
               </Node>
              </Node>
              <Node id="125" score="16681.823">
               <SimplePredicate field="Mileage" operator="greaterThan" value="19615"/>
              </Node>
             </Node>
             <Node id="109">
              <SimplePredicate field="Mileage" operator="greaterThan" value="22902.5"/>
              <Node id="126" score="22528.95">
               <SimplePredicate field="Mileage" operator="lessOrEqual" value="29722"/>
              </Node>
              <Node id="127" score="15647.0266666667">
               <SimplePredicate field="Mileage" operator="greaterThan" value="29722"/>
              </Node>
             </Node>
            </Node>
           </Node>
          </Node>
         </Node>
        </Node>
       </Node>
      </Node>
      <Node id="3">
       <SimplePredicate field="Convertible" operator="greaterThan" value="0.5"/>
       <Node id="6">
        <SimplePredicate field="Cylinder" operator="lessOrEqual" value="6"/>
        <Node id="12">
         <SimplePredicate field="Mileage" operator="lessOrEqual" value="27304.5"/>
         <Node id="24" score="36162.282">
          <SimplePredicate field="Mileage" operator="lessOrEqual" value="16734.5"/>
         </Node>
         <Node id="25">
          <SimplePredicate field="Mileage" operator="greaterThan" value="16734.5"/>
          <Node id="38">
           <SimplePredicate field="Mileage" operator="lessOrEqual" value="22280"/>
           <Node id="56" score="33374.1366666667">
            <SimplePredicate field="Mileage" operator="lessOrEqual" value="17650.5"/>
           </Node>
           <Node id="57" score="34151.385">
            <SimplePredicate field="Mileage" operator="greaterThan" value="17650.5"/>
           </Node>
          </Node>
          <Node id="39">
           <SimplePredicate field="Mileage" operator="greaterThan" value="22280"/>
           <Node id="58" score="31710.582">
            <SimplePredicate field="Leather" operator="lessOrEqual" value="0.5"/>
           </Node>
           <Node id="59" score="33248.34">
            <SimplePredicate field="Leather" operator="greaterThan" value="0.5"/>
           </Node>
          </Node>
         </Node>
        </Node>
        <Node id="13">
         <SimplePredicate field="Mileage" operator="greaterThan" value="27304.5"/>
         <Node id="26" score="27666.23">
          <SimplePredicate field="Leather" operator="lessOrEqual" value="0.5"/>
         </Node>
         <Node id="27" score="29301.5333333333">
          <SimplePredicate field="Leather" operator="greaterThan" value="0.5"/>
         </Node>
        </Node>
       </Node>
       <Node id="7">
        <SimplePredicate field="Cylinder" operator="greaterThan" value="6"/>
        <Node id="14" score="46898.91">
         <SimplePredicate field="Mileage" operator="lessOrEqual" value="6565.5"/>
        </Node>
        <Node id="15" score="63681.4">
         <SimplePredicate field="Mileage" operator="greaterThan" value="6565.5"/>
        </Node>
       </Node>
      </Node>
     </Node>
    </TreeModel>
   </Segment>
   <Segment id="2">
    <True/>
    <TreeModel modelName="randomForest_Model" functionName="regression" algorithmName="randomForest" splitCharacteristic="binarySplit">
     <MiningSchema>
      <MiningField name="Price" usageType="predicted"/>
      <MiningField name="Mileage" usageType="active"/>
      <MiningField name="Cylinder" usageType="active"/>
      <MiningField name="Doors" usageType="active"/>
      <MiningField name="Cruise" usageType="active"/>
      <MiningField name="Sound" usageType="active"/>
      <MiningField name="Leather" usageType="active"/>
      <MiningField name="Buick" usageType="active"/>
      <MiningField name="Cadillac" usageType="active"/>
      <MiningField name="Chevy" usageType="active"/>
      <MiningField name="Pontiac" usageType="active"/>
      <MiningField name="Saab" usageType="active"/>
      <MiningField name="Saturn" usageType="active"/>
      <MiningField name="Convertible" usageType="active"/>
      <MiningField name="Coupe" usageType="active"/>
      <MiningField name="Hatchback" usageType="active"/>
      <MiningField name="Sedan" usageType="active"/>
      <MiningField name="Wagon" usageType="active"/>
     </MiningSchema>
     <Node id="1">
      <True/>
      <Node id="2">
       <SimplePredicate field="Cylinder" operator="lessOrEqual" value="7"/>
       <Node id="4">
        <SimplePredicate field="Saab" operator="lessOrEqual" value="0.5"/>
        <Node id="8">
         <SimplePredicate field="Buick" operator="lessOrEqual" value="0.5"/>
         <Node id="14">
          <SimplePredicate field="Cadillac" operator="lessOrEqual" value="0.5"/>
          <Node id="26">
           <SimplePredicate field="Hatchback" operator="lessOrEqual" value="0.5"/>
           <Node id="36">
            <SimplePredicate field="Cylinder" operator="lessOrEqual" value="5"/>
            <Node id="50">
             <SimplePredicate field="Wagon" operator="lessOrEqual" value="0.5"/>
             <Node id="64">
              <SimplePredicate field="Leather" operator="lessOrEqual" value="0.5"/>
              <Node id="78">
               <SimplePredicate field="Chevy" operator="lessOrEqual" value="0.5"/>
               <Node id="96">
                <SimplePredicate field="Coupe" operator="lessOrEqual" value="0.5"/>
                <Node id="118">
                 <SimplePredicate field="Cruise" operator="lessOrEqual" value="0.5"/>
                 <Node id="140" score="14203">
                  <SimplePredicate field="Mileage" operator="lessOrEqual" value="16856.5"/>
                 </Node>
                 <Node id="141">
                  <SimplePredicate field="Mileage" operator="greaterThan" value="16856.5"/>
                  <Node id="158" score="12333.6">
                   <SimplePredicate field="Mileage" operator="lessOrEqual" value="22632.5"/>
                  </Node>
                  <Node id="159" score="11854.2083333333">
                   <SimplePredicate field="Mileage" operator="greaterThan" value="22632.5"/>
                  </Node>
                 </Node>
                </Node>
                <Node id="119" score="13444.2833333333">
                 <SimplePredicate field="Cruise" operator="greaterThan" value="0.5"/>
                </Node>
               </Node>
               <Node id="97">
                <SimplePredicate field="Coupe" operator="greaterThan" value="0.5"/>
                <Node id="120" score="13719.24">
                 <SimplePredicate field="Sound" operator="lessOrEqual" value="0.5"/>
                </Node>
                <Node id="121" score="14438.39">
                 <SimplePredicate field="Sound" operator="greaterThan" value="0.5"/>
                </Node>
               </Node>
              </Node>
              <Node id="79" score="10591.3256521739">
               <SimplePredicate field="Chevy" operator="greaterThan" value="0.5"/>
              </Node>
             </Node>
             <Node id="65">
              <SimplePredicate field="Leather" operator="greaterThan" value="0.5"/>
              <Node id="80">
               <SimplePredicate field="Cruise" operator="lessOrEqual" value="0.5"/>
               <Node id="98">
                <SimplePredicate field="Coupe" operator="lessOrEqual" value="0.5"/>
                <Node id="122">
                 <SimplePredicate field="Sound" operator="lessOrEqual" value="0.5"/>
                 <Node id="142" score="11361.915">
                  <SimplePredicate field="Saturn" operator="lessOrEqual" value="0.5"/>
                 </Node>
                 <Node id="143" score="13974.9675">
                  <SimplePredicate field="Saturn" operator="greaterThan" value="0.5"/>
                 </Node>
                </Node>
                <Node id="123">
                 <SimplePredicate field="Sound" operator="greaterThan" value="0.5"/>
                 <Node id="144">
                  <SimplePredicate field="Chevy" operator="lessOrEqual" value="0.5"/>
                  <Node id="160" score="14833.0675">
                   <SimplePredicate field="Saturn" operator="lessOrEqual" value="0.5"/>
                  </Node>
                  <Node id="161" score="13490.26">
                   <SimplePredicate field="Saturn" operator="greaterThan" value="0.5"/>
                  </Node>
                 </Node>
                 <Node id="145" score="12745.3796875">
                  <SimplePredicate field="Chevy" operator="greaterThan" value="0.5"/>
                 </Node>
                </Node>
               </Node>
               <Node id="99">
                <SimplePredicate field="Coupe" operator="greaterThan" value="0.5"/>
                <Node id="124" score="13955.124">
                 <SimplePredicate field="Chevy" operator="lessOrEqual" value="0.5"/>
                </Node>
                <Node id="125" score="13586.859">
                 <SimplePredicate field="Chevy" operator="greaterThan" value="0.5"/>
                </Node>
               </Node>
              </Node>
              <Node id="81">
               <SimplePredicate field="Cruise" operator="greaterThan" value="0.5"/>
               <Node id="100">
                <SimplePredicate field="Mileage" operator="lessOrEqual" value="18807"/>
                <Node id="126" score="16383.5166666667">
                 <SimplePredicate field="Mileage" operator="lessOrEqual" value="4794"/>
                </Node>
                <Node id="127">
                 <SimplePredicate field="Mileage" operator="greaterThan" value="4794"/>
                 <Node id="146" score="12830.1">
                  <SimplePredicate field="Chevy" operator="lessOrEqual" value="0.5"/>
                 </Node>
                 <Node id="147">
                  <SimplePredicate field="Chevy" operator="greaterThan" value="0.5"/>
                  <Node id="162" score="14019.81">
                   <SimplePredicate field="Mileage" operator="lessOrEqual" value="10849"/>
                  </Node>
                  <Node id="163">
                   <SimplePredicate field="Mileage" operator="greaterThan" value="10849"/>
                   <Node id="170" score="14619.08">
                    <SimplePredicate field="Sedan" operator="lessOrEqual" value="0.5"/>
                   </Node>
                   <Node id="171" score="14686.0542857143">
                    <SimplePredicate field="Sedan" operator="greaterThan" value="0.5"/>
                   </Node>
                  </Node>
                 </Node>
                </Node>
               </Node>
               <Node id="101">
                <SimplePredicate field="Mileage" operator="greaterThan" value="18807"/>
                <Node id="128">
                 <SimplePredicate field="Chevy" operator="lessOrEqual" value="0.5"/>
                 <Node id="148" score="12501.176">
                  <SimplePredicate field="Sound" operator="lessOrEqual" value="0.5"/>
                 </Node>
                 <Node id="149" score="12806.21">
                  <SimplePredicate field="Sound" operator="greaterThan" value="0.5"/>
                 </Node>
                </Node>
                <Node id="129">
                 <SimplePredicate field="Chevy" operator="greaterThan" value="0.5"/>
                 <Node id="150" score="12451.6668181818">
                  <SimplePredicate field="Sedan" operator="lessOrEqual" value="0.5"/>
                 </Node>
                 <Node id="151" score="12481.1875">
                  <SimplePredicate field="Sedan" operator="greaterThan" value="0.5"/>
                 </Node>
                </Node>
               </Node>
              </Node>
             </Node>
            </Node>
            <Node id="51">
             <SimplePredicate field="Wagon" operator="greaterThan" value="0.5"/>
             <Node id="66">
              <SimplePredicate field="Cruise" operator="lessOrEqual" value="0.5"/>
              <Node id="82">
               <SimplePredicate field="Leather" operator="lessOrEqual" value="0.5"/>
               <Node id="102" score="15152.6381818182">
                <SimplePredicate field="Sound" operator="lessOrEqual" value="0.5"/>
               </Node>
               <Node id="103" score="16379.1">
                <SimplePredicate field="Sound" operator="greaterThan" value="0.5"/>
               </Node>
              </Node>
              <Node id="83" score="15130.185">
               <SimplePredicate field="Leather" operator="greaterThan" value="0.5"/>
              </Node>
             </Node>
             <Node id="67">
              <SimplePredicate field="Cruise" operator="greaterThan" value="0.5"/>
              <Node id="84">
               <SimplePredicate field="Sound" operator="lessOrEqual" value="0.5"/>
               <Node id="104" score="16594.206">
                <SimplePredicate field="Leather" operator="lessOrEqual" value="0.5"/>
               </Node>
               <Node id="105" score="17418.07">
                <SimplePredicate field="Leather" operator="greaterThan" value="0.5"/>
               </Node>
              </Node>
              <Node id="85" score="16381.3783333333">
               <SimplePredicate field="Sound" operator="greaterThan" value="0.5"/>
              </Node>
             </Node>
            </Node>
           </Node>
           <Node id="37">
            <SimplePredicate field="Cylinder" operator="greaterThan" value="5"/>
            <Node id="52">
             <SimplePredicate field="Mileage" operator="lessOrEqual" value="17434"/>
             <Node id="68">
              <SimplePredicate field="Coupe" operator="lessOrEqual" value="0.5"/>
              <Node id="86">
               <SimplePredicate field="Sound" operator="lessOrEqual" value="0.5"/>
               <Node id="106">
                <SimplePredicate field="Saturn" operator="lessOrEqual" value="0.5"/>
                <Node id="130" score="21800.4266666667">
                 <SimplePredicate field="Pontiac" operator="lessOrEqual" value="0.5"/>
                </Node>
                <Node id="131" score="21310.2425">
                 <SimplePredicate field="Pontiac" operator="greaterThan" value="0.5"/>
                </Node>
               </Node>
               <Node id="107" score="17242.715">
                <SimplePredicate field="Saturn" operator="greaterThan" value="0.5"/>
               </Node>
              </Node>
              <Node id="87">
               <SimplePredicate field="Sound" operator="greaterThan" value="0.5"/>
               <Node id="108">
                <SimplePredicate field="Mileage" operator="lessOrEqual" value="14802.5"/>
                <Node id="132" score="19645.128">
                 <SimplePredicate field="Mileage" operator="lessOrEqual" value="2242"/>
                </Node>
                <Node id="133">
                 <SimplePredicate field="Mileage" operator="greaterThan" value="2242"/>
                 <Node id="152" score="26208.5133333333">
                  <SimplePredicate field="Mileage" operator="lessOrEqual" value="5534.5"/>
                 </Node>
                 <Node id="153">
                  <SimplePredicate field="Mileage" operator="greaterThan" value="5534.5"/>
                  <Node id="164" score="22236.658">
                   <SimplePredicate field="Pontiac" operator="lessOrEqual" value="0.5"/>
                  </Node>
                  <Node id="165" score="21826.092">
                   <SimplePredicate field="Pontiac" operator="greaterThan" value="0.5"/>
                  </Node>
                 </Node>
                </Node>
               </Node>
               <Node id="109">
                <SimplePredicate field="Mileage" operator="greaterThan" value="14802.5"/>
                <Node id="134" score="17458.22">
                 <SimplePredicate field="Mileage" operator="lessOrEqual" value="15330"/>
                </Node>
                <Node id="135" score="19864.408">
                 <SimplePredicate field="Mileage" operator="greaterThan" value="15330"/>
                </Node>
               </Node>
              </Node>
             </Node>
             <Node id="69">
              <SimplePredicate field="Coupe" operator="greaterThan" value="0.5"/>
              <Node id="88">
               <SimplePredicate field="Pontiac" operator="lessOrEqual" value="0.5"/>
               <Node id="110" score="21745.03">
                <SimplePredicate field="Mileage" operator="lessOrEqual" value="7705"/>
               </Node>
               <Node id="111" score="20054.5418181818">
                <SimplePredicate field="Mileage" operator="greaterThan" value="7705"/>
               </Node>
              </Node>
              <Node id="89" score="17215.796">
               <SimplePredicate field="Pontiac" operator="greaterThan" value="0.5"/>
              </Node>
             </Node>
            </Node>
            <Node id="53">
             <SimplePredicate field="Mileage" operator="greaterThan" value="17434"/>
             <Node id="70">
              <SimplePredicate field="Mileage" operator="lessOrEqual" value="27350.5"/>
              <Node id="90">
               <SimplePredicate field="Cruise" operator="lessOrEqual" value="0.5"/>
               <Node id="112" score="15297.5866666667">
                <SimplePredicate field="Chevy" operator="lessOrEqual" value="0.5"/>
               </Node>
               <Node id="113" score="16646.0822222222">
                <SimplePredicate field="Chevy" operator="greaterThan" value="0.5"/>
               </Node>
              </Node>
              <Node id="91">
               <SimplePredicate field="Cruise" operator="greaterThan" value="0.5"/>
               <Node id="114">
                <SimplePredicate field="Mileage" operator="lessOrEqual" value="18490.5"/>
                <Node id="136" score="20676.17">
                 <SimplePredicate field="Sedan" operator="lessOrEqual" value="0.5"/>
                </Node>
                <Node id="137" score="19104.98">
                 <SimplePredicate field="Sedan" operator="greaterThan" value="0.5"/>
                </Node>
               </Node>
               <Node id="115">
                <SimplePredicate field="Mileage" operator="greaterThan" value="18490.5"/>
                <Node id="138">
                 <SimplePredicate field="Mileage" operator="lessOrEqual" value="25623.5"/>
                 <Node id="154">
                  <SimplePredicate field="Doors" operator="lessOrEqual" value="3"/>
                  <Node id="166" score="15617.622">
                   <SimplePredicate field="Mileage" operator="lessOrEqual" value="23779"/>
                  </Node>
                  <Node id="167" score="20819.975">
                   <SimplePredicate field="Mileage" operator="greaterThan" value="23779"/>
                  </Node>
                 </Node>
                 <Node id="155" score="17828.2846666667">
                  <SimplePredicate field="Doors" operator="greaterThan" value="3"/>
                 </Node>
                </Node>
                <Node id="139">
                 <SimplePredicate field="Mileage" operator="greaterThan" value="25623.5"/>
                 <Node id="156">
                  <SimplePredicate field="Mileage" operator="lessOrEqual" value="26003.5"/>
                  <Node id="168">
                   <SimplePredicate field="Coupe" operator="lessOrEqual" value="0.5"/>
                   <Node id="172" score="16569.14">
                    <SimplePredicate field="Sound" operator="lessOrEqual" value="0.5"/>
                   </Node>
                   <Node id="173" score="15414.285">
                    <SimplePredicate field="Sound" operator="greaterThan" value="0.5"/>
                   </Node>
                  </Node>
                  <Node id="169" score="16345.94">
                   <SimplePredicate field="Coupe" operator="greaterThan" value="0.5"/>
                  </Node>
                 </Node>
                 <Node id="157" score="17709.157">
                  <SimplePredicate field="Mileage" operator="greaterThan" value="26003.5"/>
                 </Node>
                </Node>
               </Node>
              </Node>
             </Node>
             <Node id="71">
              <SimplePredicate field="Mileage" operator="greaterThan" value="27350.5"/>
              <Node id="92" score="15233.16">
               <SimplePredicate field="Cruise" operator="lessOrEqual" value="0.5"/>
              </Node>
              <Node id="93">
               <SimplePredicate field="Cruise" operator="greaterThan" value="0.5"/>
               <Node id="116" score="19459.0873684211">
                <SimplePredicate field="Saturn" operator="lessOrEqual" value="0.5"/>
               </Node>
               <Node id="117" score="13585.64">
                <SimplePredicate field="Saturn" operator="greaterThan" value="0.5"/>
               </Node>
              </Node>
             </Node>
            </Node>
           </Node>
          </Node>
          <Node id="27">
           <SimplePredicate field="Hatchback" operator="greaterThan" value="0.5"/>
           <Node id="38">
            <SimplePredicate field="Cylinder" operator="lessOrEqual" value="5"/>
            <Node id="54" score="10556.6055555556">
             <SimplePredicate field="Sound" operator="lessOrEqual" value="0.5"/>
            </Node>
            <Node id="55">
             <SimplePredicate field="Sound" operator="greaterThan" value="0.5"/>
             <Node id="72">
              <SimplePredicate field="Cruise" operator="lessOrEqual" value="0.5"/>
              <Node id="94" score="10625.56">
               <SimplePredicate field="Mileage" operator="lessOrEqual" value="17338.5"/>
              </Node>
              <Node id="95" score="11269.098">
               <SimplePredicate field="Mileage" operator="greaterThan" value="17338.5"/>
              </Node>
             </Node>
             <Node id="73" score="10703.71">
              <SimplePredicate field="Cruise" operator="greaterThan" value="0.5"/>
             </Node>
            </Node>
           </Node>
           <Node id="39" score="17777.2213888889">
            <SimplePredicate field="Cylinder" operator="greaterThan" value="5"/>
           </Node>
          </Node>
         </Node>
         <Node id="15" score="33824.359375">
          <SimplePredicate field="Cadillac" operator="greaterThan" value="0.5"/>
         </Node>
        </Node>
        <Node id="9">
         <SimplePredicate field="Buick" operator="greaterThan" value="0.5"/>
         <Node id="16">
          <SimplePredicate field="Mileage" operator="lessOrEqual" value="22169"/>
          <Node id="28">
           <SimplePredicate field="Mileage" operator="lessOrEqual" value="10136.5"/>
           <Node id="40" score="20698.08">
            <SimplePredicate field="Sound" operator="lessOrEqual" value="0.5"/>
           </Node>
           <Node id="41" score="18572.8657142857">
            <SimplePredicate field="Sound" operator="greaterThan" value="0.5"/>
           </Node>
          </Node>
          <Node id="29" score="22291.1807692308">
           <SimplePredicate field="Mileage" operator="greaterThan" value="10136.5"/>
          </Node>
         </Node>
         <Node id="17">
          <SimplePredicate field="Mileage" operator="greaterThan" value="22169"/>
          <Node id="30">
           <SimplePredicate field="Mileage" operator="lessOrEqual" value="23161.5"/>
           <Node id="42" score="15589.2875">
            <SimplePredicate field="Mileage" operator="lessOrEqual" value="22586"/>
           </Node>
           <Node id="43" score="17727.07">
            <SimplePredicate field="Mileage" operator="greaterThan" value="22586"/>
           </Node>
          </Node>
          <Node id="31">
           <SimplePredicate field="Mileage" operator="greaterThan" value="23161.5"/>
           <Node id="44">
            <SimplePredicate field="Mileage" operator="lessOrEqual" value="25132"/>
            <Node id="56" score="21257.8357142857">
             <SimplePredicate field="Mileage" operator="lessOrEqual" value="23909.5"/>
            </Node>
            <Node id="57">
             <SimplePredicate field="Mileage" operator="greaterThan" value="23909.5"/>
             <Node id="74" score="19245.0766666667">
              <SimplePredicate field="Leather" operator="lessOrEqual" value="0.5"/>
             </Node>
             <Node id="75" score="16927.44">
              <SimplePredicate field="Leather" operator="greaterThan" value="0.5"/>
             </Node>
            </Node>
           </Node>
           <Node id="45">
            <SimplePredicate field="Mileage" operator="greaterThan" value="25132"/>
            <Node id="58" score="23406.69">
             <SimplePredicate field="Sound" operator="lessOrEqual" value="0.5"/>
            </Node>
            <Node id="59" score="20224.6755555556">
             <SimplePredicate field="Sound" operator="greaterThan" value="0.5"/>
            </Node>
           </Node>
          </Node>
         </Node>
        </Node>
       </Node>
       <Node id="5">
        <SimplePredicate field="Saab" operator="greaterThan" value="0.5"/>
        <Node id="10">
         <SimplePredicate field="Sedan" operator="lessOrEqual" value="0.5"/>
         <Node id="18">
          <SimplePredicate field="Wagon" operator="lessOrEqual" value="0.5"/>
          <Node id="32">
           <SimplePredicate field="Mileage" operator="lessOrEqual" value="21187.5"/>
           <Node id="46" score="34692.926">
            <SimplePredicate field="Leather" operator="lessOrEqual" value="0.5"/>
           </Node>
           <Node id="47">
            <SimplePredicate field="Leather" operator="greaterThan" value="0.5"/>
            <Node id="60" score="37236.03">
             <SimplePredicate field="Mileage" operator="lessOrEqual" value="16839"/>
            </Node>
            <Node id="61" score="33506.69">
             <SimplePredicate field="Mileage" operator="greaterThan" value="16839"/>
            </Node>
           </Node>
          </Node>
          <Node id="33">
           <SimplePredicate field="Mileage" operator="greaterThan" value="21187.5"/>
           <Node id="48">
            <SimplePredicate field="Leather" operator="lessOrEqual" value="0.5"/>
            <Node id="62">
             <SimplePredicate field="Mileage" operator="lessOrEqual" value="25234.5"/>
             <Node id="76" score="31970.54">
              <SimplePredicate field="Mileage" operator="lessOrEqual" value="22421.5"/>
             </Node>
             <Node id="77" score="30817.03">
              <SimplePredicate field="Mileage" operator="greaterThan" value="22421.5"/>
             </Node>
            </Node>
            <Node id="63" score="33984.43">
             <SimplePredicate field="Mileage" operator="greaterThan" value="25234.5"/>
            </Node>
           </Node>
           <Node id="49" score="31779.245">
            <SimplePredicate field="Leather" operator="greaterThan" value="0.5"/>
           </Node>
          </Node>
         </Node>
         <Node id="19" score="29247.2086486486">
          <SimplePredicate field="Wagon" operator="greaterThan" value="0.5"/>
         </Node>
        </Node>
        <Node id="11">
         <SimplePredicate field="Sedan" operator="greaterThan" value="0.5"/>
         <Node id="20" score="30444.3871428571">
          <SimplePredicate field="Mileage" operator="lessOrEqual" value="15887.5"/>
         </Node>
         <Node id="21">
          <SimplePredicate field="Mileage" operator="greaterThan" value="15887.5"/>
          <Node id="34" score="26239.2753571429">
           <SimplePredicate field="Mileage" operator="lessOrEqual" value="42281"/>
          </Node>
          <Node id="35" score="22244.88">
           <SimplePredicate field="Mileage" operator="greaterThan" value="42281"/>
          </Node>
         </Node>
        </Node>
       </Node>
      </Node>
      <Node id="3">
       <SimplePredicate field="Cylinder" operator="greaterThan" value="7"/>
       <Node id="6">
        <SimplePredicate field="Convertible" operator="lessOrEqual" value="0.5"/>
        <Node id="12">
         <SimplePredicate field="Coupe" operator="lessOrEqual" value="0.5"/>
         <Node id="22" score="21709.9066666667">
          <SimplePredicate field="Cadillac" operator="lessOrEqual" value="0.5"/>
         </Node>
         <Node id="23" score="39062.6751724138">
          <SimplePredicate field="Cadillac" operator="greaterThan" value="0.5"/>
         </Node>
        </Node>
        <Node id="13">
         <SimplePredicate field="Coupe" operator="greaterThan" value="0.5"/>
         <Node id="24" score="29258.1385714286">
          <SimplePredicate field="Chevy" operator="lessOrEqual" value="0.5"/>
         </Node>
         <Node id="25" score="36241.29375">
          <SimplePredicate field="Chevy" operator="greaterThan" value="0.5"/>
         </Node>
        </Node>
       </Node>
       <Node id="7" score="54270.0818181818">
        <SimplePredicate field="Convertible" operator="greaterThan" value="0.5"/>
       </Node>
      </Node>
     </Node>
    </TreeModel>
   </Segment>
   <Segment id="3">
    <True/>
    <TreeModel modelName="randomForest_Model" functionName="regression" algorithmName="randomForest" splitCharacteristic="binarySplit">
     <MiningSchema>
      <MiningField name="Price" usageType="predicted"/>
      <MiningField name="Mileage" usageType="active"/>
      <MiningField name="Cylinder" usageType="active"/>
      <MiningField name="Doors" usageType="active"/>
      <MiningField name="Cruise" usageType="active"/>
      <MiningField name="Sound" usageType="active"/>
      <MiningField name="Leather" usageType="active"/>
      <MiningField name="Buick" usageType="active"/>
      <MiningField name="Cadillac" usageType="active"/>
      <MiningField name="Chevy" usageType="active"/>
      <MiningField name="Pontiac" usageType="active"/>
      <MiningField name="Saab" usageType="active"/>
      <MiningField name="Saturn" usageType="active"/>
      <MiningField name="Convertible" usageType="active"/>
      <MiningField name="Coupe" usageType="active"/>
      <MiningField name="Hatchback" usageType="active"/>
      <MiningField name="Sedan" usageType="active"/>
      <MiningField name="Wagon" usageType="active"/>
     </MiningSchema>
     <Node id="1">
      <True/>
      <Node id="2">
       <SimplePredicate field="Saturn" operator="lessOrEqual" value="0.5"/>
       <Node id="4">
        <SimplePredicate field="Chevy" operator="lessOrEqual" value="0.5"/>
        <Node id="8">
         <SimplePredicate field="Cylinder" operator="lessOrEqual" value="7"/>
         <Node id="14">
          <SimplePredicate field="Pontiac" operator="lessOrEqual" value="0.5"/>
          <Node id="20">
           <SimplePredicate field="Mileage" operator="lessOrEqual" value="22462"/>
           <Node id="32">
            <SimplePredicate field="Buick" operator="lessOrEqual" value="0.5"/>
            <Node id="50" score="34975.6661538462">
             <SimplePredicate field="Doors" operator="lessOrEqual" value="3"/>
            </Node>
            <Node id="51">
             <SimplePredicate field="Doors" operator="greaterThan" value="3"/>
             <Node id="74">
              <SimplePredicate field="Cadillac" operator="lessOrEqual" value="0.5"/>
              <Node id="108">
               <SimplePredicate field="Mileage" operator="lessOrEqual" value="17147"/>
               <Node id="144">
                <SimplePredicate field="Sound" operator="lessOrEqual" value="0.5"/>
                <Node id="172" score="31255.285">
                 <SimplePredicate field="Sedan" operator="lessOrEqual" value="0.5"/>
                </Node>
                <Node id="173" score="31838.57">
                 <SimplePredicate field="Sedan" operator="greaterThan" value="0.5"/>
                </Node>
               </Node>
               <Node id="145">
                <SimplePredicate field="Sound" operator="greaterThan" value="0.5"/>
                <Node id="174" score="33318.8575">
                 <SimplePredicate field="Mileage" operator="lessOrEqual" value="10297.5"/>
                </Node>
                <Node id="175">
                 <SimplePredicate field="Mileage" operator="greaterThan" value="10297.5"/>
                 <Node id="194" score="30428.7214285714">
                  <SimplePredicate field="Wagon" operator="lessOrEqual" value="0.5"/>
                 </Node>
                 <Node id="195" score="31873.89">
                  <SimplePredicate field="Wagon" operator="greaterThan" value="0.5"/>
                 </Node>
                </Node>
               </Node>
              </Node>
              <Node id="109">
               <SimplePredicate field="Mileage" operator="greaterThan" value="17147"/>
               <Node id="146">
                <SimplePredicate field="Leather" operator="lessOrEqual" value="0.5"/>
                <Node id="176" score="23780.8525">
                 <SimplePredicate field="Mileage" operator="lessOrEqual" value="21902.5"/>
                </Node>
                <Node id="177" score="27791.1166666667">
                 <SimplePredicate field="Mileage" operator="greaterThan" value="21902.5"/>
                </Node>
               </Node>
               <Node id="147">
                <SimplePredicate field="Leather" operator="greaterThan" value="0.5"/>
                <Node id="178" score="26399.528">
                 <SimplePredicate field="Mileage" operator="lessOrEqual" value="17552"/>
                </Node>
                <Node id="179">
                 <SimplePredicate field="Mileage" operator="greaterThan" value="17552"/>
                 <Node id="196" score="29586.9075">
                  <SimplePredicate field="Sound" operator="lessOrEqual" value="0.5"/>
                 </Node>
                 <Node id="197">
                  <SimplePredicate field="Sound" operator="greaterThan" value="0.5"/>
                  <Node id="204" score="27484.816">
                   <SimplePredicate field="Wagon" operator="lessOrEqual" value="0.5"/>
                  </Node>
                  <Node id="205" score="30873.3733333333">
                   <SimplePredicate field="Wagon" operator="greaterThan" value="0.5"/>
                  </Node>
                 </Node>
                </Node>
               </Node>
              </Node>
             </Node>
             <Node id="75">
              <SimplePredicate field="Cadillac" operator="greaterThan" value="0.5"/>
              <Node id="110" score="40966.61">
               <SimplePredicate field="Mileage" operator="lessOrEqual" value="9050.5"/>
              </Node>
              <Node id="111" score="34299.865">
               <SimplePredicate field="Mileage" operator="greaterThan" value="9050.5"/>
              </Node>
             </Node>
            </Node>
           </Node>
           <Node id="33">
            <SimplePredicate field="Buick" operator="greaterThan" value="0.5"/>
            <Node id="52" score="26210.585">
             <SimplePredicate field="Mileage" operator="lessOrEqual" value="6458"/>
            </Node>
            <Node id="53">
             <SimplePredicate field="Mileage" operator="greaterThan" value="6458"/>
             <Node id="76">
              <SimplePredicate field="Leather" operator="lessOrEqual" value="0.5"/>
              <Node id="112">
               <SimplePredicate field="Mileage" operator="lessOrEqual" value="12624"/>
               <Node id="148" score="21335.85">
                <SimplePredicate field="Sound" operator="lessOrEqual" value="0.5"/>
               </Node>
               <Node id="149" score="24831.0728571429">
                <SimplePredicate field="Sound" operator="greaterThan" value="0.5"/>
               </Node>
              </Node>
              <Node id="113" score="20993.5485714286">
               <SimplePredicate field="Mileage" operator="greaterThan" value="12624"/>
              </Node>
             </Node>
             <Node id="77" score="22061.1466666667">
              <SimplePredicate field="Leather" operator="greaterThan" value="0.5"/>
             </Node>
            </Node>
           </Node>
          </Node>
          <Node id="21">
           <SimplePredicate field="Mileage" operator="greaterThan" value="22462"/>
           <Node id="34">
            <SimplePredicate field="Cylinder" operator="lessOrEqual" value="5"/>
            <Node id="54" score="30521.755">
             <SimplePredicate field="Doors" operator="lessOrEqual" value="3"/>
            </Node>
            <Node id="55">
             <SimplePredicate field="Doors" operator="greaterThan" value="3"/>
             <Node id="78">
              <SimplePredicate field="Sound" operator="lessOrEqual" value="0.5"/>
              <Node id="114" score="27753.0633333333">
               <SimplePredicate field="Mileage" operator="lessOrEqual" value="26900.5"/>
              </Node>
              <Node id="115" score="24419.7133333333">
               <SimplePredicate field="Mileage" operator="greaterThan" value="26900.5"/>
              </Node>
             </Node>
             <Node id="79">
              <SimplePredicate field="Sound" operator="greaterThan" value="0.5"/>
              <Node id="116" score="27401.11125">
               <SimplePredicate field="Mileage" operator="lessOrEqual" value="31386.5"/>
              </Node>
              <Node id="117" score="25708.3166666667">
               <SimplePredicate field="Mileage" operator="greaterThan" value="31386.5"/>
              </Node>
             </Node>
            </Node>
           </Node>
           <Node id="35">
            <SimplePredicate field="Cylinder" operator="greaterThan" value="5"/>
            <Node id="56">
             <SimplePredicate field="Mileage" operator="lessOrEqual" value="23809.5"/>
             <Node id="80" score="21099.67">
              <SimplePredicate field="Sound" operator="lessOrEqual" value="0.5"/>
             </Node>
             <Node id="81" score="19559.21">
              <SimplePredicate field="Sound" operator="greaterThan" value="0.5"/>
             </Node>
            </Node>
            <Node id="57">
             <SimplePredicate field="Mileage" operator="greaterThan" value="23809.5"/>
             <Node id="82" score="18617.7116666667">
              <SimplePredicate field="Leather" operator="lessOrEqual" value="0.5"/>
             </Node>
             <Node id="83">
              <SimplePredicate field="Leather" operator="greaterThan" value="0.5"/>
              <Node id="118" score="14862.09">
               <SimplePredicate field="Sound" operator="lessOrEqual" value="0.5"/>
              </Node>
              <Node id="119" score="20198.0214285714">
               <SimplePredicate field="Sound" operator="greaterThan" value="0.5"/>
              </Node>
             </Node>
            </Node>
           </Node>
          </Node>
         </Node>
         <Node id="15">
          <SimplePredicate field="Pontiac" operator="greaterThan" value="0.5"/>
          <Node id="22">
           <SimplePredicate field="Cylinder" operator="lessOrEqual" value="5"/>
           <Node id="36" score="13050.1133333333">
            <SimplePredicate field="Doors" operator="lessOrEqual" value="3"/>
           </Node>
           <Node id="37">
            <SimplePredicate field="Doors" operator="greaterThan" value="3"/>
            <Node id="58">
             <SimplePredicate field="Mileage" operator="lessOrEqual" value="18849"/>
             <Node id="84">
              <SimplePredicate field="Sedan" operator="lessOrEqual" value="0.5"/>
              <Node id="120" score="16562.048">
               <SimplePredicate field="Leather" operator="lessOrEqual" value="0.5"/>
              </Node>
              <Node id="121" score="16395.2625">
               <SimplePredicate field="Leather" operator="greaterThan" value="0.5"/>
              </Node>
             </Node>
             <Node id="85" score="15755.9436363636">
              <SimplePredicate field="Sedan" operator="greaterThan" value="0.5"/>
             </Node>
            </Node>
            <Node id="59">
             <SimplePredicate field="Mileage" operator="greaterThan" value="18849"/>
             <Node id="86">
              <SimplePredicate field="Sedan" operator="lessOrEqual" value="0.5"/>
              <Node id="122">
               <SimplePredicate field="Mileage" operator="lessOrEqual" value="23270"/>
               <Node id="150">
                <SimplePredicate field="Mileage" operator="lessOrEqual" value="22920.5"/>
                <Node id="180" score="15696.215">
                 <SimplePredicate field="Mileage" operator="lessOrEqual" value="22120"/>
                </Node>
                <Node id="181" score="16078.67">
                 <SimplePredicate field="Mileage" operator="greaterThan" value="22120"/>
                </Node>
               </Node>
               <Node id="151" score="15541.05">
                <SimplePredicate field="Mileage" operator="greaterThan" value="22920.5"/>
               </Node>
              </Node>
              <Node id="123" score="15013.8683333333">
               <SimplePredicate field="Mileage" operator="greaterThan" value="23270"/>
              </Node>
             </Node>
             <Node id="87" score="13961.11">
              <SimplePredicate field="Sedan" operator="greaterThan" value="0.5"/>
             </Node>
            </Node>
           </Node>
          </Node>
          <Node id="23">
           <SimplePredicate field="Cylinder" operator="greaterThan" value="5"/>
           <Node id="38">
            <SimplePredicate field="Mileage" operator="lessOrEqual" value="17771"/>
            <Node id="60" score="17404.606">
             <SimplePredicate field="Doors" operator="lessOrEqual" value="3"/>
            </Node>
            <Node id="61">
             <SimplePredicate field="Doors" operator="greaterThan" value="3"/>
             <Node id="88" score="19737.1666666667">
              <SimplePredicate field="Mileage" operator="lessOrEqual" value="3921"/>
             </Node>
             <Node id="89">
              <SimplePredicate field="Mileage" operator="greaterThan" value="3921"/>
              <Node id="124" score="22769.67">
               <SimplePredicate field="Mileage" operator="lessOrEqual" value="9693.5"/>
              </Node>
              <Node id="125" score="21181.7681818182">
               <SimplePredicate field="Mileage" operator="greaterThan" value="9693.5"/>
              </Node>
             </Node>
            </Node>
           </Node>
           <Node id="39">
            <SimplePredicate field="Mileage" operator="greaterThan" value="17771"/>
            <Node id="62">
             <SimplePredicate field="Leather" operator="lessOrEqual" value="0.5"/>
             <Node id="90">
              <SimplePredicate field="Mileage" operator="lessOrEqual" value="21838"/>
              <Node id="126" score="17905.8741666667">
               <SimplePredicate field="Sound" operator="lessOrEqual" value="0.5"/>
              </Node>
              <Node id="127" score="17844.73">
               <SimplePredicate field="Sound" operator="greaterThan" value="0.5"/>
              </Node>
             </Node>
             <Node id="91">
              <SimplePredicate field="Mileage" operator="greaterThan" value="21838"/>
              <Node id="128">
               <SimplePredicate field="Sound" operator="lessOrEqual" value="0.5"/>
               <Node id="152" score="16038.95">
                <SimplePredicate field="Mileage" operator="lessOrEqual" value="24490.5"/>
               </Node>
               <Node id="153" score="17921.68">
                <SimplePredicate field="Mileage" operator="greaterThan" value="24490.5"/>
               </Node>
              </Node>
              <Node id="129" score="18200.2933333333">
               <SimplePredicate field="Sound" operator="greaterThan" value="0.5"/>
              </Node>
             </Node>
            </Node>
            <Node id="63">
             <SimplePredicate field="Leather" operator="greaterThan" value="0.5"/>
             <Node id="92" score="18571.6252941176">
              <SimplePredicate field="Coupe" operator="lessOrEqual" value="0.5"/>
             </Node>
             <Node id="93" score="15067.5025">
              <SimplePredicate field="Coupe" operator="greaterThan" value="0.5"/>
             </Node>
            </Node>
           </Node>
          </Node>
         </Node>
        </Node>
        <Node id="9">
         <SimplePredicate field="Cylinder" operator="greaterThan" value="7"/>
         <Node id="16">
          <SimplePredicate field="Cadillac" operator="lessOrEqual" value="0.5"/>
          <Node id="24" score="28209.142">
           <SimplePredicate field="Doors" operator="lessOrEqual" value="3"/>
          </Node>
          <Node id="25" score="22457.208">
           <SimplePredicate field="Doors" operator="greaterThan" value="3"/>
          </Node>
         </Node>
         <Node id="17">
          <SimplePredicate field="Cadillac" operator="greaterThan" value="0.5"/>
          <Node id="26" score="40554.148125">
           <SimplePredicate field="Sound" operator="lessOrEqual" value="0.5"/>
          </Node>
          <Node id="27">
           <SimplePredicate field="Sound" operator="greaterThan" value="0.5"/>
           <Node id="40" score="56574.66">
            <SimplePredicate field="Sedan" operator="lessOrEqual" value="0.5"/>
           </Node>
           <Node id="41" score="38682.1404347826">
            <SimplePredicate field="Sedan" operator="greaterThan" value="0.5"/>
           </Node>
          </Node>
         </Node>
        </Node>
       </Node>
       <Node id="5">
        <SimplePredicate field="Chevy" operator="greaterThan" value="0.5"/>
        <Node id="10">
         <SimplePredicate field="Convertible" operator="lessOrEqual" value="0.5"/>
         <Node id="18">
          <SimplePredicate field="Mileage" operator="lessOrEqual" value="28325"/>
          <Node id="28">
           <SimplePredicate field="Mileage" operator="lessOrEqual" value="18743.5"/>
           <Node id="42">
            <SimplePredicate field="Doors" operator="lessOrEqual" value="3"/>
            <Node id="64" score="17317.9930555556">
             <SimplePredicate field="Cylinder" operator="lessOrEqual" value="7"/>
            </Node>
            <Node id="65" score="39353.41">
             <SimplePredicate field="Cylinder" operator="greaterThan" value="7"/>
            </Node>
           </Node>
           <Node id="43">
            <SimplePredicate field="Doors" operator="greaterThan" value="3"/>
            <Node id="66">
             <SimplePredicate field="Leather" operator="lessOrEqual" value="0.5"/>
             <Node id="94">
              <SimplePredicate field="Cylinder" operator="lessOrEqual" value="5"/>
              <Node id="130">
               <SimplePredicate field="Hatchback" operator="lessOrEqual" value="0.5"/>
               <Node id="154" score="10971.1">
                <SimplePredicate field="Mileage" operator="lessOrEqual" value="10247.5"/>
               </Node>
               <Node id="155" score="11613.206">
                <SimplePredicate field="Mileage" operator="greaterThan" value="10247.5"/>
               </Node>
              </Node>
              <Node id="131">
               <SimplePredicate field="Hatchback" operator="greaterThan" value="0.5"/>
               <Node id="156" score="10354.04">
                <SimplePredicate field="Cruise" operator="lessOrEqual" value="0.5"/>
               </Node>
               <Node id="157" score="10636.94">
                <SimplePredicate field="Cruise" operator="greaterThan" value="0.5"/>
               </Node>
              </Node>
             </Node>
             <Node id="95" score="24809.04">
              <SimplePredicate field="Cylinder" operator="greaterThan" value="5"/>
             </Node>
            </Node>
            <Node id="67">
             <SimplePredicate field="Leather" operator="greaterThan" value="0.5"/>
             <Node id="96">
              <SimplePredicate field="Cylinder" operator="lessOrEqual" value="5"/>
              <Node id="132" score="10813.34">
               <SimplePredicate field="Sedan" operator="lessOrEqual" value="0.5"/>
              </Node>
              <Node id="133">
               <SimplePredicate field="Sedan" operator="greaterThan" value="0.5"/>
               <Node id="158">
                <SimplePredicate field="Cruise" operator="lessOrEqual" value="0.5"/>
                <Node id="182" score="14417.94">
                 <SimplePredicate field="Mileage" operator="lessOrEqual" value="9887"/>
                </Node>
                <Node id="183" score="12560.038">
                 <SimplePredicate field="Mileage" operator="greaterThan" value="9887"/>
                </Node>
               </Node>
               <Node id="159" score="14196.2818181818">
                <SimplePredicate field="Cruise" operator="greaterThan" value="0.5"/>
               </Node>
              </Node>
             </Node>
             <Node id="97">
              <SimplePredicate field="Cylinder" operator="greaterThan" value="5"/>
              <Node id="134">
               <SimplePredicate field="Cruise" operator="lessOrEqual" value="0.5"/>
               <Node id="160" score="18931.92">
                <SimplePredicate field="Mileage" operator="lessOrEqual" value="8709.5"/>
               </Node>
               <Node id="161">
                <SimplePredicate field="Mileage" operator="greaterThan" value="8709.5"/>
                <Node id="184" score="17338.0855555556">
                 <SimplePredicate field="Sedan" operator="lessOrEqual" value="0.5"/>
                </Node>
                <Node id="185" score="16740.21">
                 <SimplePredicate field="Sedan" operator="greaterThan" value="0.5"/>
                </Node>
               </Node>
              </Node>
              <Node id="135">
               <SimplePredicate field="Cruise" operator="greaterThan" value="0.5"/>
               <Node id="162" score="23531.9">
                <SimplePredicate field="Mileage" operator="lessOrEqual" value="14802.5"/>
               </Node>
               <Node id="163" score="17777.895">
                <SimplePredicate field="Mileage" operator="greaterThan" value="14802.5"/>
               </Node>
              </Node>
             </Node>
            </Node>
           </Node>
          </Node>
          <Node id="29">
           <SimplePredicate field="Mileage" operator="greaterThan" value="18743.5"/>
           <Node id="44">
            <SimplePredicate field="Cylinder" operator="lessOrEqual" value="5"/>
            <Node id="68">
             <SimplePredicate field="Sound" operator="lessOrEqual" value="0.5"/>
             <Node id="98">
              <SimplePredicate field="Cruise" operator="lessOrEqual" value="0.5"/>
              <Node id="136" score="10358.5828571429">
               <SimplePredicate field="Mileage" operator="lessOrEqual" value="26030"/>
              </Node>
              <Node id="137" score="9041.91">
               <SimplePredicate field="Mileage" operator="greaterThan" value="26030"/>
              </Node>
             </Node>
             <Node id="99">
              <SimplePredicate field="Cruise" operator="greaterThan" value="0.5"/>
              <Node id="138" score="10289.54">
               <SimplePredicate field="Leather" operator="lessOrEqual" value="0.5"/>
              </Node>
              <Node id="139" score="11045.11">
               <SimplePredicate field="Leather" operator="greaterThan" value="0.5"/>
              </Node>
             </Node>
            </Node>
            <Node id="69">
             <SimplePredicate field="Sound" operator="greaterThan" value="0.5"/>
             <Node id="100" score="10713.7725">
              <SimplePredicate field="Leather" operator="lessOrEqual" value="0.5"/>
             </Node>
             <Node id="101">
              <SimplePredicate field="Leather" operator="greaterThan" value="0.5"/>
              <Node id="140">
               <SimplePredicate field="Sedan" operator="lessOrEqual" value="0.5"/>
               <Node id="164">
                <SimplePredicate field="Hatchback" operator="lessOrEqual" value="0.5"/>
                <Node id="186">
                 <SimplePredicate field="Mileage" operator="lessOrEqual" value="22157.5"/>
                 <Node id="198" score="13123.94">
                  <SimplePredicate field="Cruise" operator="lessOrEqual" value="0.5"/>
                 </Node>
                 <Node id="199" score="13259.39875">
                  <SimplePredicate field="Cruise" operator="greaterThan" value="0.5"/>
                 </Node>
                </Node>
                <Node id="187" score="12391.2925">
                 <SimplePredicate field="Mileage" operator="greaterThan" value="22157.5"/>
                </Node>
               </Node>
               <Node id="165">
                <SimplePredicate field="Hatchback" operator="greaterThan" value="0.5"/>
                <Node id="188" score="11369.7716666667">
                 <SimplePredicate field="Mileage" operator="lessOrEqual" value="25291.5"/>
                </Node>
                <Node id="189" score="11070.06">
                 <SimplePredicate field="Mileage" operator="greaterThan" value="25291.5"/>
                </Node>
               </Node>
              </Node>
              <Node id="141">
               <SimplePredicate field="Sedan" operator="greaterThan" value="0.5"/>
               <Node id="166" score="13450.015">
                <SimplePredicate field="Mileage" operator="lessOrEqual" value="23955.5"/>
               </Node>
               <Node id="167" score="12624.7">
                <SimplePredicate field="Mileage" operator="greaterThan" value="23955.5"/>
               </Node>
              </Node>
             </Node>
            </Node>
           </Node>
           <Node id="45">
            <SimplePredicate field="Cylinder" operator="greaterThan" value="5"/>
            <Node id="70">
             <SimplePredicate field="Cruise" operator="lessOrEqual" value="0.5"/>
             <Node id="102" score="16441.605">
              <SimplePredicate field="Sedan" operator="lessOrEqual" value="0.5"/>
             </Node>
             <Node id="103" score="16567.3271428571">
              <SimplePredicate field="Sedan" operator="greaterThan" value="0.5"/>
             </Node>
            </Node>
            <Node id="71">
             <SimplePredicate field="Cruise" operator="greaterThan" value="0.5"/>
             <Node id="104">
              <SimplePredicate field="Cylinder" operator="lessOrEqual" value="7"/>
              <Node id="142">
               <SimplePredicate field="Doors" operator="lessOrEqual" value="3"/>
               <Node id="168" score="20619.11">
                <SimplePredicate field="Sound" operator="lessOrEqual" value="0.5"/>
               </Node>
               <Node id="169" score="19430.635">
                <SimplePredicate field="Sound" operator="greaterThan" value="0.5"/>
               </Node>
              </Node>
              <Node id="143">
               <SimplePredicate field="Doors" operator="greaterThan" value="3"/>
               <Node id="170">
                <SimplePredicate field="Mileage" operator="lessOrEqual" value="26171"/>
                <Node id="190">
                 <SimplePredicate field="Mileage" operator="lessOrEqual" value="23048.5"/>
                 <Node id="200">
                  <SimplePredicate field="Mileage" operator="lessOrEqual" value="22902.5"/>
                  <Node id="206" score="16805.06">
                   <SimplePredicate field="Sound" operator="lessOrEqual" value="0.5"/>
                  </Node>
                  <Node id="207">
                   <SimplePredicate field="Sound" operator="greaterThan" value="0.5"/>
                   <Node id="210" score="17395.51">
                    <SimplePredicate field="Sedan" operator="lessOrEqual" value="0.5"/>
                   </Node>
                   <Node id="211" score="17688.0366666667">
                    <SimplePredicate field="Sedan" operator="greaterThan" value="0.5"/>
                   </Node>
                  </Node>
                 </Node>
                 <Node id="201" score="23345.33">
                  <SimplePredicate field="Mileage" operator="greaterThan" value="22902.5"/>
                 </Node>
                </Node>
                <Node id="191">
                 <SimplePredicate field="Mileage" operator="greaterThan" value="23048.5"/>
                 <Node id="202" score="17839.8">
                  <SimplePredicate field="Sound" operator="lessOrEqual" value="0.5"/>
                 </Node>
                 <Node id="203">
                  <SimplePredicate field="Sound" operator="greaterThan" value="0.5"/>
                  <Node id="208" score="16035.951">
                   <SimplePredicate field="Hatchback" operator="lessOrEqual" value="0.5"/>
                  </Node>
                  <Node id="209" score="16988.3">
                   <SimplePredicate field="Hatchback" operator="greaterThan" value="0.5"/>
                  </Node>
                 </Node>
                </Node>
               </Node>
               <Node id="171">
                <SimplePredicate field="Mileage" operator="greaterThan" value="26171"/>
                <Node id="192" score="16143.96">
                 <SimplePredicate field="Sedan" operator="lessOrEqual" value="0.5"/>
                </Node>
                <Node id="193" score="22525.62125">
                 <SimplePredicate field="Sedan" operator="greaterThan" value="0.5"/>
                </Node>
               </Node>
              </Node>
             </Node>
             <Node id="105" score="34913.2866666667">
              <SimplePredicate field="Cylinder" operator="greaterThan" value="7"/>
             </Node>
            </Node>
           </Node>
          </Node>
         </Node>
         <Node id="19">
          <SimplePredicate field="Mileage" operator="greaterThan" value="28325"/>
          <Node id="30">
           <SimplePredicate field="Doors" operator="lessOrEqual" value="3"/>
           <Node id="46" score="15503.51">
            <SimplePredicate field="Sound" operator="lessOrEqual" value="0.5"/>
           </Node>
           <Node id="47" score="12019.5075">
            <SimplePredicate field="Sound" operator="greaterThan" value="0.5"/>
           </Node>
          </Node>
          <Node id="31">
           <SimplePredicate field="Doors" operator="greaterThan" value="3"/>
           <Node id="48" score="10167.92">
            <SimplePredicate field="Sedan" operator="lessOrEqual" value="0.5"/>
           </Node>
           <Node id="49">
            <SimplePredicate field="Sedan" operator="greaterThan" value="0.5"/>
            <Node id="72">
             <SimplePredicate field="Cylinder" operator="lessOrEqual" value="5"/>
             <Node id="106" score="11435.105">
              <SimplePredicate field="Mileage" operator="lessOrEqual" value="32056.5"/>
             </Node>
             <Node id="107" score="10239.8166666667">
              <SimplePredicate field="Mileage" operator="greaterThan" value="32056.5"/>
             </Node>
            </Node>
            <Node id="73" score="15810.508">
             <SimplePredicate field="Cylinder" operator="greaterThan" value="5"/>
            </Node>
           </Node>
          </Node>
         </Node>
        </Node>
        <Node id="11" score="40339.124">
         <SimplePredicate field="Convertible" operator="greaterThan" value="0.5"/>
        </Node>
       </Node>
      </Node>
      <Node id="3">
       <SimplePredicate field="Saturn" operator="greaterThan" value="0.5"/>
       <Node id="6">
        <SimplePredicate field="Cylinder" operator="lessOrEqual" value="5"/>
        <Node id="12" score="15108.7428571429">
         <SimplePredicate field="Sedan" operator="lessOrEqual" value="0.5"/>
        </Node>
        <Node id="13" score="12882.7632432432">
         <SimplePredicate field="Sedan" operator="greaterThan" value="0.5"/>
        </Node>
       </Node>
       <Node id="7" score="16527.8475">
        <SimplePredicate field="Cylinder" operator="greaterThan" value="5"/>
       </Node>
      </Node>
     </Node>
    </TreeModel>
   </Segment>
   <Segment id="4">
    <True/>
    <TreeModel modelName="randomForest_Model" functionName="regression" algorithmName="randomForest" splitCharacteristic="binarySplit">
     <MiningSchema>
      <MiningField name="Price" usageType="predicted"/>
      <MiningField name="Mileage" usageType="active"/>
      <MiningField name="Cylinder" usageType="active"/>
      <MiningField name="Doors" usageType="active"/>
      <MiningField name="Cruise" usageType="active"/>
      <MiningField name="Sound" usageType="active"/>
      <MiningField name="Leather" usageType="active"/>
      <MiningField name="Buick" usageType="active"/>
      <MiningField name="Cadillac" usageType="active"/>
      <MiningField name="Chevy" usageType="active"/>
      <MiningField name="Pontiac" usageType="active"/>
      <MiningField name="Saab" usageType="active"/>
      <MiningField name="Saturn" usageType="active"/>
      <MiningField name="Convertible" usageType="active"/>
      <MiningField name="Coupe" usageType="active"/>
      <MiningField name="Hatchback" usageType="active"/>
      <MiningField name="Sedan" usageType="active"/>
      <MiningField name="Wagon" usageType="active"/>
     </MiningSchema>
     <Node id="1">
      <True/>
      <Node id="2">
       <SimplePredicate field="Cadillac" operator="lessOrEqual" value="0.5"/>
       <Node id="4">
        <SimplePredicate field="Convertible" operator="lessOrEqual" value="0.5"/>
        <Node id="8">
         <SimplePredicate field="Cruise" operator="lessOrEqual" value="0.5"/>
         <Node id="14">
          <SimplePredicate field="Pontiac" operator="lessOrEqual" value="0.5"/>
          <Node id="22">
           <SimplePredicate field="Sound" operator="lessOrEqual" value="0.5"/>
           <Node id="34" score="12411.126">
            <SimplePredicate field="Doors" operator="lessOrEqual" value="3"/>
           </Node>
           <Node id="35">
            <SimplePredicate field="Doors" operator="greaterThan" value="3"/>
            <Node id="48">
             <SimplePredicate field="Mileage" operator="lessOrEqual" value="13878"/>
             <Node id="64" score="12286.315">
              <SimplePredicate field="Mileage" operator="lessOrEqual" value="12256.5"/>
             </Node>
             <Node id="65" score="13847.7066666667">
              <SimplePredicate field="Mileage" operator="greaterThan" value="12256.5"/>
             </Node>
            </Node>
            <Node id="49">
             <SimplePredicate field="Mileage" operator="greaterThan" value="13878"/>
             <Node id="66">
              <SimplePredicate field="Mileage" operator="lessOrEqual" value="34630.5"/>
              <Node id="82">
               <SimplePredicate field="Mileage" operator="lessOrEqual" value="26259.5"/>
               <Node id="102" score="12116.5525">
                <SimplePredicate field="Chevy" operator="lessOrEqual" value="0.5"/>
               </Node>
               <Node id="103">
                <SimplePredicate field="Chevy" operator="greaterThan" value="0.5"/>
                <Node id="116" score="9506.05">
                 <SimplePredicate field="Sedan" operator="lessOrEqual" value="0.5"/>
                </Node>
                <Node id="117" score="10062.60375">
                 <SimplePredicate field="Sedan" operator="greaterThan" value="0.5"/>
                </Node>
               </Node>
              </Node>
              <Node id="83">
               <SimplePredicate field="Mileage" operator="greaterThan" value="26259.5"/>
               <Node id="104" score="10777.05">
                <SimplePredicate field="Sedan" operator="lessOrEqual" value="0.5"/>
               </Node>
               <Node id="105" score="11752.214">
                <SimplePredicate field="Sedan" operator="greaterThan" value="0.5"/>
               </Node>
              </Node>
             </Node>
             <Node id="67" score="8769">
              <SimplePredicate field="Mileage" operator="greaterThan" value="34630.5"/>
             </Node>
            </Node>
           </Node>
          </Node>
          <Node id="23">
           <SimplePredicate field="Sound" operator="greaterThan" value="0.5"/>
           <Node id="36">
            <SimplePredicate field="Leather" operator="lessOrEqual" value="0.5"/>
            <Node id="50">
             <SimplePredicate field="Saturn" operator="lessOrEqual" value="0.5"/>
             <Node id="68" score="10354.04">
              <SimplePredicate field="Sedan" operator="lessOrEqual" value="0.5"/>
             </Node>
             <Node id="69">
              <SimplePredicate field="Sedan" operator="greaterThan" value="0.5"/>
              <Node id="84" score="12426.0966666667">
               <SimplePredicate field="Mileage" operator="lessOrEqual" value="13261"/>
              </Node>
              <Node id="85" score="10619.6933333333">
               <SimplePredicate field="Mileage" operator="greaterThan" value="13261"/>
              </Node>
             </Node>
            </Node>
            <Node id="51" score="12753.0533333333">
             <SimplePredicate field="Saturn" operator="greaterThan" value="0.5"/>
            </Node>
           </Node>
           <Node id="37">
            <SimplePredicate field="Leather" operator="greaterThan" value="0.5"/>
            <Node id="52">
             <SimplePredicate field="Cylinder" operator="lessOrEqual" value="5"/>
             <Node id="70">
              <SimplePredicate field="Sedan" operator="lessOrEqual" value="0.5"/>
              <Node id="86" score="11057.0833333333">
               <SimplePredicate field="Coupe" operator="lessOrEqual" value="0.5"/>
              </Node>
              <Node id="87">
               <SimplePredicate field="Coupe" operator="greaterThan" value="0.5"/>
               <Node id="106" score="15139.06">
                <SimplePredicate field="Mileage" operator="lessOrEqual" value="9915.5"/>
               </Node>
               <Node id="107" score="12763.5255555556">
                <SimplePredicate field="Mileage" operator="greaterThan" value="9915.5"/>
               </Node>
              </Node>
             </Node>
             <Node id="71">
              <SimplePredicate field="Sedan" operator="greaterThan" value="0.5"/>
              <Node id="88" score="13897.8747619048">
               <SimplePredicate field="Mileage" operator="lessOrEqual" value="23955.5"/>
              </Node>
              <Node id="89" score="12017.2211111111">
               <SimplePredicate field="Mileage" operator="greaterThan" value="23955.5"/>
              </Node>
             </Node>
            </Node>
            <Node id="53">
             <SimplePredicate field="Cylinder" operator="greaterThan" value="5"/>
             <Node id="72">
              <SimplePredicate field="Mileage" operator="lessOrEqual" value="18104.5"/>
              <Node id="90" score="18696.16">
               <SimplePredicate field="Hatchback" operator="lessOrEqual" value="0.5"/>
              </Node>
              <Node id="91" score="18225.242">
               <SimplePredicate field="Hatchback" operator="greaterThan" value="0.5"/>
              </Node>
             </Node>
             <Node id="73">
              <SimplePredicate field="Mileage" operator="greaterThan" value="18104.5"/>
              <Node id="92">
               <SimplePredicate field="Mileage" operator="lessOrEqual" value="25269.5"/>
               <Node id="108" score="17173.94">
                <SimplePredicate field="Mileage" operator="lessOrEqual" value="19437.5"/>
               </Node>
               <Node id="109" score="16726.366">
                <SimplePredicate field="Mileage" operator="greaterThan" value="19437.5"/>
               </Node>
              </Node>
              <Node id="93" score="15915.068">
               <SimplePredicate field="Mileage" operator="greaterThan" value="25269.5"/>
              </Node>
             </Node>
            </Node>
           </Node>
          </Node>
         </Node>
         <Node id="15">
          <SimplePredicate field="Pontiac" operator="greaterThan" value="0.5"/>
          <Node id="24">
           <SimplePredicate field="Mileage" operator="lessOrEqual" value="10900"/>
           <Node id="38" score="17405.6814285714">
            <SimplePredicate field="Doors" operator="lessOrEqual" value="3"/>
           </Node>
           <Node id="39">
            <SimplePredicate field="Doors" operator="greaterThan" value="3"/>
            <Node id="54" score="15846.01">
             <SimplePredicate field="Wagon" operator="lessOrEqual" value="0.5"/>
            </Node>
            <Node id="55" score="16542.885">
             <SimplePredicate field="Wagon" operator="greaterThan" value="0.5"/>
            </Node>
           </Node>
          </Node>
          <Node id="25">
           <SimplePredicate field="Mileage" operator="greaterThan" value="10900"/>
           <Node id="40" score="15339.767037037">
            <SimplePredicate field="Coupe" operator="lessOrEqual" value="0.5"/>
           </Node>
           <Node id="41" score="13584.325">
            <SimplePredicate field="Coupe" operator="greaterThan" value="0.5"/>
           </Node>
          </Node>
         </Node>
        </Node>
        <Node id="9">
         <SimplePredicate field="Cruise" operator="greaterThan" value="0.5"/>
         <Node id="16">
          <SimplePredicate field="Saab" operator="lessOrEqual" value="0.5"/>
          <Node id="26">
           <SimplePredicate field="Cylinder" operator="lessOrEqual" value="5"/>
           <Node id="42">
            <SimplePredicate field="Wagon" operator="lessOrEqual" value="0.5"/>
            <Node id="56">
             <SimplePredicate field="Mileage" operator="lessOrEqual" value="18807"/>
             <Node id="74">
              <SimplePredicate field="Saturn" operator="lessOrEqual" value="0.5"/>
              <Node id="94">
               <SimplePredicate field="Hatchback" operator="lessOrEqual" value="0.5"/>
               <Node id="110">
                <SimplePredicate field="Pontiac" operator="lessOrEqual" value="0.5"/>
                <Node id="118" score="14817.5357142857">
                 <SimplePredicate field="Mileage" operator="lessOrEqual" value="6912"/>
                </Node>
                <Node id="119">
                 <SimplePredicate field="Mileage" operator="greaterThan" value="6912"/>
                 <Node id="124" score="11555.27">
                  <SimplePredicate field="Leather" operator="lessOrEqual" value="0.5"/>
                 </Node>
                 <Node id="125">
                  <SimplePredicate field="Leather" operator="greaterThan" value="0.5"/>
                  <Node id="128" score="13910.124">
                   <SimplePredicate field="Mileage" operator="lessOrEqual" value="12143"/>
                  </Node>
                  <Node id="129">
                   <SimplePredicate field="Mileage" operator="greaterThan" value="12143"/>
                   <Node id="130" score="14619.08">
                    <SimplePredicate field="Doors" operator="lessOrEqual" value="3"/>
                   </Node>
                   <Node id="131">
                    <SimplePredicate field="Doors" operator="greaterThan" value="3"/>
                    <Node id="132">
                     <SimplePredicate field="Mileage" operator="lessOrEqual" value="17599"/>
                     <Node id="134" score="15047">
                      <SimplePredicate field="Mileage" operator="lessOrEqual" value="13066.5"/>
                     </Node>
                     <Node id="135" score="15126.992">
                      <SimplePredicate field="Mileage" operator="greaterThan" value="13066.5"/>
                     </Node>
                    </Node>
                    <Node id="133" score="14226.3183333333">
                     <SimplePredicate field="Mileage" operator="greaterThan" value="17599"/>
                    </Node>
                   </Node>
                  </Node>
                 </Node>
                </Node>
               </Node>
               <Node id="111" score="15062.9866666667">
                <SimplePredicate field="Pontiac" operator="greaterThan" value="0.5"/>
               </Node>
              </Node>
              <Node id="95" score="10197">
               <SimplePredicate field="Hatchback" operator="greaterThan" value="0.5"/>
              </Node>
             </Node>
             <Node id="75" score="15098.905">
              <SimplePredicate field="Saturn" operator="greaterThan" value="0.5"/>
             </Node>
            </Node>
            <Node id="57">
             <SimplePredicate field="Mileage" operator="greaterThan" value="18807"/>
             <Node id="76">
              <SimplePredicate field="Coupe" operator="lessOrEqual" value="0.5"/>
              <Node id="96" score="10658.955">
               <SimplePredicate field="Sedan" operator="lessOrEqual" value="0.5"/>
              </Node>
              <Node id="97">
               <SimplePredicate field="Sedan" operator="greaterThan" value="0.5"/>
               <Node id="112">
                <SimplePredicate field="Mileage" operator="lessOrEqual" value="32766.5"/>
                <Node id="120" score="9563.79">
                 <SimplePredicate field="Mileage" operator="lessOrEqual" value="19544.5"/>
                </Node>
                <Node id="121">
                 <SimplePredicate field="Mileage" operator="greaterThan" value="19544.5"/>
                 <Node id="126" score="10447.875">
                  <SimplePredicate field="Sound" operator="lessOrEqual" value="0.5"/>
                 </Node>
                 <Node id="127" score="12893.0061111111">
                  <SimplePredicate field="Sound" operator="greaterThan" value="0.5"/>
                 </Node>
                </Node>
               </Node>
               <Node id="113" score="8870.95">
                <SimplePredicate field="Mileage" operator="greaterThan" value="32766.5"/>
               </Node>
              </Node>
             </Node>
             <Node id="77">
              <SimplePredicate field="Coupe" operator="greaterThan" value="0.5"/>
              <Node id="98">
               <SimplePredicate field="Mileage" operator="lessOrEqual" value="29119.5"/>
               <Node id="114" score="13518.24">
                <SimplePredicate field="Leather" operator="lessOrEqual" value="0.5"/>
               </Node>
               <Node id="115">
